{"learner":{"attributes":{"scikit_learn":"{\"_estimator_type\": \"regressor\"}"},"feature_names":["Ret_1d","Ret_5d","RSI","Trend_Signal","Vol_20d"],"feature_types":["float","float","float","int","float"],"gradient_booster":{"model":{"cats":{"enc":[],"feature_segments":[],"sorted_idx":[]},"gbtree_model_param":{"num_parallel_tree":"1","num_trees":"100"},"iteration_indptr":[0,1,2,3,4,5,6,7,8,9,10,11,12,13,14,15,16,17,18,19,20,21,22,23,24,25,26,27,28,29,30,31,32,33,34,35,36,37,38,39,40,41,42,43,44,45,46,47,48,49,50,51,52,53,54,55,56,57,58,59,60,61,62,63,64,65,66,67,68,69,70,71,72,73,74,75,76,77,78,79,80,81,82,83,84,85,86,87,88,89,90,91,92,93,94,95,96,97,98,99,100],"tree_info":[0,0,0,0,0,0,0,0,0,0,0,0,0,0,0,0,0,0,0,0,0,0,0,0,0,0,0,0,0,0,0,0,0,0,0,0,0,0,0,0,0,0,0,0,0,0,0,0,0,0,0,0,0,0,0,0,0,0,0,0,0,0,0,0,0,0,0,0,0,0,0,0,0,0,0,0,0,0,0,0,0,0,0,0,0,0,0,0,0,0,0,0,0,0,0,0,0,0,0,0],"trees":[{"base_weights":[6.5831535E-11,5.3841252E-2,-3.3721028E-4,3.8071952E-3,2.3089854E-4,-2.7740365E-2,1.279644E-4,-2.0583656E-3,-2.0107967E-4,-2.0924681E-5,6.24942E-4],"categories":[],"categories_nodes":[],"categories_segments":[],"categories_sizes":[],"default_left":[0,0,0,0,0,0,0,0,0,0,0],"id":0,"left_children":[1,3,5,-1,-1,7,9,-1,-1,-1,-1],"loss_changes":[8.751108E-3,2.9417984E-3,6.1094845E-3,0E0,0E0,2.3822067E-3,3.196028E-3,0E0,0E0,0E0,0E0],"parents":[2147483647,0,0,1,1,2,2,5,5,6,6],"right_children":[2,4,6,-1,-1,8,10,-1,-1,-1,-1],"split_conditions":[2.1568256E1,-4.8166998E-2,-7.647059E-2,3.8071952E-3,2.3089854E-4,1E0,2.8578391E-2,-2.0583656E-3,-2.0107967E-4,-2.0924681E-5,6.24942E-4],"split_indices":[2,0,1,0,0,3,0,0,0,0,0],"split_type":[0,0,0,0,0,0,0,0,0,0,0],"sum_hessian":[4.8E2,2E0,4.78E2,1E0,1E0,7E0,4.71E2,4E0,3E0,4.52E2,1.9E1],"tree_param":{"num_deleted":"0","num_feature":"5","num_nodes":"11","size_leaf_vector":"1"}},{"base_weights":[4.953661E-6,5.249522E-2,-3.2380573E-4,3.7120152E-3,2.2512609E-4,-2.6635777E-2,1.2284594E-4,-1.9760309E-3,-1.9353922E-4,-1.9880754E-5,5.952573E-4],"categories":[],"categories_nodes":[],"categories_segments":[],"categories_sizes":[],"default_left":[0,0,0,0,0,0,0,0,0,0,0],"id":1,"left_children":[1,3,5,-1,-1,7,9,-1,-1,-1,-1],"loss_changes":[8.317455E-3,2.7965475E-3,5.632617E-3,0E0,0E0,2.1936102E-3,2.899145E-3,0E0,0E0,0E0,0E0],"parents":[2147483647,0,0,1,1,2,2,5,5,6,6],"right_children":[2,4,6,-1,-1,8,10,-1,-1,-1,-1],"split_conditions":[2.1568256E1,-4.8166998E-2,-7.647059E-2,3.7120152E-3,2.2512609E-4,1E0,2.8578391E-2,-1.9760309E-3,-1.9353922E-4,-1.9880754E-5,5.952573E-4],"split_indices":[2,0,1,0,0,3,0,0,0,0,0],"split_type":[0,0,0,0,0,0,0,0,0,0,0],"sum_hessian":[4.8E2,2E0,4.78E2,1E0,1E0,7E0,4.71E2,4E0,3E0,4.52E2,1.9E1],"tree_param":{"num_deleted":"0","num_feature":"5","num_nodes":"11","size_leaf_vector":"1"}},{"base_weights":[9.576954E-6,5.1182836E-2,-3.1094364E-4,3.619215E-3,2.1949793E-4,-2.5575185E-2,1.1792264E-4,-1.8969898E-3,-1.862815E-4,-1.8888912E-5,5.669826E-4],"categories":[],"categories_nodes":[],"categories_segments":[],"categories_sizes":[],"default_left":[0,0,0,0,0,0,0,0,0,0,0],"id":2,"left_children":[1,3,5,-1,-1,7,9,-1,-1,-1,-1],"loss_changes":[7.9053175E-3,2.6584687E-3,5.1929723E-3,0E0,0E0,2.0199395E-3,2.6298407E-3,0E0,0E0,0E0,0E0],"parents":[2147483647,0,0,1,1,2,2,5,5,6,6],"right_children":[2,4,6,-1,-1,8,10,-1,-1,-1,-1],"split_conditions":[2.1568256E1,-4.8166998E-2,-7.647059E-2,3.619215E-3,2.1949793E-4,1E0,2.8578391E-2,-1.8969898E-3,-1.862815E-4,-1.8888912E-5,5.669826E-4],"split_indices":[2,0,1,0,0,3,0,0,0,0,0],"split_type":[0,0,0,0,0,0,0,0,0,0,0],"sum_hessian":[4.8E2,2E0,4.78E2,1E0,1E0,7E0,4.71E2,4E0,3E0,4.52E2,1.9E1],"tree_param":{"num_deleted":"0","num_feature":"5","num_nodes":"11","size_leaf_vector":"1"}},{"base_weights":[1.3887157E-5,4.990327E-2,-2.9860143E-4,3.5287347E-3,2.1401048E-4,-2.4556834E-2,1.1318771E-4,-1.82111E-3,-1.7929592E-4,-2.4375033E-5,4.3370947E-4],"categories":[],"categories_nodes":[],"categories_segments":[],"categories_sizes":[],"default_left":[0,0,0,0,0,0,0,0,0,0,0],"id":3,"left_children":[1,3,5,-1,-1,7,9,-1,-1,-1,-1],"loss_changes":[7.513625E-3,2.5272057E-3,4.787643E-3,0E0,0E0,1.8600142E-3,2.4314858E-3,0E0,0E0,0E0,0E0],"parents":[2147483647,0,0,1,1,2,2,5,5,6,6],"right_children":[2,4,6,-1,-1,8,10,-1,-1,-1,-1],"split_conditions":[2.1568256E1,-4.8166998E-2,-7.647059E-2,3.5287347E-3,2.1401048E-4,1E0,2.162037E-2,-1.82111E-3,-1.7929592E-4,-2.4375033E-5,4.3370947E-4],"split_indices":[2,0,1,0,0,3,0,0,0,0,0],"split_type":[0,0,0,0,0,0,0,0,0,0,0],"sum_hessian":[4.8E2,2E0,4.78E2,1E0,1E0,7E0,4.71E2,4E0,3E0,4.41E2,3E1],"tree_param":{"num_deleted":"0","num_feature":"5","num_nodes":"11","size_leaf_vector":"1"}},{"base_weights":[1.7666087E-5,4.8655685E-2,-2.8699305E-4,3.440516E-3,2.0866022E-4,-2.3579044E-2,1.0839554E-4,-1.7482657E-3,-1.7257234E-4,-1.7286664E-5,5.194497E-4],"categories":[],"categories_nodes":[],"categories_segments":[],"categories_sizes":[],"default_left":[0,0,0,0,0,0,0,0,0,0,0],"id":4,"left_children":[1,3,5,-1,-1,7,9,-1,-1,-1,-1],"loss_changes":[7.1414295E-3,2.4024253E-3,4.413864E-3,0E0,0E0,1.712745E-3,2.2072257E-3,0E0,0E0,0E0,0E0],"parents":[2147483647,0,0,1,1,2,2,5,5,6,6],"right_children":[2,4,6,-1,-1,8,10,-1,-1,-1,-1],"split_conditions":[2.1568256E1,-4.8166998E-2,-7.647059E-2,3.440516E-3,2.0866022E-4,1E0,2.8578391E-2,-1.7482657E-3,-1.7257234E-4,-1.7286664E-5,5.194497E-4],"split_indices":[2,0,1,0,0,3,0,0,0,0,0],"split_type":[0,0,0,0,0,0,0,0,0,0,0],"sum_hessian":[4.8E2,2E0,4.78E2,1E0,1E0,7E0,4.71E2,4E0,3E0,4.52E2,1.9E1],"tree_param":{"num_deleted":"0","num_feature":"5","num_nodes":"11","size_leaf_vector":"1"}},{"base_weights":[2.1420003E-5,4.7439292E-2,-2.7560513E-4,3.3545033E-3,2.0344372E-4,-2.2640197E-2,1.0403966E-4,-1.6783351E-3,-1.6610084E-4,-2.2296661E-5,3.971116E-4],"categories":[],"categories_nodes":[],"categories_segments":[],"categories_sizes":[],"default_left":[0,0,0,0,0,0,0,0,0,0,0],"id":5,"left_children":[1,3,5,-1,-1,7,9,-1,-1,-1,-1],"loss_changes":[6.7876223E-3,2.283806E-3,4.0693535E-3,0E0,0E0,1.5771324E-3,2.0382362E-3,0E0,0E0,0E0,0E0],"parents":[2147483647,0,0,1,1,2,2,5,5,6,6],"right_children":[2,4,6,-1,-1,8,10,-1,-1,-1,-1],"split_conditions":[2.1568256E1,-4.8166998E-2,-7.647059E-2,3.3545033E-3,2.0344372E-4,1E0,2.162037E-2,-1.6783351E-3,-1.6610084E-4,-2.2296661E-5,3.971116E-4],"split_indices":[2,0,1,0,0,3,0,0,0,0,0],"split_type":[0,0,0,0,0,0,0,0,0,0,0],"sum_hessian":[4.8E2,2E0,4.78E2,1E0,1E0,7E0,4.71E2,4E0,3E0,4.41E2,3E1],"tree_param":{"num_deleted":"0","num_feature":"5","num_nodes":"11","size_leaf_vector":"1"}},{"base_weights":[2.469075E-5,4.625331E-2,-2.6489285E-4,3.2706407E-3,1.9835762E-4,-2.173874E-2,9.963188E-5,-1.6112017E-3,-1.5987208E-4,-3.2858003E-5,2.6536113E-4],"categories":[],"categories_nodes":[],"categories_segments":[],"categories_sizes":[],"default_left":[0,0,0,0,0,0,0,0,0,0,0],"id":6,"left_children":[1,3,5,-1,-1,7,9,-1,-1,-1,-1],"loss_changes":[6.451423E-3,2.1710428E-3,3.7516574E-3,0E0,0E0,1.452253E-3,1.8636691E-3,0E0,0E0,0E0,0E0],"parents":[2147483647,0,0,1,1,2,2,5,5,6,6],"right_children":[2,4,6,-1,-1,8,10,-1,-1,-1,-1],"split_conditions":[2.1568256E1,-4.8166998E-2,-7.647059E-2,3.2706407E-3,1.9835762E-4,1E0,1.6479895E-2,-1.6112017E-3,-1.5987208E-4,-3.2858003E-5,2.6536113E-4],"split_indices":[2,0,1,0,0,3,0,0,0,0,0],"split_type":[0,0,0,0,0,0,0,0,0,0,0],"sum_hessian":[4.8E2,2E0,4.78E2,1E0,1E0,7E0,4.71E2,4E0,3E0,4.12E2,5.9E1],"tree_param":{"num_deleted":"0","num_feature":"5","num_nodes":"11","size_leaf_vector":"1"}},{"base_weights":[2.7469521E-5,4.509698E-2,-2.5486032E-4,3.1888746E-3,1.9339868E-4,-2.0873187E-2,9.5142816E-5,-1.5467535E-3,-1.5387688E-4,-1.5498446E-5,4.6330836E-4],"categories":[],"categories_nodes":[],"categories_segments":[],"categories_sizes":[],"default_left":[0,0,0,0,0,0,0,0,0,0,0],"id":7,"left_children":[1,3,5,-1,-1,7,9,-1,-1,-1,-1],"loss_changes":[6.131962E-3,2.0638476E-3,3.4586794E-3,0E0,0E0,1.3372579E-3,1.7564887E-3,0E0,0E0,0E0,0E0],"parents":[2147483647,0,0,1,1,2,2,5,5,6,6],"right_children":[2,4,6,-1,-1,8,10,-1,-1,-1,-1],"split_conditions":[2.1568256E1,-4.8166998E-2,-7.647059E-2,3.1888746E-3,1.9339868E-4,1E0,2.8578391E-2,-1.5467535E-3,-1.5387688E-4,-1.5498446E-5,4.6330836E-4],"split_indices":[2,0,1,0,0,3,0,0,0,0,0],"split_type":[0,0,0,0,0,0,0,0,0,0,0],"sum_hessian":[4.8E2,2E0,4.78E2,1E0,1E0,7E0,4.71E2,4E0,3E0,4.52E2,1.9E1],"tree_param":{"num_deleted":"0","num_feature":"5","num_nodes":"11","size_leaf_vector":"1"}},{"base_weights":[3.0523246E-5,4.3969553E-2,-2.4473274E-4,3.109153E-3,1.8856372E-4,-2.0042107E-2,9.133449E-5,-1.4848834E-3,-1.4810651E-4,-3.0446032E-5,2.454951E-4],"categories":[],"categories_nodes":[],"categories_segments":[],"categories_sizes":[],"default_left":[0,0,0,0,0,0,0,0,0,0,0],"id":8,"left_children":[1,3,5,-1,-1,7,9,-1,-1,-1,-1],"loss_changes":[5.828206E-3,1.961945E-3,3.1887365E-3,0E0,0E0,1.2313658E-3,1.5956247E-3,0E0,0E0,0E0,0E0],"parents":[2147483647,0,0,1,1,2,2,5,5,6,6],"right_children":[2,4,6,-1,-1,8,10,-1,-1,-1,-1],"split_conditions":[2.1568256E1,-4.8166998E-2,-7.647059E-2,3.109153E-3,1.8856372E-4,1E0,1.6479895E-2,-1.4848834E-3,-1.4810651E-4,-3.0446032E-5,2.454951E-4],"split_indices":[2,0,1,0,0,3,0,0,0,0,0],"split_type":[0,0,0,0,0,0,0,0,0,0,0],"sum_hessian":[4.8E2,2E0,4.78E2,1E0,1E0,7E0,4.71E2,4E0,3E0,4.12E2,5.9E1],"tree_param":{"num_deleted":"0","num_feature":"5","num_nodes":"11","size_leaf_vector":"1"}},{"base_weights":[3.2905078E-5,4.2870317E-2,-2.3545638E-4,3.031424E-3,1.8384962E-4,-1.3745863E-3,-5.9174586E-6,-1.042826E-3,6.303043E-6],"categories":[],"categories_nodes":[],"categories_segments":[],"categories_sizes":[],"default_left":[0,0,0,0,0,0,0,0,0],"id":9,"left_children":[1,3,5,-1,-1,-1,7,-1,-1],"loss_changes":[5.539627E-3,1.865074E-3,2.9966405E-3,0E0,0E0,0E0,1.312499E-3,0E0,0E0],"parents":[2147483647,0,0,1,1,2,2,6,6],"right_children":[2,4,6,-1,-1,-1,8,-1,-1],"split_conditions":[2.1568256E1,-4.8166998E-2,-4.8166998E-2,3.031424E-3,1.8384962E-4,-1.3745863E-3,-1.08995914E-1,-1.042826E-3,6.303043E-6],"split_indices":[2,0,0,0,0,0,1,0,0],"split_type":[0,0,0,0,0,0,0,0,0],"sum_hessian":[4.8E2,2E0,4.78E2,1E0,1E0,3E0,4.75E2,2E0,4.73E2],"tree_param":{"num_deleted":"0","num_feature":"5","num_nodes":"9","size_leaf_vector":"1"}},{"base_weights":[3.293169E-5,4.1798558E-2,-2.2871718E-4,2.9556386E-3,1.7925339E-4,-1.3230392E-3,-7.799154E-6,-1.0080651E-3,5.9885556E-6],"categories":[],"categories_nodes":[],"categories_segments":[],"categories_sizes":[],"default_left":[0,0,0,0,0,0,0,0,0],"id":10,"left_children":[1,3,5,-1,-1,-1,7,-1,-1],"loss_changes":[5.265894E-3,1.7729863E-3,2.7756637E-3,0E0,0E0,0E0,1.2262048E-3,0E0,0E0],"parents":[2147483647,0,0,1,1,2,2,6,6],"right_children":[2,4,6,-1,-1,-1,8,-1,-1],"split_conditions":[2.1568256E1,-4.8166998E-2,-4.8166998E-2,2.9556386E-3,1.7925339E-4,-1.3230392E-3,-1.08995914E-1,-1.0080651E-3,5.9885556E-6],"split_indices":[2,0,0,0,0,0,1,0,0],"split_type":[0,0,0,0,0,0,0,0,0],"sum_hessian":[4.8E2,2E0,4.78E2,1E0,1E0,3E0,4.75E2,2E0,4.73E2],"tree_param":{"num_deleted":"0","num_feature":"5","num_nodes":"9","size_leaf_vector":"1"}},{"base_weights":[3.2968546E-5,4.0753596E-2,-2.2213551E-4,2.8817474E-3,1.7477204E-4,-1.8061606E-2,8.069903E-5,-1.3305178E-3,-1.4301343E-4,-1.4738696E-5,4.2905632E-4],"categories":[],"categories_nodes":[],"categories_segments":[],"categories_sizes":[],"default_left":[0,0,0,0,0,0,0,0,0,0,0],"id":11,"left_children":[1,3,5,-1,-1,7,9,-1,-1,-1,-1],"loss_changes":[5.005679E-3,1.6854447E-3,2.589211E-3,0E0,0E0,9.635065E-4,1.5090026E-3,0E0,0E0,0E0,0E0],"parents":[2147483647,0,0,1,1,2,2,5,5,6,6],"right_children":[2,4,6,-1,-1,8,10,-1,-1,-1,-1],"split_conditions":[2.1568256E1,-4.8166998E-2,-7.647059E-2,2.8817474E-3,1.7477204E-4,1E0,2.8578391E-2,-1.3305178E-3,-1.4301343E-4,-1.4738696E-5,4.2905632E-4],"split_indices":[2,0,1,0,0,3,0,0,0,0,0],"split_type":[0,0,0,0,0,0,0,0,0,0,0],"sum_hessian":[4.8E2,2E0,4.78E2,1E0,1E0,7E0,4.71E2,4E0,3E0,4.52E2,1.9E1],"tree_param":{"num_deleted":"0","num_feature":"5","num_nodes":"11","size_leaf_vector":"1"}},{"base_weights":[3.547258E-5,3.973475E-2,-2.1323997E-4,2.8097038E-3,1.7040274E-4,-1.2399781E-3,-6.1842497E-6,-3.0560754E-5,2.0218594E-4],"categories":[],"categories_nodes":[],"categories_segments":[],"categories_sizes":[],"default_left":[0,0,0,0,0,0,0,0,0],"id":12,"left_children":[1,3,5,-1,-1,-1,7,-1,-1],"loss_changes":[4.757727E-3,1.6022259E-3,2.4383103E-3,0E0,0E0,0E0,1.1688222E-3,0E0,0E0],"parents":[2147483647,0,0,1,1,2,2,6,6],"right_children":[2,4,6,-1,-1,-1,8,-1,-1],"split_conditions":[2.1568256E1,-4.8166998E-2,-4.8166998E-2,2.8097038E-3,1.7040274E-4,-1.2399781E-3,1.6479895E-2,-3.0560754E-5,2.0218594E-4],"split_indices":[2,0,0,0,0,0,0,0,0],"split_type":[0,0,0,0,0,0,0,0,0],"sum_hessian":[4.8E2,2E0,4.78E2,1E0,1E0,3E0,4.75E2,4.14E2,6.1E1],"tree_param":{"num_deleted":"0","num_feature":"5","num_nodes":"9","size_leaf_vector":"1"}},{"base_weights":[3.7673464E-5,3.8741384E-2,-2.0480838E-4,2.7394611E-3,1.661427E-4,-1.707181E-2,8.150691E-5,-1.2542139E-3,-1.3941375E-4,-1.3372812E-5,3.9907233E-4],"categories":[],"categories_nodes":[],"categories_segments":[],"categories_sizes":[],"default_left":[0,0,0,0,0,0,0,0,0,0,0],"id":13,"left_children":[1,3,5,-1,-1,7,9,-1,-1,-1,-1],"loss_changes":[4.522094E-3,1.5231161E-3,2.314617E-3,0E0,0E0,8.456288E-4,1.3033383E-3,0E0,0E0,0E0,0E0],"parents":[2147483647,0,0,1,1,2,2,5,5,6,6],"right_children":[2,4,6,-1,-1,8,10,-1,-1,-1,-1],"split_conditions":[2.1568256E1,-4.8166998E-2,-7.647059E-2,2.7394611E-3,1.661427E-4,1E0,2.8578391E-2,-1.2542139E-3,-1.3941375E-4,-1.3372812E-5,3.9907233E-4],"split_indices":[2,0,1,0,0,3,0,0,0,0,0],"split_type":[0,0,0,0,0,0,0,0,0,0,0],"sum_hessian":[4.8E2,2E0,4.78E2,1E0,1E0,7E0,4.71E2,4E0,3E0,4.52E2,1.9E1],"tree_param":{"num_deleted":"0","num_feature":"5","num_nodes":"11","size_leaf_vector":"1"}},{"base_weights":[3.9735267E-5,3.777285E-2,-1.96672E-4,2.6709747E-3,1.6198911E-4,-1.1619565E-3,-2.6247428E-6,1.6078226E-4,-3.452463E-5],"categories":[],"categories_nodes":[],"categories_segments":[],"categories_sizes":[],"default_left":[0,0,0,0,0,0,0,0,0],"id":14,"left_children":[1,3,5,-1,-1,-1,7,-1,-1],"loss_changes":[4.298133E-3,1.4479123E-3,2.1417036E-3,0E0,0E0,0E0,1.0559626E-3,0E0,0E0],"parents":[2147483647,0,0,1,1,2,2,6,6],"right_children":[2,4,6,-1,-1,-1,8,-1,-1],"split_conditions":[2.1568256E1,-4.8166998E-2,-4.8166998E-2,2.6709747E-3,1.6198911E-4,-1.1619565E-3,4.18593E1,1.6078226E-4,-3.452463E-5],"split_indices":[2,0,0,0,0,0,2,0,0],"split_type":[0,0,0,0,0,0,0,0,0],"sum_hessian":[4.8E2,2E0,4.78E2,1E0,1E0,3E0,4.75E2,8.3E1,3.92E2],"tree_param":{"num_deleted":"0","num_feature":"5","num_nodes":"9","size_leaf_vector":"1"}},{"base_weights":[4.1484887E-5,3.682853E-2,-1.8900074E-4,2.6042003E-3,1.5793939E-4,-1.6178008E-2,8.239982E-5,-1.1820687E-3,-1.4021507E-4,-1.7038607E-5,3.0566772E-4],"categories":[],"categories_nodes":[],"categories_segments":[],"categories_sizes":[],"default_left":[0,0,0,0,0,0,0,0,0,0,0],"id":15,"left_children":[1,3,5,-1,-1,7,9,-1,-1,-1,-1],"loss_changes":[4.085304E-3,1.3764221E-3,2.079918E-3,0E0,0E0,7.322051E-4,1.2066889E-3,0E0,0E0,0E0,0E0],"parents":[2147483647,0,0,1,1,2,2,5,5,6,6],"right_children":[2,4,6,-1,-1,8,10,-1,-1,-1,-1],"split_conditions":[2.1568256E1,-4.8166998E-2,-7.647059E-2,2.6042003E-3,1.5793939E-4,1E0,2.162037E-2,-1.1820687E-3,-1.4021507E-4,-1.7038607E-5,3.0566772E-4],"split_indices":[2,0,1,0,0,3,0,0,0,0,0],"split_type":[0,0,0,0,0,0,0,0,0,0,0],"sum_hessian":[4.8E2,2E0,4.78E2,1E0,1E0,7E0,4.71E2,4E0,3E0,4.41E2,3E1],"tree_param":{"num_deleted":"0","num_feature":"5","num_nodes":"11","size_leaf_vector":"1"}},{"base_weights":[4.3004253E-5,3.5907816E-2,-1.8170856E-4,2.5390952E-3,1.5399091E-4,-1.55343935E-2,7.889141E-5,-1.1347859E-3,-1.34957E-4,1.6423479E-4,-3.4250075E-5],"categories":[],"categories_nodes":[],"categories_segments":[],"categories_sizes":[],"default_left":[0,0,0,0,0,0,0,0,0,0,0],"id":16,"left_children":[1,3,5,-1,-1,7,9,-1,-1,-1,-1],"loss_changes":[3.8830396E-3,1.308461E-3,1.917661E-3,0E0,0E0,6.7408034E-4,1.1581266E-3,0E0,0E0,0E0,0E0],"parents":[2147483647,0,0,1,1,2,2,5,5,6,6],"right_children":[2,4,6,-1,-1,8,10,-1,-1,-1,-1],"split_conditions":[2.1568256E1,-4.8166998E-2,-7.647059E-2,2.5390952E-3,1.5399091E-4,1E0,4.3111443E1,-1.1347859E-3,-1.34957E-4,1.6423479E-4,-3.4250075E-5],"split_indices":[2,0,1,0,0,3,2,0,0,0,0],"split_type":[0,0,0,0,0,0,0,0,0,0,0],"sum_hessian":[4.8E2,2E0,4.78E2,1E0,1E0,7E0,4.71E2,4E0,3E0,9E1,3.81E2],"tree_param":{"num_deleted":"0","num_feature":"5","num_nodes":"11","size_leaf_vector":"1"}},{"base_weights":[4.4083277E-5,3.5010118E-2,-1.7500271E-4,2.475618E-3,1.5014113E-4,-2.124603E-2,2.4324013E-6,-2.9779715E-4,-1.2178707E-3,-2.7520951E-5,1.8514655E-4],"categories":[],"categories_nodes":[],"categories_segments":[],"categories_sizes":[],"default_left":[0,0,0,0,0,0,0,0,0,0,0],"id":17,"left_children":[1,3,5,-1,-1,7,9,-1,-1,-1,-1],"loss_changes":[3.6908602E-3,1.2438551E-3,1.7909084E-3,0E0,0E0,4.5221765E-5,9.758513E-4,0E0,0E0,0E0,0E0],"parents":[2147483647,0,0,1,1,2,2,5,5,6,6],"right_children":[2,4,6,-1,-1,8,10,-1,-1,-1,-1],"split_conditions":[2.1568256E1,-4.8166998E-2,-4.8166998E-2,2.475618E-3,1.5014113E-4,-1.08995914E-1,1.6479895E-2,-2.9779715E-4,-1.2178707E-3,-2.7520951E-5,1.8514655E-4],"split_indices":[2,0,0,0,0,1,0,0,0,0,0],"split_type":[0,0,0,0,0,0,0,0,0,0,0],"sum_hessian":[4.8E2,2E0,4.78E2,1E0,1E0,3E0,4.75E2,1E0,2E0,4.14E2,6.1E1],"tree_param":{"num_deleted":"0","num_feature":"5","num_nodes":"11","size_leaf_vector":"1"}},{"base_weights":[4.4514836E-5,3.4134865E-2,-1.690876E-4,2.4137273E-3,1.463876E-4,-1.4762899E-2,7.862338E-5,-3.2179113E-4,-1.3248044E-3,1.4631743E-4,-3.5716712E-5],"categories":[],"categories_nodes":[],"categories_segments":[],"categories_sizes":[],"default_left":[0,0,0,0,0,0,0,0,0,0,0],"id":18,"left_children":[1,3,5,-1,-1,7,9,-1,-1,-1,-1],"loss_changes":[3.508309E-3,1.18244E-3,1.7327684E-3,0E0,0E0,6.1110104E-4,1.0679255E-3,0E0,0E0,0E0,0E0],"parents":[2147483647,0,0,1,1,2,2,5,5,6,6],"right_children":[2,4,6,-1,-1,8,10,-1,-1,-1,-1],"split_conditions":[2.1568256E1,-4.8166998E-2,-7.647059E-2,2.4137273E-3,1.463876E-4,-9.229396E-2,4.4152428E1,-3.2179113E-4,-1.3248044E-3,1.4631743E-4,-3.5716712E-5],"split_indices":[2,0,1,0,0,1,2,0,0,0,0],"split_type":[0,0,0,0,0,0,0,0,0,0,0],"sum_hessian":[4.8E2,2E0,4.78E2,1E0,1E0,7E0,4.71E2,5E0,2E0,1.02E2,3.69E2],"tree_param":{"num_deleted":"0","num_feature":"5","num_nodes":"11","size_leaf_vector":"1"}},{"base_weights":[4.4418193E-5,3.3281498E-2,-1.6383996E-4,2.3533844E-3,1.427279E-4,-2.0187577E-2,4.770946E-6,-2.8230745E-4,-1.1576335E-3,-2.6269825E-5,1.7766978E-4],"categories":[],"categories_nodes":[],"categories_segments":[],"categories_sizes":[],"default_left":[0,0,0,0,0,0,0,0,0,0,0],"id":19,"left_children":[1,3,5,-1,-1,7,9,-1,-1,-1,-1],"loss_changes":[3.3348831E-3,1.1240572E-3,1.6173058E-3,0E0,0E0,4.174339E-5,8.9739676E-4,0E0,0E0,0E0,0E0],"parents":[2147483647,0,0,1,1,2,2,5,5,6,6],"right_children":[2,4,6,-1,-1,8,10,-1,-1,-1,-1],"split_conditions":[2.1568256E1,-4.8166998E-2,-4.8166998E-2,2.3533844E-3,1.427279E-4,-1.08995914E-1,1.6479895E-2,-2.8230745E-4,-1.1576335E-3,-2.6269825E-5,1.7766978E-4],"split_indices":[2,0,0,0,0,1,0,0,0,0,0],"split_type":[0,0,0,0,0,0,0,0,0,0,0],"sum_hessian":[4.8E2,2E0,4.78E2,1E0,1E0,3E0,4.75E2,1E0,2E0,4.14E2,6.1E1],"tree_param":{"num_deleted":"0","num_feature":"5","num_nodes":"11","size_leaf_vector":"1"}},{"base_weights":[4.4707715E-5,3.2449458E-2,-1.5833814E-4,2.2945497E-3,1.3915972E-4,-1.4085153E-2,7.8045035E-5,-1.0400269E-3,-1.0848171E-4,-1.1449492E-5,3.5142415E-4],"categories":[],"categories_nodes":[],"categories_segments":[],"categories_sizes":[],"default_left":[0,0,0,0,0,0,0,0,0,0,0],"id":20,"left_children":[1,3,5,-1,-1,7,9,-1,-1,-1,-1],"loss_changes":[3.1699496E-3,1.0685574E-3,1.5779983E-3,0E0,0E0,5.9500895E-4,1.0088701E-3,0E0,0E0,0E0,0E0],"parents":[2147483647,0,0,1,1,2,2,5,5,6,6],"right_children":[2,4,6,-1,-1,8,10,-1,-1,-1,-1],"split_conditions":[2.1568256E1,-4.8166998E-2,-7.647059E-2,2.2945497E-3,1.3915972E-4,1E0,2.8578391E-2,-1.0400269E-3,-1.0848171E-4,-1.1449492E-5,3.5142415E-4],"split_indices":[2,0,1,0,0,3,0,0,0,0,0],"split_type":[0,0,0,0,0,0,0,0,0,0,0],"sum_hessian":[4.8E2,2E0,4.78E2,1E0,1E0,7E0,4.71E2,4E0,3E0,4.52E2,1.9E1],"tree_param":{"num_deleted":"0","num_feature":"5","num_nodes":"11","size_leaf_vector":"1"}},{"base_weights":[4.5851117E-5,3.163822E-2,-1.5210913E-4,2.2371858E-3,1.3568072E-4,-1.3524459E-2,7.486313E-5,-2.8074527E-4,-1.2417707E-3,1.6229406E-4,-2.9517501E-5],"categories":[],"categories_nodes":[],"categories_segments":[],"categories_sizes":[],"default_left":[0,0,0,0,0,0,0,0,0,0,0],"id":21,"left_children":[1,3,5,-1,-1,7,9,-1,-1,-1,-1],"loss_changes":[3.0130027E-3,1.0157966E-3,1.4548504E-3,0E0,0E0,5.762683E-4,9.975543E-4,0E0,0E0,0E0,0E0],"parents":[2147483647,0,0,1,1,2,2,5,5,6,6],"right_children":[2,4,6,-1,-1,8,10,-1,-1,-1,-1],"split_conditions":[2.1568256E1,-4.8166998E-2,-7.647059E-2,2.2371858E-3,1.3568072E-4,-9.229396E-2,4.2108425E1,-2.8074527E-4,-1.2417707E-3,1.6229406E-4,-2.9517501E-5],"split_indices":[2,0,1,0,0,1,2,0,0,0,0],"split_type":[0,0,0,0,0,0,0,0,0,0,0],"sum_hessian":[4.8E2,2E0,4.78E2,1E0,1E0,7E0,4.71E2,5E0,2E0,8.1E1,3.9E2],"tree_param":{"num_deleted":"0","num_feature":"5","num_nodes":"11","size_leaf_vector":"1"}},{"base_weights":[4.560243E-5,3.0847264E-2,-1.4740507E-4,2.1812562E-3,1.3228871E-4,-1.8675253E-2,8.600801E-6,-2.4223044E-4,-1.0835299E-3,1.3939191E-4,-2.9272827E-5],"categories":[],"categories_nodes":[],"categories_segments":[],"categories_sizes":[],"default_left":[0,0,0,0,0,0,0,0,0,0,0],"id":22,"left_children":[1,3,5,-1,-1,7,9,-1,-1,-1,-1],"loss_changes":[2.8640688E-3,9.656418E-4,1.3846874E-3,0E0,0E0,6.0724677E-5,7.875206E-4,0E0,0E0,0E0,0E0],"parents":[2147483647,0,0,1,1,2,2,5,5,6,6],"right_children":[2,4,6,-1,-1,8,10,-1,-1,-1,-1],"split_conditions":[2.1568256E1,-4.8166998E-2,-4.8166998E-2,2.1812562E-3,1.3228871E-4,-1.08995914E-1,4.18593E1,-2.4223044E-4,-1.0835299E-3,1.3939191E-4,-2.9272827E-5],"split_indices":[2,0,0,0,0,1,2,0,0,0,0],"split_type":[0,0,0,0,0,0,0,0,0,0,0],"sum_hessian":[4.8E2,2E0,4.78E2,1E0,1E0,3E0,4.75E2,1E0,2E0,8.3E1,3.92E2],"tree_param":{"num_deleted":"0","num_feature":"5","num_nodes":"11","size_leaf_vector":"1"}},{"base_weights":[4.5604902E-5,3.0076085E-2,-1.4257264E-4,2.126725E-3,1.2898148E-4,-1.2938866E-2,7.461576E-5,-9.654293E-4,-8.710006E-5,-1.10144565E-5,3.3752402E-4],"categories":[],"categories_nodes":[],"categories_segments":[],"categories_sizes":[],"default_left":[0,0,0,0,0,0,0,0,0,0,0],"id":23,"left_children":[1,3,5,-1,-1,7,9,-1,-1,-1,-1],"loss_changes":[2.7224487E-3,9.179632E-4,1.3322054E-3,0E0,0E0,5.3693145E-4,9.3073474E-4,0E0,0E0,0E0,0E0],"parents":[2147483647,0,0,1,1,2,2,5,5,6,6],"right_children":[2,4,6,-1,-1,8,10,-1,-1,-1,-1],"split_conditions":[2.1568256E1,-4.8166998E-2,-7.647059E-2,2.126725E-3,1.2898148E-4,1E0,2.8578391E-2,-9.654293E-4,-8.710006E-5,-1.10144565E-5,3.3752402E-4],"split_indices":[2,0,1,0,0,3,0,0,0,0,0],"split_type":[0,0,0,0,0,0,0,0,0,0,0],"sum_hessian":[4.8E2,2E0,4.78E2,1E0,1E0,7E0,4.71E2,4E0,3E0,4.52E2,1.9E1],"tree_param":{"num_deleted":"0","num_feature":"5","num_nodes":"11","size_leaf_vector":"1"}},{"base_weights":[4.650483E-5,2.9324183E-2,-1.3695976E-4,2.0735569E-3,1.2575694E-4,-1.758746E-2,9.970845E-6,-2.1203897E-4,-1.0311381E-3,-2.389104E-5,1.6374335E-4],"categories":[],"categories_nodes":[],"categories_segments":[],"categories_sizes":[],"default_left":[0,0,0,0,0,0,0,0,0,0,0],"id":24,"left_children":[1,3,5,-1,-1,7,9,-1,-1,-1,-1],"loss_changes":[2.587668E-3,8.726388E-4,1.2283375E-3,0E0,0E0,7.458823E-5,7.5963716E-4,0E0,0E0,0E0,0E0],"parents":[2147483647,0,0,1,1,2,2,5,5,6,6],"right_children":[2,4,6,-1,-1,8,10,-1,-1,-1,-1],"split_conditions":[2.1568256E1,-4.8166998E-2,-4.8166998E-2,2.0735569E-3,1.2575694E-4,-1.08995914E-1,1.6479895E-2,-2.1203897E-4,-1.0311381E-3,-2.389104E-5,1.6374335E-4],"split_indices":[2,0,0,0,0,1,0,0,0,0,0],"split_type":[0,0,0,0,0,0,0,0,0,0,0],"sum_hessian":[4.8E2,2E0,4.78E2,1E0,1E0,3E0,4.75E2,1E0,2E0,4.14E2,6.1E1],"tree_param":{"num_deleted":"0","num_feature":"5","num_nodes":"11","size_leaf_vector":"1"}},{"base_weights":[4.6458255E-5,2.8591078E-2,-1.3241507E-4,2.0217178E-3,1.2261303E-4,-1.2300069E-2,7.4096904E-5,-2.4524628E-4,-1.1495167E-3,1.3166813E-4,-3.192738E-5],"categories":[],"categories_nodes":[],"categories_segments":[],"categories_sizes":[],"default_left":[0,0,0,0,0,0,0,0,0,0,0],"id":25,"left_children":[1,3,5,-1,-1,7,9,-1,-1,-1,-1],"loss_changes":[2.4597098E-3,8.295523E-4,1.2045263E-3,0E0,0E0,5.196824E-4,8.62537E-4,0E0,0E0,0E0,0E0],"parents":[2147483647,0,0,1,1,2,2,5,5,6,6],"right_children":[2,4,6,-1,-1,8,10,-1,-1,-1,-1],"split_conditions":[2.1568256E1,-4.8166998E-2,-7.647059E-2,2.0217178E-3,1.2261303E-4,-9.229396E-2,4.4152428E1,-2.4524628E-4,-1.1495167E-3,1.3166813E-4,-3.192738E-5],"split_indices":[2,0,1,0,0,1,2,0,0,0,0],"split_type":[0,0,0,0,0,0,0,0,0,0,0],"sum_hessian":[4.8E2,2E0,4.78E2,1E0,1E0,7E0,4.71E2,5E0,2E0,1.02E2,3.69E2],"tree_param":{"num_deleted":"0","num_feature":"5","num_nodes":"11","size_leaf_vector":"1"}},{"base_weights":[4.5901084E-5,2.7876303E-2,-1.2849788E-4,1.971175E-3,1.195477E-4,-1.1859411E-2,7.06034E-5,-8.969263E-4,-6.478322E-5,-1.3813548E-5,2.5070415E-4],"categories":[],"categories_nodes":[],"categories_segments":[],"categories_sizes":[],"default_left":[0,0,0,0,0,0,0,0,0,0,0],"id":26,"left_children":[1,3,5,-1,-1,7,9,-1,-1,-1,-1],"loss_changes":[2.33816E-3,7.8859343E-4,1.1196088E-3,0E0,0E0,4.905035E-4,8.1075483E-4,0E0,0E0,0E0,0E0],"parents":[2147483647,0,0,1,1,2,2,5,5,6,6],"right_children":[2,4,6,-1,-1,8,10,-1,-1,-1,-1],"split_conditions":[2.1568256E1,-4.8166998E-2,-7.647059E-2,1.971175E-3,1.195477E-4,1E0,2.162037E-2,-8.969263E-4,-6.478322E-5,-1.3813548E-5,2.5070415E-4],"split_indices":[2,0,1,0,0,3,0,0,0,0,0],"split_type":[0,0,0,0,0,0,0,0,0,0,0],"sum_hessian":[4.8E2,2E0,4.78E2,1E0,1E0,7E0,4.71E2,4E0,3E0,4.41E2,3E1],"tree_param":{"num_deleted":"0","num_feature":"5","num_nodes":"11","size_leaf_vector":"1"}},{"base_weights":[4.6445726E-5,2.7179394E-2,-1.235862E-4,1.9218955E-3,1.16559E-4,-1.6251191E-2,1.2199536E-5,-1.7818362E-4,-9.646237E-4,1.3094016E-4,-2.7248407E-5],"categories":[],"categories_nodes":[],"categories_segments":[],"categories_sizes":[],"default_left":[0,0,0,0,0,0,0,0,0,0,0],"id":27,"left_children":[1,3,5,-1,-1,7,9,-1,-1,-1,-1],"loss_changes":[2.2224365E-3,7.4965646E-4,1.0491598E-3,0E0,0E0,8.55932E-5,6.927292E-4,0E0,0E0,0E0,0E0],"parents":[2147483647,0,0,1,1,2,2,5,5,6,6],"right_children":[2,4,6,-1,-1,8,10,-1,-1,-1,-1],"split_conditions":[2.1568256E1,-4.8166998E-2,-4.8166998E-2,1.9218955E-3,1.16559E-4,-1.08995914E-1,4.18593E1,-1.7818362E-4,-9.646237E-4,1.3094016E-4,-2.7248407E-5],"split_indices":[2,0,0,0,0,1,2,0,0,0,0],"split_type":[0,0,0,0,0,0,0,0,0,0,0],"sum_hessian":[4.8E2,2E0,4.78E2,1E0,1E0,3E0,4.75E2,1E0,2E0,8.3E1,3.92E2],"tree_param":{"num_deleted":"0","num_feature":"5","num_nodes":"11","size_leaf_vector":"1"}},{"base_weights":[4.6201105E-5,2.649991E-2,-1.19576194E-4,1.8738483E-3,1.1364502E-4,-1.1305867E-2,7.027529E-5,-2.1308633E-4,-1.0812762E-3,-2.068468E-5,1.7002117E-4],"categories":[],"categories_nodes":[],"categories_segments":[],"categories_sizes":[],"default_left":[0,0,0,0,0,0,0,0,0,0,0],"id":28,"left_children":[1,3,5,-1,-1,7,9,-1,-1,-1,-1],"loss_changes":[2.1125579E-3,7.12642E-4,1.018063E-3,0E0,0E0,4.893829E-4,7.6212344E-4,0E0,0E0,0E0,0E0],"parents":[2147483647,0,0,1,1,2,2,5,5,6,6],"right_children":[2,4,6,-1,-1,8,10,-1,-1,-1,-1],"split_conditions":[2.1568256E1,-4.8166998E-2,-7.647059E-2,1.8738483E-3,1.1364502E-4,-9.229396E-2,1.6479895E-2,-2.1308633E-4,-1.0812762E-3,-2.068468E-5,1.7002117E-4],"split_indices":[2,0,1,0,0,1,0,0,0,0,0],"split_type":[0,0,0,0,0,0,0,0,0,0,0],"sum_hessian":[4.8E2,2E0,4.78E2,1E0,1E0,7E0,4.71E2,5E0,2E0,4.12E2,5.9E1],"tree_param":{"num_deleted":"0","num_feature":"5","num_nodes":"11","size_leaf_vector":"1"}},{"base_weights":[4.5642468E-5,2.583741E-2,-1.159879E-4,1.8270019E-3,1.1080389E-4,-1.0902368E-2,6.7077846E-5,-2.0420772E-4,-1.0452337E-3,1.2196746E-4,-2.9674628E-5],"categories":[],"categories_nodes":[],"categories_segments":[],"categories_sizes":[],"default_left":[0,0,0,0,0,0,0,0,0,0,0],"id":29,"left_children":[1,3,5,-1,-1,7,9,-1,-1,-1,-1],"loss_changes":[2.0081573E-3,6.7745545E-4,9.465728E-4,0E0,0E0,4.602049E-4,7.410964E-4,0E0,0E0,0E0,0E0],"parents":[2147483647,0,0,1,1,2,2,5,5,6,6],"right_children":[2,4,6,-1,-1,8,10,-1,-1,-1,-1],"split_conditions":[2.1568256E1,-4.8166998E-2,-7.647059E-2,1.8270019E-3,1.1080389E-4,-9.229396E-2,4.4152428E1,-2.0420772E-4,-1.0452337E-3,1.2196746E-4,-2.9674628E-5],"split_indices":[2,0,1,0,0,1,2,0,0,0,0],"split_type":[0,0,0,0,0,0,0,0,0,0,0],"sum_hessian":[4.8E2,2E0,4.78E2,1E0,1E0,7E0,4.71E2,5E0,2E0,1.02E2,3.69E2],"tree_param":{"num_deleted":"0","num_feature":"5","num_nodes":"11","size_leaf_vector":"1"}},{"base_weights":[4.498328E-5,2.5191477E-2,-1.1260432E-4,1.781327E-3,1.0803379E-4,-1.5113704E-2,1.3691899E-5,-1.6329666E-4,-8.9871575E-4,1.0766017E-5,-3.3277133E-4],"categories":[],"categories_nodes":[],"categories_segments":[],"categories_sizes":[],"default_left":[0,0,0,0,0,0,0,0,0,0,0],"id":30,"left_children":[1,3,5,-1,-1,7,9,-1,-1,-1,-1],"loss_changes":[1.9089316E-3,6.4400595E-4,9.0771174E-4,0E0,0E0,7.686461E-5,6.415026E-4,0E0,0E0,0E0,0E0],"parents":[2147483647,0,0,1,1,2,2,5,5,6,6],"right_children":[2,4,6,-1,-1,8,10,-1,-1,-1,-1],"split_conditions":[2.1568256E1,-4.8166998E-2,-4.8166998E-2,1.781327E-3,1.0803379E-4,-1.08995914E-1,8.187575E-2,-1.6329666E-4,-8.9871575E-4,1.0766017E-5,-3.3277133E-4],"split_indices":[2,0,0,0,0,1,1,0,0,0,0],"split_type":[0,0,0,0,0,0,0,0,0,0,0],"sum_hessian":[4.8E2,2E0,4.78E2,1E0,1E0,3E0,4.75E2,1E0,2E0,4.62E2,1.3E1],"tree_param":{"num_deleted":"0","num_feature":"5","num_nodes":"11","size_leaf_vector":"1"}},{"base_weights":[4.3784687E-5,2.4561688E-2,-1.09863526E-4,1.7367937E-3,1.0533295E-4,-1.0387408E-2,6.4564905E-5,-8.064694E-4,-3.0654126E-5,-9.850376E-6,2.992976E-4],"categories":[],"categories_nodes":[],"categories_segments":[],"categories_sizes":[],"default_left":[0,0,0,0,0,0,0,0,0,0,0],"id":31,"left_children":[1,3,5,-1,-1,7,9,-1,-1,-1,-1],"loss_changes":[1.8146889E-3,6.1220827E-4,8.59372E-4,0E0,0E0,4.391031E-4,7.3224655E-4,0E0,0E0,0E0,0E0],"parents":[2147483647,0,0,1,1,2,2,5,5,6,6],"right_children":[2,4,6,-1,-1,8,10,-1,-1,-1,-1],"split_conditions":[2.1568256E1,-4.8166998E-2,-7.647059E-2,1.7367937E-3,1.0533295E-4,1E0,2.8578391E-2,-8.064694E-4,-3.0654126E-5,-9.850376E-6,2.992976E-4],"split_indices":[2,0,1,0,0,3,0,0,0,0,0],"split_type":[0,0,0,0,0,0,0,0,0,0,0],"sum_hessian":[4.8E2,2E0,4.78E2,1E0,1E0,7E0,4.71E2,4E0,3E0,4.52E2,1.9E1],"tree_param":{"num_deleted":"0","num_feature":"5","num_nodes":"11","size_leaf_vector":"1"}},{"base_weights":[4.4286742E-5,2.3947647E-2,-1.0551361E-4,1.6933739E-3,1.0269962E-4,-1.4217824E-2,1.3298904E-5,-1.3905251E-4,-8.5515325E-4,1.8901583E-5,-1.7881526E-4],"categories":[],"categories_nodes":[],"categories_segments":[],"categories_sizes":[],"default_left":[0,0,0,0,0,0,0,0,0,0,0],"id":32,"left_children":[1,3,5,-1,-1,7,9,-1,-1,-1,-1],"loss_changes":[1.7248588E-3,5.8198045E-4,8.033375E-4,0E0,0E0,8.4426894E-5,6.2455307E-4,0E0,0E0,0E0,0E0],"parents":[2147483647,0,0,1,1,2,2,5,5,6,6],"right_children":[2,4,6,-1,-1,8,10,-1,-1,-1,-1],"split_conditions":[2.1568256E1,-4.8166998E-2,-4.8166998E-2,1.6933739E-3,1.0269962E-4,-1.08995914E-1,5.7424657E-2,-1.3905251E-4,-8.5515325E-4,1.8901583E-5,-1.7881526E-4],"split_indices":[2,0,0,0,0,1,1,0,0,0,0],"split_type":[0,0,0,0,0,0,0,0,0,0,0],"sum_hessian":[4.8E2,2E0,4.78E2,1E0,1E0,3E0,4.75E2,1E0,2E0,4.32E2,4.3E1],"tree_param":{"num_deleted":"0","num_feature":"5","num_nodes":"11","size_leaf_vector":"1"}},{"base_weights":[4.340703E-5,2.3348955E-2,-1.02647355E-4,1.6510396E-3,1.0013213E-4,-9.860216E-3,6.295263E-5,-1.7349579E-4,-9.677039E-4,-1.9783136E-5,1.6093529E-4],"categories":[],"categories_nodes":[],"categories_segments":[],"categories_sizes":[],"default_left":[0,0,0,0,0,0,0,0,0,0,0],"id":33,"left_children":[1,3,5,-1,-1,7,9,-1,-1,-1,-1],"loss_changes":[1.6396618E-3,5.532452E-4,7.7461445E-4,0E0,0E0,4.1819195E-4,6.8438816E-4,0E0,0E0,0E0,0E0],"parents":[2147483647,0,0,1,1,2,2,5,5,6,6],"right_children":[2,4,6,-1,-1,8,10,-1,-1,-1,-1],"split_conditions":[2.1568256E1,-4.8166998E-2,-7.647059E-2,1.6510396E-3,1.0013213E-4,-9.229396E-2,1.6479895E-2,-1.7349579E-4,-9.677039E-4,-1.9783136E-5,1.6093529E-4],"split_indices":[2,0,1,0,0,1,0,0,0,0,0],"split_type":[0,0,0,0,0,0,0,0,0,0,0],"sum_hessian":[4.8E2,2E0,4.78E2,1E0,1E0,7E0,4.71E2,5E0,2E0,4.12E2,5.9E1],"tree_param":{"num_deleted":"0","num_feature":"5","num_nodes":"11","size_leaf_vector":"1"}},{"base_weights":[4.2798303E-5,2.276523E-2,-9.960273E-5,1.6097635E-3,9.762882E-5,-1.3465239E-2,1.2922789E-5,-1.3123882E-4,-8.101901E-4,1.2284661E-4,-2.547469E-5],"categories":[],"categories_nodes":[],"categories_segments":[],"categories_sizes":[],"default_left":[0,0,0,0,0,0,0,0,0,0,0],"id":34,"left_children":[1,3,5,-1,-1,7,9,-1,-1,-1,-1],"loss_changes":[1.5586383E-3,5.259287E-4,7.205782E-4,0E0,0E0,7.621781E-5,6.090044E-4,0E0,0E0,0E0,0E0],"parents":[2147483647,0,0,1,1,2,2,5,5,6,6],"right_children":[2,4,6,-1,-1,8,10,-1,-1,-1,-1],"split_conditions":[2.1568256E1,-4.8166998E-2,-4.8166998E-2,1.6097635E-3,9.762882E-5,-1.08995914E-1,4.18593E1,-1.3123882E-4,-8.101901E-4,1.2284661E-4,-2.547469E-5],"split_indices":[2,0,0,0,0,1,2,0,0,0,0],"split_type":[0,0,0,0,0,0,0,0,0,0,0],"sum_hessian":[4.8E2,2E0,4.78E2,1E0,1E0,3E0,4.75E2,1E0,2E0,8.3E1,3.92E2],"tree_param":{"num_deleted":"0","num_feature":"5","num_nodes":"11","size_leaf_vector":"1"}},{"base_weights":[4.2453103E-5,2.21961E-2,-9.638488E-5,1.5695194E-3,9.518811E-5,-9.450415E-3,6.236222E-5,-7.413241E-4,-1.838645E-5,-9.210154E-6,2.821974E-4],"categories":[],"categories_nodes":[],"categories_segments":[],"categories_sizes":[],"default_left":[0,0,0,0,0,0,0,0,0,0,0],"id":35,"left_children":[1,3,5,-1,-1,7,9,-1,-1,-1,-1],"loss_changes":[1.4815836E-3,4.9996097E-4,7.118685E-4,0E0,0E0,3.8518087E-4,6.50618E-4,0E0,0E0,0E0,0E0],"parents":[2147483647,0,0,1,1,2,2,5,5,6,6],"right_children":[2,4,6,-1,-1,8,10,-1,-1,-1,-1],"split_conditions":[2.1568256E1,-4.8166998E-2,-7.647059E-2,1.5695194E-3,9.518811E-5,1E0,2.8578391E-2,-7.413241E-4,-1.838645E-5,-9.210154E-6,2.821974E-4],"split_indices":[2,0,1,0,0,3,0,0,0,0,0],"split_type":[0,0,0,0,0,0,0,0,0,0,0],"sum_hessian":[4.8E2,2E0,4.78E2,1E0,1E0,7E0,4.71E2,4E0,3E0,4.52E2,1.9E1],"tree_param":{"num_deleted":"0","num_feature":"5","num_nodes":"11","size_leaf_vector":"1"}},{"base_weights":[4.277959E-5,2.1641199E-2,-9.258165E-5,1.5302815E-3,9.2808405E-5,-9.072858E-3,5.982257E-5,-1.4919249E-4,-9.113294E-4,1.2984626E-4,-2.3620412E-5],"categories":[],"categories_nodes":[],"categories_segments":[],"categories_sizes":[],"default_left":[0,0,0,0,0,0,0,0,0,0,0],"id":36,"left_children":[1,3,5,-1,-1,7,9,-1,-1,-1,-1],"loss_changes":[1.4082498E-3,4.7527533E-4,6.561175E-4,0E0,0E0,3.9151183E-4,6.3857983E-4,0E0,0E0,0E0,0E0],"parents":[2147483647,0,0,1,1,2,2,5,5,6,6],"right_children":[2,4,6,-1,-1,8,10,-1,-1,-1,-1],"split_conditions":[2.1568256E1,-4.8166998E-2,-7.647059E-2,1.5302815E-3,9.2808405E-5,-9.229396E-2,4.2108425E1,-1.4919249E-4,-9.113294E-4,1.2984626E-4,-2.3620412E-5],"split_indices":[2,0,1,0,0,1,2,0,0,0,0],"split_type":[0,0,0,0,0,0,0,0,0,0,0],"sum_hessian":[4.8E2,2E0,4.78E2,1E0,1E0,7E0,4.71E2,5E0,2E0,8.1E1,3.9E2],"tree_param":{"num_deleted":"0","num_feature":"5","num_nodes":"11","size_leaf_vector":"1"}},{"base_weights":[4.203093E-5,2.1100167E-2,-8.994494E-5,1.4920244E-3,9.048819E-5,-1.24217E-2,1.3872216E-5,-1.0569487E-4,-7.576501E-4,8.789316E-6,-3.7744522E-4],"categories":[],"categories_nodes":[],"categories_segments":[],"categories_sizes":[],"default_left":[0,0,0,0,0,0,0,0,0,0,0],"id":37,"left_children":[1,3,5,-1,-1,7,9,-1,-1,-1,-1],"loss_changes":[1.3386767E-3,4.5180868E-4,6.1341096E-4,0E0,0E0,8.0583035E-5,5.8419857E-4,0E0,0E0,0E0,0E0],"parents":[2147483647,0,0,1,1,2,2,5,5,6,6],"right_children":[2,4,6,-1,-1,8,10,-1,-1,-1,-1],"split_conditions":[2.1568256E1,-4.8166998E-2,-4.8166998E-2,1.4920244E-3,9.048819E-5,-1.08995914E-1,7.6386795E1,-1.0569487E-4,-7.576501E-4,8.789316E-6,-3.7744522E-4],"split_indices":[2,0,0,0,0,1,2,0,0,0,0],"split_type":[0,0,0,0,0,0,0,0,0,0,0],"sum_hessian":[4.8E2,2E0,4.78E2,1E0,1E0,3E0,4.75E2,1E0,2E0,4.66E2,9E0],"tree_param":{"num_deleted":"0","num_feature":"5","num_nodes":"11","size_leaf_vector":"1"}},{"base_weights":[4.0658215E-5,2.0572664E-2,-8.80196E-5,1.4547239E-3,8.8225985E-5,-8.649356E-3,5.727427E-5,-1.4238832E-4,-8.684708E-4,-1.8745195E-5,1.5155731E-4],"categories":[],"categories_nodes":[],"categories_segments":[],"categories_sizes":[],"default_left":[0,0,0,0,0,0,0,0,0,0,0],"id":38,"left_children":[1,3,5,-1,-1,7,9,-1,-1,-1,-1],"loss_changes":[1.2726194E-3,4.295007E-4,5.963281E-4,0E0,0E0,3.552576E-4,6.0777075E-4,0E0,0E0,0E0,0E0],"parents":[2147483647,0,0,1,1,2,2,5,5,6,6],"right_children":[2,4,6,-1,-1,8,10,-1,-1,-1,-1],"split_conditions":[2.1568256E1,-4.8166998E-2,-7.647059E-2,1.4547239E-3,8.8225985E-5,-9.229396E-2,1.6479895E-2,-1.4238832E-4,-8.684708E-4,-1.8745195E-5,1.5155731E-4],"split_indices":[2,0,1,0,0,1,0,0,0,0,0],"split_type":[0,0,0,0,0,0,0,0,0,0,0],"sum_hessian":[4.8E2,2E0,4.78E2,1E0,1E0,7E0,4.71E2,5E0,2E0,4.12E2,5.9E1],"tree_param":{"num_deleted":"0","num_feature":"5","num_nodes":"11","size_leaf_vector":"1"}},{"base_weights":[4.0007577E-5,2.0058347E-2,-8.5451764E-5,1.4183557E-3,8.602033E-5,1.0229821E-4,-6.32874E-3,-1.04917435E-5,4.1793133E-4,1.5987008E-4,-4.6087257E-4],"categories":[],"categories_nodes":[],"categories_segments":[],"categories_sizes":[],"default_left":[0,0,0,0,0,0,0,0,0,0,0],"id":39,"left_children":[1,3,5,-1,-1,7,9,-1,-1,-1,-1],"loss_changes":[1.2097397E-3,4.0829403E-4,5.6212035E-4,0E0,0E0,1.20267E-3,4.1472766E-4,0E0,0E0,0E0,0E0],"parents":[2147483647,0,0,1,1,2,2,5,5,6,6],"right_children":[2,4,6,-1,-1,8,10,-1,-1,-1,-1],"split_conditions":[2.1568256E1,-4.8166998E-2,8.187575E-2,1.4183557E-3,8.602033E-5,2.8578391E-2,1.8226495E-2,-1.04917435E-5,4.1793133E-4,1.5987008E-4,-4.6087257E-4],"split_indices":[2,0,1,0,0,0,4,0,0,0,0],"split_type":[0,0,0,0,0,0,0,0,0,0,0],"sum_hessian":[4.8E2,2E0,4.78E2,1E0,1E0,4.65E2,1.3E1,4.49E2,1.6E1,3E0,1E1],"tree_param":{"num_deleted":"0","num_feature":"5","num_nodes":"11","size_leaf_vector":"1"}},{"base_weights":[4.1356165E-5,1.955689E-2,-8.0956896E-5,1.3828969E-3,8.3869825E-5,-8.387619E-3,6.0005503E-5,-6.8053266E-4,1.1903898E-5,8.587953E-5,-3.5123212E-5],"categories":[],"categories_nodes":[],"categories_segments":[],"categories_sizes":[],"default_left":[0,0,0,0,0,0,0,0,0,0,0],"id":40,"left_children":[1,3,5,-1,-1,7,9,-1,-1,-1,-1],"loss_changes":[1.1497324E-3,3.881345E-4,5.613773E-4,0E0,0E0,3.6365882E-4,5.9774774E-4,0E0,0E0,0E0,0E0],"parents":[2147483647,0,0,1,1,2,2,5,5,6,6],"right_children":[2,4,6,-1,-1,8,10,-1,-1,-1,-1],"split_conditions":[2.1568256E1,-4.8166998E-2,-7.647059E-2,1.3828969E-3,8.3869825E-5,1E0,4.744461E1,-6.8053266E-4,1.1903898E-5,8.587953E-5,-3.5123212E-5],"split_indices":[2,0,1,0,0,3,2,0,0,0,0],"split_type":[0,0,0,0,0,0,0,0,0,0,0],"sum_hessian":[4.8E2,2E0,4.78E2,1E0,1E0,7E0,4.71E2,4E0,3E0,1.48E2,3.23E2],"tree_param":{"num_deleted":"0","num_feature":"5","num_nodes":"11","size_leaf_vector":"1"}},{"base_weights":[4.1053205E-5,1.9067967E-2,-7.819898E-5,1.3483245E-3,8.177308E-5,2.550416E-4,-3.378533E-3,-1.3053405E-5,2.2661139E-4,-9.605877E-4,-8.757127E-5],"categories":[],"categories_nodes":[],"categories_segments":[],"categories_sizes":[],"default_left":[0,0,0,0,0,0,0,0,0,0,0],"id":41,"left_children":[1,3,5,-1,-1,7,9,-1,-1,-1,-1],"loss_changes":[1.0928806E-3,3.6897045E-4,5.2766845E-4,0E0,0E0,9.6365204E-4,1.0998957E-3,0E0,0E0,0E0,0E0],"parents":[2147483647,0,0,1,1,2,2,5,5,6,6],"right_children":[2,4,6,-1,-1,8,10,-1,-1,-1,-1],"split_conditions":[2.1568256E1,-4.8166998E-2,5.7424657E-2,1.3483245E-3,8.177308E-5,1.6479895E-2,4.9438538E1,-1.3053405E-5,2.2661139E-4,-9.605877E-4,-8.757127E-5],"split_indices":[2,0,1,0,0,0,2,0,0,0,0],"split_type":[0,0,0,0,0,0,0,0,0,0,0],"sum_hessian":[4.8E2,2E0,4.78E2,1E0,1E0,4.35E2,4.3E1,3.89E2,4.6E1,3E0,4E1],"tree_param":{"num_deleted":"0","num_feature":"5","num_nodes":"11","size_leaf_vector":"1"}},{"base_weights":[4.0238614E-5,1.8591268E-2,-7.6031385E-5,1.3146164E-3,7.972876E-5,-8.10031E-3,6.0134436E-5,-1.2622413E-4,-8.275932E-4,1.21063495E-4,-2.1759677E-5],"categories":[],"categories_nodes":[],"categories_segments":[],"categories_sizes":[],"default_left":[0,0,0,0,0,0,0,0,0,0,0],"id":42,"left_children":[1,3,5,-1,-1,7,9,-1,-1,-1,-1],"loss_changes":[1.0388959E-3,3.507526E-4,5.238581E-4,0E0,0E0,3.3521035E-4,5.530749E-4,0E0,0E0,0E0,0E0],"parents":[2147483647,0,0,1,1,2,2,5,5,6,6],"right_children":[2,4,6,-1,-1,8,10,-1,-1,-1,-1],"split_conditions":[2.1568256E1,-4.8166998E-2,-7.647059E-2,1.3146164E-3,7.972876E-5,-9.229396E-2,4.2108425E1,-1.2622413E-4,-8.275932E-4,1.21063495E-4,-2.1759677E-5],"split_indices":[2,0,1,0,0,1,2,0,0,0,0],"split_type":[0,0,0,0,0,0,0,0,0,0,0],"sum_hessian":[4.8E2,2E0,4.78E2,1E0,1E0,7E0,4.71E2,5E0,2E0,8.1E1,3.9E2],"tree_param":{"num_deleted":"0","num_feature":"5","num_nodes":"11","size_leaf_vector":"1"}},{"base_weights":[3.9348957E-5,1.8126486E-2,-7.40138E-5,1.281751E-3,7.773554E-5,-1.1214408E-2,1.9758449E-5,-7.873531E-5,-6.95137E-4,1.740649E-5,-1.6060816E-4],"categories":[],"categories_nodes":[],"categories_segments":[],"categories_sizes":[],"default_left":[0,0,0,0,0,0,0,0,0,0,0],"id":43,"left_children":[1,3,5,-1,-1,7,9,-1,-1,-1,-1],"loss_changes":[9.875878E-4,3.334341E-4,5.0061365E-4,0E0,0E0,8.1766164E-5,5.0628296E-4,0E0,0E0,0E0,0E0],"parents":[2147483647,0,0,1,1,2,2,5,5,6,6],"right_children":[2,4,6,-1,-1,8,10,-1,-1,-1,-1],"split_conditions":[2.1568256E1,-4.8166998E-2,-4.8166998E-2,1.281751E-3,7.773554E-5,-1.08995914E-1,5.7424657E-2,-7.873531E-5,-6.95137E-4,1.740649E-5,-1.6060816E-4],"split_indices":[2,0,0,0,0,1,1,0,0,0,0],"split_type":[0,0,0,0,0,0,0,0,0,0,0],"sum_hessian":[4.8E2,2E0,4.78E2,1E0,1E0,3E0,4.75E2,1E0,2E0,4.32E2,4.3E1],"tree_param":{"num_deleted":"0","num_feature":"5","num_nodes":"11","size_leaf_vector":"1"}},{"base_weights":[3.8301303E-5,1.7673323E-2,-7.2227645E-5,1.2497072E-3,7.579215E-5,7.427388E-5,-6.9505763E-3,-4.585848E-6,4.8358543E-4,2.472248E-4,-4.4108197E-4],"categories":[],"categories_nodes":[],"categories_segments":[],"categories_sizes":[],"default_left":[0,0,0,0,0,0,0,0,0,0,0],"id":44,"left_children":[1,3,5,-1,-1,7,9,-1,-1,-1,-1],"loss_changes":[9.3883235E-4,3.169708E-4,4.8319908E-4,0E0,0E0,7.4963755E-4,2.6618288E-4,0E0,0E0,0E0,0E0],"parents":[2147483647,0,0,1,1,2,2,5,5,6,6],"right_children":[2,4,6,-1,-1,8,10,-1,-1,-1,-1],"split_conditions":[2.1568256E1,-4.8166998E-2,7.6386795E1,1.2497072E-3,7.579215E-5,7.52168E1,1.8061826E-2,-4.585848E-6,4.8358543E-4,2.472248E-4,-4.4108197E-4],"split_indices":[2,0,2,0,0,2,1,0,0,0,0],"split_type":[0,0,0,0,0,0,0,0,0,0,0],"sum_hessian":[4.8E2,2E0,4.78E2,1E0,1E0,4.69E2,9E0,4.62E2,7E0,1E0,8E0],"tree_param":{"num_deleted":"0","num_feature":"5","num_nodes":"11","size_leaf_vector":"1"}},{"base_weights":[3.9734747E-5,1.723149E-2,-6.802099E-5,1.2184645E-3,7.3897354E-5,-7.7246553E-3,6.189658E-5,-6.355492E-4,2.197096E-5,-1.3064323E-5,1.8283783E-4],"categories":[],"categories_nodes":[],"categories_segments":[],"categories_sizes":[],"default_left":[0,0,0,0,0,0,0,0,0,0,0],"id":45,"left_children":[1,3,5,-1,-1,7,9,-1,-1,-1,-1],"loss_changes":[8.922296E-4,3.0132022E-4,4.7695448E-4,0E0,0E0,3.3125555E-4,5.49324E-4,0E0,0E0,0E0,0E0],"parents":[2147483647,0,0,1,1,2,2,5,5,6,6],"right_children":[2,4,6,-1,-1,8,10,-1,-1,-1,-1],"split_conditions":[2.1568256E1,-4.8166998E-2,-7.647059E-2,1.2184645E-3,7.3897354E-5,1E0,2.1239497E-2,-6.355492E-4,2.197096E-5,-1.3064323E-5,1.8283783E-4],"split_indices":[2,0,1,0,0,3,4,0,0,0,0],"split_type":[0,0,0,0,0,0,0,0,0,0,0],"sum_hessian":[4.8E2,2E0,4.78E2,1E0,1E0,7E0,4.71E2,4E0,3E0,4.33E2,3.8E1],"tree_param":{"num_deleted":"0","num_feature":"5","num_nodes":"11","size_leaf_vector":"1"}},{"base_weights":[3.951221E-5,1.6800702E-2,-6.554641E-5,1.1880028E-3,7.204992E-5,-8.217877E-3,5.5239758E-5,-8.813261E-4,-4.6455683E-5,5.132313E-4,-7.124004E-6],"categories":[],"categories_nodes":[],"categories_segments":[],"categories_sizes":[],"default_left":[0,0,0,0,0,0,0,0,0,0,0],"id":46,"left_children":[1,3,5,-1,-1,7,9,-1,-1,-1,-1],"loss_changes":[8.480978E-4,2.8644252E-4,4.7211986E-4,0E0,0E0,4.6366474E-4,9.562595E-4,0E0,0E0,0E0,0E0],"parents":[2147483647,0,0,1,1,2,2,5,5,6,6],"right_children":[2,4,6,-1,-1,8,10,-1,-1,-1,-1],"split_conditions":[2.1568256E1,-4.8166998E-2,7.6192743E-3,1.1880028E-3,7.204992E-5,-5.95532E-3,8.46041E-3,-8.813261E-4,-4.6455683E-5,5.132313E-4,-7.124004E-6],"split_indices":[2,0,4,0,0,0,4,0,0,0,0],"split_type":[0,0,0,0,0,0,0,0,0,0,0],"sum_hessian":[4.8E2,2E0,4.78E2,1E0,1E0,6E0,4.72E2,2E0,4E0,8E0,4.64E2],"tree_param":{"num_deleted":"0","num_feature":"5","num_nodes":"11","size_leaf_vector":"1"}},{"base_weights":[3.927942E-5,1.6380684E-2,-6.3149586E-5,1.1583026E-3,7.024867E-5,-4.4283175E-4,2.4976616E-3,-7.901346E-5,5.650617E-5,2.0517265E-4,-4.4271807E-4],"categories":[],"categories_nodes":[],"categories_segments":[],"categories_sizes":[],"default_left":[0,0,0,0,0,0,0,0,0,0,0],"id":47,"left_children":[1,3,5,-1,-1,7,9,-1,-1,-1,-1],"loss_changes":[8.061485E-4,2.7229945E-4,4.6683504E-4,0E0,0E0,7.496456E-4,1.1665302E-3,0E0,0E0,0E0,0E0],"parents":[2147483647,0,0,1,1,2,2,5,5,6,6],"right_children":[2,4,6,-1,-1,8,10,-1,-1,-1,-1],"split_conditions":[2.1568256E1,-4.8166998E-2,1.6479895E-2,1.1583026E-3,7.024867E-5,5.7210148E1,7.264117E-2,-7.901346E-5,5.650617E-5,2.0517265E-4,-4.4271807E-4],"split_indices":[2,0,0,0,0,2,1,0,0,0,0],"split_type":[0,0,0,0,0,0,0,0,0,0,0],"sum_hessian":[4.8E2,2E0,4.78E2,1E0,1E0,4.17E2,6.1E1,2.42E2,1.75E2,5.4E1,7E0],"tree_param":{"num_deleted":"0","num_feature":"5","num_nodes":"11","size_leaf_vector":"1"}},{"base_weights":[3.9329032E-5,1.5971167E-2,-6.0534938E-5,1.129345E-3,6.849245E-5,-7.949237E-3,5.6339166E-5,-8.493149E-4,-4.68577E-5,4.894154E-4,-6.6071343E-6],"categories":[],"categories_nodes":[],"categories_segments":[],"categories_sizes":[],"default_left":[0,0,0,0,0,0,0,0,0,0,0],"id":48,"left_children":[1,3,5,-1,-1,7,9,-1,-1,-1,-1],"loss_changes":[7.6624576E-4,2.588547E-4,4.420787E-4,0E0,0E0,4.2766155E-4,8.6891715E-4,0E0,0E0,0E0,0E0],"parents":[2147483647,0,0,1,1,2,2,5,5,6,6],"right_children":[2,4,6,-1,-1,8,10,-1,-1,-1,-1],"split_conditions":[2.1568256E1,-4.8166998E-2,7.6192743E-3,1.129345E-3,6.849245E-5,-5.95532E-3,8.46041E-3,-8.493149E-4,-4.68577E-5,4.894154E-4,-6.6071343E-6],"split_indices":[2,0,4,0,0,0,4,0,0,0,0],"split_type":[0,0,0,0,0,0,0,0,0,0,0],"sum_hessian":[4.8E2,2E0,4.78E2,1E0,1E0,6E0,4.72E2,2E0,4E0,8E0,4.64E2],"tree_param":{"num_deleted":"0","num_feature":"5","num_nodes":"11","size_leaf_vector":"1"}},{"base_weights":[3.8993567E-5,1.5571888E-2,-5.83711E-5,1.1011114E-3,6.678015E-5,8.1829414E-5,-6.641958E-3,-3.6548067E-6,4.5189584E-4,2.4229095E-4,-4.228401E-4],"categories":[],"categories_nodes":[],"categories_segments":[],"categories_sizes":[],"default_left":[0,0,0,0,0,0,0,0,0,0,0],"id":49,"left_children":[1,3,5,-1,-1,7,9,-1,-1,-1,-1],"loss_changes":[7.2835176E-4,2.4607364E-4,4.4267112E-4,0E0,0E0,6.5279816E-4,2.494654E-4,0E0,0E0,0E0,0E0],"parents":[2147483647,0,0,1,1,2,2,5,5,6,6],"right_children":[2,4,6,-1,-1,8,10,-1,-1,-1,-1],"split_conditions":[2.1568256E1,-4.8166998E-2,7.6386795E1,1.1011114E-3,6.678015E-5,7.52168E1,1.8061826E-2,-3.6548067E-6,4.5189584E-4,2.4229095E-4,-4.228401E-4],"split_indices":[2,0,2,0,0,2,1,0,0,0,0],"split_type":[0,0,0,0,0,0,0,0,0,0,0],"sum_hessian":[4.8E2,2E0,4.78E2,1E0,1E0,4.69E2,9E0,4.62E2,7E0,1E0,8E0],"tree_param":{"num_deleted":"0","num_feature":"5","num_nodes":"11","size_leaf_vector":"1"}},{"base_weights":[4.0028433E-5,1.518259E-2,-5.4893724E-5,1.0735836E-3,6.5110646E-5,-7.401817E-3,6.9746704E-5,-1.0589506E-4,-7.751188E-4,8.297222E-5,-3.3076663E-5],"categories":[],"categories_nodes":[],"categories_segments":[],"categories_sizes":[],"default_left":[0,0,0,0,0,0,0,0,0,0,0],"id":50,"left_children":[1,3,5,-1,-1,7,9,-1,-1,-1,-1],"loss_changes":[6.922058E-4,2.3392384E-4,4.3914787E-4,0E0,0E0,3.0958888E-4,5.498044E-4,0E0,0E0,0E0,0E0],"parents":[2147483647,0,0,1,1,2,2,5,5,6,6],"right_children":[2,4,6,-1,-1,8,10,-1,-1,-1,-1],"split_conditions":[2.1568256E1,-4.8166998E-2,-7.647059E-2,1.0735836E-3,6.5110646E-5,-9.229396E-2,4.744461E1,-1.0589506E-4,-7.751188E-4,8.297222E-5,-3.3076663E-5],"split_indices":[2,0,1,0,0,1,2,0,0,0,0],"split_type":[0,0,0,0,0,0,0,0,0,0,0],"sum_hessian":[4.8E2,2E0,4.78E2,1E0,1E0,7E0,4.71E2,5E0,2E0,1.48E2,3.23E2],"tree_param":{"num_deleted":"0","num_feature":"5","num_nodes":"11","size_leaf_vector":"1"}},{"base_weights":[3.86664E-5,1.4803025E-2,-5.388421E-5,1.0467441E-3,6.348288E-5,-4.1866035E-4,2.4062821E-3,-7.569938E-5,5.4800843E-5,-3.6935162E-4,2.1043378E-4],"categories":[],"categories_nodes":[],"categories_segments":[],"categories_sizes":[],"default_left":[0,0,0,0,0,0,0,0,0,0,0],"id":51,"left_children":[1,3,5,-1,-1,7,9,-1,-1,-1,-1],"loss_changes":[6.5806025E-4,2.2237381E-4,4.308668E-4,0E0,0E0,6.9514953E-4,1.1254768E-3,0E0,0E0,0E0,0E0],"parents":[2147483647,0,0,1,1,2,2,5,5,6,6],"right_children":[2,4,6,-1,-1,8,10,-1,-1,-1,-1],"split_conditions":[2.1568256E1,-4.8166998E-2,1.6479895E-2,1.0467441E-3,6.348288E-5,5.7210148E1,-1.5040947E-2,-7.569938E-5,5.4800843E-5,-3.6935162E-4,2.1043378E-4],"split_indices":[2,0,0,0,0,2,1,0,0,0,0],"split_type":[0,0,0,0,0,0,0,0,0,0,0],"sum_hessian":[4.8E2,2E0,4.78E2,1E0,1E0,4.17E2,6.1E1,2.42E2,1.75E2,9E0,5.2E1],"tree_param":{"num_deleted":"0","num_feature":"5","num_nodes":"11","size_leaf_vector":"1"}},{"base_weights":[3.8667364E-5,1.4432948E-2,-5.1565432E-5,1.0205753E-3,6.1895815E-5,2.5385537E-4,-3.076836E-3,-9.523328E-7,3.709362E-4,-9.1620005E-4,-7.571314E-5],"categories":[],"categories_nodes":[],"categories_segments":[],"categories_sizes":[],"default_left":[0,0,0,0,0,0,0,0,0,0,0],"id":52,"left_children":[1,3,5,-1,-1,7,9,-1,-1,-1,-1],"loss_changes":[6.2548445E-4,2.113941E-4,4.4336772E-4,0E0,0E0,8.5265515E-4,1.0205442E-3,0E0,0E0,0E0,0E0],"parents":[2147483647,0,0,1,1,2,2,5,5,6,6],"right_children":[2,4,6,-1,-1,8,10,-1,-1,-1,-1],"split_conditions":[2.1568256E1,-4.8166998E-2,5.7424657E-2,1.0205753E-3,6.1895815E-5,4.732397E-2,4.9438538E1,-9.523328E-7,3.709362E-4,-9.1620005E-4,-7.571314E-5],"split_indices":[2,0,1,0,0,1,2,0,0,0,0],"split_type":[0,0,0,0,0,0,0,0,0,0,0],"sum_hessian":[4.8E2,2E0,4.78E2,1E0,1E0,4.35E2,4.3E1,4.2E2,1.5E1,3E0,4E1],"tree_param":{"num_deleted":"0","num_feature":"5","num_nodes":"11","size_leaf_vector":"1"}},{"base_weights":[3.7691432E-5,1.4072126E-2,-5.028559E-5,9.95061E-4,6.0348422E-5,-1.0193378E-2,3.505612E-5,-5.3789932E-5,-6.4369856E-4,7.5791664E-5,-3.3215398E-5],"categories":[],"categories_nodes":[],"categories_segments":[],"categories_sizes":[],"default_left":[0,0,0,0,0,0,0,0,0,0,0],"id":53,"left_children":[1,3,5,-1,-1,7,9,-1,-1,-1,-1],"loss_changes":[5.94602E-4,2.0095648E-4,4.1499356E-4,0E0,0E0,8.391228E-5,4.9395364E-4,0E0,0E0,0E0,0E0],"parents":[2147483647,0,0,1,1,2,2,5,5,6,6],"right_children":[2,4,6,-1,-1,8,10,-1,-1,-1,-1],"split_conditions":[2.1568256E1,-4.8166998E-2,-4.8166998E-2,9.95061E-4,6.0348422E-5,-1.08995914E-1,4.744461E1,-5.3789932E-5,-6.4369856E-4,7.5791664E-5,-3.3215398E-5],"split_indices":[2,0,0,0,0,1,2,0,0,0,0],"split_type":[0,0,0,0,0,0,0,0,0,0,0],"sum_hessian":[4.8E2,2E0,4.78E2,1E0,1E0,3E0,4.75E2,1E0,2E0,1.52E2,3.23E2],"tree_param":{"num_deleted":"0","num_feature":"5","num_nodes":"11","size_leaf_vector":"1"}},{"base_weights":[3.6639532E-5,1.37203215E-2,-4.9138518E-5,9.7018445E-4,5.8839705E-5,-7.6734642E-3,6.379894E-5,-8.236196E-4,-4.2970743E-5,4.6712646E-4,-5.7963293E-6],"categories":[],"categories_nodes":[],"categories_segments":[],"categories_sizes":[],"default_left":[0,0,0,0,0,0,0,0,0,0,0],"id":54,"left_children":[1,3,5,-1,-1,7,9,-1,-1,-1,-1],"loss_changes":[5.652526E-4,1.9103423E-4,4.1294302E-4,0E0,0E0,4.055377E-4,7.898695E-4,0E0,0E0,0E0,0E0],"parents":[2147483647,0,0,1,1,2,2,5,5,6,6],"right_children":[2,4,6,-1,-1,8,10,-1,-1,-1,-1],"split_conditions":[2.1568256E1,-4.8166998E-2,7.6192743E-3,9.7018445E-4,5.8839705E-5,-5.95532E-3,8.46041E-3,-8.236196E-4,-4.2970743E-5,4.6712646E-4,-5.7963293E-6],"split_indices":[2,0,4,0,0,0,4,0,0,0,0],"split_type":[0,0,0,0,0,0,0,0,0,0,0],"sum_hessian":[4.8E2,2E0,4.78E2,1E0,1E0,6E0,4.72E2,2E0,4E0,8E0,4.64E2],"tree_param":{"num_deleted":"0","num_feature":"5","num_nodes":"11","size_leaf_vector":"1"}},{"base_weights":[3.6104422E-5,1.33773135E-2,-4.7527585E-5,9.4592985E-4,5.7368703E-5,8.6975604E-5,-6.3644247E-3,-2.9859846E-6,4.283047E-4,2.3761904E-4,-4.063834E-4],"categories":[],"categories_nodes":[],"categories_segments":[],"categories_sizes":[],"default_left":[0,0,0,0,0,0,0,0,0,0,0],"id":55,"left_children":[1,3,5,-1,-1,7,9,-1,-1,-1,-1],"loss_changes":[5.373126E-4,1.816019E-4,4.0753247E-4,0E0,0E0,5.8511953E-4,2.3464207E-4,0E0,0E0,0E0,0E0],"parents":[2147483647,0,0,1,1,2,2,5,5,6,6],"right_children":[2,4,6,-1,-1,8,10,-1,-1,-1,-1],"split_conditions":[2.1568256E1,-4.8166998E-2,7.6386795E1,9.4592985E-4,5.7368703E-5,7.52168E1,1.8061826E-2,-2.9859846E-6,4.283047E-4,2.3761904E-4,-4.063834E-4],"split_indices":[2,0,2,0,0,2,1,0,0,0,0],"split_type":[0,0,0,0,0,0,0,0,0,0,0],"sum_hessian":[4.8E2,2E0,4.78E2,1E0,1E0,4.69E2,9E0,4.62E2,7E0,1E0,8E0],"tree_param":{"num_deleted":"0","num_feature":"5","num_nodes":"11","size_leaf_vector":"1"}},{"base_weights":[3.6918398E-5,1.3042879E-2,-4.4615637E-5,9.2228147E-4,5.5934488E-5,-3.9568922E-4,2.3230193E-3,6.6063854E-5,-6.419216E-5,-3.5461326E-4,2.0278287E-4],"categories":[],"categories_nodes":[],"categories_segments":[],"categories_sizes":[],"default_left":[0,0,0,0,0,0,0,0,0,0,0],"id":56,"left_children":[1,3,5,-1,-1,7,9,-1,-1,-1,-1],"loss_changes":[5.1064807E-4,1.7263525E-4,3.9907073E-4,0E0,0E0,6.3911726E-4,1.0401873E-3,0E0,0E0,0E0,0E0],"parents":[2147483647,0,0,1,1,2,2,5,5,6,6],"right_children":[2,4,6,-1,-1,8,10,-1,-1,-1,-1],"split_conditions":[2.1568256E1,-4.8166998E-2,1.6479895E-2,9.2228147E-4,5.5934488E-5,4.744461E1,-1.5040947E-2,6.6063854E-5,-6.419216E-5,-3.5461326E-4,2.0278287E-4],"split_indices":[2,0,0,0,0,2,1,0,0,0,0],"split_type":[0,0,0,0,0,0,0,0,0,0,0],"sum_hessian":[4.8E2,2E0,4.78E2,1E0,1E0,4.17E2,6.1E1,1.42E2,2.75E2,9E0,5.2E1],"tree_param":{"num_deleted":"0","num_feature":"5","num_nodes":"11","size_leaf_vector":"1"}},{"base_weights":[3.6794398E-5,1.27168065E-2,-4.2697942E-5,8.9922437E-4,5.4536133E-5,2.4912469E-4,-2.9334244E-3,-9.4129484E-7,3.427213E-4,-8.8555104E-4,-7.100804E-5],"categories":[],"categories_nodes":[],"categories_segments":[],"categories_sizes":[],"default_left":[0,0,0,0,0,0,0,0,0,0,0],"id":57,"left_children":[1,3,5,-1,-1,7,9,-1,-1,-1,-1],"loss_changes":[4.8537357E-4,1.641114E-4,4.0480532E-4,0E0,0E0,7.718029E-4,9.58793E-4,0E0,0E0,0E0,0E0],"parents":[2147483647,0,0,1,1,2,2,5,5,6,6],"right_children":[2,4,6,-1,-1,8,10,-1,-1,-1,-1],"split_conditions":[2.1568256E1,-4.8166998E-2,5.7424657E-2,8.9922437E-4,5.4536133E-5,4.7319923E-2,4.9438538E1,-9.4129484E-7,3.427213E-4,-8.8555104E-4,-7.100804E-5],"split_indices":[2,0,1,0,0,1,2,0,0,0,0],"split_type":[0,0,0,0,0,0,0,0,0,0,0],"sum_hessian":[4.8E2,2E0,4.78E2,1E0,1E0,4.35E2,4.3E1,4.19E2,1.6E1,3E0,4E1],"tree_param":{"num_deleted":"0","num_feature":"5","num_nodes":"11","size_leaf_vector":"1"}},{"base_weights":[3.565948E-5,1.2398886E-2,-4.1846448E-5,8.7674375E-4,5.3172724E-5,-9.900335E-3,4.1085907E-5,-5.3853637E-5,-6.2411994E-4,1.03948136E-4,-1.9729769E-5],"categories":[],"categories_nodes":[],"categories_segments":[],"categories_sizes":[],"default_left":[0,0,0,0,0,0,0,0,0,0,0],"id":58,"left_children":[1,3,5,-1,-1,7,9,-1,-1,-1,-1],"loss_changes":[4.6142426E-4,1.560084E-4,3.9203122E-4,0E0,0E0,7.768441E-5,4.2344403E-4,0E0,0E0,0E0,0E0],"parents":[2147483647,0,0,1,1,2,2,5,5,6,6],"right_children":[2,4,6,-1,-1,8,10,-1,-1,-1,-1],"split_conditions":[2.1568256E1,-4.8166998E-2,-4.8166998E-2,8.7674375E-4,5.3172724E-5,-1.08995914E-1,4.18593E1,-5.3853637E-5,-6.2411994E-4,1.03948136E-4,-1.9729769E-5],"split_indices":[2,0,0,0,0,1,2,0,0,0,0],"split_type":[0,0,0,0,0,0,0,0,0,0,0],"sum_hessian":[4.8E2,2E0,4.78E2,1E0,1E0,3E0,4.75E2,1E0,2E0,8.3E1,3.92E2],"tree_param":{"num_deleted":"0","num_feature":"5","num_nodes":"11","size_leaf_vector":"1"}},{"base_weights":[3.45754E-5,1.2088913E-2,-4.0993673E-5,8.548251E-4,5.18434E-5,-7.373903E-3,6.761385E-5,-7.996405E-4,-3.6388945E-5,4.4729325E-4,-5.218434E-6],"categories":[],"categories_nodes":[],"categories_segments":[],"categories_sizes":[],"default_left":[0,0,0,0,0,0,0,0,0,0,0],"id":59,"left_children":[1,3,5,-1,-1,7,9,-1,-1,-1,-1],"loss_changes":[4.3865538E-4,1.4830547E-4,3.8197852E-4,0E0,0E0,3.89337E-4,7.2315935E-4,0E0,0E0,0E0,0E0],"parents":[2147483647,0,0,1,1,2,2,5,5,6,6],"right_children":[2,4,6,-1,-1,8,10,-1,-1,-1,-1],"split_conditions":[2.1568256E1,-4.8166998E-2,7.6192743E-3,8.548251E-4,5.18434E-5,-5.95532E-3,8.46041E-3,-7.996405E-4,-3.6388945E-5,4.4729325E-4,-5.218434E-6],"split_indices":[2,0,4,0,0,0,4,0,0,0,0],"split_type":[0,0,0,0,0,0,0,0,0,0,0],"sum_hessian":[4.8E2,2E0,4.78E2,1E0,1E0,6E0,4.72E2,2E0,4E0,8E0,4.64E2],"tree_param":{"num_deleted":"0","num_feature":"5","num_nodes":"11","size_leaf_vector":"1"}},{"base_weights":[3.3912558E-5,1.1786689E-2,-3.9766444E-5,8.3345437E-4,5.0547325E-5,-6.865876E-3,7.601458E-5,-5.786239E-4,3.6692305E-5,-1.405561E-5,1.4829531E-4],"categories":[],"categories_nodes":[],"categories_segments":[],"categories_sizes":[],"default_left":[0,0,0,0,0,0,0,0,0,0,0],"id":60,"left_children":[1,3,5,-1,-1,7,9,-1,-1,-1,-1],"loss_changes":[4.1698242E-4,1.4098283E-4,3.7909186E-4,0E0,0E0,2.946434E-4,4.87965E-4,0E0,0E0,0E0,0E0],"parents":[2147483647,0,0,1,1,2,2,5,5,6,6],"right_children":[2,4,6,-1,-1,8,10,-1,-1,-1,-1],"split_conditions":[2.1568256E1,-4.8166998E-2,-7.647059E-2,8.3345437E-4,5.0547325E-5,1E0,2.052205E-2,-5.786239E-4,3.6692305E-5,-1.405561E-5,1.4829531E-4],"split_indices":[2,0,1,0,0,3,4,0,0,0,0],"split_type":[0,0,0,0,0,0,0,0,0,0,0],"sum_hessian":[4.8E2,2E0,4.78E2,1E0,1E0,7E0,4.71E2,4E0,3E0,4.2E2,5.1E1],"tree_param":{"num_deleted":"0","num_feature":"5","num_nodes":"11","size_leaf_vector":"1"}},{"base_weights":[3.320713E-5,3.207004E-4,-2.8294125E-3,-1.1758501E-4,4.68458E-3,-1.7098779E-2,-1.368269E-3,1.1884412E-5,-4.0573828E-4,4.4370964E-4,2.5628729E-6,-1.1046261E-3,-5.293886E-5,5.051064E-4,-1.1077618E-4],"categories":[],"categories_nodes":[],"categories_segments":[],"categories_sizes":[],"default_left":[0,0,0,0,0,0,0,0,0,0,0,0,0,0,0],"id":61,"left_children":[1,3,5,7,9,11,13,-1,-1,-1,-1,-1,-1,-1,-1],"loss_changes":[3.967626E-4,8.3828054E-4,8.939862E-4,1.1355613E-3,7.7601813E-4,2.970075E-4,4.208336E-4,0E0,0E0,0E0,0E0,0E0,0E0,0E0,0E0],"parents":[2147483647,0,0,1,1,2,2,3,3,4,4,5,5,6,6],"right_children":[2,4,6,8,10,12,14,-1,-1,-1,-1,-1,-1,-1,-1],"split_conditions":[5.7424657E-2,2.0639144E-2,4.9438538E1,1.962157E-2,2.3670126E-2,-1.8211507E-3,-7.5810505E-3,1.1884412E-5,-4.0573828E-4,4.4370964E-4,2.5628729E-6,-1.1046261E-3,-5.293886E-5,5.051064E-4,-1.1077618E-4],"split_indices":[1,4,2,4,4,0,0,0,0,0,0,0,0,0,0],"split_type":[0,0,0,0,0,0,0,0,0,0,0,0,0,0,0],"sum_hessian":[4.8E2,4.37E2,4.3E1,3.98E2,3.9E1,3E0,4E1,3.82E2,1.6E1,2E1,1.9E1,2E0,1E0,2E0,3.8E1],"tree_param":{"num_deleted":"0","num_feature":"5","num_nodes":"15","size_leaf_vector":"1"}},{"base_weights":[3.0068957E-5,1.1487206E-2,-4.175042E-5,8.12554E-4,4.898652E-5,8.585838E-5,-6.035189E-3,-1.5748055E-5,1.4416731E-4,2.3476414E-4,-3.874581E-4],"categories":[],"categories_nodes":[],"categories_segments":[],"categories_sizes":[],"default_left":[0,0,0,0,0,0,0,0,0,0,0],"id":62,"left_children":[1,3,5,-1,-1,7,9,-1,-1,-1,-1],"loss_changes":[3.9626777E-4,1.3424718E-4,3.668648E-4,0E0,0E0,5.279133E-4,2.2030188E-4,0E0,0E0,0E0,0E0],"parents":[2147483647,0,0,1,1,2,2,5,5,6,6],"right_children":[2,4,6,-1,-1,8,10,-1,-1,-1,-1],"split_conditions":[2.1568256E1,-4.8166998E-2,7.6386795E1,8.12554E-4,4.898652E-5,1.6479895E-2,1.8061826E-2,-1.5748055E-5,1.4416731E-4,2.3476414E-4,-3.874581E-4],"split_indices":[2,0,2,0,0,0,1,0,0,0,0],"split_type":[0,0,0,0,0,0,0,0,0,0,0],"sum_hessian":[4.8E2,2E0,4.78E2,1E0,1E0,4.69E2,9E0,4.11E2,5.8E1,1E0,8E0],"tree_param":{"num_deleted":"0","num_feature":"5","num_nodes":"11","size_leaf_vector":"1"}},{"base_weights":[3.0306172E-5,1.3039984E-3,-5.9090886E-4,-7.0766127E-4,1.6944816E-3,-6.1228536E-3,5.3815724E-4,1.1666896E-3,7.012243E-5,-1.1274564E-4,-8.143517E-4,-1.4291961E-4,5.3645934E-5],"categories":[],"categories_nodes":[],"categories_segments":[],"categories_sizes":[],"default_left":[0,0,0,0,0,0,0,0,0,0,0,0,0],"id":63,"left_children":[1,3,5,-1,7,9,11,-1,-1,-1,-1,-1,-1],"loss_changes":[3.8135544E-4,9.776368E-4,2.0269766E-3,0E0,9.4678183E-4,2.1255687E-3,4.9347954E-4,0E0,0E0,0E0,0E0,0E0,0E0],"parents":[2147483647,0,0,1,1,2,2,4,4,5,5,6,6],"right_children":[2,4,6,-1,8,10,12,-1,-1,-1,-1,-1,-1],"split_conditions":[4.744461E1,8.280635E-3,5.1326477E1,-7.0766127E-4,8.46041E-3,1.723959E-2,-8.847576E-3,1.1666896E-3,7.012243E-5,-1.1274564E-4,-8.143517E-4,-1.4291961E-4,5.3645934E-5],"split_indices":[2,4,2,0,4,4,1,0,0,0,0,0,0],"split_type":[0,0,0,0,0,0,0,0,0,0,0,0,0],"sum_hessian":[4.8E2,1.57E2,3.23E2,3E0,1.54E2,5.4E1,2.69E2,1E0,1.53E2,4E1,1.4E1,3.6E1,2.33E2],"tree_param":{"num_deleted":"0","num_feature":"5","num_nodes":"13","size_leaf_vector":"1"}},{"base_weights":[2.7777933E-5,1.1153278E-2,-4.19596E-5,7.9048704E-4,4.60088E-5,-6.6836183E-3,7.069979E-5,-8.3916115E-5,-7.233169E-4,1.1654084E-4,-1.643255E-5],"categories":[],"categories_nodes":[],"categories_segments":[],"categories_sizes":[],"default_left":[0,0,0,0,0,0,0,0,0,0,0],"id":64,"left_children":[1,3,5,-1,-1,7,9,-1,-1,-1,-1],"loss_changes":[3.7365902E-4,1.2840246E-4,3.5888198E-4,0E0,0E0,2.8735935E-4,4.2678358E-4,0E0,0E0,0E0,0E0],"parents":[2147483647,0,0,1,1,2,2,5,5,6,6],"right_children":[2,4,6,-1,-1,8,10,-1,-1,-1,-1],"split_conditions":[2.1568256E1,-4.8166998E-2,-7.647059E-2,7.9048704E-4,4.60088E-5,-9.229396E-2,-3.1371906E-2,-8.3916115E-5,-7.233169E-4,1.1654084E-4,-1.643255E-5],"split_indices":[2,0,1,0,0,1,1,0,0,0,0],"split_type":[0,0,0,0,0,0,0,0,0,0,0],"sum_hessian":[4.8E2,2E0,4.78E2,1E0,1E0,7E0,4.71E2,5E0,2E0,7E1,4.01E2],"tree_param":{"num_deleted":"0","num_feature":"5","num_nodes":"11","size_leaf_vector":"1"}},{"base_weights":[2.6657997E-5,3.0024492E-4,-2.6973814E-3,-1.1351458E-4,4.41999E-3,-1.6380547E-2,-1.2966485E-3,1.089808E-5,-3.7874002E-4,4.2088702E-4,6.761518E-8,-1.0543286E-3,-5.6561817E-5,4.8755397E-4,-1.0566132E-4],"categories":[],"categories_nodes":[],"categories_segments":[],"categories_sizes":[],"default_left":[0,0,0,0,0,0,0,0,0,0,0,0,0,0,0],"id":65,"left_children":[1,3,5,7,9,11,13,-1,-1,-1,-1,-1,-1,-1,-1],"loss_changes":[3.5928068E-4,7.4710936E-4,8.2208443E-4,9.884732E-4,7.065729E-4,2.632006E-4,3.904808E-4,0E0,0E0,0E0,0E0,0E0,0E0,0E0,0E0],"parents":[2147483647,0,0,1,1,2,2,3,3,4,4,5,5,6,6],"right_children":[2,4,6,8,10,12,14,-1,-1,-1,-1,-1,-1,-1,-1],"split_conditions":[5.7424657E-2,2.0639144E-2,4.9438538E1,1.962157E-2,2.3670126E-2,-1.8211507E-3,-7.5810505E-3,1.089808E-5,-3.7874002E-4,4.2088702E-4,6.761518E-8,-1.0543286E-3,-5.6561817E-5,4.8755397E-4,-1.0566132E-4],"split_indices":[1,4,2,4,4,0,0,0,0,0,0,0,0,0,0],"split_type":[0,0,0,0,0,0,0,0,0,0,0,0,0,0,0],"sum_hessian":[4.8E2,4.37E2,4.3E1,3.98E2,3.9E1,3E0,4E1,3.82E2,1.6E1,2E1,1.9E1,2E0,1E0,2E0,3.8E1],"tree_param":{"num_deleted":"0","num_feature":"5","num_nodes":"15","size_leaf_vector":"1"}},{"base_weights":[2.3919902E-5,1.0870792E-2,-4.4064513E-5,7.707233E-4,4.4586115E-5,-9.15319E-3,3.2575335E-5,-3.7238467E-5,-5.8538705E-4,-5.583281E-4,5.1693614E-6],"categories":[],"categories_nodes":[],"categories_segments":[],"categories_sizes":[],"default_left":[0,0,0,0,0,0,0,0,0,0,0],"id":66,"left_children":[1,3,5,-1,-1,7,9,-1,-1,-1,-1],"loss_changes":[3.551772E-4,1.2227948E-4,3.346986E-4,0E0,0E0,7.7199365E-5,3.7863775E-4,0E0,0E0,0E0,0E0],"parents":[2147483647,0,0,1,1,2,2,5,5,6,6],"right_children":[2,4,6,-1,-1,8,10,-1,-1,-1,-1],"split_conditions":[2.1568256E1,-4.8166998E-2,-4.8166998E-2,7.707233E-4,4.4586115E-5,-1.08995914E-1,-1.08995914E-1,-3.7238467E-5,-5.8538705E-4,-5.583281E-4,5.1693614E-6],"split_indices":[2,0,0,0,0,1,1,0,0,0,0],"split_type":[0,0,0,0,0,0,0,0,0,0,0],"sum_hessian":[4.8E2,2E0,4.78E2,1E0,1E0,3E0,4.75E2,1E0,2E0,2E0,4.73E2],"tree_param":{"num_deleted":"0","num_feature":"5","num_nodes":"11","size_leaf_vector":"1"}},{"base_weights":[2.19745E-5,-8.009301E-4,9.0863043E-4,1.0299302E-3,-2.9591569E-3,2.026039E-4,5.4798797E-3,-1.4581233E-4,1.1869566E-4,-7.6325996E-5,-5.8640953E-4,-1.2552872E-4,1.01980615E-4,9.154919E-4,1.1060302E-5],"categories":[],"categories_nodes":[],"categories_segments":[],"categories_sizes":[],"default_left":[0,0,0,0,0,0,0,0,0,0,0,0,0,0,0],"id":67,"left_children":[1,3,5,7,9,11,13,-1,-1,-1,-1,-1,-1,-1,-1],"loss_changes":[3.5168134E-4,9.909006E-4,7.476519E-4,7.2821166E-4,1.4268232E-3,1.011915E-3,2.0874753E-3,0E0,0E0,0E0,0E0,0E0,0E0,0E0,0E0],"parents":[2147483647,0,0,1,1,2,2,3,3,4,4,5,5,6,6],"right_children":[2,4,6,8,10,12,14,-1,-1,-1,-1,-1,-1,-1,-1],"split_conditions":[1.5024972E-2,1.2253684E-2,1.947687E-2,-1.5592033E-2,1.4709203E-2,1E0,1.709068E-2,-1.4581233E-4,1.1869566E-4,-7.6325996E-5,-5.8640953E-4,-1.2552872E-4,1.01980615E-4,9.154919E-4,1.1060302E-5],"split_indices":[4,4,0,1,0,3,4,0,0,0,0,0,0,0,0],"split_type":[0,0,0,0,0,0,0,0,0,0,0,0,0,0,0],"sum_hessian":[4.8E2,2.49E2,2.31E2,1.35E2,1.14E2,2.01E2,3E1,3.4E1,1.01E2,9.9E1,1.5E1,8.1E1,1.2E2,8E0,2.2E1],"tree_param":{"num_deleted":"0","num_feature":"5","num_nodes":"15","size_leaf_vector":"1"}},{"base_weights":[2.1318929E-5,9.171054E-4,-8.169926E-4,5.211286E-4,1.8869422E-2,-7.5758547E-3,3.6091768E-4,-7.158517E-5,2.0534707E-4,1.1561185E-3,4.163334E-4,-2.635486E-4,-2.263791E-3,2.0065387E-4,-2.7978613E-5],"categories":[],"categories_nodes":[],"categories_segments":[],"categories_sizes":[],"default_left":[0,0,0,0,0,0,0,0,0,0,0,0,0,0,0],"id":68,"left_children":[1,3,5,7,9,11,13,-1,-1,-1,-1,-1,-1,-1,-1],"loss_changes":[3.6195535E-4,1.646494E-3,1.9851062E-3,1.6094501E-3,3.165647E-5,2.9764306E-3,7.1830396E-4,0E0,0E0,0E0,0E0,0E0,0E0,0E0,0E0],"parents":[2147483647,0,0,1,1,2,2,3,3,4,4,5,5,6,6],"right_children":[2,4,6,8,10,12,14,-1,-1,-1,-1,-1,-1,-1,-1],"split_conditions":[3.8662027E-3,4.8814613E-2,1.1070107E-2,-1.10799745E-2,-2.4546664E-2,1.962157E-2,1.8985488E-2,-7.158517E-5,2.0534707E-4,1.1561185E-3,4.163334E-4,-2.635486E-4,-2.263791E-3,2.0065387E-4,-2.7978613E-5],"split_indices":[1,4,1,1,1,4,1,0,0,0,0,0,0,0,0],"split_type":[0,0,0,0,0,0,0,0,0,0,0,0,0,0,0],"sum_hessian":[4.8E2,2.32E2,2.48E2,2.28E2,4E0,3.6E1,2.12E2,1.48E2,8E1,2E0,2E0,3.5E1,1E0,4.2E1,1.7E2],"tree_param":{"num_deleted":"0","num_feature":"5","num_nodes":"15","size_leaf_vector":"1"}},{"base_weights":[1.8904842E-5,1.2490691E-3,-5.810484E-4,-6.729579E-4,1.6205776E-3,-5.706362E-3,4.6514894E-4,1.1396421E-3,6.67545E-5,-1.0480037E-4,-7.59712E-4,2.8658487E-4,6.6437374E-6],"categories":[],"categories_nodes":[],"categories_segments":[],"categories_sizes":[],"default_left":[0,0,0,0,0,0,0,0,0,0,0,0,0],"id":69,"left_children":[1,3,5,-1,7,9,11,-1,-1,-1,-1,-1,-1],"loss_changes":[3.5572346E-4,8.851606E-4,1.7399711E-3,0E0,9.064546E-4,1.8521559E-3,4.7172167E-4,0E0,0E0,0E0,0E0,0E0,0E0],"parents":[2147483647,0,0,1,1,2,2,4,4,5,5,6,6],"right_children":[2,4,6,-1,8,10,12,-1,-1,-1,-1,-1,-1],"split_conditions":[4.744461E1,8.280635E-3,5.1326477E1,-6.729579E-4,8.46041E-3,1.723959E-2,-1.5577789E-2,1.1396421E-3,6.67545E-5,-1.0480037E-4,-7.59712E-4,2.8658487E-4,6.6437374E-6],"split_indices":[2,4,2,0,4,4,0,0,0,0,0,0,0],"split_type":[0,0,0,0,0,0,0,0,0,0,0,0,0],"sum_hessian":[4.8E2,1.57E2,3.23E2,3E0,1.54E2,5.4E1,2.69E2,1E0,1.53E2,4E1,1.4E1,1.5E1,2.54E2],"tree_param":{"num_deleted":"0","num_feature":"5","num_nodes":"13","size_leaf_vector":"1"}},{"base_weights":[1.7880899E-5,1.4185841E-4,-5.835646E-3,9.538781E-6,7.815205E-3,2.194132E-4,-7.4592205E-3,1.047043E-5,-4.1293353E-4,-2.6309177E-5,5.341682E-4,-4.234106E-4,1.5317788E-5],"categories":[],"categories_nodes":[],"categories_segments":[],"categories_sizes":[],"default_left":[0,0,0,0,0,0,0,0,0,0,0,0,0],"id":70,"left_children":[1,3,5,7,9,-1,11,-1,-1,-1,-1,-1,-1],"loss_changes":[3.4989225E-4,4.7916325E-4,1.987259E-4,7.7017245E-4,1.9701687E-4,0E0,7.31129E-5,0E0,0E0,0E0,0E0,0E0,0E0],"parents":[2147483647,0,0,1,1,2,2,3,3,4,4,6,6],"right_children":[2,4,6,8,10,-1,12,-1,-1,-1,-1,-1,-1],"split_conditions":[7.6386795E1,7.52168E1,1.8061826E-2,7.344362E1,2.0551277E-2,2.194132E-4,1.967591E-2,1.047043E-5,-4.1293353E-4,-2.6309177E-5,5.341682E-4,-4.234106E-4,1.5317788E-5],"split_indices":[2,2,1,2,1,0,0,0,0,0,0,0,0],"split_type":[0,0,0,0,0,0,0,0,0,0,0,0,0],"sum_hessian":[4.8E2,4.71E2,9E0,4.64E2,7E0,1E0,8E0,4.54E2,1E1,2E0,5E0,7E0,1E0],"tree_param":{"num_deleted":"0","num_feature":"5","num_nodes":"13","size_leaf_vector":"1"}},{"base_weights":[1.6813714E-5,1.0685707E-2,-5.0041184E-5,7.544523E-4,4.6975772E-5,-3.6534006E-4,2.0764905E-3,-6.805852E-5,5.058303E-5,-3.4073062E-4,1.857439E-4],"categories":[],"categories_nodes":[],"categories_segments":[],"categories_sizes":[],"default_left":[0,0,0,0,0,0,0,0,0,0,0],"id":71,"left_children":[1,3,5,-1,-1,7,9,-1,-1,-1,-1],"loss_changes":[3.4361656E-4,1.14570954E-4,3.219248E-4,0E0,0E0,5.745633E-4,9.28474E-4,0E0,0E0,0E0,0E0],"parents":[2147483647,0,0,1,1,2,2,5,5,6,6],"right_children":[2,4,6,-1,-1,8,10,-1,-1,-1,-1],"split_conditions":[2.1568256E1,-4.8166998E-2,1.6479895E-2,7.544523E-4,4.6975772E-5,5.7210148E1,-1.5040947E-2,-6.805852E-5,5.058303E-5,-3.4073062E-4,1.857439E-4],"split_indices":[2,0,0,0,0,2,1,0,0,0,0],"split_type":[0,0,0,0,0,0,0,0,0,0,0],"sum_hessian":[4.8E2,2E0,4.78E2,1E0,1E0,4.17E2,6.1E1,2.42E2,1.75E2,9E0,5.2E1],"tree_param":{"num_deleted":"0","num_feature":"5","num_nodes":"11","size_leaf_vector":"1"}},{"base_weights":[1.7280678E-5,1.243724E-3,-5.80853E-4,-6.455625E-4,1.6009896E-3,-5.4079085E-3,4.045874E-4,1.1125908E-3,6.6120054E-5,-9.8117045E-5,-7.2326337E-4,2.721431E-4,4.3436867E-6],"categories":[],"categories_nodes":[],"categories_segments":[],"categories_sizes":[],"default_left":[0,0,0,0,0,0,0,0,0,0,0,0,0],"id":72,"left_children":[1,3,5,-1,7,9,11,-1,-1,-1,-1,-1,-1],"loss_changes":[3.5357304E-4,8.196902E-4,1.5433833E-3,0E0,8.623021E-4,1.6880399E-3,4.3172386E-4,0E0,0E0,0E0,0E0,0E0,0E0],"parents":[2147483647,0,0,1,1,2,2,4,4,5,5,6,6],"right_children":[2,4,6,-1,8,10,12,-1,-1,-1,-1,-1,-1],"split_conditions":[4.744461E1,8.280635E-3,5.1326477E1,-6.455625E-4,8.46041E-3,1.723959E-2,-1.5577789E-2,1.1125908E-3,6.6120054E-5,-9.8117045E-5,-7.2326337E-4,2.721431E-4,4.3436867E-6],"split_indices":[2,4,2,0,4,4,0,0,0,0,0,0,0],"split_type":[0,0,0,0,0,0,0,0,0,0,0,0,0],"sum_hessian":[4.8E2,1.57E2,3.23E2,3E0,1.54E2,5.4E1,2.69E2,1E0,1.53E2,4E1,1.4E1,1.5E1,2.54E2],"tree_param":{"num_deleted":"0","num_feature":"5","num_nodes":"13","size_leaf_vector":"1"}},{"base_weights":[1.6392252E-5,-7.921347E-4,8.875791E-4,9.509145E-4,-2.8465916E-3,2.2396425E-4,5.1831473E-3,-1.3308744E-4,1.0906156E-4,-7.4155956E-5,-5.595192E-4,-1.1197902E-4,9.458115E-5,8.660843E-4,1.0396542E-5],"categories":[],"categories_nodes":[],"categories_segments":[],"categories_sizes":[],"default_left":[0,0,0,0,0,0,0,0,0,0,0,0,0,0,0],"id":73,"left_children":[1,3,5,7,9,11,13,-1,-1,-1,-1,-1,-1,-1,-1],"loss_changes":[3.3950893E-4,8.979617E-4,6.6017895E-4,6.102878E-4,1.2917044E-3,8.341234E-4,1.8685458E-3,0E0,0E0,0E0,0E0,0E0,0E0,0E0,0E0],"parents":[2147483647,0,0,1,1,2,2,3,3,4,4,5,5,6,6],"right_children":[2,4,6,8,10,12,14,-1,-1,-1,-1,-1,-1,-1,-1],"split_conditions":[1.5024972E-2,1.2253684E-2,1.947687E-2,-1.5592033E-2,1.4709203E-2,1E0,1.709068E-2,-1.3308744E-4,1.0906156E-4,-7.4155956E-5,-5.595192E-4,-1.1197902E-4,9.458115E-5,8.660843E-4,1.0396542E-5],"split_indices":[4,4,0,1,0,3,4,0,0,0,0,0,0,0,0],"split_type":[0,0,0,0,0,0,0,0,0,0,0,0,0,0,0],"sum_hessian":[4.8E2,2.49E2,2.31E2,1.35E2,1.14E2,2.01E2,3E1,3.4E1,1.01E2,9.9E1,1.5E1,8.1E1,1.2E2,8E0,2.2E1],"tree_param":{"num_deleted":"0","num_feature":"5","num_nodes":"15","size_leaf_vector":"1"}},{"base_weights":[1.5991276E-5,8.899693E-4,-8.018917E-4,5.0825346E-4,1.819456E-2,-7.249934E-3,3.219555E-4,-6.556791E-5,1.9245829E-4,1.1188042E-3,3.9740908E-4,-2.5223926E-4,-2.1658826E-3,1.9341538E-4,-2.8585002E-5],"categories":[],"categories_nodes":[],"categories_segments":[],"categories_sizes":[],"default_left":[0,0,0,0,0,0,0,0,0,0,0,0,0,0,0],"id":74,"left_children":[1,3,5,7,9,11,13,-1,-1,-1,-1,-1,-1,-1,-1],"loss_changes":[3.4453813E-4,1.5298191E-3,1.8067411E-3,1.397176E-3,3.637816E-5,2.724256E-3,6.7725475E-4,0E0,0E0,0E0,0E0,0E0,0E0,0E0,0E0],"parents":[2147483647,0,0,1,1,2,2,3,3,4,4,5,5,6,6],"right_children":[2,4,6,8,10,12,14,-1,-1,-1,-1,-1,-1,-1,-1],"split_conditions":[3.8662027E-3,4.8814613E-2,1.1070107E-2,-1.10799745E-2,-2.4546664E-2,1.962157E-2,1.8985488E-2,-6.556791E-5,1.9245829E-4,1.1188042E-3,3.9740908E-4,-2.5223926E-4,-2.1658826E-3,1.9341538E-4,-2.8585002E-5],"split_indices":[1,4,1,1,1,4,1,0,0,0,0,0,0,0,0],"split_type":[0,0,0,0,0,0,0,0,0,0,0,0,0,0,0],"sum_hessian":[4.8E2,2.32E2,2.48E2,2.28E2,4E0,3.6E1,2.12E2,1.48E2,8E1,2E0,2E0,3.5E1,1E0,4.2E1,1.7E2],"tree_param":{"num_deleted":"0","num_feature":"5","num_nodes":"15","size_leaf_vector":"1"}},{"base_weights":[1.3923116E-5,1.2118116E-3,-5.702753E-4,7.573493E-4,1.259863E-2,-5.0591533E-3,3.4623785E-4,-6.1390427E-4,5.4995595E-5,7.395457E-4,4.093035E-5,-3.4981273E-4,4.611647E-4,-1.361799E-4,4.227059E-5],"categories":[],"categories_nodes":[],"categories_segments":[],"categories_sizes":[],"default_left":[0,0,0,0,0,0,0,0,0,0,0,0,0,0,0],"id":75,"left_children":[1,3,5,7,9,11,13,-1,-1,-1,-1,-1,-1,-1,-1],"loss_changes":[3.3729707E-4,8.080893E-4,1.3347251E-3,6.96719E-4,1.42843E-4,1.5861888E-3,4.1604566E-4,0E0,0E0,0E0,0E0,0E0,0E0,0E0,0E0],"parents":[2147483647,0,0,1,1,2,2,3,3,4,4,5,5,6,6],"right_children":[2,4,6,8,10,12,14,-1,-1,-1,-1,-1,-1,-1,-1],"split_conditions":[4.744461E1,4.7181824E1,5.1326477E1,8.280635E-3,1.626182E-2,1.6479895E-2,-7.288134E-3,-6.1390427E-4,5.4995595E-5,7.395457E-4,4.093035E-5,-3.4981273E-4,4.611647E-4,-1.361799E-4,4.227059E-5],"split_indices":[2,2,2,4,4,0,1,0,0,0,0,0,0,0,0],"split_type":[0,0,0,0,0,0,0,0,0,0,0,0,0,0,0],"sum_hessian":[4.8E2,1.57E2,3.23E2,1.52E2,5E0,5.4E1,2.69E2,3E0,1.49E2,4E0,1E0,4.8E1,6E0,3.7E1,2.32E2],"tree_param":{"num_deleted":"0","num_feature":"5","num_nodes":"15","size_leaf_vector":"1"}},{"base_weights":[1.3723887E-5,1.3607788E-4,-5.7627573E-3,1.2438968E-5,7.30558E-3,2.03936E-4,-7.3094456E-3,1.0384881E-5,-4.0326497E-4,-3.5054672E-5,5.04566E-4,-4.1355146E-4,9.580609E-6],"categories":[],"categories_nodes":[],"categories_segments":[],"categories_sizes":[],"default_left":[0,0,0,0,0,0,0,0,0,0,0,0,0],"id":76,"left_children":[1,3,5,7,9,-1,11,-1,-1,-1,-1,-1,-1],"loss_changes":[3.407432E-4,4.1830383E-4,1.820302E-4,7.350956E-4,1.8551102E-4,0E0,6.650094E-5,0E0,0E0,0E0,0E0,0E0,0E0],"parents":[2147483647,0,0,1,1,2,2,3,3,4,4,6,6],"right_children":[2,4,6,8,10,-1,12,-1,-1,-1,-1,-1,-1],"split_conditions":[7.6386795E1,7.52168E1,1.8061826E-2,7.344362E1,2.0551277E-2,2.03936E-4,1.967591E-2,1.0384881E-5,-4.0326497E-4,-3.5054672E-5,5.04566E-4,-4.1355146E-4,9.580609E-6],"split_indices":[2,2,1,2,1,0,0,0,0,0,0,0,0],"split_type":[0,0,0,0,0,0,0,0,0,0,0,0,0],"sum_hessian":[4.8E2,4.71E2,9E0,4.64E2,7E0,1E0,8E0,4.54E2,1E1,2E0,5E0,7E0,1E0],"tree_param":{"num_deleted":"0","num_feature":"5","num_nodes":"13","size_leaf_vector":"1"}},{"base_weights":[1.2781088E-5,1.04563E-2,-5.2653857E-5,7.367423E-4,4.7480247E-5,-8.784211E-3,2.0831194E-5,-3.0457788E-5,-5.653089E-4,9.963579E-5,-1.7355476E-5],"categories":[],"categories_nodes":[],"categories_segments":[],"categories_sizes":[],"default_left":[0,0,0,0,0,0,0,0,0,0,0],"id":77,"left_children":[1,3,5,-1,-1,7,9,-1,-1,-1,-1],"loss_changes":[3.2925207E-4,1.08032225E-4,3.0752804E-4,0E0,0E0,7.558163E-5,3.460471E-4,0E0,0E0,0E0,0E0],"parents":[2147483647,0,0,1,1,2,2,5,5,6,6],"right_children":[2,4,6,-1,-1,8,10,-1,-1,-1,-1],"split_conditions":[2.1568256E1,-4.8166998E-2,-4.8166998E-2,7.367423E-4,4.7480247E-5,-1.08995914E-1,-3.1371906E-2,-3.0457788E-5,-5.653089E-4,9.963579E-5,-1.7355476E-5],"split_indices":[2,0,0,0,0,1,1,0,0,0,0],"split_type":[0,0,0,0,0,0,0,0,0,0,0],"sum_hessian":[4.8E2,2E0,4.78E2,1E0,1E0,3E0,4.75E2,1E0,2E0,7.4E1,4.01E2],"tree_param":{"num_deleted":"0","num_feature":"5","num_nodes":"11","size_leaf_vector":"1"}},{"base_weights":[1.2704928E-5,1.0194892E-2,-5.1093124E-5,7.183237E-4,4.629323E-5,-6.1490275E-3,5.2369945E-5,-6.9238995E-5,-6.813923E-4,1.10772606E-4,-1.6489861E-5],"categories":[],"categories_nodes":[],"categories_segments":[],"categories_sizes":[],"default_left":[0,0,0,0,0,0,0,0,0,0,0],"id":78,"left_children":[1,3,5,-1,-1,7,9,-1,-1,-1,-1],"loss_changes":[3.129803E-4,1.02698104E-4,3.0252838E-4,0E0,0E0,2.66176E-4,3.909137E-4,0E0,0E0,0E0,0E0],"parents":[2147483647,0,0,1,1,2,2,5,5,6,6],"right_children":[2,4,6,-1,-1,8,10,-1,-1,-1,-1],"split_conditions":[2.1568256E1,-4.8166998E-2,-7.647059E-2,7.183237E-4,4.629323E-5,-9.229396E-2,-3.1371906E-2,-6.9238995E-5,-6.813923E-4,1.10772606E-4,-1.6489861E-5],"split_indices":[2,0,1,0,0,1,1,0,0,0,0],"split_type":[0,0,0,0,0,0,0,0,0,0,0],"sum_hessian":[4.8E2,2E0,4.78E2,1E0,1E0,7E0,4.71E2,5E0,2E0,7E1,4.01E2],"tree_param":{"num_deleted":"0","num_feature":"5","num_nodes":"11","size_leaf_vector":"1"}},{"base_weights":[1.2294809E-5,1.6069169E-4,-4.310533E-3,-8.9730114E-5,6.7800516E-3,-8.3486823E-4,-2.3715864E-3,-2.259739E-5,1.4418823E-4,7.7214953E-4,3.254521E-5,1.7734895E-4,-3.996852E-4],"categories":[],"categories_nodes":[],"categories_segments":[],"categories_sizes":[],"default_left":[0,0,0,0,0,0,0,0,0,0,0,0,0],"id":79,"left_children":[1,3,5,7,9,-1,11,-1,-1,-1,-1,-1,-1],"loss_changes":[3.0925137E-4,7.730649E-4,3.446791E-4,4.859769E-4,8.925874E-4,0E0,5.2747654E-4,0E0,0E0,0E0,0E0,0E0,0E0],"parents":[2147483647,0,0,1,1,2,2,3,3,4,4,6,6],"right_children":[2,4,6,8,10,-1,12,-1,-1,-1,-1,-1,-1],"split_conditions":[7.9830125E-2,2.8578391E-2,4.5668636E1,2.0321583E-2,3.6543958E-2,-8.3486823E-4,1.6101152E-2,-2.259739E-5,1.4418823E-4,7.7214953E-4,3.254521E-5,1.7734895E-4,-3.996852E-4],"split_indices":[1,0,2,4,0,0,0,0,0,0,0,0,0],"split_type":[0,0,0,0,0,0,0,0,0,0,0,0,0],"sum_hessian":[4.8E2,4.65E2,1.5E1,4.49E2,1.6E1,1E0,1.4E1,4.01E2,4.8E1,6E0,1E1,7E0,7E0],"tree_param":{"num_deleted":"0","num_feature":"5","num_nodes":"13","size_leaf_vector":"1"}},{"base_weights":[1.1407875E-5,2.615705E-4,-2.4791067E-3,3.404257E-5,6.2604924E-3,-1.5011422E-2,-1.1959758E-3,1.3130353E-5,-4.715966E-4,1.0759965E-4,5.617711E-4,-9.651463E-4,-5.3422806E-5,8.113516E-5,-1.978852E-4],"categories":[],"categories_nodes":[],"categories_segments":[],"categories_sizes":[],"default_left":[0,0,0,0,0,0,0,0,0,0,0,0,0,0,0],"id":80,"left_children":[1,3,5,7,9,11,13,-1,-1,-1,-1,-1,-1,-1,-1],"loss_changes":[3.0032764E-4,5.976229E-4,6.8959314E-4,9.176737E-4,3.0285335E-4,2.1872087E-4,3.255836E-4,0E0,0E0,0E0,0E0,0E0,0E0,0E0,0E0],"parents":[2147483647,0,0,1,1,2,2,3,3,4,4,5,5,6,6],"right_children":[2,4,6,8,10,12,14,-1,-1,-1,-1,-1,-1,-1,-1],"split_conditions":[5.7424657E-2,4.732397E-2,4.9438538E1,4.406003E-2,6.632177E1,-1.8211507E-3,6.632177E1,1.3130353E-5,-4.715966E-4,1.0759965E-4,5.617711E-4,-9.651463E-4,-5.3422806E-5,8.113516E-5,-1.978852E-4],"split_indices":[1,1,2,1,2,0,2,0,0,0,0,0,0,0,0],"split_type":[0,0,0,0,0,0,0,0,0,0,0,0,0,0,0],"sum_hessian":[4.8E2,4.37E2,4.3E1,4.22E2,1.5E1,3E0,4E1,4.13E2,9E0,9E0,6E0,2E0,1E0,2E1,2E1],"tree_param":{"num_deleted":"0","num_feature":"5","num_nodes":"15","size_leaf_vector":"1"}},{"base_weights":[8.9156065E-6,-7.4482063E-4,8.210929E-4,9.1637904E-4,-2.702893E-3,-1.0155728E-3,2.171905E-3,-1.230408E-4,1.0783887E-4,-7.05038E-5,-5.613835E-4,2.7227044E-4,-2.0205497E-4,5.1811856E-4,7.848172E-5],"categories":[],"categories_nodes":[],"categories_segments":[],"categories_sizes":[],"default_left":[0,0,0,0,0,0,0,0,0,0,0,0,0,0,0],"id":81,"left_children":[1,3,5,7,9,11,13,-1,-1,-1,-1,-1,-1,-1,-1],"loss_changes":[2.9506412E-4,8.156642E-4,5.7779544E-4,5.7502056E-4,1.2515807E-3,1.9572447E-3,6.4474036E-4,0E0,0E0,0E0,0E0,0E0,0E0,0E0,0E0],"parents":[2147483647,0,0,1,1,2,2,3,3,4,4,5,5,6,6],"right_children":[2,4,6,8,10,12,14,-1,-1,-1,-1,-1,-1,-1,-1],"split_conditions":[1.5024972E-2,1.2253684E-2,1E0,-5.7143257E-3,6.4500656E1,4.4050457E1,1.5289907E-2,-1.230408E-4,1.0783887E-4,-7.05038E-5,-5.613835E-4,2.7227044E-4,-2.0205497E-4,5.1811856E-4,7.848172E-5],"split_indices":[4,4,3,0,2,2,4,0,0,0,0,0,0,0,0],"split_type":[0,0,0,0,0,0,0,0,0,0,0,0,0,0,0],"sum_hessian":[4.8E2,2.49E2,2.31E2,1.35E2,1.14E2,9.8E1,1.33E2,3.6E1,9.9E1,1E2,1.4E1,3.1E1,6.7E1,8E0,1.25E2],"tree_param":{"num_deleted":"0","num_feature":"5","num_nodes":"15","size_leaf_vector":"1"}},{"base_weights":[8.510889E-6,1.2243017E-4,-5.3693303E-3,-2.1760497E-4,2.5063644E-3,1.9722444E-4,-6.842476E-3,-1.0950026E-6,-4.0609468E-4,-3.243705E-4,2.1274961E-4,-3.9068036E-4,2.316445E-5],"categories":[],"categories_nodes":[],"categories_segments":[],"categories_sizes":[],"default_left":[0,0,0,0,0,0,0,0,0,0,0,0,0],"id":82,"left_children":[1,3,5,7,9,-1,11,-1,-1,-1,-1,-1,-1],"loss_changes":[2.9533714E-4,3.831587E-4,1.6419616E-4,6.402421E-4,9.554829E-4,0E0,6.747368E-5,0E0,0E0,0E0,0E0,0E0,0E0],"parents":[2147483647,0,0,1,1,2,2,3,3,4,4,6,6],"right_children":[2,4,6,8,10,-1,12,-1,-1,-1,-1,-1,-1],"split_conditions":[7.6386795E1,1.6479895E-2,1.8061826E-2,1.4709203E-2,-1.5040947E-2,1.9722444E-4,1.967591E-2,-1.0950026E-6,-4.0609468E-4,-3.243705E-4,2.1274961E-4,-3.9068036E-4,2.316445E-5],"split_indices":[2,0,1,0,1,0,0,0,0,0,0,0,0],"split_type":[0,0,0,0,0,0,0,0,0,0,0,0,0],"sum_hessian":[4.8E2,4.71E2,9E0,4.13E2,5.8E1,1E0,8E0,4.04E2,9E0,9E0,4.9E1,7E0,1E0],"tree_param":{"num_deleted":"0","num_feature":"5","num_nodes":"13","size_leaf_vector":"1"}},{"base_weights":[6.6526995E-6,9.7647635E-3,-5.4476706E-5,6.8965333E-4,4.270398E-5,-6.0803476E-3,4.7772115E-5,-5.2265264E-4,4.5281067E-5,1.0311087E-4,-1.5406591E-5],"categories":[],"categories_nodes":[],"categories_segments":[],"categories_sizes":[],"default_left":[0,0,0,0,0,0,0,0,0,0,0],"id":83,"left_children":[1,3,5,-1,-1,7,9,-1,-1,-1,-1],"loss_changes":[2.874521E-4,9.590443E-5,2.9542064E-4,0E0,0E0,2.5384722E-4,3.3903535E-4,0E0,0E0,0E0,0E0],"parents":[2147483647,0,0,1,1,2,2,5,5,6,6],"right_children":[2,4,6,-1,-1,8,10,-1,-1,-1,-1],"split_conditions":[2.1568256E1,-4.8166998E-2,-7.647059E-2,6.8965333E-4,4.270398E-5,1E0,-3.1371906E-2,-5.2265264E-4,4.5281067E-5,1.0311087E-4,-1.5406591E-5],"split_indices":[2,0,1,0,0,3,1,0,0,0,0],"split_type":[0,0,0,0,0,0,0,0,0,0,0],"sum_hessian":[4.8E2,2E0,4.78E2,1E0,1E0,7E0,4.71E2,4E0,3E0,7E1,4.01E2],"tree_param":{"num_deleted":"0","num_feature":"5","num_nodes":"11","size_leaf_vector":"1"}},{"base_weights":[7.032477E-6,-6.266034E-3,9.9462864E-5,-6.628364E-4,-8.184112E-4,8.542841E-3,-6.347048E-5,1.8029539E-4,-4.628922E-4,1.2103607E-4,9.990087E-4,6.519573E-5,-3.76777E-5],"categories":[],"categories_nodes":[],"categories_segments":[],"categories_sizes":[],"default_left":[0,0,0,0,0,0,0,0,0,0,0,0,0],"id":84,"left_children":[1,3,5,-1,7,9,11,-1,-1,-1,-1,-1,-1],"loss_changes":[2.795176E-4,2.5572916E-4,6.5400347E-4,0E0,2.2007666E-4,5.818201E-4,4.4164844E-4,0E0,0E0,0E0,0E0,0E0,0E0],"parents":[2147483647,0,0,1,1,2,2,4,4,5,5,6,6],"right_children":[2,4,6,-1,8,10,12,-1,-1,-1,-1,-1,-1],"split_conditions":[7.6192743E-3,-5.95532E-3,8.46041E-3,-6.628364E-4,2.2389801E-2,8.440008E-3,-3.612231E-3,1.8029539E-4,-4.628922E-4,1.2103607E-4,9.990087E-4,6.519573E-5,-3.76777E-5],"split_indices":[4,0,4,0,1,4,0,0,0,0,0,0,0],"split_type":[0,0,0,0,0,0,0,0,0,0,0,0,0],"sum_hessian":[4.8E2,6E0,4.74E2,2E0,4E0,8E0,4.66E2,3E0,1E0,6E0,2E0,1.56E2,3.1E2],"tree_param":{"num_deleted":"0","num_feature":"5","num_nodes":"13","size_leaf_vector":"1"}},{"base_weights":[7.101074E-6,9.511473E-3,-5.2440086E-5,6.707821E-4,4.2578322E-5,-8.378554E-3,1.7637427E-5,-2.7241373E-5,-5.4040935E-4,-5.227736E-4,4.194286E-6],"categories":[],"categories_nodes":[],"categories_segments":[],"categories_sizes":[],"default_left":[0,0,0,0,0,0,0,0,0,0,0],"id":85,"left_children":[1,3,5,-1,-1,7,9,-1,-1,-1,-1],"loss_changes":[2.726973E-4,9.0004934E-5,2.796315E-4,0E0,0E0,7.0243725E-5,3.3113797E-4,0E0,0E0,0E0,0E0],"parents":[2147483647,0,0,1,1,2,2,5,5,6,6],"right_children":[2,4,6,-1,-1,8,10,-1,-1,-1,-1],"split_conditions":[2.1568256E1,-4.8166998E-2,-4.8166998E-2,6.707821E-4,4.2578322E-5,-1.08995914E-1,-1.08995914E-1,-2.7241373E-5,-5.4040935E-4,-5.227736E-4,4.194286E-6],"split_indices":[2,0,0,0,0,1,1,0,0,0,0],"split_type":[0,0,0,0,0,0,0,0,0,0,0],"sum_hessian":[4.8E2,2E0,4.78E2,1E0,1E0,3E0,4.75E2,1E0,2E0,2E0,4.73E2],"tree_param":{"num_deleted":"0","num_feature":"5","num_nodes":"11","size_leaf_vector":"1"}},{"base_weights":[5.9708395E-6,-7.819812E-5,6.68238E-3,2.0529527E-5,-9.382449E-3,3.424094E-3,4.3996508E-4,-3.0980846E-6,6.468656E-4,-9.664865E-4,1.846158E-4,1.9697603E-4,4.6945363E-5],"categories":[],"categories_nodes":[],"categories_segments":[],"categories_sizes":[],"default_left":[0,0,0,0,0,0,0,0,0,0,0,0,0],"id":86,"left_children":[1,3,5,7,9,11,-1,-1,-1,-1,-1,-1,-1],"loss_changes":[2.708188E-4,4.3743994E-4,1.1255557E-5,5.037275E-4,7.216633E-4,1.4248762E-6,0E0,0E0,0E0,0E0,0E0,0E0,0E0],"parents":[2147483647,0,0,1,1,2,2,3,3,4,4,5,5],"right_children":[2,4,6,8,10,12,-1,-1,-1,-1,-1,-1,-1],"split_conditions":[5.1091794E-2,5.061489E-2,1.8815855E-2,5.045343E-2,3.4520924E-2,4.3721194E-3,4.3996508E-4,-3.0980846E-6,6.468656E-4,-9.664865E-4,1.846158E-4,1.9697603E-4,4.6945363E-5],"split_indices":[4,4,0,4,1,0,0,0,0,0,0,0,0],"split_type":[0,0,0,0,0,0,0,0,0,0,0,0,0],"sum_hessian":[4.8E2,4.75E2,5E0,4.71E2,4E0,3E0,2E0,4.69E2,2E0,2E0,2E0,2E0,1E0],"tree_param":{"num_deleted":"0","num_feature":"5","num_nodes":"13","size_leaf_vector":"1"}},{"base_weights":[6.807022E-6,1.0341756E-4,-5.718218E-3,-2.2664503E-4,2.4288858E-3,1.6947981E-3,-8.47169E-3,-5.5695982E-5,5.192616E-5,-3.0315932E-4,2.0393613E-4,-6.103435E-5,1.881442E-4,-6.727092E-4,-1.3084483E-4],"categories":[],"categories_nodes":[],"categories_segments":[],"categories_sizes":[],"default_left":[0,0,0,0,0,0,0,0,0,0,0,0,0,0,0],"id":87,"left_children":[1,3,5,7,9,11,13,-1,-1,-1,-1,-1,-1,-1,-1],"loss_changes":[2.6663134E-4,3.6436922E-4,1.7765007E-4,4.681383E-4,8.513515E-4,2.2681725E-5,1.398206E-4,0E0,0E0,0E0,0E0,0E0,0E0,0E0,0E0],"parents":[2147483647,0,0,1,1,2,2,3,3,4,4,5,5,6,6],"right_children":[2,4,6,8,10,12,14,-1,-1,-1,-1,-1,-1,-1,-1],"split_conditions":[7.792006E1,1.6479895E-2,2.110767E-2,5.7210148E1,-1.5040947E-2,4.185998E-3,5.7946645E-2,-5.5695982E-5,5.192616E-5,-3.0315932E-4,2.0393613E-4,-6.103435E-5,1.881442E-4,-6.727092E-4,-1.3084483E-4],"split_indices":[2,0,1,2,1,0,1,0,0,0,0,0,0,0,0],"split_type":[0,0,0,0,0,0,0,0,0,0,0,0,0,0,0],"sum_hessian":[4.8E2,4.73E2,7E0,4.15E2,5.8E1,2E0,5E0,2.44E2,1.71E2,9E0,4.9E1,1E0,1E0,2E0,3E0],"tree_param":{"num_deleted":"0","num_feature":"5","num_nodes":"15","size_leaf_vector":"1"}},{"base_weights":[4.846207E-6,8.017605E-4,-7.4088026E-4,4.5118213E-4,1.6697899E-2,-6.9307326E-3,3.378307E-4,-6.4161235E-5,1.818032E-4,1.0494579E-3,3.420337E-4,-2.3980733E-4,-2.0943962E-3,1.8263835E-4,-2.4886269E-5],"categories":[],"categories_nodes":[],"categories_segments":[],"categories_sizes":[],"default_left":[0,0,0,0,0,0,0,0,0,0,0,0,0,0,0],"id":88,"left_children":[1,3,5,7,9,11,13,-1,-1,-1,-1,-1,-1,-1,-1],"loss_changes":[2.8644275E-4,1.2909386E-3,1.6649298E-3,1.2696348E-3,6.791949E-5,2.560008E-3,5.917887E-4,0E0,0E0,0E0,0E0,0E0,0E0,0E0,0E0],"parents":[2147483647,0,0,1,1,2,2,3,3,4,4,5,5,6,6],"right_children":[2,4,6,8,10,12,14,-1,-1,-1,-1,-1,-1,-1,-1],"split_conditions":[3.8662027E-3,4.8814613E-2,1.1070107E-2,-1.10799745E-2,-2.4546664E-2,1.962157E-2,1.8985488E-2,-6.4161235E-5,1.818032E-4,1.0494579E-3,3.420337E-4,-2.3980733E-4,-2.0943962E-3,1.8263835E-4,-2.4886269E-5],"split_indices":[1,4,1,1,1,4,1,0,0,0,0,0,0,0,0],"split_type":[0,0,0,0,0,0,0,0,0,0,0,0,0,0,0],"sum_hessian":[4.8E2,2.32E2,2.48E2,2.28E2,4E0,3.6E1,2.12E2,1.48E2,8E1,2E0,2E0,3.5E1,1E0,4.2E1,1.7E2],"tree_param":{"num_deleted":"0","num_feature":"5","num_nodes":"15","size_leaf_vector":"1"}},{"base_weights":[3.2164996E-6,1.0810985E-3,-5.224272E-4,6.424587E-4,1.2086229E-2,-4.6946052E-3,3.2939576E-4,5.17814E-5,-4.5813978E-4,7.860851E-4,1.6050949E-4,-9.6746255E-5,-7.2111073E-4,2.5544962E-4,1.4103889E-6],"categories":[],"categories_nodes":[],"categories_segments":[],"categories_sizes":[],"default_left":[0,0,0,0,0,0,0,0,0,0,0,0,0,0,0],"id":89,"left_children":[1,3,5,7,9,11,13,-1,-1,-1,-1,-1,-1,-1,-1],"loss_changes":[2.730907E-4,7.549466E-4,1.1530285E-3,5.9932354E-4,1.431419E-4,1.448574E-3,3.885363E-4,0E0,0E0,0E0,0E0,0E0,0E0,0E0,0E0],"parents":[2147483647,0,0,1,1,2,2,3,3,4,4,5,5,6,6],"right_children":[2,4,6,8,10,12,14,-1,-1,-1,-1,-1,-1,-1,-1],"split_conditions":[4.744461E1,4.7181824E1,5.1326477E1,3.382114E-2,1E0,1.8555693E-2,-1.5577789E-2,5.17814E-5,-4.5813978E-4,7.860851E-4,1.6050949E-4,-9.6746255E-5,-7.2111073E-4,2.5544962E-4,1.4103889E-6],"split_indices":[2,2,2,1,3,4,0,0,0,0,0,0,0,0,0],"split_type":[0,0,0,0,0,0,0,0,0,0,0,0,0,0,0],"sum_hessian":[4.8E2,1.57E2,3.23E2,1.52E2,5E0,5.4E1,2.69E2,1.47E2,5E0,3E0,2E0,4.3E1,1.1E1,1.5E1,2.54E2],"tree_param":{"num_deleted":"0","num_feature":"5","num_nodes":"15","size_leaf_vector":"1"}},{"base_weights":[3.012523E-6,-7.238606E-4,7.86268E-4,8.8066916E-4,-2.5553403E-3,1.8156224E-4,4.701245E-3,9.377208E-6,3.4041723E-4,-6.625267E-5,-5.416477E-4,-1.0351167E-4,8.53036E-5,7.9473323E-4,5.840482E-6],"categories":[],"categories_nodes":[],"categories_segments":[],"categories_sizes":[],"default_left":[0,0,0,0,0,0,0,0,0,0,0,0,0,0,0],"id":90,"left_children":[1,3,5,7,9,11,13,-1,-1,-1,-1,-1,-1,-1,-1],"loss_changes":[2.744156E-4,7.369163E-4,5.483854E-4,5.492782E-4,1.1771551E-3,6.9697463E-4,1.5889241E-3,0E0,0E0,0E0,0E0,0E0,0E0,0E0,0E0],"parents":[2147483647,0,0,1,1,2,2,3,3,4,4,5,5,6,6],"right_children":[2,4,6,8,10,12,14,-1,-1,-1,-1,-1,-1,-1,-1],"split_conditions":[1.5024972E-2,1.2166359E-2,1.947687E-2,1.2916164E-2,6.4500656E1,1E0,1.709068E-2,9.377208E-6,3.4041723E-4,-6.625267E-5,-5.416477E-4,-1.0351167E-4,8.53036E-5,7.9473323E-4,5.840482E-6],"split_indices":[4,4,0,0,2,3,4,0,0,0,0,0,0,0,0],"split_type":[0,0,0,0,0,0,0,0,0,0,0,0,0,0,0],"sum_hessian":[4.8E2,2.49E2,2.31E2,1.33E2,1.16E2,2.01E2,3E1,1.2E2,1.3E1,1.02E2,1.4E1,8.1E1,1.2E2,8E0,2.2E1],"tree_param":{"num_deleted":"0","num_feature":"5","num_nodes":"15","size_leaf_vector":"1"}},{"base_weights":[3.951854E-6,9.35252E-3,-5.460693E-5,6.583803E-4,4.3058793E-5,-1.3701202E-4,6.464496E-3,2.3376624E-6,-2.2700836E-4,1.6929873E-4,4.2071796E-4],"categories":[],"categories_nodes":[],"categories_segments":[],"categories_sizes":[],"default_left":[0,0,0,0,0,0,0,0,0,0,0],"id":91,"left_children":[1,3,5,-1,-1,7,9,-1,-1,-1,-1],"loss_changes":[2.6382972E-4,8.5846E-5,2.58208E-4,0E0,0E0,3.8374795E-4,7.5253483E-6,0E0,0E0,0E0,0E0],"parents":[2147483647,0,0,1,1,2,2,5,5,6,6],"right_children":[2,4,6,-1,-1,8,10,-1,-1,-1,-1],"split_conditions":[2.1568256E1,-4.8166998E-2,5.1091794E-2,6.583803E-4,4.3058793E-5,2.813879E-2,1.8815855E-2,2.3376624E-6,-2.2700836E-4,1.6929873E-4,4.2071796E-4],"split_indices":[2,0,4,0,0,4,0,0,0,0,0],"split_type":[0,0,0,0,0,0,0,0,0,0,0],"sum_hessian":[4.8E2,2E0,4.78E2,1E0,1E0,4.73E2,5E0,4.55E2,1.8E1,3E0,2E0],"tree_param":{"num_deleted":"0","num_feature":"5","num_nodes":"11","size_leaf_vector":"1"}},{"base_weights":[5.972131E-6,1.0602311E-3,-5.081603E-4,6.3782634E-4,1.1654848E-2,-4.5210887E-3,2.93339E-4,-3.3641314E-5,1.8991722E-4,7.5993524E-4,1.522378E-4,-9.227558E-5,-7.406195E-4,-1.3240654E-4,3.8487997E-5],"categories":[],"categories_nodes":[],"categories_segments":[],"categories_sizes":[],"default_left":[0,0,0,0,0,0,0,0,0,0,0,0,0,0,0],"id":92,"left_children":[1,3,5,7,9,11,13,-1,-1,-1,-1,-1,-1,-1,-1],"loss_changes":[2.6125458E-4,6.996505E-4,1.0434266E-3,6.363339E-4,1.3680122E-4,1.4595628E-3,3.8181178E-4,0E0,0E0,0E0,0E0,0E0,0E0,0E0,0E0],"parents":[2147483647,0,0,1,1,2,2,3,3,4,4,5,5,6,6],"right_children":[2,4,6,8,10,12,14,-1,-1,-1,-1,-1,-1,-1,-1],"split_conditions":[4.744461E1,4.7181824E1,5.1287354E1,1.8008424E-2,1E0,1.8555693E-2,-7.288134E-3,-3.3641314E-5,1.8991722E-4,7.5993524E-4,1.522378E-4,-9.227558E-5,-7.406195E-4,-1.3240654E-4,3.8487997E-5],"split_indices":[2,2,2,4,3,4,1,0,0,0,0,0,0,0,0],"split_type":[0,0,0,0,0,0,0,0,0,0,0,0,0,0,0],"sum_hessian":[4.8E2,1.57E2,3.23E2,1.52E2,5E0,5.3E1,2.7E2,1.08E2,4.4E1,3E0,2E0,4.3E1,1E1,3.7E1,2.33E2],"tree_param":{"num_deleted":"0","num_feature":"5","num_nodes":"15","size_leaf_vector":"1"}},{"base_weights":[5.967999E-6,1.8640351E-4,-3.0349258E-3,-6.377783E-4,2.7170044E-4,-7.7736033E-3,2.0980259E-4,5.7368254E-4,6.053393E-6,8.734437E-5,-4.450171E-4,3.3665015E-4,-2.514869E-4],"categories":[],"categories_nodes":[],"categories_segments":[],"categories_sizes":[],"default_left":[0,0,0,0,0,0,0,0,0,0,0,0,0],"id":93,"left_children":[1,3,5,-1,7,9,11,-1,-1,-1,-1,-1,-1],"loss_changes":[2.644833E-4,5.057448E-4,4.1677547E-4,0E0,7.6299347E-4,1.3354595E-4,6.149009E-4,0E0,0E0,0E0,0E0,0E0,0E0],"parents":[2147483647,0,0,1,1,2,2,4,4,5,5,6,6],"right_children":[2,4,6,-1,8,10,12,-1,-1,-1,-1,-1,-1],"split_conditions":[7.344362E1,7.6192743E-3,7.52168E1,-6.377783E-4,8.46041E-3,1.4675764E-2,7.6386795E1,5.7368254E-4,6.053393E-6,8.734437E-5,-4.450171E-4,3.3665015E-4,-2.514869E-4],"split_indices":[2,4,2,0,4,1,2,0,0,0,0,0,0],"split_type":[0,0,0,0,0,0,0,0,0,0,0,0,0],"sum_hessian":[4.8E2,4.54E2,2.6E1,2E0,4.52E2,1E1,1.6E1,5E0,4.47E2,1E0,9E0,7E0,9E0],"tree_param":{"num_deleted":"0","num_feature":"5","num_nodes":"13","size_leaf_vector":"1"}},{"base_weights":[4.9823584E-6,7.6456676E-4,-7.058134E-4,4.2735177E-4,1.6056102E-2,-6.624432E-3,3.2561703E-4,-6.03689E-5,1.7145857E-4,1.0172349E-3,3.2077354E-4,-2.2913802E-4,-2.0031151E-3,1.7524809E-4,-2.3788574E-5],"categories":[],"categories_nodes":[],"categories_segments":[],"categories_sizes":[],"default_left":[0,0,0,0,0,0,0,0,0,0,0,0,0,0,0],"id":94,"left_children":[1,3,5,7,9,11,13,-1,-1,-1,-1,-1,-1,-1,-1],"loss_changes":[2.602361E-4,1.1946111E-3,1.5222132E-3,1.1278808E-3,7.6203025E-5,2.3423627E-3,5.443682E-4,0E0,0E0,0E0,0E0,0E0,0E0,0E0,0E0],"parents":[2147483647,0,0,1,1,2,2,3,3,4,4,5,5,6,6],"right_children":[2,4,6,8,10,12,14,-1,-1,-1,-1,-1,-1,-1,-1],"split_conditions":[3.8662027E-3,4.8814613E-2,1.1070107E-2,-1.10799745E-2,-2.4546664E-2,1.962157E-2,1.8985488E-2,-6.03689E-5,1.7145857E-4,1.0172349E-3,3.2077354E-4,-2.2913802E-4,-2.0031151E-3,1.7524809E-4,-2.3788574E-5],"split_indices":[1,4,1,1,1,4,1,0,0,0,0,0,0,0,0],"split_type":[0,0,0,0,0,0,0,0,0,0,0,0,0,0,0],"sum_hessian":[4.8E2,2.32E2,2.48E2,2.28E2,4E0,3.6E1,2.12E2,1.48E2,8E1,2E0,2E0,3.5E1,1E0,4.2E1,1.7E2],"tree_param":{"num_deleted":"0","num_feature":"5","num_nodes":"15","size_leaf_vector":"1"}},{"base_weights":[3.4199372E-6,1.360969E-3,-4.075231E-4,7.7542453E-4,1.6976817E-2,-1.16505325E-2,1.3354662E-4,-1.4683741E-5,2.7738002E-4,9.833272E-4,2.2269091E-4,-2.3580137E-4,-7.073454E-4,3.31548E-4,-1.2737865E-5],"categories":[],"categories_nodes":[],"categories_segments":[],"categories_sizes":[],"default_left":[0,0,0,0,0,0,0,0,0,0,0,0,0,0,0],"id":95,"left_children":[1,3,5,7,9,11,13,-1,-1,-1,-1,-1,-1,-1,-1],"loss_changes":[2.6889268E-4,1.0109385E-3,2.2523592E-3,5.577396E-4,4.71425E-5,2.2757193E-4,8.94821E-4,0E0,0E0,0E0,0E0,0E0,0E0,0E0,0E0],"parents":[2147483647,0,0,1,1,2,2,3,3,4,4,5,5,6,6],"right_children":[2,4,6,8,10,12,14,-1,-1,-1,-1,-1,-1,-1,-1],"split_conditions":[-2.0210797E-2,4.8814613E-2,-1.6465E-2,-2.8374197E-2,-2.4546664E-2,-1.8999515E-2,-1.5577789E-2,-1.4683741E-5,2.7738002E-4,9.833272E-4,2.2269091E-4,-2.3580137E-4,-7.073454E-4,3.31548E-4,-1.2737865E-5],"split_indices":[1,4,1,1,1,1,0,0,0,0,0,0,0,0,0],"split_type":[0,0,0,0,0,0,0,0,0,0,0,0,0,0,0],"sum_hessian":[4.8E2,1.11E2,3.69E2,1.08E2,3E0,1.6E1,3.53E2,8.9E1,1.9E1,2E0,1E0,5E0,1.1E1,1.9E1,3.34E2],"tree_param":{"num_deleted":"0","num_feature":"5","num_nodes":"15","size_leaf_vector":"1"}},{"base_weights":[5.004392E-6,9.112614E-3,-5.2047453E-5,6.388977E-4,4.454835E-5,-7.939607E-3,1.4343906E-5,-1.9540917E-5,-5.162799E-4,-4.936868E-4,3.844821E-6],"categories":[],"categories_nodes":[],"categories_segments":[],"categories_sizes":[],"default_left":[0,0,0,0,0,0,0,0,0,0,0],"id":96,"left_children":[1,3,5,-1,-1,7,9,-1,-1,-1,-1],"loss_changes":[2.5040476E-4,7.9020654E-5,2.5094982E-4,0E0,0E0,6.800989E-5,2.951768E-4,0E0,0E0,0E0,0E0],"parents":[2147483647,0,0,1,1,2,2,5,5,6,6],"right_children":[2,4,6,-1,-1,8,10,-1,-1,-1,-1],"split_conditions":[2.1568256E1,-4.8166998E-2,-4.8166998E-2,6.388977E-4,4.454835E-5,-1.08995914E-1,-1.08995914E-1,-1.9540917E-5,-5.162799E-4,-4.936868E-4,3.844821E-6],"split_indices":[2,0,0,0,0,1,1,0,0,0,0],"split_type":[0,0,0,0,0,0,0,0,0,0,0],"sum_hessian":[4.8E2,2E0,4.78E2,1E0,1E0,3E0,4.75E2,1E0,2E0,2E0,4.73E2],"tree_param":{"num_deleted":"0","num_feature":"5","num_nodes":"11","size_leaf_vector":"1"}},{"base_weights":[4.042694E-6,1.3145714E-3,-3.926688E-4,7.479413E-4,1.6426597E-2,-1.1127104E-2,1.2393591E-4,-1.3379518E-5,2.6402186E-4,9.504214E-4,2.1702753E-4,-2.2613652E-4,-6.7510165E-4,3.1561684E-4,-1.2294541E-5],"categories":[],"categories_nodes":[],"categories_segments":[],"categories_sizes":[],"default_left":[0,0,0,0,0,0,0,0,0,0,0,0,0,0,0],"id":97,"left_children":[1,3,5,7,9,11,13,-1,-1,-1,-1,-1,-1,-1,-1],"loss_changes":[2.5058893E-4,9.4676163E-4,2.0531993E-3,5.031283E-4,4.230952E-5,2.0557735E-4,8.117293E-4,0E0,0E0,0E0,0E0,0E0,0E0,0E0,0E0],"parents":[2147483647,0,0,1,1,2,2,3,3,4,4,5,5,6,6],"right_children":[2,4,6,8,10,12,14,-1,-1,-1,-1,-1,-1,-1,-1],"split_conditions":[-2.0210797E-2,4.8814613E-2,-1.6465E-2,-2.8374197E-2,-2.4546664E-2,-1.8999515E-2,-1.5577789E-2,-1.3379518E-5,2.6402186E-4,9.504214E-4,2.1702753E-4,-2.2613652E-4,-6.7510165E-4,3.1561684E-4,-1.2294541E-5],"split_indices":[1,4,1,1,1,1,0,0,0,0,0,0,0,0,0],"split_type":[0,0,0,0,0,0,0,0,0,0,0,0,0,0,0],"sum_hessian":[4.8E2,1.11E2,3.69E2,1.08E2,3E0,1.6E1,3.53E2,8.9E1,1.9E1,2E0,1E0,5E0,1.1E1,1.9E1,3.34E2],"tree_param":{"num_deleted":"0","num_feature":"5","num_nodes":"15","size_leaf_vector":"1"}},{"base_weights":[5.545733E-6,1.6095488E-3,-3.1367264E-4,1.042858E-3,1.1018935E-3,9.7058405E-4,-4.6082863E-4,-2.1067028E-5,3.562981E-4,-5.0313416E-4,-8.17214E-6],"categories":[],"categories_nodes":[],"categories_segments":[],"categories_sizes":[],"default_left":[0,0,0,0,0,0,0,0,0,0,0],"id":98,"left_children":[1,3,5,-1,7,-1,9,-1,-1,-1,-1],"loss_changes":[2.4679E-4,7.5870974E-4,1.1758324E-3,0E0,7.2791165E-4,0E0,1.1405377E-3,0E0,0E0,0E0,0E0],"parents":[2147483647,0,0,1,1,2,2,4,4,6,6],"right_children":[2,4,6,-1,8,-1,10,-1,-1,-1,-1],"split_conditions":[-3.1371906E-2,8.46041E-3,3.1148716E1,1.042858E-3,-3.5178617E-2,9.7058405E-4,-2.8374197E-2,-2.1067028E-5,3.562981E-4,-5.0313416E-4,-8.17214E-6],"split_indices":[1,4,2,0,1,0,1,0,0,0,0],"split_type":[0,0,0,0,0,0,0,0,0,0,0],"sum_hessian":[4.8E2,7.9E1,4.01E2,1E0,7.8E1,2E0,3.99E2,6.3E1,1.5E1,1.1E1,3.88E2],"tree_param":{"num_deleted":"0","num_feature":"5","num_nodes":"11","size_leaf_vector":"1"}},{"base_weights":[9.088362E-6,-6.755439E-4,7.4679946E-4,4.744542E-3,-1.1674841E-3,1.6092486E-4,4.540344E-3,1.0167866E-3,1.4740981E-4,3.2727432E-5,-1.6340439E-4,-9.8987366E-5,8.051492E-5,8.640566E-4,3.956546E-5],"categories":[],"categories_nodes":[],"categories_segments":[],"categories_sizes":[],"default_left":[0,0,0,0,0,0,0,0,0,0,0,0,0,0,0],"id":99,"left_children":[1,3,5,7,9,11,13,-1,-1,-1,-1,-1,-1,-1,-1],"loss_changes":[2.4343876E-4,6.721288E-4,5.14899E-4,5.2819675E-4,8.824339E-4,6.2991993E-4,1.4670608E-3,0E0,0E0,0E0,0E0,0E0,0E0,0E0,0E0],"parents":[2147483647,0,0,1,1,2,2,3,3,4,4,5,5,6,6],"right_children":[2,4,6,8,10,12,14,-1,-1,-1,-1,-1,-1,-1,-1],"split_conditions":[1.5024972E-2,-3.903558E-2,1.947687E-2,8.46041E-3,1.2253684E-2,1E0,1.6198536E-2,1.0167866E-3,1.4740981E-4,3.2727432E-5,-1.6340439E-4,-9.8987366E-5,8.051492E-5,8.640566E-4,3.956546E-5],"split_indices":[4,1,0,4,4,3,4,0,0,0,0,0,0,0,0],"split_type":[0,0,0,0,0,0,0,0,0,0,0,0,0,0,0],"sum_hessian":[4.8E2,2.49E2,2.31E2,2E1,2.29E2,2.01E2,3E1,1E0,1.9E1,1.23E2,1.06E2,8.1E1,1.2E2,6E0,2.4E1],"tree_param":{"num_deleted":"0","num_feature":"5","num_nodes":"15","size_leaf_vector":"1"}}]},"name":"gbtree"},"learner_model_param":{"base_score":"[1.0007191E-3]","boost_from_average":"1","num_class":"0","num_feature":"5","num_target":"1"},"objective":{"name":"reg:squarederror","reg_loss_param":{"scale_pos_weight":"1"}}},"version":[3,1,2]}