{"learner":{"attributes":{"scikit_learn":"{\"_estimator_type\": \"regressor\"}"},"feature_names":["Ret_1d","Ret_5d","RSI","Trend_Signal","Vol_20d"],"feature_types":["float","float","float","int","float"],"gradient_booster":{"model":{"cats":{"enc":[],"feature_segments":[],"sorted_idx":[]},"gbtree_model_param":{"num_parallel_tree":"1","num_trees":"100"},"iteration_indptr":[0,1,2,3,4,5,6,7,8,9,10,11,12,13,14,15,16,17,18,19,20,21,22,23,24,25,26,27,28,29,30,31,32,33,34,35,36,37,38,39,40,41,42,43,44,45,46,47,48,49,50,51,52,53,54,55,56,57,58,59,60,61,62,63,64,65,66,67,68,69,70,71,72,73,74,75,76,77,78,79,80,81,82,83,84,85,86,87,88,89,90,91,92,93,94,95,96,97,98,99,100],"tree_info":[0,0,0,0,0,0,0,0,0,0,0,0,0,0,0,0,0,0,0,0,0,0,0,0,0,0,0,0,0,0,0,0,0,0,0,0,0,0,0,0,0,0,0,0,0,0,0,0,0,0,0,0,0,0,0,0,0,0,0,0,0,0,0,0,0,0,0,0,0,0,0,0,0,0,0,0,0,0,0,0,0,0,0,0,0,0,0,0,0,0,0,0,0,0,0,0,0,0,0,0],"trees":[{"base_weights":[-7.3092365E-11,3.942503E-2,-2.469209E-4,3.3056748E-3,-3.487975E-4,-1.4611804E-3,-6.415996E-5,4.2223977E-4,-3.475085E-5],"categories":[],"categories_nodes":[],"categories_segments":[],"categories_sizes":[],"default_left":[0,0,0,0,0,0,0,0,0],"id":0,"left_children":[1,3,5,-1,-1,-1,7,-1,-1],"loss_changes":[4.6922034E-3,4.176317E-3,2.5348165E-3,0E0,0E0,0E0,2.5663744E-3,0E0,0E0],"parents":[2147483647,0,0,1,1,2,2,6,6],"right_children":[2,4,6,-1,-1,-1,8,-1,-1],"split_conditions":[-1.19783096E-1,-1.23005E-2,-5.896473E-2,3.3056748E-3,-3.487975E-4,-1.4611804E-3,-2.1790218E-2,4.2223977E-4,-3.475085E-5],"split_indices":[1,0,0,0,0,0,0,0,0],"split_type":[0,0,0,0,0,0,0,0,0],"sum_hessian":[4.8E2,2E0,4.78E2,1E0,1E0,2E0,4.76E2,3.2E1,4.44E2],"tree_param":{"num_deleted":"0","num_feature":"5","num_nodes":"9","size_leaf_vector":"1"}},{"base_weights":[3.915248E-6,3.8439404E-2,-2.3681624E-4,3.223033E-3,-3.4007756E-4,-1.4124744E-3,-6.0139453E-5,4.0176758E-4,-3.3017204E-5],"categories":[],"categories_nodes":[],"categories_segments":[],"categories_sizes":[],"default_left":[0,0,0,0,0,0,0,0,0],"id":1,"left_children":[1,3,5,-1,-1,-1,7,-1,-1],"loss_changes":[4.459619E-3,3.9701113E-3,2.3689624E-3,0E0,0E0,0E0,2.3230254E-3,0E0,0E0],"parents":[2147483647,0,0,1,1,2,2,6,6],"right_children":[2,4,6,-1,-1,-1,8,-1,-1],"split_conditions":[-1.19783096E-1,-1.23005E-2,-5.896473E-2,3.223033E-3,-3.4007756E-4,-1.4124744E-3,-2.1790218E-2,4.0176758E-4,-3.3017204E-5],"split_indices":[1,0,0,0,0,0,0,0,0],"split_type":[0,0,0,0,0,0,0,0,0],"sum_hessian":[4.8E2,2E0,4.78E2,1E0,1E0,2E0,4.76E2,3.2E1,4.44E2],"tree_param":{"num_deleted":"0","num_feature":"5","num_nodes":"9","size_leaf_vector":"1"}},{"base_weights":[7.5432554E-6,3.747842E-2,-2.2715439E-4,3.1424572E-3,-3.3157563E-4,-1.3653919E-3,-5.6359415E-5,3.8228792E-4,-3.1370055E-5],"categories":[],"categories_nodes":[],"categories_segments":[],"categories_sizes":[],"default_left":[0,0,0,0,0,0,0,0,0],"id":2,"left_children":[1,3,5,-1,-1,-1,7,-1,-1],"loss_changes":[4.238584E-3,3.7740879E-3,2.213953E-3,0E0,0E0,0E0,2.1027527E-3,0E0,0E0],"parents":[2147483647,0,0,1,1,2,2,6,6],"right_children":[2,4,6,-1,-1,-1,8,-1,-1],"split_conditions":[-1.19783096E-1,-1.23005E-2,-5.896473E-2,3.1424572E-3,-3.3157563E-4,-1.3653919E-3,-2.1790218E-2,3.8228792E-4,-3.1370055E-5],"split_indices":[1,0,0,0,0,0,0,0,0],"split_type":[0,0,0,0,0,0,0,0,0],"sum_hessian":[4.8E2,2E0,4.78E2,1E0,1E0,2E0,4.76E2,3.2E1,4.44E2],"tree_param":{"num_deleted":"0","num_feature":"5","num_nodes":"9","size_leaf_vector":"1"}},{"base_weights":[1.090091E-5,3.6541462E-2,-2.179145E-4,3.0638957E-3,-3.2328625E-4,-1.3198789E-3,-5.2805688E-5,3.6375274E-4,-2.980507E-5],"categories":[],"categories_nodes":[],"categories_segments":[],"categories_sizes":[],"default_left":[0,0,0,0,0,0,0,0,0],"id":3,"left_children":[1,3,5,-1,-1,-1,7,-1,-1],"loss_changes":[4.028524E-3,3.5877423E-3,2.0690802E-3,0E0,0E0,0E0,1.9033668E-3,0E0,0E0],"parents":[2147483647,0,0,1,1,2,2,6,6],"right_children":[2,4,6,-1,-1,-1,8,-1,-1],"split_conditions":[-1.19783096E-1,-1.23005E-2,-5.896473E-2,3.0638957E-3,-3.2328625E-4,-1.3198789E-3,-2.1790218E-2,3.6375274E-4,-2.980507E-5],"split_indices":[1,0,0,0,0,0,0,0,0],"split_type":[0,0,0,0,0,0,0,0,0],"sum_hessian":[4.8E2,2E0,4.78E2,1E0,1E0,2E0,4.76E2,3.2E1,4.44E2],"tree_param":{"num_deleted":"0","num_feature":"5","num_nodes":"9","size_leaf_vector":"1"}},{"base_weights":[1.4003773E-5,3.5627924E-2,-2.0907716E-4,2.9872984E-3,-3.152041E-4,-1.2758828E-3,-4.9465383E-5,3.4611623E-4,-2.831817E-5],"categories":[],"categories_nodes":[],"categories_segments":[],"categories_sizes":[],"default_left":[0,0,0,0,0,0,0,0,0],"id":4,"left_children":[1,3,5,-1,-1,-1,7,-1,-1],"loss_changes":[3.8288913E-3,3.410597E-3,1.9336808E-3,0E0,0E0,0E0,1.7228874E-3,0E0,0E0],"parents":[2147483647,0,0,1,1,2,2,6,6],"right_children":[2,4,6,-1,-1,-1,8,-1,-1],"split_conditions":[-1.19783096E-1,-1.23005E-2,-5.896473E-2,2.9872984E-3,-3.152041E-4,-1.2758828E-3,-2.1790218E-2,3.4611623E-4,-2.831817E-5],"split_indices":[1,0,0,0,0,0,0,0,0],"split_type":[0,0,0,0,0,0,0,0,0],"sum_hessian":[4.8E2,2E0,4.78E2,1E0,1E0,2E0,4.76E2,3.2E1,4.44E2],"tree_param":{"num_deleted":"0","num_feature":"5","num_nodes":"9","size_leaf_vector":"1"}},{"base_weights":[1.686703E-5,3.4737226E-2,-2.0062344E-4,2.912616E-3,-3.0732396E-4,-1.2333534E-3,-4.6325844E-5,3.2933484E-4,-2.6905442E-5],"categories":[],"categories_nodes":[],"categories_segments":[],"categories_sizes":[],"default_left":[0,0,0,0,0,0,0,0,0],"id":5,"left_children":[1,3,5,-1,-1,-1,7,-1,-1],"loss_changes":[3.6391667E-3,3.2421986E-3,1.8071367E-3,0E0,0E0,0E0,1.559522E-3,0E0,0E0],"parents":[2147483647,0,0,1,1,2,2,6,6],"right_children":[2,4,6,-1,-1,-1,8,-1,-1],"split_conditions":[-1.19783096E-1,-1.23005E-2,-5.896473E-2,2.912616E-3,-3.0732396E-4,-1.2333534E-3,-2.1790218E-2,3.2933484E-4,-2.6905442E-5],"split_indices":[1,0,0,0,0,0,0,0,0],"split_type":[0,0,0,0,0,0,0,0,0],"sum_hessian":[4.8E2,2E0,4.78E2,1E0,1E0,2E0,4.76E2,3.2E1,4.44E2],"tree_param":{"num_deleted":"0","num_feature":"5","num_nodes":"9","size_leaf_vector":"1"}},{"base_weights":[1.9504729E-5,3.3868793E-2,-1.925357E-4,2.8398004E-3,-2.996409E-4,-1.1922417E-3,-4.3375487E-5,3.133671E-4,-2.5563193E-5],"categories":[],"categories_nodes":[],"categories_segments":[],"categories_sizes":[],"default_left":[0,0,0,0,0,0,0,0,0],"id":6,"left_children":[1,3,5,-1,-1,-1,7,-1,-1],"loss_changes":[3.458859E-3,3.0821152E-3,1.688869E-3,0E0,0E0,0E0,1.4116475E-3,0E0,0E0],"parents":[2147483647,0,0,1,1,2,2,6,6],"right_children":[2,4,6,-1,-1,-1,8,-1,-1],"split_conditions":[-1.19783096E-1,-1.23005E-2,-5.896473E-2,2.8398004E-3,-2.996409E-4,-1.1922417E-3,-2.1790218E-2,3.133671E-4,-2.5563193E-5],"split_indices":[1,0,0,0,0,0,0,0,0],"split_type":[0,0,0,0,0,0,0,0,0],"sum_hessian":[4.8E2,2E0,4.78E2,1E0,1E0,2E0,4.76E2,3.2E1,4.44E2],"tree_param":{"num_deleted":"0","num_feature":"5","num_nodes":"9","size_leaf_vector":"1"}},{"base_weights":[2.1930024E-5,3.3022076E-2,-1.8479725E-4,2.7688055E-3,-2.9214987E-4,-1.1525003E-3,-4.06035E-5,-1.6686769E-5,4.8387618E-4],"categories":[],"categories_nodes":[],"categories_segments":[],"categories_sizes":[],"default_left":[0,0,0,0,0,0,0,0,0],"id":7,"left_children":[1,3,5,-1,-1,-1,7,-1,-1],"loss_changes":[3.2874984E-3,2.9299362E-3,1.5783365E-3,0E0,0E0,0E0,1.3620562E-3,0E0,0E0],"parents":[2147483647,0,0,1,1,2,2,6,6],"right_children":[2,4,6,-1,-1,-1,8,-1,-1],"split_conditions":[-1.19783096E-1,-1.23005E-2,-5.896473E-2,2.7688055E-3,-2.9214987E-4,-1.1525003E-3,4.480636E-2,-1.6686769E-5,4.8387618E-4],"split_indices":[1,0,0,0,0,0,4,0,0],"split_type":[0,0,0,0,0,0,0,0,0],"sum_hessian":[4.8E2,2E0,4.78E2,1E0,1E0,2E0,4.76E2,4.63E2,1.3E1],"tree_param":{"num_deleted":"0","num_feature":"5","num_nodes":"9","size_leaf_vector":"1"}},{"base_weights":[2.4557845E-5,3.219652E-2,-1.7698797E-4,2.6995854E-3,-2.8484612E-4,-1.1140836E-3,-3.7593778E-5,2.9746577E-4,-2.4074116E-5],"categories":[],"categories_nodes":[],"categories_segments":[],"categories_sizes":[],"default_left":[0,0,0,0,0,0,0,0,0],"id":8,"left_children":[1,3,5,-1,-1,-1,7,-1,-1],"loss_changes":[3.1245626E-3,2.78527E-3,1.4750882E-3,0E0,0E0,0E0,1.2705016E-3,0E0,0E0],"parents":[2147483647,0,0,1,1,2,2,6,6],"right_children":[2,4,6,-1,-1,-1,8,-1,-1],"split_conditions":[-1.19783096E-1,-1.23005E-2,-5.896473E-2,2.6995854E-3,-2.8484612E-4,-1.1140836E-3,-2.1790218E-2,2.9746577E-4,-2.4074116E-5],"split_indices":[1,0,0,0,0,0,0,0,0],"split_type":[0,0,0,0,0,0,0,0,0],"sum_hessian":[4.8E2,2E0,4.78E2,1E0,1E0,2E0,4.76E2,3.2E1,4.44E2],"tree_param":{"num_deleted":"0","num_feature":"5","num_nodes":"9","size_leaf_vector":"1"}},{"base_weights":[2.6602327E-5,3.139161E-2,-1.6989376E-4,2.6320957E-3,-2.7772496E-4,-1.0027821E-2,1.2663173E-4,-8.747896E-4,-1.1199345E-4,3.6375853E-4,-1.6479999E-5],"categories":[],"categories_nodes":[],"categories_segments":[],"categories_sizes":[],"default_left":[0,0,0,0,0,0,0,0,0,0,0],"id":9,"left_children":[1,3,5,-1,-1,7,9,-1,-1,-1,-1],"loss_changes":[2.9697847E-3,2.6477475E-3,1.4014476E-3,0E0,0E0,7.7505445E-4,1.5222059E-3,0E0,0E0,0E0,0E0],"parents":[2147483647,0,0,1,1,2,2,5,5,6,6],"right_children":[2,4,6,-1,-1,8,10,-1,-1,-1,-1],"split_conditions":[-1.19783096E-1,-1.23005E-2,3.268193E1,2.6320957E-3,-2.7772496E-4,-7.546201E-2,-2.1790218E-2,-8.747896E-4,-1.1199345E-4,3.6375853E-4,-1.6479999E-5],"split_indices":[1,0,2,0,0,1,0,0,0,0,0],"split_type":[0,0,0,0,0,0,0,0,0,0,0],"sum_hessian":[4.8E2,2E0,4.78E2,1E0,1E0,1.3E1,4.65E2,6E0,7E0,2.7E1,4.38E2],"tree_param":{"num_deleted":"0","num_feature":"5","num_nodes":"11","size_leaf_vector":"1"}},{"base_weights":[2.8837474E-5,3.060682E-2,-1.627341E-4,2.5662933E-3,-2.7078183E-4,-1.0684303E-3,-2.9022678E-5,-1.5319225E-5,4.582807E-4],"categories":[],"categories_nodes":[],"categories_segments":[],"categories_sizes":[],"default_left":[0,0,0,0,0,0,0,0,0],"id":10,"left_children":[1,3,5,-1,-1,-1,7,-1,-1],"loss_changes":[2.822617E-3,2.5170152E-3,1.3575684E-3,0E0,0E0,0E0,1.2192732E-3,0E0,0E0],"parents":[2147483647,0,0,1,1,2,2,6,6],"right_children":[2,4,6,-1,-1,-1,8,-1,-1],"split_conditions":[-1.19783096E-1,-1.23005E-2,-5.896473E-2,2.5662933E-3,-2.7078183E-4,-1.0684303E-3,4.480636E-2,-1.5319225E-5,4.582807E-4],"split_indices":[1,0,0,0,0,0,4,0,0],"split_type":[0,0,0,0,0,0,0,0,0],"sum_hessian":[4.8E2,2E0,4.78E2,1E0,1E0,2E0,4.76E2,4.63E2,1.3E1],"tree_param":{"num_deleted":"0","num_feature":"5","num_nodes":"9","size_leaf_vector":"1"}},{"base_weights":[3.0867614E-5,2.9841648E-2,-1.5590318E-4,2.502136E-3,-2.6401228E-4,-1.032816E-3,-2.6642909E-5,-1.4554915E-5,4.370034E-4],"categories":[],"categories_nodes":[],"categories_segments":[],"categories_sizes":[],"default_left":[0,0,0,0,0,0,0,0,0],"id":11,"left_children":[1,3,5,-1,-1,-1,7,-1,-1],"loss_changes":[2.6827564E-3,2.3927374E-3,1.2687467E-3,0E0,0E0,0E0,1.1084229E-3,0E0,0E0],"parents":[2147483647,0,0,1,1,2,2,6,6],"right_children":[2,4,6,-1,-1,-1,8,-1,-1],"split_conditions":[-1.19783096E-1,-1.23005E-2,-5.896473E-2,2.502136E-3,-2.6401228E-4,-1.032816E-3,4.480636E-2,-1.4554915E-5,4.370034E-4],"split_indices":[1,0,0,0,0,0,4,0,0],"split_type":[0,0,0,0,0,0,0,0,0],"sum_hessian":[4.8E2,2E0,4.78E2,1E0,1E0,2E0,4.76E2,4.63E2,1.3E1],"tree_param":{"num_deleted":"0","num_feature":"5","num_nodes":"9","size_leaf_vector":"1"}},{"base_weights":[3.2708387E-5,2.9095607E-2,-1.4938223E-4,2.4395825E-3,-2.5741197E-4,-9.421219E-3,1.2949137E-4,8.8172725E-5,-7.035717E-4,3.480553E-4,-1.532665E-5],"categories":[],"categories_nodes":[],"categories_segments":[],"categories_sizes":[],"default_left":[0,0,0,0,0,0,0,0,0,0,0],"id":12,"left_children":[1,3,5,-1,-1,7,9,-1,-1,-1,-1],"loss_changes":[2.5498376E-3,2.2745957E-3,1.2397561E-3,0E0,0E0,7.5297034E-4,1.3902317E-3,0E0,0E0,0E0,0E0],"parents":[2147483647,0,0,1,1,2,2,5,5,6,6],"right_children":[2,4,6,-1,-1,8,10,-1,-1,-1,-1],"split_conditions":[-1.19783096E-1,-1.23005E-2,3.268193E1,2.4395825E-3,-2.5741197E-4,2.6261856E1,-2.1790218E-2,8.8172725E-5,-7.035717E-4,3.480553E-4,-1.532665E-5],"split_indices":[1,0,2,0,0,2,0,0,0,0,0],"split_type":[0,0,0,0,0,0,0,0,0,0,0],"sum_hessian":[4.8E2,2E0,4.78E2,1E0,1E0,1.3E1,4.65E2,4E0,9E0,2.7E1,4.38E2],"tree_param":{"num_deleted":"0","num_feature":"5","num_nodes":"11","size_leaf_vector":"1"}},{"base_weights":[3.5021974E-5,2.8368218E-2,-1.4250331E-4,2.378593E-3,-2.5097668E-4,-9.924634E-4,-1.8262635E-5,7.5344046E-6,-6.6530047E-4],"categories":[],"categories_nodes":[],"categories_segments":[],"categories_sizes":[],"default_left":[0,0,0,0,0,0,0,0,0],"id":13,"left_children":[1,3,5,-1,-1,-1,7,-1,-1],"loss_changes":[2.4234045E-3,2.1622882E-3,1.1724124E-3,0E0,0E0,0E0,1.0728579E-3,0E0,0E0],"parents":[2147483647,0,0,1,1,2,2,6,6],"right_children":[2,4,6,-1,-1,-1,8,-1,-1],"split_conditions":[-1.19783096E-1,-1.23005E-2,-5.896473E-2,2.378593E-3,-2.5097668E-4,-9.924634E-4,6.2252842E-2,7.5344046E-6,-6.6530047E-4],"split_indices":[1,0,0,0,0,0,0,0,0],"split_type":[0,0,0,0,0,0,0,0,0],"sum_hessian":[4.8E2,2E0,4.78E2,1E0,1E0,2E0,4.76E2,4.71E2,5E0],"tree_param":{"num_deleted":"0","num_feature":"5","num_nodes":"9","size_leaf_vector":"1"}},{"base_weights":[3.426338E-5,2.765901E-2,-1.3882328E-4,2.319128E-3,-2.4470227E-4,-8.929683E-3,1.255777E-4,-8.012157E-4,-8.028353E-5,1.8921233E-4,-3.1553038E-5],"categories":[],"categories_nodes":[],"categories_segments":[],"categories_sizes":[],"default_left":[0,0,0,0,0,0,0,0,0,0,0],"id":14,"left_children":[1,3,5,-1,-1,7,9,-1,-1,-1,-1],"loss_changes":[2.3037293E-3,2.055525E-3,1.1144667E-3,0E0,0E0,7.0172653E-4,1.292411E-3,0E0,0E0,0E0,0E0],"parents":[2147483647,0,0,1,1,2,2,5,5,6,6],"right_children":[2,4,6,-1,-1,8,10,-1,-1,-1,-1],"split_conditions":[-1.19783096E-1,-1.23005E-2,3.268193E1,2.319128E-3,-2.4470227E-4,-7.546201E-2,4.6951553E1,-8.012157E-4,-8.028353E-5,1.8921233E-4,-3.1553038E-5],"split_indices":[1,0,2,0,0,1,2,0,0,0,0],"split_type":[0,0,0,0,0,0,0,0,0,0,0],"sum_hessian":[4.8E2,2E0,4.78E2,1E0,1E0,1.3E1,4.65E2,6E0,7E0,7.9E1,3.86E2],"tree_param":{"num_deleted":"0","num_feature":"5","num_nodes":"11","size_leaf_vector":"1"}},{"base_weights":[3.535811E-5,2.6967537E-2,-1.3339323E-4,2.26115E-3,-2.385847E-4,-9.4918127E-4,-1.4558656E-5,-6.5232794E-5,8.591452E-5],"categories":[],"categories_nodes":[],"categories_segments":[],"categories_sizes":[],"default_left":[0,0,0,0,0,0,0,0,0],"id":15,"left_children":[1,3,5,-1,-1,-1,7,-1,-1],"loss_changes":[2.1896658E-3,1.9540328E-3,1.0727119E-3,0E0,0E0,0E0,1.0685963E-3,0E0,0E0],"parents":[2147483647,0,0,1,1,2,2,6,6],"right_children":[2,4,6,-1,-1,-1,8,-1,-1],"split_conditions":[-1.19783096E-1,-1.23005E-2,-5.896473E-2,2.26115E-3,-2.385847E-4,-9.4918127E-4,1.5619552E-2,-6.5232794E-5,8.591452E-5],"split_indices":[1,0,0,0,0,0,4,0,0],"split_type":[0,0,0,0,0,0,0,0,0],"sum_hessian":[4.8E2,2E0,4.78E2,1E0,1E0,2E0,4.76E2,2.73E2,2.03E2],"tree_param":{"num_deleted":"0","num_feature":"5","num_nodes":"9","size_leaf_vector":"1"}},{"base_weights":[3.58648E-5,2.6293349E-2,-1.2866195E-4,2.2046212E-3,-2.3262008E-4,-8.476432E-3,1.2240552E-4,1.0574715E-4,-6.4622384E-4,3.3005912E-4,-1.4554913E-5],"categories":[],"categories_nodes":[],"categories_segments":[],"categories_sizes":[],"default_left":[0,0,0,0,0,0,0,0,0,0,0],"id":16,"left_children":[1,3,5,-1,-1,7,9,-1,-1,-1,-1],"loss_changes":[2.0813313E-3,1.8575529E-3,1.0049514E-3,0E0,0E0,6.868872E-4,1.250335E-3,0E0,0E0,0E0,0E0],"parents":[2147483647,0,0,1,1,2,2,5,5,6,6],"right_children":[2,4,6,-1,-1,8,10,-1,-1,-1,-1],"split_conditions":[-1.19783096E-1,-1.23005E-2,3.268193E1,2.2046212E-3,-2.3262008E-4,2.6261856E1,-2.1790218E-2,1.0574715E-4,-6.4622384E-4,3.3005912E-4,-1.4554913E-5],"split_indices":[1,0,2,0,0,2,0,0,0,0,0],"split_type":[0,0,0,0,0,0,0,0,0,0,0],"sum_hessian":[4.8E2,2E0,4.78E2,1E0,1E0,1.3E1,4.65E2,4E0,9E0,2.7E1,4.38E2],"tree_param":{"num_deleted":"0","num_feature":"5","num_nodes":"11","size_leaf_vector":"1"}},{"base_weights":[3.7703598E-5,2.5636015E-2,-1.2269858E-4,2.1495058E-3,-2.2680456E-4,-9.122725E-4,-8.461781E-6,7.698339E-6,-6.392382E-4],"categories":[],"categories_nodes":[],"categories_segments":[],"categories_sizes":[],"default_left":[0,0,0,0,0,0,0,0,0],"id":17,"left_children":[1,3,5,-1,-1,-1,7,-1,-1],"loss_changes":[1.9781431E-3,1.7658365E-3,9.91512E-4,0E0,0E0,0E0,9.918562E-4,0E0,0E0],"parents":[2147483647,0,0,1,1,2,2,6,6],"right_children":[2,4,6,-1,-1,-1,8,-1,-1],"split_conditions":[-1.19783096E-1,-1.23005E-2,-5.896473E-2,2.1495058E-3,-2.2680456E-4,-9.122725E-4,6.2252842E-2,7.698339E-6,-6.392382E-4],"split_indices":[1,0,0,0,0,0,0,0,0],"split_type":[0,0,0,0,0,0,0,0,0],"sum_hessian":[4.8E2,2E0,4.78E2,1E0,1E0,2E0,4.76E2,4.71E2,5E0],"tree_param":{"num_deleted":"0","num_feature":"5","num_nodes":"9","size_leaf_vector":"1"}},{"base_weights":[3.660617E-5,2.4995115E-2,-1.19786586E-4,2.095768E-3,-2.2113447E-4,-3.6699913E-4,8.117415E-3,-7.286784E-6,-1.2943248E-3,1.0352036E-3,-5.878114E-5],"categories":[],"categories_nodes":[],"categories_segments":[],"categories_sizes":[],"default_left":[0,0,0,0,0,0,0,0,0,0,0],"id":18,"left_children":[1,3,5,-1,-1,7,9,-1,-1,-1,-1],"loss_changes":[1.8804957E-3,1.678648E-3,9.783858E-4,0E0,0E0,2.627511E-3,1.6618958E-3,0E0,0E0,0E0,0E0],"parents":[2147483647,0,0,1,1,2,2,5,5,6,6],"right_children":[2,4,6,-1,-1,8,10,-1,-1,-1,-1],"split_conditions":[-1.19783096E-1,-1.23005E-2,4.480636E-2,2.095768E-3,-2.2113447E-4,4.3513797E-2,8.865682E-3,-7.286784E-6,-1.2943248E-3,1.0352036E-3,-5.878114E-5],"split_indices":[1,0,4,0,0,4,1,0,0,0,0],"split_type":[0,0,0,0,0,0,0,0,0,0,0],"sum_hessian":[4.8E2,2E0,4.78E2,1E0,1E0,4.65E2,1.3E1,4.62E2,3E0,5E0,8E0],"tree_param":{"num_deleted":"0","num_feature":"5","num_nodes":"11","size_leaf_vector":"1"}},{"base_weights":[3.799717E-5,2.4370236E-2,-1.1447614E-4,2.0433739E-3,-2.1560611E-4,-8.816205E-4,-4.0604655E-6,-6.141488E-5,8.2013896E-5],"categories":[],"categories_nodes":[],"categories_segments":[],"categories_sizes":[],"default_left":[0,0,0,0,0,0,0,0,0],"id":19,"left_children":[1,3,5,-1,-1,-1,7,-1,-1],"loss_changes":[1.7873081E-3,1.5957651E-3,9.2643633E-4,0E0,0E0,0E0,9.622444E-4,0E0,0E0],"parents":[2147483647,0,0,1,1,2,2,6,6],"right_children":[2,4,6,-1,-1,-1,8,-1,-1],"split_conditions":[-1.19783096E-1,-1.23005E-2,-5.896473E-2,2.0433739E-3,-2.1560611E-4,-8.816205E-4,1.5619552E-2,-6.141488E-5,8.2013896E-5],"split_indices":[1,0,0,0,0,0,4,0,0],"split_type":[0,0,0,0,0,0,0,0,0],"sum_hessian":[4.8E2,2E0,4.78E2,1E0,1E0,2E0,4.76E2,2.73E2,2.03E2],"tree_param":{"num_deleted":"0","num_feature":"5","num_nodes":"9","size_leaf_vector":"1"}},{"base_weights":[3.8107228E-5,2.3760982E-2,-1.1054982E-4,1.9922897E-3,-2.1021595E-4,-7.961496E-3,1.2555275E-4,-7.3955883E-4,-4.9516926E-5,1.7997838E-4,-2.9645713E-5],"categories":[],"categories_nodes":[],"categories_segments":[],"categories_sizes":[],"default_left":[0,0,0,0,0,0,0,0,0,0,0],"id":20,"left_children":[1,3,5,-1,-1,7,9,-1,-1,-1,-1],"loss_changes":[1.6989082E-3,1.516974E-3,8.888877E-4,0E0,0E0,6.519026E-4,1.1652538E-3,0E0,0E0,0E0,0E0],"parents":[2147483647,0,0,1,1,2,2,5,5,6,6],"right_children":[2,4,6,-1,-1,8,10,-1,-1,-1,-1],"split_conditions":[-1.19783096E-1,-1.23005E-2,3.268193E1,1.9922897E-3,-2.1021595E-4,-7.546201E-2,4.6951553E1,-7.3955883E-4,-4.9516926E-5,1.7997838E-4,-2.9645713E-5],"split_indices":[1,0,2,0,0,1,2,0,0,0,0],"split_type":[0,0,0,0,0,0,0,0,0,0,0],"sum_hessian":[4.8E2,2E0,4.78E2,1E0,1E0,1.3E1,4.65E2,6E0,7E0,7.9E1,3.86E2],"tree_param":{"num_deleted":"0","num_feature":"5","num_nodes":"11","size_leaf_vector":"1"}},{"base_weights":[3.857887E-5,2.3166955E-2,-1.063558E-4,1.9424822E-3,-2.0496057E-4,4.537202E-5,-1.2075128E-2,-5.8678044E-5,8.5338805E-5,-1.4440527E-3,-1.4688664E-4],"categories":[],"categories_nodes":[],"categories_segments":[],"categories_sizes":[],"default_left":[0,0,0,0,0,0,0,0,0,0,0],"id":21,"left_children":[1,3,5,-1,-1,7,9,-1,-1,-1,-1],"loss_changes":[1.6148258E-3,1.4420733E-3,8.704098E-4,0E0,0E0,9.619194E-4,8.365294E-4,0E0,0E0,0E0,0E0],"parents":[2147483647,0,0,1,1,2,2,5,5,6,6],"right_children":[2,4,6,-1,-1,8,10,-1,-1,-1,-1],"split_conditions":[-1.19783096E-1,-1.23005E-2,6.2252842E-2,1.9424822E-3,-2.0496057E-4,1.5619552E-2,-4.537905E-2,-5.8678044E-5,8.5338805E-5,-1.4440527E-3,-1.4688664E-4],"split_indices":[1,0,0,0,0,4,1,0,0,0,0],"split_type":[0,0,0,0,0,0,0,0,0,0,0],"sum_hessian":[4.8E2,2E0,4.78E2,1E0,1E0,4.73E2,5E0,2.73E2,2E2,1E0,4E0],"tree_param":{"num_deleted":"0","num_feature":"5","num_nodes":"11","size_leaf_vector":"1"}},{"base_weights":[3.7010057E-5,2.2587784E-2,-1.04303785E-4,1.8939202E-3,-1.9983655E-4,-8.4575143E-4,1.6427126E-6,2.4973552E-4,-1.8431672E-5],"categories":[],"categories_nodes":[],"categories_segments":[],"categories_sizes":[],"default_left":[0,0,0,0,0,0,0,0,0],"id":22,"left_children":[1,3,5,-1,-1,-1,7,-1,-1],"loss_changes":[1.5351763E-3,1.3708709E-3,8.5314474E-4,0E0,0E0,0E0,8.8372536E-4,0E0,0E0],"parents":[2147483647,0,0,1,1,2,2,6,6],"right_children":[2,4,6,-1,-1,-1,8,-1,-1],"split_conditions":[-1.19783096E-1,-1.23005E-2,-5.896473E-2,1.8939202E-3,-1.9983655E-4,-8.4575143E-4,-2.1790218E-2,2.4973552E-4,-1.8431672E-5],"split_indices":[1,0,0,0,0,0,0,0,0],"split_type":[0,0,0,0,0,0,0,0,0],"sum_hessian":[4.8E2,2E0,4.78E2,1E0,1E0,2E0,4.76E2,3.2E1,4.44E2],"tree_param":{"num_deleted":"0","num_feature":"5","num_nodes":"9","size_leaf_vector":"1"}},{"base_weights":[3.740421E-5,2.202309E-2,-1.0037128E-4,1.8465724E-3,-1.9484064E-4,-3.3021643E-4,7.5573577E-3,-5.9363038E-6,-1.2363836E-3,9.773902E-4,-6.3798936E-5],"categories":[],"categories_nodes":[],"categories_segments":[],"categories_sizes":[],"default_left":[0,0,0,0,0,0,0,0,0,0,0],"id":23,"left_children":[1,3,5,-1,-1,7,9,-1,-1,-1,-1],"loss_changes":[1.4592021E-3,1.3031843E-3,8.4557955E-4,0E0,0E0,2.4015433E-3,1.5077617E-3,0E0,0E0,0E0,0E0],"parents":[2147483647,0,0,1,1,2,2,5,5,6,6],"right_children":[2,4,6,-1,-1,8,10,-1,-1,-1,-1],"split_conditions":[-1.19783096E-1,-1.23005E-2,4.480636E-2,1.8465724E-3,-1.9484064E-4,4.3513797E-2,8.865682E-3,-5.9363038E-6,-1.2363836E-3,9.773902E-4,-6.3798936E-5],"split_indices":[1,0,4,0,0,4,1,0,0,0,0],"split_type":[0,0,0,0,0,0,0,0,0,0,0],"sum_hessian":[4.8E2,2E0,4.78E2,1E0,1E0,4.65E2,1.3E1,4.62E2,3E0,5E0,8E0],"tree_param":{"num_deleted":"0","num_feature":"5","num_nodes":"11","size_leaf_vector":"1"}},{"base_weights":[3.8284426E-5,2.1472512E-2,-9.60391E-5,1.800408E-3,-1.8996962E-4,-7.660226E-3,1.3141724E-4,1.1309998E-4,-5.927658E-4,1.706093E-4,-2.7355873E-5],"categories":[],"categories_nodes":[],"categories_segments":[],"categories_sizes":[],"default_left":[0,0,0,0,0,0,0,0,0,0,0],"id":24,"left_children":[1,3,5,-1,-1,7,9,-1,-1,-1,-1],"loss_changes":[1.3869194E-3,1.2388397E-3,8.2513684E-4,0E0,0E0,6.095615E-4,1.0392366E-3,0E0,0E0,0E0,0E0],"parents":[2147483647,0,0,1,1,2,2,5,5,6,6],"right_children":[2,4,6,-1,-1,8,10,-1,-1,-1,-1],"split_conditions":[-1.19783096E-1,-1.23005E-2,3.268193E1,1.800408E-3,-1.8996962E-4,2.6261856E1,4.6951553E1,1.1309998E-4,-5.927658E-4,1.706093E-4,-2.7355873E-5],"split_indices":[1,0,2,0,0,2,2,0,0,0,0],"split_type":[0,0,0,0,0,0,0,0,0,0,0],"sum_hessian":[4.8E2,2E0,4.78E2,1E0,1E0,1.3E1,4.65E2,4E0,9E0,7.9E1,3.86E2],"tree_param":{"num_deleted":"0","num_feature":"5","num_nodes":"11","size_leaf_vector":"1"}},{"base_weights":[3.901888E-5,2.09357E-2,-9.193949E-5,1.7553978E-3,-1.8522037E-4,5.2512845E-5,-1.148835E-2,-5.5179076E-5,8.141105E-5,-1.3758971E-3,-1.3894221E-4],"categories":[],"categories_nodes":[],"categories_segments":[],"categories_sizes":[],"default_left":[0,0,0,0,0,0,0,0,0,0,0],"id":25,"left_children":[1,3,5,-1,-1,7,9,-1,-1,-1,-1],"loss_changes":[1.3182272E-3,1.177672E-3,7.8915135E-4,0E0,0E0,8.652671E-4,7.6119084E-4,0E0,0E0,0E0,0E0],"parents":[2147483647,0,0,1,1,2,2,5,5,6,6],"right_children":[2,4,6,-1,-1,8,10,-1,-1,-1,-1],"split_conditions":[-1.19783096E-1,-1.23005E-2,6.2252842E-2,1.7553978E-3,-1.8522037E-4,1.5619552E-2,-4.537905E-2,-5.5179076E-5,8.141105E-5,-1.3758971E-3,-1.3894221E-4],"split_indices":[1,0,0,0,0,4,1,0,0,0,0],"split_type":[0,0,0,0,0,0,0,0,0,0,0],"sum_hessian":[4.8E2,2E0,4.78E2,1E0,1E0,4.73E2,5E0,2.73E2,2E2,1E0,4E0],"tree_param":{"num_deleted":"0","num_feature":"5","num_nodes":"11","size_leaf_vector":"1"}},{"base_weights":[3.723748E-5,2.0412305E-2,-9.045029E-5,1.7115128E-3,-1.8058986E-4,-8.130396E-4,1.1439597E-5,4.2050237E-5,-1.070263E-4],"categories":[],"categories_nodes":[],"categories_segments":[],"categories_sizes":[],"default_left":[0,0,0,0,0,0,0,0,0],"id":26,"left_children":[1,3,5,-1,-1,-1,7,-1,-1],"loss_changes":[1.2532384E-3,1.1195241E-3,7.893836E-4,0E0,0E0,0E0,8.5333845E-4,0E0,0E0],"parents":[2147483647,0,0,1,1,2,2,6,6],"right_children":[2,4,6,-1,-1,-1,8,-1,-1],"split_conditions":[-1.19783096E-1,-1.23005E-2,-5.896473E-2,1.7115128E-3,-1.8058986E-4,-8.130396E-4,6.4244225E1,4.2050237E-5,-1.070263E-4],"split_indices":[1,0,0,0,0,0,2,0,0],"split_type":[0,0,0,0,0,0,0,0,0],"sum_hessian":[4.8E2,2E0,4.78E2,1E0,1E0,2E0,4.76E2,3.44E2,1.32E2],"tree_param":{"num_deleted":"0","num_feature":"5","num_nodes":"9","size_leaf_vector":"1"}},{"base_weights":[3.6733032E-5,1.9901998E-2,-8.776077E-5,1.668725E-3,-1.7607512E-4,-7.2967457E-3,1.2900651E-4,-6.9721404E-4,-2.8402987E-5,2.911502E-4,-1.1722902E-5],"categories":[],"categories_nodes":[],"categories_segments":[],"categories_sizes":[],"default_left":[0,0,0,0,0,0,0,0,0,0,0],"id":27,"left_children":[1,3,5,-1,-1,7,9,-1,-1,-1,-1],"loss_changes":[1.1913087E-3,1.064248E-3,7.4946124E-4,0E0,0E0,6.182872E-4,9.6578314E-4,0E0,0E0,0E0,0E0],"parents":[2147483647,0,0,1,1,2,2,5,5,6,6],"right_children":[2,4,6,-1,-1,8,10,-1,-1,-1,-1],"split_conditions":[-1.19783096E-1,-1.23005E-2,3.268193E1,1.668725E-3,-1.7607512E-4,-7.546201E-2,-2.1790218E-2,-6.9721404E-4,-2.8402987E-5,2.911502E-4,-1.1722902E-5],"split_indices":[1,0,2,0,0,1,0,0,0,0,0],"split_type":[0,0,0,0,0,0,0,0,0,0,0],"sum_hessian":[4.8E2,2E0,4.78E2,1E0,1E0,1.3E1,4.65E2,6E0,7E0,2.7E1,4.38E2],"tree_param":{"num_deleted":"0","num_feature":"5","num_nodes":"11","size_leaf_vector":"1"}},{"base_weights":[3.7071954E-5,1.9404449E-2,-8.430426E-5,1.6270069E-3,-1.7167324E-4,5.5529756E-5,-1.1117141E-2,-5.294007E-5,7.8714605E-5,-1.3422578E-3,-1.3012532E-4],"categories":[],"categories_nodes":[],"categories_segments":[],"categories_sizes":[],"default_left":[0,0,0,0,0,0,0,0,0,0,0],"id":28,"left_children":[1,3,5,-1,-1,7,9,-1,-1,-1,-1],"loss_changes":[1.1323413E-3,1.0117007E-3,7.3960214E-4,0E0,0E0,8.0386654E-4,7.3364505E-4,0E0,0E0,0E0,0E0],"parents":[2147483647,0,0,1,1,2,2,5,5,6,6],"right_children":[2,4,6,-1,-1,8,10,-1,-1,-1,-1],"split_conditions":[-1.19783096E-1,-1.23005E-2,6.2252842E-2,1.6270069E-3,-1.7167324E-4,1.5619552E-2,-4.537905E-2,-5.294007E-5,7.8714605E-5,-1.3422578E-3,-1.3012532E-4],"split_indices":[1,0,0,0,0,4,1,0,0,0,0],"split_type":[0,0,0,0,0,0,0,0,0,0,0],"sum_hessian":[4.8E2,2E0,4.78E2,1E0,1E0,4.73E2,5E0,2.73E2,2E2,1E0,4E0],"tree_param":{"num_deleted":"0","num_feature":"5","num_nodes":"11","size_leaf_vector":"1"}},{"base_weights":[3.5236568E-5,1.8919338E-2,-8.310904E-5,1.5863319E-3,-1.6738141E-4,-7.817945E-4,1.4881421E-5,4.0248506E-5,-1.0173543E-4],"categories":[],"categories_nodes":[],"categories_segments":[],"categories_sizes":[],"default_left":[0,0,0,0,0,0,0,0,0],"id":29,"left_children":[1,3,5,-1,-1,-1,7,-1,-1],"loss_changes":[1.0765354E-3,9.6174784E-4,7.3024014E-4,0E0,0E0,0E0,7.7407167E-4,0E0,0E0],"parents":[2147483647,0,0,1,1,2,2,6,6],"right_children":[2,4,6,-1,-1,-1,8,-1,-1],"split_conditions":[-1.19783096E-1,-1.23005E-2,-5.896473E-2,1.5863319E-3,-1.6738141E-4,-7.817945E-4,6.4244225E1,4.0248506E-5,-1.0173543E-4],"split_indices":[1,0,0,0,0,0,2,0,0],"split_type":[0,0,0,0,0,0,0,0,0],"sum_hessian":[4.8E2,2E0,4.78E2,1E0,1E0,2E0,4.76E2,3.44E2,1.32E2],"tree_param":{"num_deleted":"0","num_feature":"5","num_nodes":"9","size_leaf_vector":"1"}},{"base_weights":[3.4671575E-5,1.8446354E-2,-8.071406E-5,1.5466735E-3,-1.6319688E-4,-2.9152236E-4,6.941956E-3,-4.5918146E-6,-1.1666153E-3,9.181959E-4,-7.220063E-5],"categories":[],"categories_nodes":[],"categories_segments":[],"categories_sizes":[],"default_left":[0,0,0,0,0,0,0,0,0,0,0],"id":30,"left_children":[1,3,5,-1,-1,7,9,-1,-1,-1,-1],"loss_changes":[1.0233462E-3,9.142617E-4,7.1115314E-4,0E0,0E0,2.1418876E-3,1.3674966E-3,0E0,0E0,0E0,0E0],"parents":[2147483647,0,0,1,1,2,2,5,5,6,6],"right_children":[2,4,6,-1,-1,8,10,-1,-1,-1,-1],"split_conditions":[-1.19783096E-1,-1.23005E-2,4.480636E-2,1.5466735E-3,-1.6319688E-4,4.3513797E-2,8.865682E-3,-4.5918146E-6,-1.1666153E-3,9.181959E-4,-7.220063E-5],"split_indices":[1,0,4,0,0,4,1,0,0,0,0],"split_type":[0,0,0,0,0,0,0,0,0,0,0],"sum_hessian":[4.8E2,2E0,4.78E2,1E0,1E0,4.65E2,1.3E1,4.62E2,3E0,5E0,8E0],"tree_param":{"num_deleted":"0","num_feature":"5","num_nodes":"11","size_leaf_vector":"1"}},{"base_weights":[3.5138102E-5,1.7985195E-2,-7.735733E-5,1.5080067E-3,-1.5911696E-4,-6.965396E-3,1.2974546E-4,-6.6542294E-4,-2.7227059E-5,3.421906E-4,-7.764625E-6],"categories":[],"categories_nodes":[],"categories_segments":[],"categories_sizes":[],"default_left":[0,0,0,0,0,0,0,0,0,0,0],"id":31,"left_children":[1,3,5,-1,-1,7,9,-1,-1,-1,-1],"loss_changes":[9.7267434E-4,8.691199E-4,6.8421254E-4,0E0,0E0,5.629434E-4,8.9287653E-4,0E0,0E0,0E0,0E0],"parents":[2147483647,0,0,1,1,2,2,5,5,6,6],"right_children":[2,4,6,-1,-1,8,10,-1,-1,-1,-1],"split_conditions":[-1.19783096E-1,-1.23005E-2,3.268193E1,1.5080067E-3,-1.5911696E-4,-7.546201E-2,-4.782517E-2,-6.6542294E-4,-2.7227059E-5,3.421906E-4,-7.764625E-6],"split_indices":[1,0,2,0,0,1,1,0,0,0,0],"split_type":[0,0,0,0,0,0,0,0,0,0,0],"sum_hessian":[4.8E2,2E0,4.78E2,1E0,1E0,1.3E1,4.65E2,6E0,7E0,1.8E1,4.47E2],"tree_param":{"num_deleted":"0","num_feature":"5","num_nodes":"11","size_leaf_vector":"1"}},{"base_weights":[3.544077E-5,1.7535567E-2,-7.4237345E-5,1.4703065E-3,-1.5513903E-4,-7.5019425E-4,1.9815448E-5,3.840697E-5,-9.607374E-5],"categories":[],"categories_nodes":[],"categories_segments":[],"categories_sizes":[],"default_left":[0,0,0,0,0,0,0,0,0],"id":32,"left_children":[1,3,5,-1,-1,-1,7,-1,-1],"loss_changes":[9.24524E-4,8.262072E-4,6.728972E-4,0E0,0E0,0E0,6.9442054E-4,0E0,0E0],"parents":[2147483647,0,0,1,1,2,2,6,6],"right_children":[2,4,6,-1,-1,-1,8,-1,-1],"split_conditions":[-1.19783096E-1,-1.23005E-2,-5.896473E-2,1.4703065E-3,-1.5513903E-4,-7.5019425E-4,6.4244225E1,3.840697E-5,-9.607374E-5],"split_indices":[1,0,0,0,0,0,2,0,0],"split_type":[0,0,0,0,0,0,0,0,0],"sum_hessian":[4.8E2,2E0,4.78E2,1E0,1E0,2E0,4.76E2,3.44E2,1.32E2],"tree_param":{"num_deleted":"0","num_feature":"5","num_nodes":"9","size_leaf_vector":"1"}},{"base_weights":[3.472349E-5,1.7097179E-2,-7.221197E-5,1.4335489E-3,-1.5126055E-4,6.0317772E-5,-1.0530027E-2,-5.3627045E-5,7.571131E-5,-1.2813082E-3,-1.19278324E-4],"categories":[],"categories_nodes":[],"categories_segments":[],"categories_sizes":[],"default_left":[0,0,0,0,0,0,0,0,0,0,0],"id":33,"left_children":[1,3,5,-1,-1,7,9,-1,-1,-1,-1],"loss_changes":[8.788584E-4,7.8541314E-4,6.645154E-4,0E0,0E0,7.823365E-4,6.7656644E-4,0E0,0E0,0E0,0E0],"parents":[2147483647,0,0,1,1,2,2,5,5,6,6],"right_children":[2,4,6,-1,-1,8,10,-1,-1,-1,-1],"split_conditions":[-1.19783096E-1,-1.23005E-2,6.2252842E-2,1.4335489E-3,-1.5126055E-4,2.8569673E-3,-4.537905E-2,-5.3627045E-5,7.571131E-5,-1.2813082E-3,-1.19278324E-4],"split_indices":[1,0,0,0,0,0,1,0,0,0,0],"split_type":[0,0,0,0,0,0,0,0,0,0,0],"sum_hessian":[4.8E2,2E0,4.78E2,1E0,1E0,4.73E2,5E0,2.66E2,2.07E2,1E0,4E0],"tree_param":{"num_deleted":"0","num_feature":"5","num_nodes":"11","size_leaf_vector":"1"}},{"base_weights":[3.278722E-5,1.6669748E-2,-7.147931E-5,1.3977102E-3,-1.4747903E-4,-2.7183842E-4,6.6027218E-3,-4.119218E-6,-1.1066593E-3,8.776619E-4,-7.156291E-5],"categories":[],"categories_nodes":[],"categories_segments":[],"categories_sizes":[],"default_left":[0,0,0,0,0,0,0,0,0,0,0],"id":34,"left_children":[1,3,5,-1,-1,7,9,-1,-1,-1,-1],"loss_changes":[8.355718E-4,7.466334E-4,6.423314E-4,0E0,0E0,1.9282184E-3,1.2567905E-3,0E0,0E0,0E0,0E0],"parents":[2147483647,0,0,1,1,2,2,5,5,6,6],"right_children":[2,4,6,-1,-1,8,10,-1,-1,-1,-1],"split_conditions":[-1.19783096E-1,-1.23005E-2,4.480636E-2,1.3977102E-3,-1.4747903E-4,4.3513797E-2,8.865682E-3,-4.119218E-6,-1.1066593E-3,8.776619E-4,-7.156291E-5],"split_indices":[1,0,4,0,0,4,1,0,0,0,0],"split_type":[0,0,0,0,0,0,0,0,0,0,0],"sum_hessian":[4.8E2,2E0,4.78E2,1E0,1E0,4.65E2,1.3E1,4.62E2,3E0,5E0,8E0],"tree_param":{"num_deleted":"0","num_feature":"5","num_nodes":"11","size_leaf_vector":"1"}},{"base_weights":[3.311371E-5,1.6253006E-2,-6.854138E-5,1.3627674E-3,-1.4379206E-4,-7.23263E-4,2.2147711E-5,-5.0670813E-5,7.0647184E-5],"categories":[],"categories_nodes":[],"categories_segments":[],"categories_sizes":[],"default_left":[0,0,0,0,0,0,0,0,0],"id":35,"left_children":[1,3,5,-1,-1,-1,7,-1,-1],"loss_changes":[7.942034E-4,7.097684E-4,6.2571495E-4,0E0,0E0,0E0,6.88435E-4,0E0,0E0],"parents":[2147483647,0,0,1,1,2,2,6,6],"right_children":[2,4,6,-1,-1,-1,8,-1,-1],"split_conditions":[-1.19783096E-1,-1.23005E-2,-5.896473E-2,1.3627674E-3,-1.4379206E-4,-7.23263E-4,1.5619552E-2,-5.0670813E-5,7.0647184E-5],"split_indices":[1,0,0,0,0,0,4,0,0],"split_type":[0,0,0,0,0,0,0,0,0],"sum_hessian":[4.8E2,2E0,4.78E2,1E0,1E0,2E0,4.76E2,2.73E2,2.03E2],"tree_param":{"num_deleted":"0","num_feature":"5","num_nodes":"9","size_leaf_vector":"1"}},{"base_weights":[3.253012E-5,1.5846679E-2,-6.6582565E-5,1.3286982E-3,-1.4019725E-4,6.067256E-5,-1.010864E-2,-5.0125887E-5,7.125746E-5,-1.2233753E-3,-1.1716831E-4],"categories":[],"categories_nodes":[],"categories_segments":[],"categories_sizes":[],"default_left":[0,0,0,0,0,0,0,0,0,0,0],"id":36,"left_children":[1,3,5,-1,-1,7,9,-1,-1,-1,-1],"loss_changes":[7.549662E-4,6.7472353E-4,6.12729E-4,0E0,0E0,6.890598E-4,6.1166676E-4,0E0,0E0,0E0,0E0],"parents":[2147483647,0,0,1,1,2,2,5,5,6,6],"right_children":[2,4,6,-1,-1,8,10,-1,-1,-1,-1],"split_conditions":[-1.19783096E-1,-1.23005E-2,6.2252842E-2,1.3286982E-3,-1.4019725E-4,2.8569673E-3,-4.537905E-2,-5.0125887E-5,7.125746E-5,-1.2233753E-3,-1.1716831E-4],"split_indices":[1,0,0,0,0,0,1,0,0,0,0],"split_type":[0,0,0,0,0,0,0,0,0,0,0],"sum_hessian":[4.8E2,2E0,4.78E2,1E0,1E0,4.73E2,5E0,2.66E2,2.07E2,1E0,4E0],"tree_param":{"num_deleted":"0","num_feature":"5","num_nodes":"11","size_leaf_vector":"1"}},{"base_weights":[3.063147E-5,1.5450511E-2,-6.600793E-5,1.2954808E-3,-1.3669232E-4,-6.5119117E-3,1.2778748E-4,-5.5931014E-4,7.9242156E-5,1.5578716E-4,-2.45104E-5],"categories":[],"categories_nodes":[],"categories_segments":[],"categories_sizes":[],"default_left":[0,0,0,0,0,0,0,0,0,0,0],"id":37,"left_children":[1,3,5,-1,-1,7,9,-1,-1,-1,-1],"loss_changes":[7.177906E-4,6.414091E-4,5.991926E-4,0E0,0E0,5.475805E-4,8.6201646E-4,0E0,0E0,0E0,0E0],"parents":[2147483647,0,0,1,1,2,2,5,5,6,6],"right_children":[2,4,6,-1,-1,8,10,-1,-1,-1,-1],"split_conditions":[-1.19783096E-1,-1.23005E-2,3.268193E1,1.2954808E-3,-1.3669232E-4,1.7466707E-2,4.6951553E1,-5.5931014E-4,7.9242156E-5,1.5578716E-4,-2.45104E-5],"split_indices":[1,0,2,0,0,4,2,0,0,0,0],"split_type":[0,0,0,0,0,0,0,0,0,0,0],"sum_hessian":[4.8E2,2E0,4.78E2,1E0,1E0,1.3E1,4.65E2,8E0,5E0,7.9E1,3.86E2],"tree_param":{"num_deleted":"0","num_feature":"5","num_nodes":"11","size_leaf_vector":"1"}},{"base_weights":[3.0783933E-5,1.506425E-2,-6.3435655E-5,1.2630938E-3,-1.3327501E-4,-7.014006E-4,2.4524854E-5,2.2155336E-4,-1.5115379E-5],"categories":[],"categories_nodes":[],"categories_segments":[],"categories_sizes":[],"default_left":[0,0,0,0,0,0,0,0,0],"id":38,"left_children":[1,3,5,-1,-1,-1,7,-1,-1],"loss_changes":[6.822666E-4,6.097396E-4,5.8871467E-4,0E0,0E0,0E0,6.883153E-4,0E0,0E0],"parents":[2147483647,0,0,1,1,2,2,6,6],"right_children":[2,4,6,-1,-1,-1,8,-1,-1],"split_conditions":[-1.19783096E-1,-1.23005E-2,-5.896473E-2,1.2630938E-3,-1.3327501E-4,-7.014006E-4,-2.1790218E-2,2.2155336E-4,-1.5115379E-5],"split_indices":[1,0,0,0,0,0,0,0,0],"split_type":[0,0,0,0,0,0,0,0,0],"sum_hessian":[4.8E2,2E0,4.78E2,1E0,1E0,2E0,4.76E2,3.2E1,4.44E2],"tree_param":{"num_deleted":"0","num_feature":"5","num_nodes":"9","size_leaf_vector":"1"}},{"base_weights":[3.0564555E-5,1.4687642E-2,-6.1297236E-5,1.2315164E-3,-1.2994313E-4,-2.4765295E-3,4.5859144E-4,1.4064896E-4,-3.0290126E-4,-8.905164E-4,2.98441E-5],"categories":[],"categories_nodes":[],"categories_segments":[],"categories_sizes":[],"default_left":[0,0,0,0,0,0,0,0,0,0,0],"id":39,"left_children":[1,3,5,-1,-1,7,9,-1,-1,-1,-1],"loss_changes":[6.4853096E-4,5.796336E-4,6.0259295E-4,0E0,0E0,1.6273111E-3,1.0085658E-3,0E0,0E0,0E0,0E0],"parents":[2147483647,0,0,1,1,2,2,5,5,6,6],"right_children":[2,4,6,-1,-1,8,10,-1,-1,-1,-1],"split_conditions":[-1.19783096E-1,-1.23005E-2,-1.0105745E-2,1.2315164E-3,-1.2994313E-4,-2.1790218E-2,2.6716208E1,1.4064896E-4,-3.0290126E-4,-8.905164E-4,2.98441E-5],"split_indices":[1,0,0,0,0,0,2,0,0,0,0],"split_type":[0,0,0,0,0,0,0,0,0,0,0],"sum_hessian":[4.8E2,2E0,4.78E2,1E0,1E0,8.4E1,3.94E2,3.4E1,5E1,2E0,3.92E2],"tree_param":{"num_deleted":"0","num_feature":"5","num_nodes":"11","size_leaf_vector":"1"}},{"base_weights":[2.919991E-5,7.393013E-4,-1.8343684E-3,1.3297512E-2,4.808559E-4,-1.2540959E-2,-1.4051645E-3,1.9262833E-4,1.7491797E-3,-5.0926297E-5,1.3577896E-4,-1.7968354E-4,-8.653964E-4,1.0798894E-4,-1.1850001E-4],"categories":[],"categories_nodes":[],"categories_segments":[],"categories_sizes":[],"default_left":[0,0,0,0,0,0,0,0,0,0,0,0,0,0,0],"id":40,"left_children":[1,3,5,7,9,11,13,-1,-1,-1,-1,-1,-1,-1,-1],"loss_changes":[6.378743E-4,1.1263245E-3,5.9355446E-4,1.2989903E-3,1.1520571E-3,1.5105814E-4,4.4882516E-4,0E0,0E0,0E0,0E0,0E0,0E0,0E0,0E0],"parents":[2147483647,0,0,1,1,2,2,3,3,4,4,5,5,6,6],"right_children":[2,4,6,8,10,12,14,-1,-1,-1,-1,-1,-1,-1,-1],"split_conditions":[6.4244225E1,9.017333E-3,6.46925E1,2.527007E-3,1.5619552E-2,6.464446E1,1E0,1.9262833E-4,1.7491797E-3,-5.0926297E-5,1.3577896E-4,-1.7968354E-4,-8.653964E-4,1.0798894E-4,-1.1850001E-4],"split_indices":[2,4,2,0,4,2,3,0,0,0,0,0,0,0,0],"split_type":[0,0,0,0,0,0,0,0,0,0,0,0,0,0,0],"sum_hessian":[4.8E2,3.48E2,1.32E2,6E0,3.42E2,4E0,1.28E2,5E0,1E0,2.05E2,1.37E2,2E0,2E0,2.7E1,1.01E2],"tree_param":{"num_deleted":"0","num_feature":"5","num_nodes":"15","size_leaf_vector":"1"}},{"base_weights":[2.9758678E-5,1.4229933E-2,-5.9239825E-5,1.197334E-3,-1.3008903E-4,6.4720574E-5,-9.842238E-3,-1.18201155E-4,2.9694811E-5,-1.1959408E-3,-1.1215799E-4],"categories":[],"categories_nodes":[],"categories_segments":[],"categories_sizes":[],"default_left":[0,0,0,0,0,0,0,0,0,0,0],"id":41,"left_children":[1,3,5,-1,-1,7,9,-1,-1,-1,-1],"loss_changes":[6.0872803E-4,5.5295246E-4,5.815224E-4,0E0,0E0,6.1060395E-4,5.8816036E-4,0E0,0E0,0E0,0E0],"parents":[2147483647,0,0,1,1,2,2,5,5,6,6],"right_children":[2,4,6,-1,-1,8,10,-1,-1,-1,-1],"split_conditions":[-1.19783096E-1,-1.23005E-2,6.2252842E-2,1.197334E-3,-1.3008903E-4,-1.0105745E-2,-4.537905E-2,-1.18201155E-4,2.9694811E-5,-1.1959408E-3,-1.1215799E-4],"split_indices":[1,0,0,0,0,0,1,0,0,0,0],"split_type":[0,0,0,0,0,0,0,0,0,0,0],"sum_hessian":[4.8E2,2E0,4.78E2,1E0,1E0,4.73E2,5E0,8.4E1,3.89E2,1E0,4E0],"tree_param":{"num_deleted":"0","num_feature":"5","num_nodes":"11","size_leaf_vector":"1"}},{"base_weights":[2.758605E-5,7.1219436E-4,-1.7690748E-3,1.2905714E-2,4.6127068E-4,-1.2117105E-2,-1.3542746E-3,1.8459733E-4,1.704708E-3,-3.6213323E-4,4.426132E-5,-1.7468391E-4,-8.3507475E-4,1.02132115E-4,-1.1367422E-4],"categories":[],"categories_nodes":[],"categories_segments":[],"categories_sizes":[],"default_left":[0,0,0,0,0,0,0,0,0,0,0,0,0,0,0],"id":42,"left_children":[1,3,5,7,9,11,13,-1,-1,-1,-1,-1,-1,-1,-1],"loss_changes":[5.9289427E-4,1.0618623E-3,5.5447465E-4,1.2407041E-3,1.126693E-3,1.3931614E-4,4.0744373E-4,0E0,0E0,0E0,0E0,0E0,0E0,0E0,0E0],"parents":[2147483647,0,0,1,1,2,2,3,3,4,4,5,5,6,6],"right_children":[2,4,6,8,10,12,14,-1,-1,-1,-1,-1,-1,-1,-1],"split_conditions":[6.4244225E1,9.017333E-3,6.46925E1,2.527007E-3,1.0590845E-2,6.464446E1,1E0,1.8459733E-4,1.704708E-3,-3.6213323E-4,4.426132E-5,-1.7468391E-4,-8.3507475E-4,1.02132115E-4,-1.1367422E-4],"split_indices":[2,4,2,0,4,2,3,0,0,0,0,0,0,0,0],"split_type":[0,0,0,0,0,0,0,0,0,0,0,0,0,0,0],"sum_hessian":[4.8E2,3.48E2,1.32E2,6E0,3.42E2,4E0,1.28E2,5E0,1E0,1.7E1,3.25E2,2E0,2E0,2.7E1,1.01E2],"tree_param":{"num_deleted":"0","num_feature":"5","num_nodes":"15","size_leaf_vector":"1"}},{"base_weights":[2.735051E-5,1.3844677E-2,-5.9245172E-5,1.1662942E-3,-1.2794333E-4,-6.847702E-4,2.6641028E-5,2.0608574E-4,-1.3854924E-5],"categories":[],"categories_nodes":[],"categories_segments":[],"categories_sizes":[],"default_left":[0,0,0,0,0,0,0,0,0],"id":43,"left_children":[1,3,5,-1,-1,-1,7,-1,-1],"loss_changes":[5.763467E-4,5.262639E-4,5.6134944E-4,0E0,0E0,0E0,5.944518E-4,0E0,0E0],"parents":[2147483647,0,0,1,1,2,2,6,6],"right_children":[2,4,6,-1,-1,-1,8,-1,-1],"split_conditions":[-1.19783096E-1,-1.23005E-2,-5.896473E-2,1.1662942E-3,-1.2794333E-4,-6.847702E-4,-2.1790218E-2,2.0608574E-4,-1.3854924E-5],"split_indices":[1,0,0,0,0,0,0,0,0],"split_type":[0,0,0,0,0,0,0,0,0],"sum_hessian":[4.8E2,2E0,4.78E2,1E0,1E0,2E0,4.76E2,3.2E1,4.44E2],"tree_param":{"num_deleted":"0","num_feature":"5","num_nodes":"9","size_leaf_vector":"1"}},{"base_weights":[2.7117701E-5,1.4778678E-4,-9.550482E-3,-9.031866E-4,1.565614E-3,-1.1668025E-3,-2.1261584E-3,1.6196911E-5,-2.112059E-4,1.5057209E-4,-6.1223946E-5,3.0661572E-4,-4.8379562E-4],"categories":[],"categories_nodes":[],"categories_segments":[],"categories_sizes":[],"default_left":[0,0,0,0,0,0,0,0,0,0,0,0,0],"id":44,"left_children":[1,3,5,7,9,-1,11,-1,-1,-1,-1,-1,-1],"loss_changes":[5.573128E-4,7.1070105E-4,5.644749E-4,1.1179723E-3,8.225879E-4,0E0,3.7108292E-4,0E0,0E0,0E0,0E0,0E0,0E0],"parents":[2147483647,0,0,1,1,2,2,3,3,4,4,6,6],"right_children":[2,4,6,8,10,-1,12,-1,-1,-1,-1,-1,-1],"split_conditions":[6.2252842E-2,1.5619552E-2,-4.537905E-2,1.4302349E-2,6.386655E1,-1.1668025E-3,6.655712E1,1.6196911E-5,-2.112059E-4,1.5057209E-4,-6.1223946E-5,3.0661572E-4,-4.8379562E-4],"split_indices":[0,4,1,4,2,0,2,0,0,0,0,0,0],"split_type":[0,0,0,0,0,0,0,0,0,0,0,0,0],"sum_hessian":[4.8E2,4.75E2,5E0,2.73E2,2.02E2,1E0,4E0,2E2,7.3E1,1.33E2,6.9E1,2E0,2E0],"tree_param":{"num_deleted":"0","num_feature":"5","num_nodes":"13","size_leaf_vector":"1"}},{"base_weights":[2.2748018E-5,1.3398182E-2,-6.107045E-5,1.1333727E-3,-1.2850905E-4,-6.2448666E-3,1.2483988E-4,-6.18294E-4,-5.418603E-6,3.1988474E-4,-7.0737524E-6],"categories":[],"categories_nodes":[],"categories_segments":[],"categories_sizes":[],"default_left":[0,0,0,0,0,0,0,0,0,0,0],"id":45,"left_children":[1,3,5,-1,-1,7,9,-1,-1,-1,-1],"loss_changes":[5.4007134E-4,5.0230464E-4,5.514532E-4,0E0,0E0,5.245217E-4,7.793837E-4,0E0,0E0,0E0,0E0],"parents":[2147483647,0,0,1,1,2,2,5,5,6,6],"right_children":[2,4,6,-1,-1,8,10,-1,-1,-1,-1],"split_conditions":[-1.19783096E-1,-1.23005E-2,3.268193E1,1.1333727E-3,-1.2850905E-4,-7.546201E-2,-4.782517E-2,-6.18294E-4,-5.418603E-6,3.1988474E-4,-7.0737524E-6],"split_indices":[1,0,2,0,0,1,1,0,0,0,0],"split_type":[0,0,0,0,0,0,0,0,0,0,0],"sum_hessian":[4.8E2,2E0,4.78E2,1E0,1E0,1.3E1,4.65E2,6E0,7E0,1.8E1,4.47E2],"tree_param":{"num_deleted":"0","num_feature":"5","num_nodes":"11","size_leaf_vector":"1"}},{"base_weights":[2.3053331E-5,-6.619901E-4,1.060711E-4,4.993479E-3,-2.0843199E-4,3.8621257E-4,-2.3462067E-4,-1.7084742E-4,1.9003082E-5],"categories":[],"categories_nodes":[],"categories_segments":[],"categories_sizes":[],"default_left":[0,0,0,0,0,0,0,0,0],"id":46,"left_children":[1,-1,3,5,7,-1,-1,-1,-1],"loss_changes":[5.310106E-4,0E0,7.37314E-4,8.032945E-4,8.528729E-4,0E0,0E0,0E0,0E0],"parents":[2147483647,0,0,2,2,3,3,4,4],"right_children":[2,-1,4,6,8,-1,-1,-1,-1],"split_conditions":[-5.896473E-2,-6.619901E-4,-4.698436E-2,-1.6097939E-3,-1.0105745E-2,3.8621257E-4,-2.3462067E-4,-1.7084742E-4,1.9003082E-5],"split_indices":[0,0,1,0,0,0,0,0,0],"split_type":[0,0,0,0,0,0,0,0,0],"sum_hessian":[4.8E2,2E0,4.78E2,2.8E1,4.5E2,2.2E1,6E0,6.9E1,3.81E2],"tree_param":{"num_deleted":"0","num_feature":"5","num_nodes":"9","size_leaf_vector":"1"}},{"base_weights":[2.0523914E-5,1.380533E-4,-9.306896E-3,-8.634141E-4,1.4891076E-3,-1.1379306E-3,-2.0648302E-3,1.55704E-5,-2.0214087E-4,1.4329533E-4,-5.83876E-5,2.9599757E-4,-4.6806675E-4],"categories":[],"categories_nodes":[],"categories_segments":[],"categories_sizes":[],"default_left":[0,0,0,0,0,0,0,0,0,0,0,0,0],"id":47,"left_children":[1,3,5,7,9,-1,11,-1,-1,-1,-1,-1,-1],"loss_changes":[5.285791E-4,6.453312E-4,5.3751655E-4,1.0247129E-3,7.459129E-4,0E0,3.4672362E-4,0E0,0E0,0E0,0E0,0E0,0E0],"parents":[2147483647,0,0,1,1,2,2,3,3,4,4,6,6],"right_children":[2,4,6,8,10,-1,12,-1,-1,-1,-1,-1,-1],"split_conditions":[6.2252842E-2,1.5619552E-2,-4.537905E-2,1.4302349E-2,6.386655E1,-1.1379306E-3,6.655712E1,1.55704E-5,-2.0214087E-4,1.4329533E-4,-5.83876E-5,2.9599757E-4,-4.6806675E-4],"split_indices":[0,4,1,4,2,0,2,0,0,0,0,0,0],"split_type":[0,0,0,0,0,0,0,0,0,0,0,0,0],"sum_hessian":[4.8E2,4.75E2,5E0,2.73E2,2.02E2,1E0,4E0,2E2,7.3E1,1.33E2,6.9E1,2E0,2E0],"tree_param":{"num_deleted":"0","num_feature":"5","num_nodes":"13","size_leaf_vector":"1"}},{"base_weights":[1.6562792E-5,-6.4470025E-4,9.738772E-5,4.724889E-3,-2.0038374E-4,3.675332E-4,-2.2888207E-4,-1.6293026E-4,1.8027395E-5],"categories":[],"categories_nodes":[],"categories_segments":[],"categories_sizes":[],"default_left":[0,0,0,0,0,0,0,0,0],"id":48,"left_children":[1,-1,3,5,7,-1,-1,-1,-1],"loss_changes":[5.031771E-4,0E0,6.60979E-4,7.42013E-4,7.7484426E-4,0E0,0E0,0E0,0E0],"parents":[2147483647,0,0,2,2,3,3,4,4],"right_children":[2,-1,4,6,8,-1,-1,-1,-1],"split_conditions":[-5.896473E-2,-6.4470025E-4,-4.698436E-2,-1.6097939E-3,-1.0105745E-2,3.675332E-4,-2.2888207E-4,-1.6293026E-4,1.8027395E-5],"split_indices":[0,0,1,0,0,0,0,0,0],"split_type":[0,0,0,0,0,0,0,0,0],"sum_hessian":[4.8E2,2E0,4.78E2,2.8E1,4.5E2,2.2E1,6E0,6.9E1,3.81E2],"tree_param":{"num_deleted":"0","num_feature":"5","num_nodes":"9","size_leaf_vector":"1"}},{"base_weights":[1.4381346E-5,1.28922E-4,-9.074907E-3,-8.226712E-4,1.4127034E-3,-1.109933E-3,-2.0104242E-3,1.50274545E-5,-1.9312317E-4,8.155425E-5,-6.844883E-4,2.8553008E-4,-4.5306544E-4],"categories":[],"categories_nodes":[],"categories_segments":[],"categories_sizes":[],"default_left":[0,0,0,0,0,0,0,0,0,0,0,0,0],"id":49,"left_children":[1,3,5,7,9,-1,11,-1,-1,-1,-1,-1,-1],"loss_changes":[5.0193566E-4,5.826617E-4,5.1164645E-4,9.366945E-4,6.918438E-4,0E0,3.239458E-4,0E0,0E0,0E0,0E0,0E0,0E0],"parents":[2147483647,0,0,1,1,2,2,3,3,4,4,6,6],"right_children":[2,4,6,8,10,-1,12,-1,-1,-1,-1,-1,-1],"split_conditions":[6.2252842E-2,1.5619552E-2,-4.537905E-2,1.4302349E-2,9.968878E-2,-1.109933E-3,6.655712E1,1.50274545E-5,-1.9312317E-4,8.155425E-5,-6.844883E-4,2.8553008E-4,-4.5306544E-4],"split_indices":[0,4,1,4,1,0,2,0,0,0,0,0,0],"split_type":[0,0,0,0,0,0,0,0,0,0,0,0,0],"sum_hessian":[4.8E2,4.75E2,5E0,2.73E2,2.02E2,1E0,4E0,2E2,7.3E1,2E2,2E0,2E0,2E0],"tree_param":{"num_deleted":"0","num_feature":"5","num_nodes":"13","size_leaf_vector":"1"}},{"base_weights":[9.382703E-6,1.2816578E-2,-7.084897E-5,1.0805734E-3,-1.1932999E-4,-6.2528807E-3,1.1502935E-4,-5.4259354E-4,8.438751E-5,2.4849502E-4,-9.744138E-6],"categories":[],"categories_nodes":[],"categories_segments":[],"categories_sizes":[],"default_left":[0,0,0,0,0,0,0,0,0,0,0],"id":50,"left_children":[1,3,5,-1,-1,7,9,-1,-1,-1,-1],"loss_changes":[4.951561E-4,4.527087E-4,5.5114087E-4,0E0,0E0,5.295796E-4,7.021043E-4,0E0,0E0,0E0,0E0],"parents":[2147483647,0,0,1,1,2,2,5,5,6,6],"right_children":[2,4,6,-1,-1,8,10,-1,-1,-1,-1],"split_conditions":[-1.19783096E-1,-1.23005E-2,3.268193E1,1.0805734E-3,-1.1932999E-4,1.7466707E-2,-2.1790218E-2,-5.4259354E-4,8.438751E-5,2.4849502E-4,-9.744138E-6],"split_indices":[1,0,2,0,0,4,0,0,0,0,0],"split_type":[0,0,0,0,0,0,0,0,0,0,0],"sum_hessian":[4.8E2,2E0,4.78E2,1E0,1E0,1.3E1,4.65E2,8E0,5E0,2.7E1,4.38E2],"tree_param":{"num_deleted":"0","num_feature":"5","num_nodes":"11","size_leaf_vector":"1"}},{"base_weights":[1.045576E-5,-6.314767E-4,8.95988E-5,4.5069964E-3,-1.9464538E-4,3.5142488E-4,-2.2108965E-4,-1.5786113E-4,1.7437238E-5],"categories":[],"categories_nodes":[],"categories_segments":[],"categories_sizes":[],"default_left":[0,0,0,0,0,0,0,0,0],"id":51,"left_children":[1,-1,3,5,7,-1,-1,-1,-1],"loss_changes":[4.8230818E-4,0E0,6.023191E-4,6.839832E-4,7.2713674E-4,0E0,0E0,0E0,0E0],"parents":[2147483647,0,0,2,2,3,3,4,4],"right_children":[2,-1,4,6,8,-1,-1,-1,-1],"split_conditions":[-5.896473E-2,-6.314767E-4,-4.698436E-2,-1.6097939E-3,-1.0105745E-2,3.5142488E-4,-2.2108965E-4,-1.5786113E-4,1.7437238E-5],"split_indices":[0,0,1,0,0,0,0,0,0],"split_type":[0,0,0,0,0,0,0,0,0],"sum_hessian":[4.8E2,2E0,4.78E2,2.8E1,4.5E2,2.2E1,6E0,6.9E1,3.81E2],"tree_param":{"num_deleted":"0","num_feature":"5","num_nodes":"9","size_leaf_vector":"1"}},{"base_weights":[8.599182E-6,6.260059E-4,-1.6115777E-3,1.25478385E-2,3.8087807E-4,-1.1592569E-2,-1.2122247E-3,1.7851543E-4,1.6603254E-3,-3.4078106E-4,3.8853123E-5,-1.6838571E-4,-7.976618E-4,1.0244254E-4,-1.04776875E-4],"categories":[],"categories_nodes":[],"categories_segments":[],"categories_sizes":[],"default_left":[0,0,0,0,0,0,0,0,0,0,0,0,0,0,0],"id":52,"left_children":[1,3,5,7,9,11,13,-1,-1,-1,-1,-1,-1,-1,-1],"loss_changes":[4.8215705E-4,1.0151288E-3,5.1607704E-4,1.1796892E-3,9.832373E-4,1.2560328E-4,3.7588424E-4,0E0,0E0,0E0,0E0,0E0,0E0,0E0,0E0],"parents":[2147483647,0,0,1,1,2,2,3,3,4,4,5,5,6,6],"right_children":[2,4,6,8,10,12,14,-1,-1,-1,-1,-1,-1,-1,-1],"split_conditions":[6.4244225E1,9.017333E-3,6.46925E1,2.527007E-3,1.0590845E-2,6.464446E1,1E0,1.7851543E-4,1.6603254E-3,-3.4078106E-4,3.8853123E-5,-1.6838571E-4,-7.976618E-4,1.0244254E-4,-1.04776875E-4],"split_indices":[2,4,2,0,4,2,3,0,0,0,0,0,0,0,0],"split_type":[0,0,0,0,0,0,0,0,0,0,0,0,0,0,0],"sum_hessian":[4.8E2,3.48E2,1.32E2,6E0,3.42E2,4E0,1.28E2,5E0,1E0,1.7E1,3.25E2,2E0,2E0,2.7E1,1.01E2],"tree_param":{"num_deleted":"0","num_feature":"5","num_nodes":"15","size_leaf_vector":"1"}},{"base_weights":[9.351206E-6,1.20822326E-4,-8.835583E-3,2.0541863E-4,-6.642834E-4,-1.0833483E-3,-1.935913E-3,-3.7250584E-7,3.8773226E-4,2.768547E-4,-4.381808E-4],"categories":[],"categories_nodes":[],"categories_segments":[],"categories_sizes":[],"default_left":[0,0,0,0,0,0,0,0,0,0,0],"id":53,"left_children":[1,3,5,7,-1,-1,9,-1,-1,-1,-1],"loss_changes":[4.7531177E-4,5.4257957E-4,4.8924854E-4,7.617731E-4,0E0,0E0,3.036423E-4,0E0,0E0,0E0,0E0],"parents":[2147483647,0,0,1,1,2,2,3,3,6,6],"right_children":[2,4,6,8,-1,-1,10,-1,-1,-1,-1],"split_conditions":[6.2252842E-2,9.968878E-2,-4.537905E-2,4.480636E-2,-6.642834E-4,-1.0833483E-3,6.655712E1,-3.7250584E-7,3.8773226E-4,2.768547E-4,-4.381808E-4],"split_indices":[0,1,1,4,0,0,2,0,0,0,0],"split_type":[0,0,0,0,0,0,0,0,0,0,0],"sum_hessian":[4.8E2,4.75E2,5E0,4.73E2,2E0,1E0,4E0,4.61E2,1.2E1,2E0,2E0],"tree_param":{"num_deleted":"0","num_feature":"5","num_nodes":"11","size_leaf_vector":"1"}},{"base_weights":[5.7202515E-6,1.24270655E-2,-7.2087176E-5,1.0438114E-3,-1.11781505E-4,-6.1398293E-3,1.103602E-4,-6.0615386E-4,-6.850422E-6,2.3718232E-4,-9.270415E-6],"categories":[],"categories_nodes":[],"categories_segments":[],"categories_sizes":[],"default_left":[0,0,0,0,0,0,0,0,0,0,0],"id":54,"left_children":[1,3,5,-1,-1,7,9,-1,-1,-1,-1],"loss_changes":[4.657693E-4,4.1833406E-4,5.309515E-4,0E0,0E0,5.011682E-4,6.394766E-4,0E0,0E0,0E0,0E0],"parents":[2147483647,0,0,1,1,2,2,5,5,6,6],"right_children":[2,4,6,-1,-1,8,10,-1,-1,-1,-1],"split_conditions":[-1.19783096E-1,-1.23005E-2,3.268193E1,1.0438114E-3,-1.11781505E-4,-7.546201E-2,-2.1790218E-2,-6.0615386E-4,-6.850422E-6,2.3718232E-4,-9.270415E-6],"split_indices":[1,0,2,0,0,1,0,0,0,0,0],"split_type":[0,0,0,0,0,0,0,0,0,0,0],"sum_hessian":[4.8E2,2E0,4.78E2,1E0,1E0,1.3E1,4.65E2,6E0,7E0,2.7E1,4.38E2],"tree_param":{"num_deleted":"0","num_feature":"5","num_nodes":"11","size_leaf_vector":"1"}},{"base_weights":[6.571304E-6,1.14962066E-4,-8.593525E-3,-7.4000895E-4,1.3615695E-3,2.778402E-3,-1.4974088E-2,-7.789744E-5,1.461746E-4,-4.6008575E-4,8.4485386E-5,2.1612189E-4,-7.74173E-6,-1.1221266E-3,1.8578094E-4],"categories":[],"categories_nodes":[],"categories_segments":[],"categories_sizes":[],"default_left":[0,0,0,0,0,0,0,0,0,0,0,0,0,0,0],"id":55,"left_children":[1,3,5,7,9,11,13,-1,-1,-1,-1,-1,-1,-1,-1],"loss_changes":[4.4936212E-4,5.0833466E-4,4.7695986E-4,8.5257075E-4,6.8799464E-4,1.4256328E-5,6.4171985E-4,0E0,0E0,0E0,0E0,0E0,0E0,0E0,0E0],"parents":[2147483647,0,0,1,1,2,2,3,3,4,4,5,5,6,6],"right_children":[2,4,6,8,10,12,14,-1,-1,-1,-1,-1,-1,-1,-1],"split_conditions":[6.2252842E-2,1.5896535E-2,1.8190132E-2,1.1736755E-2,-3.5016526E-2,7.10373E-2,8.029275E-2,-7.789744E-5,1.461746E-4,-4.6008575E-4,8.4485386E-5,2.1612189E-4,-7.74173E-6,-1.1221266E-3,1.8578094E-4],"split_indices":[0,4,4,0,0,0,1,0,0,0,0,0,0,0,0],"split_type":[0,0,0,0,0,0,0,0,0,0,0,0,0,0,0],"sum_hessian":[4.8E2,4.75E2,5E0,2.82E2,1.93E2,2E0,3E0,2.31E2,5.1E1,5E0,1.88E2,1E0,1E0,2E0,1E0],"tree_param":{"num_deleted":"0","num_feature":"5","num_nodes":"15","size_leaf_vector":"1"}},{"base_weights":[4.0904E-6,5.978401E-4,-1.5539753E-3,1.22261625E-2,3.5878443E-4,-1.1266025E-2,-1.1654929E-3,1.7472482E-4,1.615404E-3,-3.2055477E-4,3.6574045E-5,-1.652676E-4,-7.735678E-4,-9.881115E-5,1.1430962E-4],"categories":[],"categories_nodes":[],"categories_segments":[],"categories_sizes":[],"default_left":[0,0,0,0,0,0,0,0,0,0,0,0,0,0,0],"id":56,"left_children":[1,3,5,7,9,11,13,-1,-1,-1,-1,-1,-1,-1,-1],"loss_changes":[4.459026E-4,9.657693E-4,4.886732E-4,1.1145398E-3,8.7011635E-4,1.16247975E-4,3.6550965E-4,0E0,0E0,0E0,0E0,0E0,0E0,0E0,0E0],"parents":[2147483647,0,0,1,1,2,2,3,3,4,4,5,5,6,6],"right_children":[2,4,6,8,10,12,14,-1,-1,-1,-1,-1,-1,-1,-1],"split_conditions":[6.4244225E1,9.017333E-3,6.46925E1,2.527007E-3,1.0590845E-2,6.464446E1,5.6935035E-2,1.7472482E-4,1.615404E-3,-3.2055477E-4,3.6574045E-5,-1.652676E-4,-7.735678E-4,-9.881115E-5,1.1430962E-4],"split_indices":[2,4,2,0,4,2,1,0,0,0,0,0,0,0,0],"split_type":[0,0,0,0,0,0,0,0,0,0,0,0,0,0,0],"sum_hessian":[4.8E2,3.48E2,1.32E2,6E0,3.42E2,4E0,1.28E2,5E0,1E0,1.7E1,3.25E2,2E0,2E0,1.04E2,2.4E1],"tree_param":{"num_deleted":"0","num_feature":"5","num_nodes":"15","size_leaf_vector":"1"}},{"base_weights":[5.097499E-6,1.2035684E-2,-7.026128E-5,1.0146898E-3,-1.1201345E-4,-5.791151E-3,1.0176172E-4,-5.183438E-4,1.01881385E-4,1.3191215E-4,-2.1141921E-5],"categories":[],"categories_nodes":[],"categories_segments":[],"categories_sizes":[],"default_left":[0,0,0,0,0,0,0,0,0,0,0],"id":57,"left_children":[1,3,5,-1,-1,7,9,-1,-1,-1,-1],"loss_changes":[4.369252E-4,3.9914076E-4,4.71985E-4,0E0,0E0,5.226365E-4,6.21193E-4,0E0,0E0,0E0,0E0],"parents":[2147483647,0,0,1,1,2,2,5,5,6,6],"right_children":[2,4,6,-1,-1,8,10,-1,-1,-1,-1],"split_conditions":[-1.19783096E-1,-1.23005E-2,3.268193E1,1.0146898E-3,-1.1201345E-4,1.7466707E-2,4.6951553E1,-5.183438E-4,1.01881385E-4,1.3191215E-4,-2.1141921E-5],"split_indices":[1,0,2,0,0,4,2,0,0,0,0],"split_type":[0,0,0,0,0,0,0,0,0,0,0],"sum_hessian":[4.8E2,2E0,4.78E2,1E0,1E0,1.3E1,4.65E2,8E0,5E0,7.9E1,3.86E2],"tree_param":{"num_deleted":"0","num_feature":"5","num_nodes":"11","size_leaf_vector":"1"}},{"base_weights":[6.0838206E-6,3.671079E-3,-2.3718154E-4,-3.5604178E-3,1.1139937E-2,-1.1948138E-2,1.6442011E-4,-8.6821517E-4,-7.4126925E-5,8.1038056E-4,4.1857813E-5,-2.2412141E-4,-8.9601654E-4,7.9142436E-4,-4.4888193E-6],"categories":[],"categories_nodes":[],"categories_segments":[],"categories_sizes":[],"default_left":[0,0,0,0,0,0,0,0,0,0,0,0,0,0,0],"id":58,"left_children":[1,3,5,7,9,11,13,-1,-1,-1,-1,-1,-1,-1,-1],"loss_changes":[4.297141E-4,1.6599935E-3,2.1277836E-3,4.3318165E-4,7.695985E-4,5.8847293E-4,1.7454278E-3,0E0,0E0,0E0,0E0,0E0,0E0,0E0,0E0],"parents":[2147483647,0,0,1,1,2,2,3,3,4,4,5,5,6,6],"right_children":[2,4,6,8,10,12,14,-1,-1,-1,-1,-1,-1,-1,-1],"split_conditions":[9.823315E-3,1.4132874E-3,1.0590845E-2,4.321026E1,7.175143E1,1.0256606E-2,1.06897345E-2,-8.6821517E-4,-7.4126925E-5,8.1038056E-4,4.1857813E-5,-2.2412141E-4,-8.9601654E-4,7.9142436E-4,-4.4888193E-6],"split_indices":[4,0,4,2,2,4,4,0,0,0,0,0,0,0,0],"split_type":[0,0,0,0,0,0,0,0,0,0,0,0,0,0,0],"sum_hessian":[4.8E2,2.9E1,4.51E2,1.5E1,1.4E1,1.4E1,4.37E2,1E0,1.4E1,9E0,5E0,7E0,7E0,6E0,4.31E2],"tree_param":{"num_deleted":"0","num_feature":"5","num_nodes":"15","size_leaf_vector":"1"}},{"base_weights":[4.899597E-6,-5.9519056E-4,7.947419E-5,4.2442144E-3,-1.8850129E-4,3.327745E-4,-2.1424323E-4,-5.929959E-4,-2.8763413E-6],"categories":[],"categories_nodes":[],"categories_segments":[],"categories_sizes":[],"default_left":[0,0,0,0,0,0,0,0,0],"id":59,"left_children":[1,-1,3,5,7,-1,-1,-1,-1],"loss_changes":[4.2811604E-4,0E0,5.3538714E-4,6.2493084E-4,6.8874226E-4,0E0,0E0,0E0,0E0],"parents":[2147483647,0,0,2,2,3,3,4,4],"right_children":[2,-1,4,6,8,-1,-1,-1,-1],"split_conditions":[-5.896473E-2,-5.9519056E-4,-4.698436E-2,-1.6097939E-3,-4.4083253E-2,3.327745E-4,-2.1424323E-4,-5.929959E-4,-2.8763413E-6],"split_indices":[0,0,1,0,1,0,0,0,0],"split_type":[0,0,0,0,0,0,0,0,0],"sum_hessian":[4.8E2,2E0,4.78E2,2.8E1,4.5E2,2.2E1,6E0,4E0,4.46E2],"tree_param":{"num_deleted":"0","num_feature":"5","num_nodes":"9","size_leaf_vector":"1"}},{"base_weights":[2.4247818E-6,1.1698274E-2,-7.083195E-5,9.811154E-4,-1.03744795E-4,-5.730447E-3,9.935141E-5,-5.098676E-4,9.624923E-5,2.2317372E-4,-8.961221E-6],"categories":[],"categories_nodes":[],"categories_segments":[],"categories_sizes":[],"default_left":[0,0,0,0,0,0,0,0,0,0,0],"id":60,"left_children":[1,3,5,-1,-1,7,9,-1,-1,-1,-1],"loss_changes":[4.1294927E-4,3.6813138E-4,4.6192884E-4,0E0,0E0,4.983749E-4,5.6733435E-4,0E0,0E0,0E0,0E0],"parents":[2147483647,0,0,1,1,2,2,5,5,6,6],"right_children":[2,4,6,-1,-1,8,10,-1,-1,-1,-1],"split_conditions":[-1.19783096E-1,-1.23005E-2,3.268193E1,9.811154E-4,-1.03744795E-4,1.7466707E-2,-2.1790218E-2,-5.098676E-4,9.624923E-5,2.2317372E-4,-8.961221E-6],"split_indices":[1,0,2,0,0,4,0,0,0,0,0],"split_type":[0,0,0,0,0,0,0,0,0,0,0],"sum_hessian":[4.8E2,2E0,4.78E2,1E0,1E0,1.3E1,4.65E2,8E0,5E0,2.7E1,4.38E2],"tree_param":{"num_deleted":"0","num_feature":"5","num_nodes":"11","size_leaf_vector":"1"}},{"base_weights":[3.7130126E-6,1.074278E-4,-8.2249455E-3,1.8964229E-4,-6.4591353E-4,2.6577145E-3,-1.4330704E-2,-4.542672E-7,3.6187642E-4,2.0879782E-4,-9.469222E-6,-1.0761529E-3,1.8115877E-4],"categories":[],"categories_nodes":[],"categories_segments":[],"categories_sizes":[],"default_left":[0,0,0,0,0,0,0,0,0,0,0,0,0],"id":61,"left_children":[1,3,5,7,-1,9,11,-1,-1,-1,-1,-1,-1],"loss_changes":[4.113851E-4,5.121988E-4,4.367683E-4,6.639547E-4,0E0,1.3758616E-5,5.945042E-4,0E0,0E0,0E0,0E0,0E0,0E0],"parents":[2147483647,0,0,1,1,2,2,3,3,5,5,6,6],"right_children":[2,4,6,8,-1,10,12,-1,-1,-1,-1,-1,-1],"split_conditions":[6.2252842E-2,9.968878E-2,1.8190132E-2,4.480636E-2,-6.4591353E-4,7.10373E-2,8.029275E-2,-4.542672E-7,3.6187642E-4,2.0879782E-4,-9.469222E-6,-1.0761529E-3,1.8115877E-4],"split_indices":[0,1,4,4,0,0,1,0,0,0,0,0,0],"split_type":[0,0,0,0,0,0,0,0,0,0,0,0,0],"sum_hessian":[4.8E2,4.75E2,5E0,4.73E2,2E0,2E0,3E0,4.61E2,1.2E1,1E0,1E0,2E0,1E0],"tree_param":{"num_deleted":"0","num_feature":"5","num_nodes":"13","size_leaf_vector":"1"}},{"base_weights":[1.4896549E-6,-5.806595E-4,7.4229836E-5,4.046138E-3,-1.8133462E-4,4.8432496E-5,5.3886865E-4,-1.5170335E-4,1.7094606E-5],"categories":[],"categories_nodes":[],"categories_segments":[],"categories_sizes":[],"default_left":[0,0,0,0,0,0,0,0,0],"id":62,"left_children":[1,-1,3,5,7,-1,-1,-1,-1],"loss_changes":[4.072367E-4,0E0,4.8695633E-4,5.903041E-4,6.742116E-4,0E0,0E0,0E0,0E0],"parents":[2147483647,0,0,2,2,3,3,4,4],"right_children":[2,-1,4,6,8,-1,-1,-1,-1],"split_conditions":[-5.896473E-2,-5.806595E-4,-4.698436E-2,1.8809441E-2,-1.0105745E-2,4.8432496E-5,5.3886865E-4,-1.5170335E-4,1.7094606E-5],"split_indices":[0,0,1,4,0,0,0,0,0],"split_type":[0,0,0,0,0,0,0,0,0],"sum_hessian":[4.8E2,2E0,4.78E2,2.8E1,4.5E2,2E1,8E0,6.9E1,3.81E2],"tree_param":{"num_deleted":"0","num_feature":"5","num_nodes":"9","size_leaf_vector":"1"}},{"base_weights":[1.1490831E-6,3.491132E-3,-2.304895E-4,-3.424696E-3,1.06352735E-2,-1.1373623E-2,1.516509E-4,-8.466298E-4,-6.976648E-5,7.7369733E-4,3.991362E-5,-2.1347123E-4,-8.5280597E-4,7.660499E-4,-4.724988E-6],"categories":[],"categories_nodes":[],"categories_segments":[],"categories_sizes":[],"default_left":[0,0,0,0,0,0,0,0,0,0,0,0,0,0,0],"id":63,"left_children":[1,3,5,7,9,11,13,-1,-1,-1,-1,-1,-1,-1,-1],"loss_changes":[3.8965215E-4,1.5186521E-3,1.92645E-3,4.1497307E-4,7.0161815E-4,5.3272385E-4,1.6369155E-3,0E0,0E0,0E0,0E0,0E0,0E0,0E0,0E0],"parents":[2147483647,0,0,1,1,2,2,3,3,4,4,5,5,6,6],"right_children":[2,4,6,8,10,12,14,-1,-1,-1,-1,-1,-1,-1,-1],"split_conditions":[9.823315E-3,1.4132874E-3,1.0590845E-2,4.321026E1,7.175143E1,1.0256606E-2,1.06897345E-2,-8.466298E-4,-6.976648E-5,7.7369733E-4,3.991362E-5,-2.1347123E-4,-8.5280597E-4,7.660499E-4,-4.724988E-6],"split_indices":[4,0,4,2,2,4,4,0,0,0,0,0,0,0,0],"split_type":[0,0,0,0,0,0,0,0,0,0,0,0,0,0,0],"sum_hessian":[4.8E2,2.9E1,4.51E2,1.5E1,1.4E1,1.4E1,4.37E2,1E0,1.4E1,9E0,5E0,7E0,7E0,6E0,4.31E2],"tree_param":{"num_deleted":"0","num_feature":"5","num_nodes":"15","size_leaf_vector":"1"}},{"base_weights":[2.4391431E-7,1.0032988E-4,-7.939951E-3,1.7984124E-4,-6.247954E-4,-9.8661E-4,-1.6350613E-3,-5.0755006E-7,3.4590196E-4,2.5305946E-4,-3.8931458E-4],"categories":[],"categories_nodes":[],"categories_segments":[],"categories_sizes":[],"default_left":[0,0,0,0,0,0,0,0,0,0,0],"id":64,"left_children":[1,3,5,7,-1,-1,9,-1,-1,-1,-1],"loss_changes":[3.830483E-4,4.7898226E-4,4.138295E-4,6.0688757E-4,0E0,0E0,2.4535877E-4,0E0,0E0,0E0,0E0],"parents":[2147483647,0,0,1,1,2,2,3,3,6,6],"right_children":[2,4,6,8,-1,-1,10,-1,-1,-1,-1],"split_conditions":[6.2252842E-2,9.968878E-2,-4.537905E-2,4.480636E-2,-6.247954E-4,-9.8661E-4,6.655712E1,-5.0755006E-7,3.4590196E-4,2.5305946E-4,-3.8931458E-4],"split_indices":[0,1,1,4,0,0,2,0,0,0,0],"split_type":[0,0,0,0,0,0,0,0,0,0,0],"sum_hessian":[4.8E2,4.75E2,5E0,4.73E2,2E0,1E0,4E0,4.61E2,1.2E1,2E0,2E0],"tree_param":{"num_deleted":"0","num_feature":"5","num_nodes":"11","size_leaf_vector":"1"}},{"base_weights":[-2.6835467E-6,-1.1222594E-2,6.75929E-5,-6.653717E-4,-1.7632288E-4,3.8425562E-3,-1.7529298E-4,-5.388186E-5,3.953783E-4,-5.52088E-4,-2.6675987E-6],"categories":[],"categories_nodes":[],"categories_segments":[],"categories_sizes":[],"default_left":[0,0,0,0,0,0,0,0,0,0,0],"id":65,"left_children":[1,3,5,-1,-1,7,9,-1,-1,-1,-1],"loss_changes":[3.800249E-4,1.207547E-6,4.3986164E-4,0E0,0E0,5.8853975E-4,5.9701654E-4,0E0,0E0,0E0,0E0],"parents":[2147483647,0,0,1,1,2,2,5,5,6,6],"right_children":[2,4,6,-1,-1,8,10,-1,-1,-1,-1],"split_conditions":[-5.896473E-2,-8.8628024E-2,-4.698436E-2,-6.653717E-4,-1.7632288E-4,-6.9692425E-2,-4.4083253E-2,-5.388186E-5,3.953783E-4,-5.52088E-4,-2.6675987E-6],"split_indices":[0,1,1,0,0,1,1,0,0,0,0],"split_type":[0,0,0,0,0,0,0,0,0,0,0],"sum_hessian":[4.8E2,2E0,4.78E2,1E0,1E0,2.8E1,4.5E2,1.3E1,1.5E1,4E0,4.46E2],"tree_param":{"num_deleted":"0","num_feature":"5","num_nodes":"11","size_leaf_vector":"1"}},{"base_weights":[-4.74263E-6,5.371319E-4,-1.4266184E-3,1.1294206E-2,3.1603384E-4,-1.0833749E-2,-1.0509419E-3,1.4686037E-4,1.5359048E-3,-2.799075E-4,3.2080723E-5,-1.5880108E-4,-7.440113E-4,-9.214782E-5,1.1587783E-4],"categories":[],"categories_nodes":[],"categories_segments":[],"categories_sizes":[],"default_left":[0,0,0,0,0,0,0,0,0,0,0,0,0,0,0],"id":66,"left_children":[1,3,5,7,9,11,13,-1,-1,-1,-1,-1,-1,-1,-1],"loss_changes":[3.7136633E-4,8.264812E-4,4.5864139E-4,1.0460524E-3,6.640532E-4,1.0767416E-4,3.4843019E-4,0E0,0E0,0E0,0E0,0E0,0E0,0E0,0E0],"parents":[2147483647,0,0,1,1,2,2,3,3,4,4,5,5,6,6],"right_children":[2,4,6,8,10,12,14,-1,-1,-1,-1,-1,-1,-1,-1],"split_conditions":[6.4244225E1,9.017333E-3,6.46925E1,2.527007E-3,1.0590845E-2,6.464446E1,5.6935035E-2,1.4686037E-4,1.5359048E-3,-2.799075E-4,3.2080723E-5,-1.5880108E-4,-7.440113E-4,-9.214782E-5,1.1587783E-4],"split_indices":[2,4,2,0,4,2,1,0,0,0,0,0,0,0,0],"split_type":[0,0,0,0,0,0,0,0,0,0,0,0,0,0,0],"sum_hessian":[4.8E2,3.48E2,1.32E2,6E0,3.42E2,4E0,1.28E2,5E0,1E0,1.7E1,3.25E2,2E0,2E0,1.04E2,2.4E1],"tree_param":{"num_deleted":"0","num_feature":"5","num_nodes":"15","size_leaf_vector":"1"}},{"base_weights":[-3.3499366E-6,1.1064895E-2,-7.26639E-5,9.438029E-4,-1.139357E-4,-5.6657954E-3,9.5526026E-5,-5.005307E-4,8.978659E-5,2.1349767E-4,-8.547104E-6],"categories":[],"categories_nodes":[],"categories_segments":[],"categories_sizes":[],"default_left":[0,0,0,0,0,0,0,0,0,0,0],"id":67,"left_children":[1,3,5,-1,-1,7,9,-1,-1,-1,-1],"loss_changes":[3.698195E-4,3.557004E-4,4.511405E-4,0E0,0E0,4.7184216E-4,5.190858E-4,0E0,0E0,0E0,0E0],"parents":[2147483647,0,0,1,1,2,2,5,5,6,6],"right_children":[2,4,6,-1,-1,8,10,-1,-1,-1,-1],"split_conditions":[-1.19783096E-1,-1.23005E-2,3.268193E1,9.438029E-4,-1.139357E-4,1.7466707E-2,-2.1790218E-2,-5.005307E-4,8.978659E-5,2.1349767E-4,-8.547104E-6],"split_indices":[1,0,2,0,0,4,0,0,0,0,0],"split_type":[0,0,0,0,0,0,0,0,0,0,0],"sum_hessian":[4.8E2,2E0,4.78E2,1E0,1E0,1.3E1,4.65E2,8E0,5E0,2.7E1,4.38E2],"tree_param":{"num_deleted":"0","num_feature":"5","num_nodes":"11","size_leaf_vector":"1"}},{"base_weights":[-1.8849278E-6,-2.664764E-3,2.9263136E-4,2.1049478E-3,-1.4398702E-2,1.1796114E-2,1.8519156E-4,-8.625182E-5,1.0452023E-3,-1.0780194E-3,-2.078481E-4,8.604658E-4,-1.110873E-4,-8.120836E-4,1.4981652E-5],"categories":[],"categories_nodes":[],"categories_segments":[],"categories_sizes":[],"default_left":[0,0,0,0,0,0,0,0,0,0,0,0,0,0,0],"id":68,"left_children":[1,3,5,7,9,11,13,-1,-1,-1,-1,-1,-1,-1,-1],"loss_changes":[3.7800943E-4,2.7167487E-3,5.3420995E-4,2.5560688E-3,9.372481E-4,3.417608E-4,8.151098E-4,0E0,0E0,0E0,0E0,0E0,0E0,0E0,0E0],"parents":[2147483647,0,0,1,1,2,2,3,3,4,4,5,5,6,6],"right_children":[2,4,6,8,10,12,14,-1,-1,-1,-1,-1,-1,-1,-1],"split_conditions":[-1.7093478E-2,-2.1790218E-2,-9.220494E-2,-2.2802904E-2,1.4382674E-2,-9.883816E-3,-8.244772E-2,-8.625182E-5,1.0452023E-3,-1.0780194E-3,-2.078481E-4,8.604658E-4,-1.110873E-4,-8.120836E-4,1.4981652E-5],"split_indices":[0,0,1,0,4,0,1,0,0,0,0,0,0,0,0],"split_type":[0,0,0,0,0,0,0,0,0,0,0,0,0,0,0],"sum_hessian":[4.8E2,4.7E1,4.33E2,3.4E1,1.3E1,3E0,4.3E2,2.9E1,5E0,7E0,6E0,2E0,1E0,2E0,4.28E2],"tree_param":{"num_deleted":"0","num_feature":"5","num_nodes":"15","size_leaf_vector":"1"}},{"base_weights":[-2.5695208E-6,-5.503505E-4,6.6357185E-5,1.9104901E-3,-3.7697802E-4,1.7860827E-4,-2.8641513E-4,-6.552707E-4,8.574748E-6],"categories":[],"categories_nodes":[],"categories_segments":[],"categories_sizes":[],"default_left":[0,0,0,0,0,0,0,0,0],"id":69,"left_children":[1,-1,3,5,7,-1,-1,-1,-1],"loss_changes":[3.6556885E-4,0E0,3.923358E-4,1.2009293E-3,2.703973E-3,0E0,0E0,0E0,0E0],"parents":[2147483647,0,0,2,2,3,3,4,4],"right_children":[2,-1,4,6,8,-1,-1,-1,-1],"split_conditions":[-5.896473E-2,-5.503505E-4,4.6951553E1,-2.9935318E-3,4.8365063E1,1.7860827E-4,-2.8641513E-4,-6.552707E-4,8.574748E-6],"split_indices":[0,0,2,1,2,0,0,0,0],"split_type":[0,0,0,0,0,0,0,0,0],"sum_hessian":[4.8E2,2E0,4.78E2,9.2E1,3.86E2,7.6E1,1.6E1,1.5E1,3.71E2],"tree_param":{"num_deleted":"0","num_feature":"5","num_nodes":"9","size_leaf_vector":"1"}},{"base_weights":[-5.153898E-6,3.3228989E-3,-2.2603096E-4,-2.491296E-3,1.1117715E-2,-1.0451802E-2,1.2468273E-4,-8.2301314E-4,-3.506707E-5,8.7211665E-4,4.159695E-5,-1.9049083E-4,-7.893657E-4,7.345886E-4,-5.5823343E-6],"categories":[],"categories_nodes":[],"categories_segments":[],"categories_sizes":[],"default_left":[0,0,0,0,0,0,0,0,0,0,0,0,0,0,0],"id":70,"left_children":[1,3,5,7,9,11,13,-1,-1,-1,-1,-1,-1,-1,-1],"loss_changes":[3.5432962E-4,1.3873149E-3,1.6223188E-3,4.3852444E-4,8.3118584E-4,4.7142897E-4,1.509513E-3,0E0,0E0,0E0,0E0,0E0,0E0,0E0,0E0],"parents":[2147483647,0,0,1,1,2,2,3,3,4,4,5,5,6,6],"right_children":[2,4,6,8,10,12,14,-1,-1,-1,-1,-1,-1,-1,-1],"split_conditions":[9.823315E-3,2.527007E-3,1.0590845E-2,4.321026E1,7.175143E1,1.0256606E-2,1.06897345E-2,-8.2301314E-4,-3.506707E-5,8.7211665E-4,4.159695E-5,-1.9049083E-4,-7.893657E-4,7.345886E-4,-5.5823343E-6],"split_indices":[4,0,4,2,2,4,4,0,0,0,0,0,0,0,0],"split_type":[0,0,0,0,0,0,0,0,0,0,0,0,0,0,0],"sum_hessian":[4.8E2,2.9E1,4.51E2,1.7E1,1.2E1,1.4E1,4.37E2,1E0,1.6E1,7E0,5E0,7E0,7E0,6E0,4.31E2],"tree_param":{"num_deleted":"0","num_feature":"5","num_nodes":"15","size_leaf_vector":"1"}},{"base_weights":[-5.3020435E-6,9.04677E-5,-7.602151E-3,1.6624133E-4,-5.955961E-4,2.5466853E-3,-1.3313241E-2,-6.8803917E-7,3.275226E-4,1.938762E-4,-2.8748007E-6,-1.0002315E-3,1.6902309E-4],"categories":[],"categories_nodes":[],"categories_segments":[],"categories_sizes":[],"default_left":[0,0,0,0,0,0,0,0,0,0,0,0,0],"id":71,"left_children":[1,3,5,7,-1,9,11,-1,-1,-1,-1,-1,-1],"loss_changes":[3.5063847E-4,4.3488538E-4,3.8167016E-4,5.4479734E-4,0E0,1.0620179E-5,5.1444094E-4,0E0,0E0,0E0,0E0,0E0,0E0],"parents":[2147483647,0,0,1,1,2,2,3,3,5,5,6,6],"right_children":[2,4,6,8,-1,10,12,-1,-1,-1,-1,-1,-1],"split_conditions":[6.2252842E-2,9.968878E-2,1.8190132E-2,4.480636E-2,-5.955961E-4,7.10373E-2,8.029275E-2,-6.8803917E-7,3.275226E-4,1.938762E-4,-2.8748007E-6,-1.0002315E-3,1.6902309E-4],"split_indices":[0,1,4,4,0,0,1,0,0,0,0,0,0],"split_type":[0,0,0,0,0,0,0,0,0,0,0,0,0],"sum_hessian":[4.8E2,4.75E2,5E0,4.73E2,2E0,2E0,3E0,4.61E2,1.2E1,1E0,1E0,2E0,1E0],"tree_param":{"num_deleted":"0","num_feature":"5","num_nodes":"13","size_leaf_vector":"1"}},{"base_weights":[-6.926656E-6,-1.063593E-2,5.9657767E-5,-6.3571235E-4,-1.6198248E-4,-6.984007E-4,1.1483425E-3,1.875625E-5,-1.6448645E-4,1.1820578E-4,-1.2366564E-4],"categories":[],"categories_nodes":[],"categories_segments":[],"categories_sizes":[],"default_left":[0,0,0,0,0,0,0,0,0,0,0],"id":72,"left_children":[1,3,5,-1,-1,7,9,-1,-1,-1,-1],"loss_changes":[3.4105076E-4,4.925707E-6,3.961143E-4,0E0,0E0,7.884998E-4,8.7326E-4,0E0,0E0,0E0,0E0],"parents":[2147483647,0,0,1,1,2,2,5,5,6,6],"right_children":[2,4,6,-1,-1,8,10,-1,-1,-1,-1],"split_conditions":[-5.896473E-2,-8.8628024E-2,1.5896535E-2,-6.3571235E-4,-1.6198248E-4,1.4302349E-2,1.2977112E-2,1.875625E-5,-1.6448645E-4,1.1820578E-4,-1.2366564E-4],"split_indices":[0,1,4,0,0,4,0,0,0,0,0],"split_type":[0,0,0,0,0,0,0,0,0,0,0],"sum_hessian":[4.8E2,2E0,4.78E2,1E0,1E0,2.82E2,1.96E2,2E2,8.2E1,1.47E2,4.9E1],"tree_param":{"num_deleted":"0","num_feature":"5","num_nodes":"11","size_leaf_vector":"1"}},{"base_weights":[-8.553046E-6,5.177331E-4,-1.3894953E-3,1.0841998E-2,3.0552442E-4,-1.0525805E-2,-1.0246035E-3,1.4082411E-4,1.4748774E-3,-3.528148E-5,9.942063E-5,-1.577392E-4,-7.1941124E-4,-1.8992565E-4,-3.5169705E-6],"categories":[],"categories_nodes":[],"categories_segments":[],"categories_sizes":[],"default_left":[0,0,0,0,0,0,0,0,0,0,0,0,0,0,0],"id":73,"left_children":[1,3,5,7,9,11,13,-1,-1,-1,-1,-1,-1,-1,-1],"loss_changes":[3.5029612E-4,7.6131127E-4,4.3260588E-4,9.649636E-4,5.8507215E-4,9.695813E-5,3.4120126E-4,0E0,0E0,0E0,0E0,0E0,0E0,0E0,0E0],"parents":[2147483647,0,0,1,1,2,2,3,3,4,4,5,5,6,6],"right_children":[2,4,6,8,10,12,14,-1,-1,-1,-1,-1,-1,-1,-1],"split_conditions":[6.4244225E1,9.017333E-3,6.46925E1,2.527007E-3,1.5896535E-2,6.464446E1,1.2087426E-2,1.4082411E-4,1.4748774E-3,-3.528148E-5,9.942063E-5,-1.577392E-4,-7.1941124E-4,-1.8992565E-4,-3.5169705E-6],"split_indices":[2,4,2,0,4,2,4,0,0,0,0,0,0,0,0],"split_type":[0,0,0,0,0,0,0,0,0,0,0,0,0,0,0],"sum_hessian":[4.8E2,3.48E2,1.32E2,6E0,3.42E2,4E0,1.28E2,5E0,1E0,2.14E2,1.28E2,2E0,2E0,3.2E1,9.6E1],"tree_param":{"num_deleted":"0","num_feature":"5","num_nodes":"15","size_leaf_vector":"1"}},{"base_weights":[-6.8587315E-6,-2.541585E-3,2.7349545E-4,1.958907E-3,-1.3611274E-2,9.779151E-4,-1.3280701E-3,-8.485409E-5,9.956184E-4,-3.4124122E-4,-1.2230959E-3,-6.470639E-5,9.7428296E-5,-5.0874724E-4,-4.8743645E-5],"categories":[],"categories_nodes":[],"categories_segments":[],"categories_sizes":[],"default_left":[0,0,0,0,0,0,0,0,0,0,0,0,0,0,0],"id":74,"left_children":[1,3,5,7,9,11,13,-1,-1,-1,-1,-1,-1,-1,-1],"loss_changes":[3.4250386E-4,2.4179774E-3,4.909263E-4,2.3311106E-3,8.639747E-4,6.685405E-4,4.0566473E-4,0E0,0E0,0E0,0E0,0E0,0E0,0E0,0E0],"parents":[2147483647,0,0,1,1,2,2,3,3,4,4,5,5,6,6],"right_children":[2,4,6,8,10,12,14,-1,-1,-1,-1,-1,-1,-1,-1],"split_conditions":[-1.7093478E-2,-2.1790218E-2,6.4244225E1,-2.2802904E-2,-6.0856463E-3,4.9444424E1,6.46925E1,-8.485409E-5,9.956184E-4,-3.4124122E-4,-1.2230959E-3,-6.470639E-5,9.7428296E-5,-5.0874724E-4,-4.8743645E-5],"split_indices":[0,0,2,0,1,2,2,0,0,0,0,0,0,0,0],"split_type":[0,0,0,0,0,0,0,0,0,0,0,0,0,0,0],"sum_hessian":[4.8E2,4.7E1,4.33E2,3.4E1,1.3E1,3.01E2,1.32E2,2.9E1,5E0,9E0,4E0,9E1,2.11E2,4E0,1.28E2],"tree_param":{"num_deleted":"0","num_feature":"5","num_nodes":"15","size_leaf_vector":"1"}},{"base_weights":[-8.965568E-6,3.1826491E-3,-2.2077857E-4,-2.3706562E-3,1.0627022E-2,-9.918324E-3,1.118332E-4,-8.003898E-4,-3.1341824E-5,8.2665397E-4,4.9055463E-5,-1.8175947E-4,-7.480834E-4,7.043009E-4,-5.742961E-6],"categories":[],"categories_nodes":[],"categories_segments":[],"categories_sizes":[],"default_left":[0,0,0,0,0,0,0,0,0,0,0,0,0,0,0],"id":75,"left_children":[1,3,5,7,9,11,13,-1,-1,-1,-1,-1,-1,-1,-1],"loss_changes":[3.2587093E-4,1.2654193E-3,1.4590431E-3,4.1801855E-4,7.2438E-4,4.209316E-4,1.3891326E-3,0E0,0E0,0E0,0E0,0E0,0E0,0E0,0E0],"parents":[2147483647,0,0,1,1,2,2,3,3,4,4,5,5,6,6],"right_children":[2,4,6,8,10,12,14,-1,-1,-1,-1,-1,-1,-1,-1],"split_conditions":[9.823315E-3,2.527007E-3,1.0590845E-2,4.321026E1,7.175143E1,1.0256606E-2,1.06897345E-2,-8.003898E-4,-3.1341824E-5,8.2665397E-4,4.9055463E-5,-1.8175947E-4,-7.480834E-4,7.043009E-4,-5.742961E-6],"split_indices":[4,0,4,2,2,4,4,0,0,0,0,0,0,0,0],"split_type":[0,0,0,0,0,0,0,0,0,0,0,0,0,0,0],"sum_hessian":[4.8E2,2.9E1,4.51E2,1.7E1,1.2E1,1.4E1,4.37E2,1E0,1.6E1,7E0,5E0,7E0,7E0,6E0,4.31E2],"tree_param":{"num_deleted":"0","num_feature":"5","num_nodes":"15","size_leaf_vector":"1"}},{"base_weights":[-8.906745E-6,-1.0375913E-2,5.604091E-5,-6.2004005E-4,-1.5815347E-4,1.8264914E-3,-3.6956102E-4,1.7031444E-4,-2.7182506E-4,-6.0888E-4,6.9652524E-6],"categories":[],"categories_nodes":[],"categories_segments":[],"categories_sizes":[],"default_left":[0,0,0,0,0,0,0,0,0,0,0],"id":76,"left_children":[1,3,5,-1,-1,7,9,-1,-1,-1,-1],"loss_changes":[3.2444493E-4,4.5909837E-6,3.616049E-4,0E0,0E0,1.0856054E-3,2.327067E-3,0E0,0E0,0E0,0E0],"parents":[2147483647,0,0,1,1,2,2,5,5,6,6],"right_children":[2,4,6,-1,-1,8,10,-1,-1,-1,-1],"split_conditions":[-5.896473E-2,-8.8628024E-2,4.6951553E1,-6.2004005E-4,-1.5815347E-4,-2.9935318E-3,4.8365063E1,1.7031444E-4,-2.7182506E-4,-6.0888E-4,6.9652524E-6],"split_indices":[0,1,2,0,0,1,2,0,0,0,0],"split_type":[0,0,0,0,0,0,0,0,0,0,0],"sum_hessian":[4.8E2,2E0,4.78E2,1E0,1E0,9.2E1,3.86E2,7.6E1,1.6E1,1.5E1,3.71E2],"tree_param":{"num_deleted":"0","num_feature":"5","num_nodes":"11","size_leaf_vector":"1"}},{"base_weights":[-1.1541679E-5,1.021193E-2,-7.554767E-5,8.864505E-4,-1.2055583E-4,-5.7769176E-3,9.5900235E-5,-4.963643E-4,7.0572736E-5,1.1322533E-4,-1.7631914E-5],"categories":[],"categories_nodes":[],"categories_segments":[],"categories_sizes":[],"default_left":[0,0,0,0,0,0,0,0,0,0,0],"id":77,"left_children":[1,3,5,-1,-1,7,9,-1,-1,-1,-1],"loss_changes":[3.1552027E-4,3.2741213E-4,4.6877074E-4,0E0,0E0,4.316934E-4,4.5407837E-4,0E0,0E0,0E0,0E0],"parents":[2147483647,0,0,1,1,2,2,5,5,6,6],"right_children":[2,4,6,-1,-1,8,10,-1,-1,-1,-1],"split_conditions":[-1.19783096E-1,-1.23005E-2,3.268193E1,8.864505E-4,-1.2055583E-4,1.7466707E-2,4.6951553E1,-4.963643E-4,7.0572736E-5,1.1322533E-4,-1.7631914E-5],"split_indices":[1,0,2,0,0,4,2,0,0,0,0],"split_type":[0,0,0,0,0,0,0,0,0,0,0],"sum_hessian":[4.8E2,2E0,4.78E2,1E0,1E0,1.3E1,4.65E2,8E0,5E0,7.9E1,3.86E2],"tree_param":{"num_deleted":"0","num_feature":"5","num_nodes":"11","size_leaf_vector":"1"}},{"base_weights":[-1.0058807E-5,-1.0177781E-2,5.364312E-5,-6.063033E-4,-1.5703026E-4,-6.4656546E-4,1.0592543E-3,1.9173543E-5,-1.5666004E-4,1.09376495E-4,-1.1966209E-4],"categories":[],"categories_nodes":[],"categories_segments":[],"categories_sizes":[],"default_left":[0,0,0,0,0,0,0,0,0,0,0],"id":78,"left_children":[1,3,5,-1,-1,7,9,-1,-1,-1,-1],"loss_changes":[3.1209135E-4,3.0481024E-6,3.3796675E-4,0E0,0E0,7.260564E-4,7.726226E-4,0E0,0E0,0E0,0E0],"parents":[2147483647,0,0,1,1,2,2,5,5,6,6],"right_children":[2,4,6,-1,-1,8,10,-1,-1,-1,-1],"split_conditions":[-5.896473E-2,-8.8628024E-2,1.5896535E-2,-6.063033E-4,-1.5703026E-4,1.4302349E-2,1.3119694E-2,1.9173543E-5,-1.5666004E-4,1.09376495E-4,-1.1966209E-4],"split_indices":[0,1,4,0,0,4,0,0,0,0,0],"split_type":[0,0,0,0,0,0,0,0,0,0,0],"sum_hessian":[4.8E2,2E0,4.78E2,1E0,1E0,2.82E2,1.96E2,2E2,8.2E1,1.48E2,4.8E1],"tree_param":{"num_deleted":"0","num_feature":"5","num_nodes":"11","size_leaf_vector":"1"}},{"base_weights":[-1.1450004E-5,-7.338125E-4,9.0088317E-4,-1.3262333E-4,-7.477499E-3,1.769322E-2,2.4438038E-4,1.06497915E-4,-1.0848307E-4,-5.7702773E-4,-1.6317874E-5,1.0924945E-3,-2.8508654E-4,6.856169E-4,-1.1411003E-5],"categories":[],"categories_nodes":[],"categories_segments":[],"categories_sizes":[],"default_left":[0,0,0,0,0,0,0,0,0,0,0,0,0,0,0],"id":79,"left_children":[1,3,5,7,9,11,13,-1,-1,-1,-1,-1,-1,-1,-1],"loss_changes":[3.1765705E-4,1.0895967E-3,2.3438341E-3,1.1476446E-3,6.354543E-4,9.025424E-4,1.3143116E-3,0E0,0E0,0E0,0E0,0E0,0E0,0E0,0E0],"parents":[2147483647,0,0,1,1,2,2,3,3,4,4,5,5,6,6],"right_children":[2,4,6,8,10,12,14,-1,-1,-1,-1,-1,-1,-1,-1],"split_conditions":[2.8569673E-3,1.4132874E-3,3.5716894E-3,-2.7342574E-3,1.53688695E-2,6.4244225E1,9.017333E-3,1.06497915E-4,-1.0848307E-4,-5.7702773E-4,-1.6317874E-5,1.0924945E-3,-2.8508654E-4,6.856169E-4,-1.1411003E-5],"split_indices":[0,0,0,1,4,2,4,0,0,0,0,0,0,0,0],"split_type":[0,0,0,0,0,0,0,0,0,0,0,0,0,0,0],"sum_hessian":[4.8E2,2.68E2,2.12E2,2.47E2,2.1E1,7E0,2.05E2,1.17E2,1.3E2,1.3E1,8E0,6E0,1E0,6E0,1.99E2],"tree_param":{"num_deleted":"0","num_feature":"5","num_nodes":"15","size_leaf_vector":"1"}},{"base_weights":[-9.034977E-6,-2.4675753E-3,2.6289813E-4,1.7867031E-3,-1.2927015E-2,9.3730696E-4,-1.2377356E-3,-8.464272E-5,9.443354E-4,-3.2063623E-4,-1.1685098E-3,5.213453E-4,3.54088E-5,-7.377243E-4,-5.1337815E-5],"categories":[],"categories_nodes":[],"categories_segments":[],"categories_sizes":[],"default_left":[0,0,0,0,0,0,0,0,0,0,0,0,0,0,0],"id":80,"left_children":[1,3,5,7,9,11,13,-1,-1,-1,-1,-1,-1,-1,-1],"loss_changes":[3.2222533E-4,2.1589703E-3,4.4038577E-4,2.114488E-3,8.025523E-4,6.449241E-4,3.6983774E-4,0E0,0E0,0E0,0E0,0E0,0E0,0E0,0E0],"parents":[2147483647,0,0,1,1,2,2,3,3,4,4,5,5,6,6],"right_children":[2,4,6,8,10,12,14,-1,-1,-1,-1,-1,-1,-1,-1],"split_conditions":[-1.7093478E-2,-2.1790218E-2,6.413458E1,-2.2802904E-2,-6.0856463E-3,9.017333E-3,-1.9994713E-2,-8.464272E-5,9.443354E-4,-3.2063623E-4,-1.1685098E-3,5.213453E-4,3.54088E-5,-7.377243E-4,-5.1337815E-5],"split_indices":[0,0,2,0,1,4,1,0,0,0,0,0,0,0,0],"split_type":[0,0,0,0,0,0,0,0,0,0,0,0,0,0,0],"sum_hessian":[4.8E2,4.7E1,4.33E2,3.4E1,1.3E1,2.99E2,1.34E2,2.9E1,5E0,9E0,4E0,6E0,2.93E2,1E0,1.33E2],"tree_param":{"num_deleted":"0","num_feature":"5","num_nodes":"15","size_leaf_vector":"1"}},{"base_weights":[-1.03748425E-5,-1.2297152E-3,5.142979E-4,3.977118E-3,-3.3206507E-3,4.320061E-3,-2.5951976E-4,6.6724565E-4,5.0893694E-5,-1.3208707E-4,-8.1173563E-4,1.05611296E-4,2.1678507E-3,-6.9726055E-4,1.4847282E-5],"categories":[],"categories_nodes":[],"categories_segments":[],"categories_sizes":[],"default_left":[0,0,0,0,0,0,0,0,0,0,0,0,0,0,0],"id":81,"left_children":[1,3,5,7,9,11,13,-1,-1,-1,-1,-1,-1,-1,-1],"loss_changes":[3.0835447E-4,1.5918437E-3,9.935749E-4,1.1507235E-3,8.6893E-4,4.821088E-3,2.1441283E-3,0E0,0E0,0E0,0E0,0E0,0E0,0E0,0E0],"parents":[2147483647,0,0,1,1,2,2,3,3,4,4,5,5,6,6],"right_children":[2,4,6,8,10,12,14,-1,-1,-1,-1,-1,-1,-1,-1],"split_conditions":[1.2928544E-2,1E0,1.4302349E-2,1.0651039E-2,1.276678E-2,1.4212769E-2,1.45259425E-2,6.6724565E-4,5.0893694E-5,-1.3208707E-4,-8.1173563E-4,1.05611296E-4,2.1678507E-3,-6.9726055E-4,1.4847282E-5],"split_indices":[4,3,4,4,4,4,4,0,0,0,0,0,0,0,0],"split_type":[0,0,0,0,0,0,0,0,0,0,0,0,0,0,0],"sum_hessian":[4.8E2,1.44E2,3.36E2,4.1E1,1.03E2,5.6E1,2.8E2,9E0,3.2E1,9.9E1,4E0,5.4E1,2E0,1E1,2.7E2],"tree_param":{"num_deleted":"0","num_feature":"5","num_nodes":"15","size_leaf_vector":"1"}},{"base_weights":[-7.0175283E-6,-9.947806E-3,5.5256758E-5,-5.9206336E-4,-1.5402208E-4,-1.1697859E-3,5.8533414E-4,1.8976805E-4,-1.5818467E-4,2.0719715E-4,-7.18957E-6],"categories":[],"categories_nodes":[],"categories_segments":[],"categories_sizes":[],"default_left":[0,0,0,0,0,0,0,0,0,0,0],"id":82,"left_children":[1,3,5,-1,-1,7,9,-1,-1,-1,-1],"loss_changes":[2.9831537E-4,2.5329355E-6,3.117317E-4,0E0,0E0,1.4475137E-3,8.698112E-4,0E0,0E0,0E0,0E0],"parents":[2147483647,0,0,1,1,2,2,5,5,6,6],"right_children":[2,4,6,-1,-1,8,10,-1,-1,-1,-1],"split_conditions":[-5.896473E-2,-8.8628024E-2,1.2928544E-2,-5.9206336E-4,-1.5402208E-4,1E0,1.4302349E-2,1.8976805E-4,-1.5818467E-4,2.0719715E-4,-7.18957E-6],"split_indices":[0,1,4,0,0,3,4,0,0,0,0],"split_type":[0,0,0,0,0,0,0,0,0,0,0],"sum_hessian":[4.8E2,2E0,4.78E2,1E0,1E0,1.44E2,3.34E2,4.1E1,1.03E2,5.6E1,2.78E2],"tree_param":{"num_deleted":"0","num_feature":"5","num_nodes":"11","size_leaf_vector":"1"}},{"base_weights":[-7.736252E-6,8.04824E-5,-7.005126E-3,1.5221267E-4,-5.6398637E-4,2.7277444E-3,-1.2553498E-2,-7.267246E-7,3.0332207E-4,1.9820654E-4,6.374286E-6,-9.4728544E-4,1.6557833E-4],"categories":[],"categories_nodes":[],"categories_segments":[],"categories_sizes":[],"default_left":[0,0,0,0,0,0,0,0,0,0,0,0,0],"id":83,"left_children":[1,3,5,7,-1,9,11,-1,-1,-1,-1,-1,-1],"loss_changes":[2.9748527E-4,3.8959543E-4,3.5825223E-4,4.6753787E-4,0E0,9.139405E-6,4.6839134E-4,0E0,0E0,0E0,0E0,0E0,0E0],"parents":[2147483647,0,0,1,1,2,2,3,3,5,5,6,6],"right_children":[2,4,6,8,-1,10,12,-1,-1,-1,-1,-1,-1],"split_conditions":[6.2252842E-2,9.968878E-2,1.8190132E-2,4.480636E-2,-5.6398637E-4,7.10373E-2,8.029275E-2,-7.267246E-7,3.0332207E-4,1.9820654E-4,6.374286E-6,-9.4728544E-4,1.6557833E-4],"split_indices":[0,1,4,4,0,0,1,0,0,0,0,0,0],"split_type":[0,0,0,0,0,0,0,0,0,0,0,0,0],"sum_hessian":[4.8E2,4.75E2,5E0,4.73E2,2E0,2E0,3E0,4.61E2,1.2E1,1E0,1E0,2E0,1E0],"tree_param":{"num_deleted":"0","num_feature":"5","num_nodes":"13","size_leaf_vector":"1"}},{"base_weights":[-9.092705E-6,9.82543E-3,-7.066781E-5,8.578342E-4,-1.20926896E-4,-5.9117563E-3,9.2083406E-5,-5.613508E-4,1.2401947E-5,3.2923938E-4,-7.642843E-6],"categories":[],"categories_nodes":[],"categories_segments":[],"categories_sizes":[],"default_left":[0,0,0,0,0,0,0,0,0,0,0],"id":84,"left_children":[1,3,5,-1,-1,7,9,-1,-1,-1,-1],"loss_changes":[2.9196957E-4,3.1078496E-4,4.5590298E-4,0E0,0E0,4.2841656E-4,7.4368826E-4,0E0,0E0,0E0,0E0],"parents":[2147483647,0,0,1,1,2,2,5,5,6,6],"right_children":[2,4,6,-1,-1,8,10,-1,-1,-1,-1],"split_conditions":[-1.19783096E-1,-1.23005E-2,-6.9692425E-2,8.578342E-4,-1.20926896E-4,3.2294724E1,-4.698436E-2,-5.613508E-4,1.2401947E-5,3.2923938E-4,-7.642843E-6],"split_indices":[1,0,1,0,0,2,1,0,0,0,0],"split_type":[0,0,0,0,0,0,0,0,0,0,0],"sum_hessian":[4.8E2,2E0,4.78E2,1E0,1E0,1.2E1,4.66E2,6E0,6E0,1.6E1,4.5E2],"tree_param":{"num_deleted":"0","num_feature":"5","num_nodes":"11","size_leaf_vector":"1"}},{"base_weights":[-7.5787025E-6,-2.3019086E-3,2.461895E-4,1.741269E-3,-1.224543E-2,1.0456219E-2,1.5086166E-4,-7.7205215E-5,8.9389615E-4,-9.322009E-4,-1.5917052E-4,7.7568385E-4,-1.1790371E-4,-7.7321E-4,1.29853115E-5],"categories":[],"categories_nodes":[],"categories_segments":[],"categories_sizes":[],"default_left":[0,0,0,0,0,0,0,0,0,0,0,0,0,0,0],"id":85,"left_children":[1,3,5,7,9,11,13,-1,-1,-1,-1,-1,-1,-1,-1],"loss_changes":[2.8061835E-4,1.9510869E-3,4.2083496E-4,1.8831281E-3,7.524262E-4,2.9581334E-4,7.365501E-4,0E0,0E0,0E0,0E0,0E0,0E0,0E0,0E0],"parents":[2147483647,0,0,1,1,2,2,3,3,4,4,5,5,6,6],"right_children":[2,4,6,8,10,12,14,-1,-1,-1,-1,-1,-1,-1,-1],"split_conditions":[-1.7093478E-2,-2.1790218E-2,-9.220494E-2,-2.2802904E-2,1.4382674E-2,-9.883816E-3,-8.244772E-2,-7.7205215E-5,8.9389615E-4,-9.322009E-4,-1.5917052E-4,7.7568385E-4,-1.1790371E-4,-7.7321E-4,1.29853115E-5],"split_indices":[0,0,1,0,4,0,1,0,0,0,0,0,0,0,0],"split_type":[0,0,0,0,0,0,0,0,0,0,0,0,0,0,0],"sum_hessian":[4.8E2,4.7E1,4.33E2,3.4E1,1.3E1,3E0,4.3E2,2.9E1,5E0,7E0,6E0,2E0,1E0,2E0,4.28E2],"tree_param":{"num_deleted":"0","num_feature":"5","num_nodes":"15","size_leaf_vector":"1"}},{"base_weights":[-7.983802E-6,7.708582E-5,-6.7555094E-3,1.464446E-4,-5.4536486E-4,2.655989E-3,-1.2125256E-2,-5.0202334E-6,1.9688833E-4,1.9311781E-4,6.0813736E-6,-9.158873E-4,1.613053E-4],"categories":[],"categories_nodes":[],"categories_segments":[],"categories_sizes":[],"default_left":[0,0,0,0,0,0,0,0,0,0,0,0,0],"id":86,"left_children":[1,3,5,7,-1,9,11,-1,-1,-1,-1,-1,-1],"loss_changes":[2.7661928E-4,3.6424433E-4,3.3542872E-4,4.4400487E-4,0E0,8.70234E-6,4.3934764E-4,0E0,0E0,0E0,0E0,0E0,0E0],"parents":[2147483647,0,0,1,1,2,2,3,3,5,5,6,6],"right_children":[2,4,6,8,-1,10,12,-1,-1,-1,-1,-1,-1],"split_conditions":[6.2252842E-2,9.968878E-2,1.8190132E-2,6.453758E-2,-5.4536486E-4,7.10373E-2,8.029275E-2,-5.0202334E-6,1.9688833E-4,1.9311781E-4,6.0813736E-6,-9.158873E-4,1.613053E-4],"split_indices":[0,1,4,1,0,0,1,0,0,0,0,0,0],"split_type":[0,0,0,0,0,0,0,0,0,0,0,0,0],"sum_hessian":[4.8E2,4.75E2,5E0,4.73E2,2E0,2E0,3E0,4.45E2,2.8E1,1E0,1E0,2E0,1E0],"tree_param":{"num_deleted":"0","num_feature":"5","num_nodes":"13","size_leaf_vector":"1"}},{"base_weights":[-9.474196E-6,-4.7832192E-4,5.040131E-5,-6.415774E-4,9.705555E-4,1.6510148E-5,-1.6362366E-4,1.01425816E-4,-1.1422952E-4],"categories":[],"categories_nodes":[],"categories_segments":[],"categories_sizes":[],"default_left":[0,0,0,0,0,0,0,0,0],"id":87,"left_children":[1,-1,3,5,7,-1,-1,-1,-1],"loss_changes":[2.757239E-4,0E0,3.0561496E-4,7.0160336E-4,7.140606E-4,0E0,0E0,0E0,0E0],"parents":[2147483647,0,0,2,2,3,3,4,4],"right_children":[2,-1,4,6,8,-1,-1,-1,-1],"split_conditions":[-5.896473E-2,-4.7832192E-4,1.5619552E-2,1.4302349E-2,1.2977112E-2,1.6510148E-5,-1.6362366E-4,1.01425816E-4,-1.1422952E-4],"split_indices":[0,0,4,4,0,0,0,0,0],"split_type":[0,0,0,0,0,0,0,0,0],"sum_hessian":[4.8E2,2E0,4.78E2,2.73E2,2.05E2,2E2,7.3E1,1.55E2,5E1],"tree_param":{"num_deleted":"0","num_feature":"5","num_nodes":"9","size_leaf_vector":"1"}},{"base_weights":[-1.0327352E-5,-6.927115E-4,8.5151143E-4,5.868402E-4,-3.6697802E-3,1.6895894E-2,2.242951E-4,6.105928E-5,-4.047579E-4,8.486124E-4,-2.203601E-4,1.0425716E-3,-2.698218E-4,6.415082E-4,-1.0901588E-5],"categories":[],"categories_nodes":[],"categories_segments":[],"categories_sizes":[],"default_left":[0,0,0,0,0,0,0,0,0,0,0,0,0,0,0],"id":88,"left_children":[1,3,5,7,9,11,13,-1,-1,-1,-1,-1,-1,-1,-1],"loss_changes":[2.8346843E-4,1.0268588E-3,2.139693E-3,1.0507817E-3,1.3077722E-3,8.179485E-4,1.1514357E-3,0E0,0E0,0E0,0E0,0E0,0E0,0E0,0E0],"parents":[2147483647,0,0,1,1,2,2,3,3,4,4,5,5,6,6],"right_children":[2,4,6,8,10,12,14,-1,-1,-1,-1,-1,-1,-1,-1],"split_conditions":[2.8569673E-3,1.3907568E-2,3.5716894E-3,1.4132874E-3,4.082085E1,6.4244225E1,9.017333E-3,6.105928E-5,-4.047579E-4,8.486124E-4,-2.203601E-4,1.0425716E-3,-2.698218E-4,6.415082E-4,-1.0901588E-5],"split_indices":[0,1,0,0,2,2,4,0,0,0,0,0,0,0,0],"split_type":[0,0,0,0,0,0,0,0,0,0,0,0,0,0,0],"sum_hessian":[4.8E2,2.68E2,2.12E2,1.88E2,8E1,7E0,2.05E2,1.76E2,1.2E1,2E0,7.8E1,6E0,1E0,6E0,1.99E2],"tree_param":{"num_deleted":"0","num_feature":"5","num_nodes":"15","size_leaf_vector":"1"}},{"base_weights":[-6.30182E-6,9.410829E-3,-6.526861E-5,8.130595E-4,-1.0724732E-4,-5.638303E-3,9.000915E-5,-5.352531E-4,1.1696394E-5,4.6454297E-4,-3.5100654E-6],"categories":[],"categories_nodes":[],"categories_segments":[],"categories_sizes":[],"default_left":[0,0,0,0,0,0,0,0,0,0,0],"id":89,"left_children":[1,3,5,-1,-1,7,9,-1,-1,-1,-1],"loss_changes":[2.6771254E-4,2.723631E-4,4.1501888E-4,0E0,0E0,3.8929548E-4,6.89044E-4,0E0,0E0,0E0,0E0],"parents":[2147483647,0,0,1,1,2,2,5,5,6,6],"right_children":[2,4,6,-1,-1,8,10,-1,-1,-1,-1],"split_conditions":[-1.19783096E-1,-1.23005E-2,-6.9692425E-2,8.130595E-4,-1.0724732E-4,3.2294724E1,-5.564647E-2,-5.352531E-4,1.1696394E-5,4.6454297E-4,-3.5100654E-6],"split_indices":[1,0,1,0,0,2,1,0,0,0,0],"split_type":[0,0,0,0,0,0,0,0,0,0,0],"sum_hessian":[4.8E2,2E0,4.78E2,1E0,1E0,1.2E1,4.66E2,6E0,6E0,7E0,4.59E2],"tree_param":{"num_deleted":"0","num_feature":"5","num_nodes":"11","size_leaf_vector":"1"}},{"base_weights":[-4.6493487E-6,-1.1374598E-3,4.8277545E-4,3.5567926E-3,-3.0222784E-3,3.914987E-3,-2.1515637E-4,6.1983283E-4,3.851322E-5,-1.1888192E-4,-7.6553127E-4,8.980871E-5,2.0727448E-3,-6.568978E-4,1.5508964E-5],"categories":[],"categories_nodes":[],"categories_segments":[],"categories_sizes":[],"default_left":[0,0,0,0,0,0,0,0,0,0,0,0,0,0,0],"id":90,"left_children":[1,3,5,7,9,11,13,-1,-1,-1,-1,-1,-1,-1,-1],"loss_changes":[2.6613806E-4,1.2936826E-3,8.081089E-4,1.0250177E-3,7.874392E-4,4.4593224E-3,1.9117297E-3,0E0,0E0,0E0,0E0,0E0,0E0,0E0,0E0],"parents":[2147483647,0,0,1,1,2,2,3,3,4,4,5,5,6,6],"right_children":[2,4,6,8,10,12,14,-1,-1,-1,-1,-1,-1,-1,-1],"split_conditions":[1.2928544E-2,1E0,1.4302349E-2,1.0651039E-2,1.276678E-2,1.4212769E-2,1.45259425E-2,6.1983283E-4,3.851322E-5,-1.1888192E-4,-7.6553127E-4,8.980871E-5,2.0727448E-3,-6.568978E-4,1.5508964E-5],"split_indices":[4,3,4,4,4,4,4,0,0,0,0,0,0,0,0],"split_type":[0,0,0,0,0,0,0,0,0,0,0,0,0,0,0],"sum_hessian":[4.8E2,1.44E2,3.36E2,4.1E1,1.03E2,5.6E1,2.8E2,9E0,3.2E1,9.9E1,4E0,5.4E1,2E0,1E1,2.7E2],"tree_param":{"num_deleted":"0","num_feature":"5","num_nodes":"15","size_leaf_vector":"1"}},{"base_weights":[-1.7243564E-6,9.165218E-3,-5.9133756E-5,7.923452E-4,-1.0495386E-4,-5.3706844E-3,8.885188E-5,-5.129783E-4,1.4271916E-5,3.0815296E-4,-7.0153196E-6],"categories":[],"categories_nodes":[],"categories_segments":[],"categories_sizes":[],"default_left":[0,0,0,0,0,0,0,0,0,0,0],"id":91,"left_children":[1,3,5,-1,-1,7,9,-1,-1,-1,-1],"loss_changes":[2.536772E-4,2.5905733E-4,3.7698707E-4,0E0,0E0,3.6240596E-4,6.509077E-4,0E0,0E0,0E0,0E0],"parents":[2147483647,0,0,1,1,2,2,5,5,6,6],"right_children":[2,4,6,-1,-1,8,10,-1,-1,-1,-1],"split_conditions":[-1.19783096E-1,-1.23005E-2,-6.9692425E-2,7.923452E-4,-1.0495386E-4,3.2294724E1,-4.698436E-2,-5.129783E-4,1.4271916E-5,3.0815296E-4,-7.0153196E-6],"split_indices":[1,0,1,0,0,2,1,0,0,0,0],"split_type":[0,0,0,0,0,0,0,0,0,0,0],"sum_hessian":[4.8E2,2E0,4.78E2,1E0,1E0,1.2E1,4.66E2,6E0,6E0,1.6E1,4.5E2],"tree_param":{"num_deleted":"0","num_feature":"5","num_nodes":"11","size_leaf_vector":"1"}},{"base_weights":[-6.1979125E-7,-6.440954E-4,8.120354E-4,-8.581586E-5,-6.9081513E-3,1.618444E-2,2.1110688E-4,9.988875E-5,-9.809915E-5,-5.4188905E-4,-1.3910998E-6,9.990655E-4,-2.5984106E-4,6.0373143E-4,-1.0258595E-5],"categories":[],"categories_nodes":[],"categories_segments":[],"categories_sizes":[],"default_left":[0,0,0,0,0,0,0,0,0,0,0,0,0,0,0],"id":92,"left_children":[1,3,5,7,9,11,13,-1,-1,-1,-1,-1,-1,-1,-1],"loss_changes":[2.520494E-4,9.4012555E-4,1.964217E-3,9.733925E-4,5.945156E-4,7.53294E-4,1.019815E-3,0E0,0E0,0E0,0E0,0E0,0E0,0E0,0E0],"parents":[2147483647,0,0,1,1,2,2,3,3,4,4,5,5,6,6],"right_children":[2,4,6,8,10,12,14,-1,-1,-1,-1,-1,-1,-1,-1],"split_conditions":[2.8569673E-3,1.4132874E-3,3.5716894E-3,-2.7342574E-3,1.53688695E-2,6.4244225E1,9.017333E-3,9.988875E-5,-9.809915E-5,-5.4188905E-4,-1.3910998E-6,9.990655E-4,-2.5984106E-4,6.0373143E-4,-1.0258595E-5],"split_indices":[0,0,0,1,4,2,4,0,0,0,0,0,0,0,0],"split_type":[0,0,0,0,0,0,0,0,0,0,0,0,0,0,0],"sum_hessian":[4.8E2,2.68E2,2.12E2,2.47E2,2.1E1,7E0,2.05E2,1.17E2,1.3E2,1.3E1,8E0,6E0,1E0,6E0,1.99E2],"tree_param":{"num_deleted":"0","num_feature":"5","num_nodes":"15","size_leaf_vector":"1"}},{"base_weights":[1.0561196E-6,-2.2188227E-3,2.4657024E-4,1.6297572E-3,-1.1681786E-2,9.680186E-3,1.5844719E-4,-7.4512696E-5,8.479093E-4,-2.8535386E-4,-1.0647423E-3,7.1354257E-4,-1.0229524E-4,-7.2844716E-4,1.305333E-5],"categories":[],"categories_nodes":[],"categories_segments":[],"categories_sizes":[],"default_left":[0,0,0,0,0,0,0,0,0,0,0,0,0,0,0],"id":93,"left_children":[1,3,5,7,9,11,13,-1,-1,-1,-1,-1,-1,-1,-1],"loss_changes":[2.626977E-4,1.767149E-3,3.5925867E-4,1.6991424E-3,6.825618E-4,2.4451903E-4,6.5518066E-4,0E0,0E0,0E0,0E0,0E0,0E0,0E0,0E0],"parents":[2147483647,0,0,1,1,2,2,3,3,4,4,5,5,6,6],"right_children":[2,4,6,8,10,12,14,-1,-1,-1,-1,-1,-1,-1,-1],"split_conditions":[-1.7093478E-2,-2.1790218E-2,-9.220494E-2,-2.2802904E-2,-6.0856463E-3,-9.883816E-3,-8.244772E-2,-7.4512696E-5,8.479093E-4,-2.8535386E-4,-1.0647423E-3,7.1354257E-4,-1.0229524E-4,-7.2844716E-4,1.305333E-5],"split_indices":[0,0,1,0,1,0,1,0,0,0,0,0,0,0,0],"split_type":[0,0,0,0,0,0,0,0,0,0,0,0,0,0,0],"sum_hessian":[4.8E2,4.7E1,4.33E2,3.4E1,1.3E1,3E0,4.3E2,2.9E1,5E0,9E0,4E0,2E0,1E0,2E0,4.28E2],"tree_param":{"num_deleted":"0","num_feature":"5","num_nodes":"15","size_leaf_vector":"1"}},{"base_weights":[-4.1218132E-7,8.041337E-5,-6.412504E-3,1.7638759E-4,-7.466965E-3,-8.379683E-4,-9.912583E-4,-4.3782366E-6,2.3487005E-4,-6.7872104E-5,-5.091183E-4,2.3428677E-4,-3.1689164E-4],"categories":[],"categories_nodes":[],"categories_segments":[],"categories_sizes":[],"default_left":[0,0,0,0,0,0,0,0,0,0,0,0,0],"id":94,"left_children":[1,3,5,7,9,-1,11,-1,-1,-1,-1,-1,-1],"loss_changes":[2.497991E-4,3.4610945E-4,3.1994443E-4,5.624707E-4,8.571686E-5,0E0,1.8145976E-4,0E0,0E0,0E0,0E0,0E0,0E0],"parents":[2147483647,0,0,1,1,2,2,3,3,4,4,6,6],"right_children":[2,4,6,8,10,-1,12,-1,-1,-1,-1,-1,-1],"split_conditions":[6.2252842E-2,9.599692E-2,-4.537905E-2,6.453758E-2,8.483409E-3,-8.379683E-4,6.655712E1,-4.3782366E-6,2.3487005E-4,-6.7872104E-5,-5.091183E-4,2.3428677E-4,-3.1689164E-4],"split_indices":[0,1,1,1,0,0,2,0,0,0,0,0,0],"split_type":[0,0,0,0,0,0,0,0,0,0,0,0,0],"sum_hessian":[4.8E2,4.75E2,5E0,4.7E2,5E0,1E0,4E0,4.45E2,2.5E1,2E0,3E0,2E0,2E0],"tree_param":{"num_deleted":"0","num_feature":"5","num_nodes":"13","size_leaf_vector":"1"}},{"base_weights":[-3.0258225E-6,-4.5323683E-4,5.3734424E-5,-5.882519E-4,9.6780725E-4,-6.287008E-5,1.1978145E-4,3.420489E-4,2.0694839E-5],"categories":[],"categories_nodes":[],"categories_segments":[],"categories_sizes":[],"default_left":[0,0,0,0,0,0,0,0,0],"id":95,"left_children":[1,-1,3,5,7,-1,-1,-1,-1],"loss_changes":[2.4788702E-4,0E0,2.8165715E-4,5.6607113E-4,6.413043E-4,0E0,0E0,0E0,0E0],"parents":[2147483647,0,0,2,2,3,3,4,4],"right_children":[2,-1,4,6,8,-1,-1,-1,-1],"split_conditions":[-5.896473E-2,-4.5323683E-4,1.5812457E-2,1.1736755E-2,4.082085E1,-6.287008E-5,1.1978145E-4,3.420489E-4,2.0694839E-5],"split_indices":[0,0,4,0,2,0,0,0,0],"split_type":[0,0,0,0,0,0,0,0,0],"sum_hessian":[4.8E2,2E0,4.78E2,2.81E2,1.97E2,2.3E2,5.1E1,1.6E1,1.81E2],"tree_param":{"num_deleted":"0","num_feature":"5","num_nodes":"9","size_leaf_vector":"1"}},{"base_weights":[-2.944361E-6,-1.2470045E-4,4.067398E-3,2.389206E-5,-1.7367406E-2,1.3973844E-2,-2.9888318E-3,-1.3643764E-4,1.5903051E-5,-8.996657E-5,-1.0978493E-3,3.0068402E-5,8.264033E-4,2.3573659E-4,-2.9316914E-4],"categories":[],"categories_nodes":[],"categories_segments":[],"categories_sizes":[],"default_left":[0,0,0,0,0,0,0,0,0,0,0,0,0,0,0],"id":96,"left_children":[1,3,5,7,9,11,13,-1,-1,-1,-1,-1,-1,-1,-1],"loss_changes":[2.3888554E-4,1.199495E-3,1.0203957E-3,3.7739828E-4,2.4629582E-4,1.9499823E-4,2.2694285E-4,0E0,0E0,0E0,0E0,0E0,0E0,0E0,0E0],"parents":[2147483647,0,0,1,1,2,2,3,3,4,4,5,5,6,6],"right_children":[2,4,6,8,10,12,14,-1,-1,-1,-1,-1,-1,-1,-1],"split_conditions":[4.480636E-2,4.3513797E-2,8.865682E-3,-1.7093478E-2,-1.9053163E-2,-4.4998996E-2,4.6006203E1,-1.3643764E-4,1.5903051E-5,-8.996657E-5,-1.0978493E-3,3.0068402E-5,8.264033E-4,2.3573659E-4,-2.9316914E-4],"split_indices":[4,4,1,0,0,0,2,0,0,0,0,0,0,0,0],"split_type":[0,0,0,0,0,0,0,0,0,0,0,0,0,0,0],"sum_hessian":[4.8E2,4.67E2,1.3E1,4.64E2,3E0,5E0,8E0,4.4E1,4.2E2,1E0,2E0,1E0,4E0,2E0,6E0],"tree_param":{"num_deleted":"0","num_feature":"5","num_nodes":"15","size_leaf_vector":"1"}},{"base_weights":[-3.8560274E-6,4.4026243E-4,-1.1453765E-3,9.013028E-3,2.6299083E-4,-7.2727836E-4,-9.36826E-4,8.818796E-5,1.3127159E-3,-7.8447256E-4,1.780276E-5,-1.7079219E-4,-6.2803165E-6],"categories":[],"categories_nodes":[],"categories_segments":[],"categories_sizes":[],"default_left":[0,0,0,0,0,0,0,0,0,0,0,0,0],"id":97,"left_children":[1,3,5,7,9,-1,11,-1,-1,-1,-1,-1,-1],"loss_changes":[2.4435698E-4,5.249683E-4,3.6364637E-4,8.286009E-4,5.118364E-4,0E0,2.6904867E-4,0E0,0E0,0E0,0E0,0E0,0E0],"parents":[2147483647,0,0,1,1,2,2,3,3,4,4,6,6],"right_children":[2,4,6,8,10,-1,12,-1,-1,-1,-1,-1,-1],"split_conditions":[6.413458E1,9.017333E-3,-1.9994713E-2,2.527007E-3,9.037533E-3,-7.2727836E-4,1.2087426E-2,8.818796E-5,1.3127159E-3,-7.8447256E-4,1.780276E-5,-1.7079219E-4,-6.2803165E-6],"split_indices":[2,4,1,0,4,0,4,0,0,0,0,0,0],"split_type":[0,0,0,0,0,0,0,0,0,0,0,0,0],"sum_hessian":[4.8E2,3.46E2,1.34E2,6E0,3.4E2,1E0,1.33E2,5E0,1E0,1E0,3.39E2,3.2E1,1.01E2],"tree_param":{"num_deleted":"0","num_feature":"5","num_nodes":"13","size_leaf_vector":"1"}},{"base_weights":[-4.224734E-6,-4.3417444E-4,5.014273E-5,-5.5604446E-4,9.1324694E-4,1.5800757E-5,-1.3434365E-4,9.6873395E-5,-1.0785981E-4],"categories":[],"categories_nodes":[],"categories_segments":[],"categories_sizes":[],"default_left":[0,0,0,0,0,0,0,0,0],"id":98,"left_children":[1,-1,3,5,7,-1,-1,-1,-1],"loss_changes":[2.2740469E-4,0E0,2.511219E-4,5.2486407E-4,6.2685227E-4,0E0,0E0,0E0,0E0],"parents":[2147483647,0,0,2,2,3,3,4,4],"right_children":[2,-1,4,6,8,-1,-1,-1,-1],"split_conditions":[-5.896473E-2,-4.3417444E-4,1.5812457E-2,1.4302349E-2,1.2977112E-2,1.5800757E-5,-1.3434365E-4,9.6873395E-5,-1.0785981E-4],"split_indices":[0,0,4,4,0,0,0,0,0],"split_type":[0,0,0,0,0,0,0,0,0],"sum_hessian":[4.8E2,2E0,4.78E2,2.81E2,1.97E2,2E2,8.1E1,1.48E2,4.9E1],"tree_param":{"num_deleted":"0","num_feature":"5","num_nodes":"9","size_leaf_vector":"1"}},{"base_weights":[-5.185461E-6,4.254657E-4,-1.1120801E-3,8.748962E-3,2.5335446E-4,-7.115182E-4,-9.0798567E-4,8.3855106E-5,1.279503E-3,-7.652558E-4,1.7206487E-5,8.982135E-5,-8.035983E-5],"categories":[],"categories_nodes":[],"categories_segments":[],"categories_sizes":[],"default_left":[0,0,0,0,0,0,0,0,0,0,0,0,0],"id":99,"left_children":[1,3,5,7,9,-1,11,-1,-1,-1,-1,-1,-1],"loss_changes":[2.2975887E-4,4.9488427E-4,3.4852372E-4,7.907681E-4,4.8686945E-4,0E0,2.5627518E-4,0E0,0E0,0E0,0E0,0E0,0E0],"parents":[2147483647,0,0,1,1,2,2,3,3,4,4,6,6],"right_children":[2,4,6,8,10,-1,12,-1,-1,-1,-1,-1,-1],"split_conditions":[6.413458E1,9.017333E-3,-1.9994713E-2,2.527007E-3,9.037533E-3,-7.115182E-4,1E0,8.3855106E-5,1.279503E-3,-7.652558E-4,1.7206487E-5,8.982135E-5,-8.035983E-5],"split_indices":[2,4,1,0,4,0,3,0,0,0,0,0,0],"split_type":[0,0,0,0,0,0,0,0,0,0,0,0,0],"sum_hessian":[4.8E2,3.46E2,1.34E2,6E0,3.4E2,1E0,1.33E2,5E0,1E0,1E0,3.39E2,2.7E1,1.06E2],"tree_param":{"num_deleted":"0","num_feature":"5","num_nodes":"13","size_leaf_vector":"1"}}]},"name":"gbtree"},"learner_model_param":{"base_score":"[1.6162356E-3]","boost_from_average":"1","num_class":"0","num_feature":"5","num_target":"1"},"objective":{"name":"reg:squarederror","reg_loss_param":{"scale_pos_weight":"1"}}},"version":[3,1,2]}