{"learner":{"attributes":{"scikit_learn":"{\"_estimator_type\": \"regressor\"}"},"feature_names":["Ret_1d","Ret_5d","RSI","Trend_Signal","Vol_20d","MACD","MACD_Diff","BB_Pos"],"feature_types":["float","float","float","int","float","float","float","float"],"gradient_booster":{"model":{"cats":{"enc":[],"feature_segments":[],"sorted_idx":[]},"gbtree_model_param":{"num_parallel_tree":"1","num_trees":"100"},"iteration_indptr":[0,1,2,3,4,5,6,7,8,9,10,11,12,13,14,15,16,17,18,19,20,21,22,23,24,25,26,27,28,29,30,31,32,33,34,35,36,37,38,39,40,41,42,43,44,45,46,47,48,49,50,51,52,53,54,55,56,57,58,59,60,61,62,63,64,65,66,67,68,69,70,71,72,73,74,75,76,77,78,79,80,81,82,83,84,85,86,87,88,89,90,91,92,93,94,95,96,97,98,99,100],"tree_info":[0,0,0,0,0,0,0,0,0,0,0,0,0,0,0,0,0,0,0,0,0,0,0,0,0,0,0,0,0,0,0,0,0,0,0,0,0,0,0,0,0,0,0,0,0,0,0,0,0,0,0,0,0,0,0,0,0,0,0,0,0,0,0,0,0,0,0,0,0,0,0,0,0,0,0,0,0,0,0,0,0,0,0,0,0,0,0,0,0,0,0,0,0,0,0,0,0,0,0,0],"trees":[{"base_weights":[4.5868136E-11,1.5470004E-3,-1.996129E-4,-2.0692337E-2,2.0440051E-4,2.5594464E-4,-1.4399122E-3,3.6866983E-4,-1.31446595E-5],"categories":[],"categories_nodes":[],"categories_segments":[],"categories_sizes":[],"default_left":[0,0,0,0,0,0,0,0,0],"id":0,"left_children":[1,-1,3,5,7,-1,-1,-1,-1],"loss_changes":[2.89038E-3,0E0,3.8541206E-3,2.0304262E-3,1.5329005E-3,0E0,0E0,0E0,0E0],"parents":[2147483647,0,0,2,2,3,3,4,4],"right_children":[2,-1,4,6,8,-1,-1,-1,-1],"split_conditions":[-1.4737594E-1,1.5470004E-3,-8.083751E-2,-6.365046E-1,-7.052537E-1,2.5594464E-4,-1.4399122E-3,3.6866983E-4,-1.31446595E-5],"split_indices":[1,0,1,6,5,0,0,0,0],"split_type":[0,0,0,0,0,0,0,0,0],"sum_hessian":[4.66E2,2E0,4.64E2,8E0,4.56E2,2E0,6E0,2.7E1,4.29E2],"tree_param":{"num_deleted":"0","num_feature":"8","num_nodes":"9","size_leaf_vector":"1"}},{"base_weights":[1.538667E-6,1.4954337E-3,-1.914139E-4,-1.9789271E-2,1.949584E-4,2.4741315E-4,-1.3782018E-3,3.576765E-4,-1.2070687E-5],"categories":[],"categories_nodes":[],"categories_segments":[],"categories_sizes":[],"default_left":[0,0,0,0,0,0,0,0,0],"id":1,"left_children":[1,-1,3,5,7,-1,-1,-1,-1],"loss_changes":[2.7006222E-3,0E0,3.5248706E-3,1.8673502E-3,1.3894197E-3,0E0,0E0,0E0,0E0],"parents":[2147483647,0,0,2,2,3,3,4,4],"right_children":[2,-1,4,6,8,-1,-1,-1,-1],"split_conditions":[-1.4737594E-1,1.4954337E-3,-8.083751E-2,-6.365046E-1,-7.663375E-1,2.4741315E-4,-1.3782018E-3,3.576765E-4,-1.2070687E-5],"split_indices":[1,0,1,6,5,0,0,0,0],"split_type":[0,0,0,0,0,0,0,0,0],"sum_hessian":[4.66E2,2E0,4.64E2,8E0,4.56E2,2E0,6E0,2.6E1,4.3E2],"tree_param":{"num_deleted":"0","num_feature":"8","num_nodes":"9","size_leaf_vector":"1"}},{"base_weights":[2.9826026E-6,1.4455859E-3,-1.8353177E-4,-1.8925453E-2,1.8596672E-4,2.3916604E-4,-1.3191359E-3,1.2915887E-4,-4.8528582E-5],"categories":[],"categories_nodes":[],"categories_segments":[],"categories_sizes":[],"default_left":[0,0,0,0,0,0,0,0,0],"id":2,"left_children":[1,-1,3,5,7,-1,-1,-1,-1],"loss_changes":[2.523321E-3,0E0,3.2236963E-3,1.7174205E-3,1.2695242E-3,0E0,0E0,0E0,0E0],"parents":[2147483647,0,0,2,2,3,3,4,4],"right_children":[2,-1,4,6,8,-1,-1,-1,-1],"split_conditions":[-1.4737594E-1,1.4455859E-3,-8.083751E-2,-6.365046E-1,5.260798E-1,2.3916604E-4,-1.3191359E-3,1.2915887E-4,-4.8528582E-5],"split_indices":[1,0,1,6,7,0,0,0,0],"split_type":[0,0,0,0,0,0,0,0,0],"sum_hessian":[4.66E2,2E0,4.64E2,8E0,4.56E2,2E0,6E0,1.48E2,3.08E2],"tree_param":{"num_deleted":"0","num_feature":"8","num_nodes":"9","size_leaf_vector":"1"}},{"base_weights":[3.7890236E-6,1.3973997E-3,-1.7650431E-4,-1.8099176E-2,1.7684481E-4,2.3119383E-4,-1.2626016E-3,3.290344E-4,-1.2028045E-5],"categories":[],"categories_nodes":[],"categories_segments":[],"categories_sizes":[],"default_left":[0,0,0,0,0,0,0,0,0],"id":3,"left_children":[1,-1,3,5,7,-1,-1,-1,-1],"loss_changes":[2.3577507E-3,0E0,2.9480276E-3,1.5795743E-3,1.2231444E-3,0E0,0E0,0E0,0E0],"parents":[2147483647,0,0,2,2,3,3,4,4],"right_children":[2,-1,4,6,8,-1,-1,-1,-1],"split_conditions":[-1.4737594E-1,1.3973997E-3,-8.083751E-2,-6.365046E-1,-7.052537E-1,2.3119383E-4,-1.2626016E-3,3.290344E-4,-1.2028045E-5],"split_indices":[1,0,1,6,5,0,0,0,0],"split_type":[0,0,0,0,0,0,0,0,0],"sum_hessian":[4.66E2,2E0,4.64E2,8E0,4.56E2,2E0,6E0,2.7E1,4.29E2],"tree_param":{"num_deleted":"0","num_feature":"8","num_nodes":"9","size_leaf_vector":"1"}},{"base_weights":[5.062134E-6,2.1057818E-2,-2.2230037E-4,1.1338503E-5,1.3104443E-3,-1.2821302E-2,5.5700308E-5,3.9416374E-4,-1.1410437E-3,3.7750488E-4,-1.0878544E-5],"categories":[],"categories_nodes":[],"categories_segments":[],"categories_sizes":[],"default_left":[0,0,0,0,0,0,0,0,0,0,0],"id":4,"left_children":[1,3,5,-1,-1,7,9,-1,-1,-1,-1],"loss_changes":[2.2400268E-3,5.305675E-4,1.6223859E-3,0E0,0E0,2.2502725E-3,9.3143596E-4,0E0,0E0,0E0,0E0],"parents":[2147483647,0,0,1,1,2,2,5,5,6,6],"right_children":[2,4,6,-1,-1,8,10,-1,-1,-1,-1],"split_conditions":[-1.846669E0,-3.44062E-2,-8.083751E-2,1.1338503E-5,1.3104443E-3,2.609482E1,3.578491E1,3.9416374E-4,-1.1410437E-3,3.7750488E-4,-1.0878544E-5],"split_indices":[5,0,1,0,0,2,2,0,0,0,0],"split_type":[0,0,0,0,0,0,0,0,0,0,0],"sum_hessian":[4.66E2,4E0,4.62E2,1E0,3E0,9E0,4.53E2,3E0,6E0,1.5E1,4.38E2],"tree_param":{"num_deleted":"0","num_feature":"8","num_nodes":"11","size_leaf_vector":"1"}},{"base_weights":[6.825164E-6,1.3224095E-3,-1.6377897E-4,-2.513223E-2,5.2752603E-5,-1.7661231E-3,-4.9806666E-4,1.2715174E-5,-5.708524E-4],"categories":[],"categories_nodes":[],"categories_segments":[],"categories_sizes":[],"default_left":[0,0,0,0,0,0,0,0,0],"id":5,"left_children":[1,-1,3,5,7,-1,-1,-1,-1],"loss_changes":[2.1109716E-3,0E0,2.5153288E-3,2.66521E-4,1.0709312E-3,0E0,0E0,0E0,0E0],"parents":[2147483647,0,0,2,2,3,3,4,4],"right_children":[2,-1,4,6,8,-1,-1,-1,-1],"split_conditions":[-1.4737594E-1,1.3224095E-3,-3.7922695E-2,-6.34329E-2,3.791987E-2,-1.7661231E-3,-4.9806666E-4,1.2715174E-5,-5.708524E-4],"split_indices":[1,0,0,0,0,0,0,0,0],"split_type":[0,0,0,0,0,0,0,0,0],"sum_hessian":[4.66E2,2E0,4.64E2,3E0,4.61E2,1E0,2E0,4.54E2,7E0],"tree_param":{"num_deleted":"0","num_feature":"8","num_nodes":"9","size_leaf_vector":"1"}},{"base_weights":[3.272033E-6,1.9997172E-2,-2.126519E-4,1.0737166E-5,1.2444548E-3,-7.6646344E-3,2.3018873E-4,-1.7658819E-4,-1.475624E-3,8.842989E-4,-4.717536E-6],"categories":[],"categories_nodes":[],"categories_segments":[],"categories_sizes":[],"default_left":[0,0,0,0,0,0,0,0,0,0,0],"id":6,"left_children":[1,3,5,-1,-1,7,9,-1,-1,-1,-1],"loss_changes":[2.020367E-3,4.7852565E-4,1.5296829E-3,0E0,0E0,2.2434215E-3,2.482979E-3,0E0,0E0,0E0,0E0],"parents":[2147483647,0,0,1,1,2,2,5,5,6,6],"right_children":[2,4,6,-1,-1,8,10,-1,-1,-1,-1],"split_conditions":[-1.846669E0,-3.44062E-2,1.5540451E-2,1.0737166E-5,1.2444548E-3,-1.2249084E-2,3.7455444E1,-1.7658819E-4,-1.475624E-3,8.842989E-4,-4.717536E-6],"split_indices":[5,0,7,0,0,7,2,0,0,0,0],"split_type":[0,0,0,0,0,0,0,0,0,0,0],"sum_hessian":[4.66E2,4E0,4.62E2,1E0,3E0,2.5E1,4.37E2,2.2E1,3E0,7E0,4.3E2],"tree_param":{"num_deleted":"0","num_feature":"8","num_nodes":"11","size_leaf_vector":"1"}},{"base_weights":[4.1416283E-6,1.2605315E-3,-1.5848978E-4,-2.1828128E-2,7.688263E-5,-1.9016922E-4,-1.6288415E-3,-7.1889524E-5,7.388175E-5],"categories":[],"categories_nodes":[],"categories_segments":[],"categories_sizes":[],"default_left":[0,0,0,0,0,0,0,0,0],"id":7,"left_children":[1,-1,3,5,7,-1,-1,-1,-1],"loss_changes":[1.9183997E-3,0E0,2.3733804E-3,8.4481086E-4,9.802198E-4,0E0,0E0,0E0,0E0],"parents":[2147483647,0,0,2,2,3,3,4,4],"right_children":[2,-1,4,6,8,-1,-1,-1,-1],"split_conditions":[-1.4737594E-1,1.2605315E-3,-1.0805546E-1,-1.2546992E-1,4.5086694E-4,-1.9016922E-4,-1.6288415E-3,-7.1889524E-5,7.388175E-5],"split_indices":[1,0,1,1,0,0,0,0,0],"split_type":[0,0,0,0,0,0,0,0,0],"sum_hessian":[4.66E2,2E0,4.64E2,4E0,4.6E2,2E0,2E0,2.21E2,2.39E2],"tree_param":{"num_deleted":"0","num_feature":"8","num_nodes":"9","size_leaf_vector":"1"}},{"base_weights":[2.7429837E-6,1.8981071E-2,-2.022125E-4,1.2265972E-5,1.180184E-3,-7.263697E-3,2.1742407E-4,-1.6401902E-4,-1.4175922E-3,8.442007E-4,-4.6218524E-6],"categories":[],"categories_nodes":[],"categories_segments":[],"categories_sizes":[],"default_left":[0,0,0,0,0,0,0,0,0,0,0],"id":8,"left_children":[1,3,5,-1,-1,7,9,-1,-1,-1,-1],"loss_changes":[1.820334E-3,4.272497E-4,1.3735673E-3,0E0,0E0,2.0910152E-3,2.2635362E-3,0E0,0E0,0E0,0E0],"parents":[2147483647,0,0,1,1,2,2,5,5,6,6],"right_children":[2,4,6,-1,-1,8,10,-1,-1,-1,-1],"split_conditions":[-1.846669E0,-3.44062E-2,1.5540451E-2,1.2265972E-5,1.180184E-3,-1.2249084E-2,3.7455444E1,-1.6401902E-4,-1.4175922E-3,8.442007E-4,-4.6218524E-6],"split_indices":[5,0,7,0,0,7,2,0,0,0,0],"split_type":[0,0,0,0,0,0,0,0,0,0,0],"sum_hessian":[4.66E2,4E0,4.62E2,1E0,3E0,2.5E1,4.37E2,2.2E1,3E0,7E0,4.3E2],"tree_param":{"num_deleted":"0","num_feature":"8","num_nodes":"11","size_leaf_vector":"1"}},{"base_weights":[3.570364E-6,1.2015777E-3,-1.5145657E-4,-2.3743056E-2,5.3127533E-5,-1.6727338E-3,-4.6771448E-4,1.2157628E-5,-5.3805934E-4],"categories":[],"categories_nodes":[],"categories_segments":[],"categories_sizes":[],"default_left":[0,0,0,0,0,0,0,0,0],"id":9,"left_children":[1,-1,3,5,7,-1,-1,-1,-1],"loss_changes":[1.7432075E-3,0E0,2.245568E-3,2.4600816E-4,9.5202203E-4,0E0,0E0,0E0,0E0],"parents":[2147483647,0,0,2,2,3,3,4,4],"right_children":[2,-1,4,6,8,-1,-1,-1,-1],"split_conditions":[-1.4737594E-1,1.2015777E-3,-3.7922695E-2,-6.34329E-2,3.791987E-2,-1.6727338E-3,-4.6771448E-4,1.2157628E-5,-5.3805934E-4],"split_indices":[1,0,0,0,0,0,0,0,0],"split_type":[0,0,0,0,0,0,0,0,0],"sum_hessian":[4.66E2,2E0,4.64E2,3E0,4.61E2,1E0,2E0,4.54E2,7E0],"tree_param":{"num_deleted":"0","num_feature":"8","num_nodes":"9","size_leaf_vector":"1"}},{"base_weights":[2.5526018E-7,1.8022899E-2,-1.9437427E-4,1.165538E-5,2.241207E-2,-6.9170636E-3,2.0513327E-4,1.2631716E-3,3.4644952E-4,-1.5359255E-4,-1.3648885E-3,8.06735E-4,-4.550954E-6],"categories":[],"categories_nodes":[],"categories_segments":[],"categories_sizes":[],"default_left":[0,0,0,0,0,0,0,0,0,0,0,0,0],"id":10,"left_children":[1,3,5,-1,7,9,11,-1,-1,-1,-1,-1,-1],"loss_changes":[1.6416172E-3,3.8518757E-4,1.2449281E-3,0E0,1.5415717E-6,1.9537169E-3,2.067768E-3,0E0,0E0,0E0,0E0,0E0,0E0],"parents":[2147483647,0,0,1,1,2,2,4,4,5,5,6,6],"right_children":[2,4,6,-1,8,10,12,-1,-1,-1,-1,-1,-1],"split_conditions":[-1.846669E0,-3.44062E-2,1.5540451E-2,1.165538E-5,3.0678365E-2,-1.2249084E-2,3.7455444E1,1.2631716E-3,3.4644952E-4,-1.5359255E-4,-1.3648885E-3,8.06735E-4,-4.550954E-6],"split_indices":[5,0,7,0,1,7,2,0,0,0,0,0,0],"split_type":[0,0,0,0,0,0,0,0,0,0,0,0,0],"sum_hessian":[4.66E2,4E0,4.62E2,1E0,3E0,2.5E1,4.37E2,2E0,1E0,2.2E1,3E0,7E0,4.3E2],"tree_param":{"num_deleted":"0","num_feature":"8","num_nodes":"13","size_leaf_vector":"1"}},{"base_weights":[2.1803573E-6,1.1430321E-3,-1.4529827E-4,-1.6270757E-3,-5.346272E-6,1.3159995E-5,-3.541007E-4],"categories":[],"categories_nodes":[],"categories_segments":[],"categories_sizes":[],"default_left":[0,0,0,0,0,0,0],"id":11,"left_children":[1,-1,3,-1,5,-1,-1],"loss_changes":[1.5776413E-3,0E0,2.1080966E-3,0E0,8.8365516E-4,0E0,0E0],"parents":[2147483647,0,0,2,2,4,4],"right_children":[2,-1,4,-1,6,-1,-1],"split_conditions":[-1.4737594E-1,1.1430321E-3,-6.34329E-2,-1.6270757E-3,7.280844E1,1.3159995E-5,-3.541007E-4],"split_indices":[1,0,0,0,2,0,0],"split_type":[0,0,0,0,0,0,0],"sum_hessian":[4.66E2,2E0,4.64E2,1E0,4.63E2,4.47E2,1.6E1],"tree_param":{"num_deleted":"0","num_feature":"8","num_nodes":"7","size_leaf_vector":"1"}},{"base_weights":[3.0471318E-7,1.7209506E-2,-1.8554044E-4,1.10349965E-5,1.0700766E-3,-1.0904145E-2,5.096085E-5,-1.08401735E-4,-1.5282863E-3,1.0354221E-4,-4.5179127E-5],"categories":[],"categories_nodes":[],"categories_segments":[],"categories_sizes":[],"default_left":[0,0,0,0,0,0,0,0,0,0,0],"id":12,"left_children":[1,3,5,-1,-1,7,9,-1,-1,-1,-1],"loss_changes":[1.4967743E-3,3.5136438E-4,1.1742441E-3,0E0,0E0,1.65139E-3,8.772132E-4,0E0,0E0,0E0,0E0],"parents":[2147483647,0,0,1,1,2,2,5,5,6,6],"right_children":[2,4,6,-1,-1,8,10,-1,-1,-1,-1],"split_conditions":[-1.846669E0,-3.44062E-2,-8.083751E-2,1.10349965E-5,1.0700766E-3,-5.078399E-1,5.260798E-1,-1.08401735E-4,-1.5282863E-3,1.0354221E-4,-4.5179127E-5],"split_indices":[5,0,1,0,0,6,7,0,0,0,0],"split_type":[0,0,0,0,0,0,0,0,0,0,0],"sum_hessian":[4.66E2,4E0,4.62E2,1E0,3E0,9E0,4.53E2,7E0,2E0,1.45E2,3.08E2],"tree_param":{"num_deleted":"0","num_feature":"8","num_nodes":"11","size_leaf_vector":"1"}},{"base_weights":[-7.751639E-7,1.0889032E-3,-1.4128213E-4,-2.2192346E-2,4.994198E-5,-1.5481916E-3,-4.4736196E-4,1.1482555E-5,-5.088629E-4],"categories":[],"categories_nodes":[],"categories_segments":[],"categories_sizes":[],"default_left":[0,0,0,0,0,0,0,0,0],"id":13,"left_children":[1,-1,3,5,7,-1,-1,-1,-1],"loss_changes":[1.4321334E-3,0E0,1.9618713E-3,1.876764E-4,8.514568E-4,0E0,0E0,0E0,0E0],"parents":[2147483647,0,0,2,2,3,3,4,4],"right_children":[2,-1,4,6,8,-1,-1,-1,-1],"split_conditions":[-1.4737594E-1,1.0889032E-3,-3.7922695E-2,-6.34329E-2,3.791987E-2,-1.5481916E-3,-4.4736196E-4,1.1482555E-5,-5.088629E-4],"split_indices":[1,0,0,0,0,0,0,0,0],"split_type":[0,0,0,0,0,0,0,0,0],"sum_hessian":[4.66E2,2E0,4.64E2,3E0,4.61E2,1E0,2E0,4.54E2,7E0],"tree_param":{"num_deleted":"0","num_feature":"8","num_nodes":"9","size_leaf_vector":"1"}},{"base_weights":[-3.7429722E-6,1.6340584E-2,-1.802395E-4,1.0472059E-5,2.0321008E-2,-6.5049594E-3,1.95612E-4,1.147787E-3,3.1042032E-4,-1.4191262E-4,-1.2981142E-3,7.6583226E-4,-4.2755337E-6],"categories":[],"categories_nodes":[],"categories_segments":[],"categories_sizes":[],"default_left":[0,0,0,0,0,0,0,0,0,0,0,0,0],"id":14,"left_children":[1,3,5,-1,7,9,11,-1,-1,-1,-1,-1,-1],"loss_changes":[1.350108E-3,3.1678798E-4,1.1018954E-3,0E0,6.2130857E-6,1.7812647E-3,1.8631886E-3,0E0,0E0,0E0,0E0,0E0,0E0],"parents":[2147483647,0,0,1,1,2,2,4,4,5,5,6,6],"right_children":[2,4,6,-1,8,10,12,-1,-1,-1,-1,-1,-1],"split_conditions":[-1.846669E0,-3.44062E-2,1.5540451E-2,1.0472059E-5,3.0678365E-2,-1.2249084E-2,3.7455444E1,1.147787E-3,3.1042032E-4,-1.4191262E-4,-1.2981142E-3,7.6583226E-4,-4.2755337E-6],"split_indices":[5,0,7,0,1,7,2,0,0,0,0,0,0],"split_type":[0,0,0,0,0,0,0,0,0,0,0,0,0],"sum_hessian":[4.66E2,4E0,4.62E2,1E0,3E0,2.5E1,4.37E2,2E0,1E0,2.2E1,3E0,7E0,4.3E2],"tree_param":{"num_deleted":"0","num_feature":"8","num_nodes":"13","size_leaf_vector":"1"}},{"base_weights":[-1.8636516E-6,1.0358418E-3,-1.3552867E-4,-1.9289788E-2,7.2512164E-5,-1.6612608E-4,-1.4413563E-3,-3.4786495E-5,1.2799118E-4],"categories":[],"categories_nodes":[],"categories_segments":[],"categories_sizes":[],"default_left":[0,0,0,0,0,0,0,0,0],"id":15,"left_children":[1,-1,3,5,7,-1,-1,-1,-1],"loss_changes":[1.2961014E-3,0E0,1.8543623E-3,6.656471E-4,8.826861E-4,0E0,0E0,0E0,0E0],"parents":[2147483647,0,0,2,2,3,3,4,4],"right_children":[2,-1,4,6,8,-1,-1,-1,-1],"split_conditions":[-1.4737594E-1,1.0358418E-3,-1.0805546E-1,-1.2546992E-1,1.00325085E-2,-1.6612608E-4,-1.4413563E-3,-3.4786495E-5,1.2799118E-4],"split_indices":[1,0,1,1,0,0,0,0,0],"split_type":[0,0,0,0,0,0,0,0,0],"sum_hessian":[4.66E2,2E0,4.64E2,4E0,4.6E2,2E0,2E0,3.52E2,1.08E2],"tree_param":{"num_deleted":"0","num_feature":"8","num_nodes":"9","size_leaf_vector":"1"}},{"base_weights":[-2.7949065E-6,1.5598438E-2,-1.7126871E-4,1.1079922E-5,9.6936245E-4,-6.1786245E-3,1.8572336E-4,-1.3216045E-4,-1.2481305E-3,7.8300445E-4,-3.2724292E-6],"categories":[],"categories_nodes":[],"categories_segments":[],"categories_sizes":[],"default_left":[0,0,0,0,0,0,0,0,0,0,0],"id":16,"left_children":[1,3,5,-1,-1,7,9,-1,-1,-1,-1],"loss_changes":[1.2301338E-3,2.8700347E-4,9.940873E-4,0E0,0E0,1.6606575E-3,1.7034109E-3,0E0,0E0,0E0,0E0],"parents":[2147483647,0,0,1,1,2,2,5,5,6,6],"right_children":[2,4,6,-1,-1,8,10,-1,-1,-1,-1],"split_conditions":[-1.846669E0,-3.44062E-2,1.5540451E-2,1.1079922E-5,9.6936245E-4,-1.2249084E-2,3.578491E1,-1.3216045E-4,-1.2481305E-3,7.8300445E-4,-3.2724292E-6],"split_indices":[5,0,7,0,0,7,2,0,0,0,0],"split_type":[0,0,0,0,0,0,0,0,0,0,0],"sum_hessian":[4.66E2,4E0,4.62E2,1E0,3E0,2.5E1,4.37E2,2.2E1,3E0,6E0,4.31E2],"tree_param":{"num_deleted":"0","num_feature":"8","num_nodes":"11","size_leaf_vector":"1"}},{"base_weights":[-1.8417787E-6,9.873604E-4,-1.2925103E-4,-2.0998329E-2,5.1713396E-5,-1.2606402E-3,-2.0887263E-4,1.5451571E-5,-3.3510718E-4],"categories":[],"categories_nodes":[],"categories_segments":[],"categories_sizes":[],"default_left":[0,0,0,0,0,0,0,0,0],"id":17,"left_children":[1,-1,3,5,7,-1,-1,-1,-1],"loss_changes":[1.177623E-3,0E0,1.7571867E-3,1.7823942E-4,8.049759E-4,0E0,0E0,0E0,0E0],"parents":[2147483647,0,0,2,2,3,3,4,4],"right_children":[2,-1,4,6,8,-1,-1,-1,-1],"split_conditions":[-1.4737594E-1,9.873604E-4,-3.7922695E-2,-8.083751E-2,7.280844E1,-1.2606402E-3,-2.0887263E-4,1.5451571E-5,-3.3510718E-4],"split_indices":[1,0,0,1,2,0,0,0,0],"split_type":[0,0,0,0,0,0,0,0,0],"sum_hessian":[4.66E2,2E0,4.64E2,3E0,4.61E2,2E0,1E0,4.45E2,1.6E1],"tree_param":{"num_deleted":"0","num_feature":"8","num_nodes":"9","size_leaf_vector":"1"}},{"base_weights":[-3.4665857E-6,1.4807861E-2,-1.6340864E-4,1.0416634E-5,1.8405661E-2,-9.563618E-3,4.400436E-5,1.0411046E-3,2.7890914E-4,3.159252E-4,-8.636443E-4,9.788575E-5,-4.3017542E-5],"categories":[],"categories_nodes":[],"categories_segments":[],"categories_sizes":[],"default_left":[0,0,0,0,0,0,0,0,0,0,0,0,0],"id":18,"left_children":[1,3,5,-1,7,9,11,-1,-1,-1,-1,-1,-1],"loss_changes":[1.1087214E-3,2.5879638E-4,9.031438E-4,0E0,7.837429E-6,1.3335338E-3,7.874104E-4,0E0,0E0,0E0,0E0,0E0,0E0],"parents":[2147483647,0,0,1,1,2,2,4,4,5,5,6,6],"right_children":[2,4,6,-1,8,10,12,-1,-1,-1,-1,-1,-1],"split_conditions":[-1.846669E0,-3.44062E-2,-8.083751E-2,1.0416634E-5,3.0678365E-2,2.609482E1,5.260798E-1,1.0411046E-3,2.7890914E-4,3.159252E-4,-8.636443E-4,9.788575E-5,-4.3017542E-5],"split_indices":[5,0,1,0,1,2,7,0,0,0,0,0,0],"split_type":[0,0,0,0,0,0,0,0,0,0,0,0,0],"sum_hessian":[4.66E2,4E0,4.62E2,1E0,3E0,9E0,4.53E2,2E0,1E0,3E0,6E0,1.45E2,3.08E2],"tree_param":{"num_deleted":"0","num_feature":"8","num_nodes":"13","size_leaf_vector":"1"}},{"base_weights":[-1.4996989E-6,9.318312E-4,-1.2174243E-4,-1.7868986E-2,7.100803E-5,-1.475696E-4,-1.3415125E-3,-3.2963722E-5,1.2176998E-4],"categories":[],"categories_nodes":[],"categories_segments":[],"categories_sizes":[],"default_left":[0,0,0,0,0,0,0,0,0],"id":19,"left_children":[1,-1,3,5,7,-1,-1,-1,-1],"loss_changes":[1.048862E-3,0E0,1.5919359E-3,5.89216E-4,7.9760223E-4,0E0,0E0,0E0,0E0],"parents":[2147483647,0,0,2,2,3,3,4,4],"right_children":[2,-1,4,6,8,-1,-1,-1,-1],"split_conditions":[-1.4737594E-1,9.318312E-4,-1.0805546E-1,-1.2546992E-1,1.00325085E-2,-1.475696E-4,-1.3415125E-3,-3.2963722E-5,1.2176998E-4],"split_indices":[1,0,1,1,0,0,0,0,0],"split_type":[0,0,0,0,0,0,0,0,0],"sum_hessian":[4.66E2,2E0,4.64E2,4E0,4.6E2,2E0,2E0,3.52E2,1.08E2],"tree_param":{"num_deleted":"0","num_feature":"8","num_nodes":"9","size_leaf_vector":"1"}},{"base_weights":[-2.4278456E-6,1.4136019E-2,-1.5510562E-4,1.098031E-5,8.7801105E-4,-5.7488675E-3,1.7729831E-4,-1.17575924E-4,-1.1923205E-3,6.9702155E-4,-3.9288616E-6],"categories":[],"categories_nodes":[],"categories_segments":[],"categories_sizes":[],"default_left":[0,0,0,0,0,0,0,0,0,0,0],"id":20,"left_children":[1,3,5,-1,-1,7,9,-1,-1,-1,-1],"loss_changes":[1.0102711E-3,2.3440679E-4,8.6191617E-4,0E0,0E0,1.5424999E-3,1.5435775E-3,0E0,0E0,0E0,0E0],"parents":[2147483647,0,0,1,1,2,2,5,5,6,6],"right_children":[2,4,6,-1,-1,8,10,-1,-1,-1,-1],"split_conditions":[-1.846669E0,-3.44062E-2,1.5540451E-2,1.098031E-5,8.7801105E-4,-1.2249084E-2,3.7455444E1,-1.17575924E-4,-1.1923205E-3,6.9702155E-4,-3.9288616E-6],"split_indices":[5,0,7,0,0,7,2,0,0,0,0],"split_type":[0,0,0,0,0,0,0,0,0,0,0],"sum_hessian":[4.66E2,4E0,4.62E2,1E0,3E0,2.5E1,4.37E2,2.2E1,3E0,7E0,4.3E2],"tree_param":{"num_deleted":"0","num_feature":"8","num_nodes":"11","size_leaf_vector":"1"}},{"base_weights":[-1.723604E-6,8.8809617E-4,-1.16324074E-4,-1.9468399E-2,5.1478142E-5,-1.3770168E-3,-3.7988208E-4,1.48510835E-5,-3.1967284E-4],"categories":[],"categories_nodes":[],"categories_segments":[],"categories_sizes":[],"default_left":[0,0,0,0,0,0,0,0,0],"id":21,"left_children":[1,-1,3,5,7,-1,-1,-1,-1],"loss_changes":[9.527484E-4,0E0,1.5110065E-3,1.7403846E-4,7.3301955E-4,0E0,0E0,0E0,0E0],"parents":[2147483647,0,0,2,2,3,3,4,4],"right_children":[2,-1,4,6,8,-1,-1,-1,-1],"split_conditions":[-1.4737594E-1,8.8809617E-4,-3.7922695E-2,-6.34329E-2,7.280844E1,-1.3770168E-3,-3.7988208E-4,1.48510835E-5,-3.1967284E-4],"split_indices":[1,0,0,0,2,0,0,0,0],"split_type":[0,0,0,0,0,0,0,0,0],"sum_hessian":[4.66E2,2E0,4.64E2,3E0,4.61E2,1E0,2E0,4.45E2,1.6E1],"tree_param":{"num_deleted":"0","num_feature":"8","num_nodes":"9","size_leaf_vector":"1"}},{"base_weights":[-4.150518E-6,1.3420487E-2,-1.4911604E-4,1.03345255E-5,1.6672263E-2,-4.461748E-3,2.469822E-4,9.4452495E-4,2.5043898E-4,4.8292654E-6,-5.88076E-4,1.4247232E-4,-3.812975E-5],"categories":[],"categories_nodes":[],"categories_segments":[],"categories_sizes":[],"default_left":[0,0,0,0,0,0,0,0,0,0,0,0,0],"id":22,"left_children":[1,3,5,-1,7,9,11,-1,-1,-1,-1,-1,-1],"loss_changes":[9.1083435E-4,2.113955E-4,7.920106E-4,0E0,8.870964E-6,1.2988532E-3,1.118813E-3,0E0,0E0,0E0,0E0,0E0,0E0],"parents":[2147483647,0,0,1,1,2,2,4,4,5,5,6,6],"right_children":[2,4,6,-1,8,10,12,-1,-1,-1,-1,-1,-1],"split_conditions":[-1.846669E0,-3.44062E-2,-3.7106127E-2,1.03345255E-5,3.0678365E-2,-3.5516903E-1,5.260798E-1,9.4452495E-4,2.5043898E-4,4.8292654E-6,-5.88076E-4,1.4247232E-4,-3.812975E-5],"split_indices":[5,0,1,0,1,6,7,0,0,0,0,0,0],"split_type":[0,0,0,0,0,0,0,0,0,0,0,0,0],"sum_hessian":[4.66E2,4E0,4.62E2,1E0,3E0,3.8E1,4.24E2,2E0,1E0,2.4E1,1.4E1,1.18E2,3.06E2],"tree_param":{"num_deleted":"0","num_feature":"8","num_nodes":"13","size_leaf_vector":"1"}},{"base_weights":[-2.3875693E-6,1.3104644E-2,-1.4392703E-4,1.3952362E-4,7.4927846E-4,-1.2816505E-2,7.871453E-5,1.20285644E-4,-1.1215489E-3,9.3361734E-5,-3.8908882E-5],"categories":[],"categories_nodes":[],"categories_segments":[],"categories_sizes":[],"default_left":[0,0,0,0,0,0,0,0,0,0,0],"id":23,"left_children":[1,3,5,-1,-1,7,9,-1,-1,-1,-1],"loss_changes":[8.6824683E-4,5.5184064E-5,1.3073368E-3,0E0,0E0,1.2247914E-3,7.0030446E-4,0E0,0E0,0E0,0E0],"parents":[2147483647,0,0,1,1,2,2,5,5,6,6],"right_children":[2,4,6,-1,-1,8,10,-1,-1,-1,-1],"split_conditions":[-6.365046E-1,-2.4703795E-2,-8.083751E-2,1.3952362E-4,7.4927846E-4,-1.2546992E-1,5.260798E-1,1.20285644E-4,-1.1215489E-3,9.3361734E-5,-3.8908882E-5],"split_indices":[6,0,1,0,0,1,7,0,0,0,0],"split_type":[0,0,0,0,0,0,0,0,0,0,0],"sum_hessian":[4.66E2,4E0,4.62E2,1E0,3E0,7E0,4.55E2,3E0,4E0,1.47E2,3.08E2],"tree_param":{"num_deleted":"0","num_feature":"8","num_nodes":"11","size_leaf_vector":"1"}},{"base_weights":[-2.3923692E-6,8.2817767E-4,-1.0926429E-4,-1.2998508E-3,2.5563209E-6,8.126099E-6,-4.5679006E-4],"categories":[],"categories_nodes":[],"categories_segments":[],"categories_sizes":[],"default_left":[0,0,0,0,0,0,0],"id":24,"left_children":[1,-1,3,-1,5,-1,-1],"loss_changes":[8.2860276E-4,0E0,1.3461411E-3,0E0,6.7977083E-4,0E0,0E0],"parents":[2147483647,0,0,2,2,4,4],"right_children":[2,-1,4,-1,6,-1,-1],"split_conditions":[-1.4737594E-1,8.2817767E-4,-6.34329E-2,-1.2998508E-3,3.791987E-2,8.126099E-6,-4.5679006E-4],"split_indices":[1,0,0,0,0,0,0],"split_type":[0,0,0,0,0,0,0],"sum_hessian":[4.66E2,2E0,4.64E2,1E0,4.63E2,4.56E2,7E0],"tree_param":{"num_deleted":"0","num_feature":"8","num_nodes":"7","size_leaf_vector":"1"}},{"base_weights":[-4.2435204E-6,1.2614138E-2,-1.4050197E-4,7.538969E-6,1.5692282E-2,-5.384417E-3,1.711014E-4,8.8505837E-4,2.4164082E-4,-1.06304185E-4,-1.1386863E-3,7.0318056E-4,-2.7202384E-6],"categories":[],"categories_nodes":[],"categories_segments":[],"categories_sizes":[],"default_left":[0,0,0,0,0,0,0,0,0,0,0,0,0],"id":25,"left_children":[1,3,5,-1,7,9,11,-1,-1,-1,-1,-1,-1],"loss_changes":[8.0471404E-4,1.8945418E-4,7.5747323E-4,0E0,1.7150305E-6,1.4247453E-3,1.3729519E-3,0E0,0E0,0E0,0E0,0E0,0E0],"parents":[2147483647,0,0,1,1,2,2,4,4,5,5,6,6],"right_children":[2,4,6,-1,8,10,12,-1,-1,-1,-1,-1,-1],"split_conditions":[-1.846669E0,-3.44062E-2,1.5540451E-2,7.538969E-6,3.0678365E-2,-1.2249084E-2,3.578491E1,8.8505837E-4,2.4164082E-4,-1.06304185E-4,-1.1386863E-3,7.0318056E-4,-2.7202384E-6],"split_indices":[5,0,7,0,1,7,2,0,0,0,0,0,0],"split_type":[0,0,0,0,0,0,0,0,0,0,0,0,0],"sum_hessian":[4.66E2,4E0,4.62E2,1E0,3E0,2.5E1,4.37E2,2E0,1E0,2.2E1,3E0,6E0,4.31E2],"tree_param":{"num_deleted":"0","num_feature":"8","num_nodes":"13","size_leaf_vector":"1"}},{"base_weights":[-2.7685649E-6,1.2210279E-2,-1.3465295E-4,7.3504925E-6,7.594672E-4,-2.737412E-3,4.7486153E-4,-7.4312426E-5,-2.789716E-3,-5.832527E-5,1.2904457E-4],"categories":[],"categories_nodes":[],"categories_segments":[],"categories_sizes":[],"default_left":[0,0,0,0,0,0,0,0,0,0,0],"id":26,"left_children":[1,3,5,-1,-1,7,9,-1,-1,-1,-1],"loss_changes":[7.5384584E-4,1.7745339E-4,7.3581206E-4,0E0,0E0,5.758768E-3,1.3027554E-3,0E0,0E0,0E0,0E0],"parents":[2147483647,0,0,1,1,2,2,5,5,6,6],"right_children":[2,4,6,-1,-1,8,10,-1,-1,-1,-1],"split_conditions":[-1.846669E0,-3.44062E-2,-2.257078E-2,7.3504925E-6,7.594672E-4,-2.2652995E-2,4.0965024E-3,-7.4312426E-5,-2.789716E-3,-5.832527E-5,1.2904457E-4],"split_indices":[5,0,1,0,0,1,0,0,0,0,0],"split_type":[0,0,0,0,0,0,0,0,0,0,0],"sum_hessian":[4.66E2,4E0,4.62E2,1E0,3E0,8.7E1,3.75E2,8.6E1,1E0,2.11E2,1.64E2],"tree_param":{"num_deleted":"0","num_feature":"8","num_nodes":"11","size_leaf_vector":"1"}},{"base_weights":[-6.9695184E-6,1.2074229E-2,-1.3742097E-4,1.4034778E-4,6.8446546E-4,-1.1914703E-2,6.949938E-5,1.11992704E-4,-1.0427705E-3,1.5263366E-5,-3.018409E-4],"categories":[],"categories_nodes":[],"categories_segments":[],"categories_sizes":[],"default_left":[0,0,0,0,0,0,0,0,0,0,0],"id":27,"left_children":[1,3,5,-1,-1,7,9,-1,-1,-1,-1],"loss_changes":[7.3765585E-4,3.6411628E-5,1.1291404E-3,0E0,0E0,1.0591266E-3,6.58334E-4,0E0,0E0,0E0,0E0],"parents":[2147483647,0,0,1,1,2,2,5,5,6,6],"right_children":[2,4,6,-1,-1,8,10,-1,-1,-1,-1],"split_conditions":[-6.365046E-1,-2.4703795E-2,-8.083751E-2,1.4034778E-4,6.8446546E-4,-1.2546992E-1,7.280844E1,1.11992704E-4,-1.0427705E-3,1.5263366E-5,-3.018409E-4],"split_indices":[6,0,1,0,0,1,2,0,0,0,0],"split_type":[0,0,0,0,0,0,0,0,0,0,0],"sum_hessian":[4.66E2,4E0,4.62E2,1E0,3E0,7E0,4.55E2,3E0,4E0,4.39E2,1.6E1],"tree_param":{"num_deleted":"0","num_feature":"8","num_nodes":"11","size_leaf_vector":"1"}},{"base_weights":[-7.461634E-6,7.628989E-4,-1.059323E-4,-1.2367697E-3,4.574826E-7,7.570751E-6,-4.3115244E-4],"categories":[],"categories_nodes":[],"categories_segments":[],"categories_sizes":[],"default_left":[0,0,0,0,0,0,0],"id":28,"left_children":[1,-1,3,-1,5,-1,-1],"loss_changes":[7.036097E-4,0E0,1.2184615E-3,0E0,6.0533313E-4,0E0,0E0],"parents":[2147483647,0,0,2,2,4,4],"right_children":[2,-1,4,-1,6,-1,-1],"split_conditions":[-1.4737594E-1,7.628989E-4,-6.34329E-2,-1.2367697E-3,3.791987E-2,7.570751E-6,-4.3115244E-4],"split_indices":[1,0,0,0,0,0,0],"split_type":[0,0,0,0,0,0,0],"sum_hessian":[4.66E2,2E0,4.64E2,1E0,4.63E2,4.56E2,7E0],"tree_param":{"num_deleted":"0","num_feature":"8","num_nodes":"7","size_leaf_vector":"1"}},{"base_weights":[-9.01024E-6,1.1478358E-2,-1.3304444E-4,1.3664982E-4,6.4907246E-4,-1.1325973E-2,6.3614505E-5,2.61739E-4,-8.859344E-4,8.823719E-5,-3.756859E-5],"categories":[],"categories_nodes":[],"categories_segments":[],"categories_sizes":[],"default_left":[0,0,0,0,0,0,0,0,0,0,0],"id":29,"left_children":[1,3,5,-1,-1,7,9,-1,-1,-1,-1],"loss_changes":[6.669211E-4,3.0247087E-5,1.0198712E-3,0E0,0E0,9.39699E-4,6.33523E-4,0E0,0E0,0E0,0E0],"parents":[2147483647,0,0,1,1,2,2,5,5,6,6],"right_children":[2,4,6,-1,-1,8,10,-1,-1,-1,-1],"split_conditions":[-6.365046E-1,-2.4703795E-2,-8.083751E-2,1.3664982E-4,6.4907246E-4,2.609482E1,5.260798E-1,2.61739E-4,-8.859344E-4,8.823719E-5,-3.756859E-5],"split_indices":[6,0,1,0,0,2,7,0,0,0,0],"split_type":[0,0,0,0,0,0,0,0,0,0,0],"sum_hessian":[4.66E2,4E0,4.62E2,1E0,3E0,7E0,4.55E2,2E0,5E0,1.47E2,3.08E2],"tree_param":{"num_deleted":"0","num_feature":"8","num_nodes":"11","size_leaf_vector":"1"}},{"base_weights":[-8.105379E-6,1.1267198E-2,-1.2985141E-4,4.3899463E-6,1.40400985E-2,-2.6474935E-3,4.5972934E-4,7.9344906E-4,2.1383632E-4,-7.1376584E-5,-2.7196046E-3,-7.963468E-5,1.0189201E-4],"categories":[],"categories_nodes":[],"categories_segments":[],"categories_sizes":[],"default_left":[0,0,0,0,0,0,0,0,0,0,0,0,0],"id":30,"left_children":[1,3,5,-1,7,9,11,-1,-1,-1,-1,-1,-1],"loss_changes":[6.42525E-4,1.5376403E-4,6.8847276E-4,0E0,3.5568955E-6,5.47748E-3,1.2210913E-3,0E0,0E0,0E0,0E0,0E0,0E0],"parents":[2147483647,0,0,1,1,2,2,4,4,5,5,6,6],"right_children":[2,4,6,-1,8,10,12,-1,-1,-1,-1,-1,-1],"split_conditions":[-1.846669E0,-3.44062E-2,-2.257078E-2,4.3899463E-6,3.0678365E-2,-2.2652995E-2,4.5086694E-4,7.9344906E-4,2.1383632E-4,-7.1376584E-5,-2.7196046E-3,-7.963468E-5,1.0189201E-4],"split_indices":[5,0,1,0,1,1,0,0,0,0,0,0,0],"split_type":[0,0,0,0,0,0,0,0,0,0,0,0,0],"sum_hessian":[4.66E2,4E0,4.62E2,1E0,3E0,8.7E1,3.75E2,2E0,1E0,8.6E1,1E0,1.63E2,2.12E2],"tree_param":{"num_deleted":"0","num_feature":"8","num_nodes":"13","size_leaf_vector":"1"}},{"base_weights":[-1.146257E-5,7.1025424E-4,-1.03157574E-4,-1.1819178E-3,-1.4904322E-6,-3.5933268E-4,8.630135E-6],"categories":[],"categories_nodes":[],"categories_segments":[],"categories_sizes":[],"default_left":[0,0,0,0,0,0,0],"id":31,"left_children":[1,-1,3,-1,5,-1,-1],"loss_changes":[6.102402E-4,0E0,1.1125966E-3,0E0,5.816522E-4,0E0,0E0],"parents":[2147483647,0,0,2,2,4,4],"right_children":[2,-1,4,-1,6,-1,-1],"split_conditions":[-1.4737594E-1,7.1025424E-4,-6.34329E-2,-1.1819178E-3,8.870862E-3,-3.5933268E-4,8.630135E-6],"split_indices":[1,0,0,0,4,0,0],"split_type":[0,0,0,0,0,0,0],"sum_hessian":[4.66E2,2E0,4.64E2,1E0,4.63E2,1E1,4.53E2],"tree_param":{"num_deleted":"0","num_feature":"8","num_nodes":"7","size_leaf_vector":"1"}},{"base_weights":[-1.2650359E-5,1.0798492E-2,-1.2937404E-4,1.3480223E-4,6.075046E-4,-5.0957086E-3,2.8865732E-4,-2.072952E-5,-5.15158E-4,1.3615137E-4,-3.3984365E-5],"categories":[],"categories_nodes":[],"categories_segments":[],"categories_sizes":[],"default_left":[0,0,0,0,0,0,0,0,0,0,0],"id":32,"left_children":[1,3,5,-1,-1,7,9,-1,-1,-1,-1],"loss_changes":[5.9071195E-4,2.199912E-5,9.6269755E-4,0E0,0E0,8.7328925E-4,1.0107791E-3,0E0,0E0,0E0,0E0],"parents":[2147483647,0,0,1,1,2,2,5,5,6,6],"right_children":[2,4,6,-1,-1,8,10,-1,-1,-1,-1],"split_conditions":[-6.365046E-1,-2.4703795E-2,-3.7106127E-2,1.3480223E-4,6.075046E-4,1.608198E-2,5.260798E-1,-2.072952E-5,-5.15158E-4,1.3615137E-4,-3.3984365E-5],"split_indices":[6,0,1,0,0,4,7,0,0,0,0],"split_type":[0,0,0,0,0,0,0,0,0,0,0],"sum_hessian":[4.66E2,4E0,4.62E2,1E0,3E0,3.5E1,4.27E2,1.9E1,1.6E1,1.21E2,3.06E2],"tree_param":{"num_deleted":"0","num_feature":"8","num_nodes":"11","size_leaf_vector":"1"}},{"base_weights":[-1.1357088E-5,-2.4151287E-4,5.428185E-3,-2.6860578E-5,-8.786134E-3,9.61349E-4,2.673799E-3,-1.3677623E-5,5.291788E-4,-6.624915E-4,1.16889365E-4,5.5920333E-5,4.7797468E-4],"categories":[],"categories_nodes":[],"categories_segments":[],"categories_sizes":[],"default_left":[0,0,0,0,0,0,0,0,0,0,0,0,0],"id":33,"left_children":[1,3,5,7,9,-1,11,-1,-1,-1,-1,-1,-1],"loss_changes":[5.859679E-4,8.23285E-4,6.70728E-4,1.1519814E-3,5.77167E-4,0E0,1.7137788E-4,0E0,0E0,0E0,0E0,0E0,0E0],"parents":[2147483647,0,0,1,1,2,2,3,3,4,4,6,6],"right_children":[2,4,6,8,10,-1,12,-1,-1,-1,-1,-1,-1],"split_conditions":[4.2977014E-1,3.4603152E-2,1.7921893E-2,2.9327009E-2,8.236761E-2,9.61349E-4,1.0258332E0,-1.3677623E-5,5.291788E-4,-6.624915E-4,1.16889365E-4,5.5920333E-5,4.7797468E-4],"split_indices":[6,0,1,4,6,0,7,0,0,0,0,0,0],"split_type":[0,0,0,0,0,0,0,0,0,0,0,0,0],"sum_hessian":[4.66E2,4.48E2,1.8E1,4.38E2,1E1,2E0,1.6E1,4.29E2,9E0,7E0,3E0,1.4E1,2E0],"tree_param":{"num_deleted":"0","num_feature":"8","num_nodes":"13","size_leaf_vector":"1"}},{"base_weights":[-7.651845E-6,2.0471988E-4,-5.641299E-3,3.2106836E-4,-6.4387446E-4,-8.5973676E-4,-2.954525E-3,-1.0859524E-4,4.725767E-5,-3.5401748E-4,2.913652E-5],"categories":[],"categories_nodes":[],"categories_segments":[],"categories_sizes":[],"default_left":[0,0,0,0,0,0,0,0,0,0,0],"id":34,"left_children":[1,3,5,7,-1,-1,9,-1,-1,-1,-1],"loss_changes":[5.5988645E-4,6.905994E-4,4.7690282E-4,6.990634E-4,0E0,0E0,2.2303736E-4,0E0,0E0,0E0,0E0],"parents":[2147483647,0,0,1,1,2,2,3,3,6,6],"right_children":[2,4,6,8,-1,-1,10,-1,-1,-1,-1],"split_conditions":[7.280844E1,1.3944223E0,-3.3497177E-3,-2.257078E-2,-6.4387446E-4,-8.5973676E-4,1.1098666E0,-1.0859524E-4,4.725767E-5,-3.5401748E-4,2.913652E-5],"split_indices":[2,5,0,1,0,0,5,0,0,0,0],"split_type":[0,0,0,0,0,0,0,0,0,0,0],"sum_hessian":[4.66E2,4.5E2,1.6E1,4.47E2,3E0,2E0,1.4E1,8.9E1,3.58E2,6E0,8E0],"tree_param":{"num_deleted":"0","num_feature":"8","num_nodes":"11","size_leaf_vector":"1"}},{"base_weights":[-1.1316012E-5,-8.813009E-3,1.223568E-4,-1.2347794E-2,3.0989273E-4,1.8679679E-3,-7.50846E-4,-2.0890916E-4,-7.694027E-4,2.2378297E-6,4.408781E-4,-2.2893718E-3,-1.5342854E-5],"categories":[],"categories_nodes":[],"categories_segments":[],"categories_sizes":[],"default_left":[0,0,0,0,0,0,0,0,0,0,0,0,0],"id":35,"left_children":[1,3,5,7,-1,9,11,-1,-1,-1,-1,-1,-1],"loss_changes":[5.505258E-4,4.4795108E-4,7.0409215E-4,8.4732426E-5,0E0,1.9508745E-3,6.14464E-3,0E0,0E0,0E0,0E0,0E0,0E0],"parents":[2147483647,0,0,1,1,2,2,3,3,5,5,6,6],"right_children":[2,4,6,8,-1,10,12,-1,-1,-1,-1,-1,-1],"split_conditions":[8.705684E-3,-9.392008E-4,5.260798E-1,-1.6118912E-2,3.0989273E-4,4.5671058E-1,4.7407135E1,-2.0890916E-4,-7.694027E-4,2.2378297E-6,4.408781E-4,-2.2893718E-3,-1.5342854E-5],"split_indices":[4,0,7,1,0,7,2,0,0,0,0,0,0],"split_type":[0,0,0,0,0,0,0,0,0,0,0,0,0],"sum_hessian":[4.66E2,6E0,4.6E2,5E0,1E0,1.53E2,3.07E2,2E0,3E0,1.22E2,3.1E1,2E0,3.05E2],"tree_param":{"num_deleted":"0","num_feature":"8","num_nodes":"13","size_leaf_vector":"1"}},{"base_weights":[-1.6167816E-5,1.0394486E-2,-1.2855895E-4,1.3443307E-4,5.8243884E-4,-4.753719E-3,2.6077358E-4,-2.9563145E-5,-5.27087E-4,1.2508022E-4,-3.1528445E-5],"categories":[],"categories_nodes":[],"categories_segments":[],"categories_sizes":[],"default_left":[0,0,0,0,0,0,0,0,0,0,0],"id":36,"left_children":[1,3,5,-1,-1,7,9,-1,-1,-1,-1],"loss_changes":[5.4775673E-4,1.7007114E-5,8.349754E-4,0E0,0E0,8.610928E-4,8.5644214E-4,0E0,0E0,0E0,0E0],"parents":[2147483647,0,0,1,1,2,2,5,5,6,6],"right_children":[2,4,6,-1,-1,8,10,-1,-1,-1,-1],"split_conditions":[-6.365046E-1,-2.4703795E-2,-3.7106127E-2,1.3443307E-4,5.8243884E-4,-3.5516903E-1,5.260798E-1,-2.9563145E-5,-5.27087E-4,1.2508022E-4,-3.1528445E-5],"split_indices":[6,0,1,0,0,6,7,0,0,0,0],"split_type":[0,0,0,0,0,0,0,0,0,0,0],"sum_hessian":[4.66E2,4E0,4.62E2,1E0,3E0,3.5E1,4.27E2,2.1E1,1.4E1,1.21E2,3.06E2],"tree_param":{"num_deleted":"0","num_feature":"8","num_nodes":"11","size_leaf_vector":"1"}},{"base_weights":[-1.4815977E-5,-2.3783378E-4,5.2562268E-3,-4.168617E-5,-8.844545E-3,9.2929107E-4,2.5947553E-3,8.573781E-6,-4.1852923E-4,-1.0212273E-3,-1.698238E-4,5.4630273E-5,4.6202933E-4],"categories":[],"categories_nodes":[],"categories_segments":[],"categories_sizes":[],"default_left":[0,0,0,0,0,0,0,0,0,0,0,0,0],"id":37,"left_children":[1,3,5,7,9,-1,11,-1,-1,-1,-1,-1,-1],"loss_changes":[5.502256E-4,7.5762684E-4,6.2582473E-4,7.826126E-4,5.6151487E-4,0E0,1.5961526E-4,0E0,0E0,0E0,0E0,0E0,0E0],"parents":[2147483647,0,0,1,1,2,2,3,3,4,4,6,6],"right_children":[2,4,6,8,10,-1,12,-1,-1,-1,-1,-1,-1],"split_conditions":[4.2977014E-1,3.3703244E-1,1.7921893E-2,3.4603152E-2,9.305352E-3,9.2929107E-4,1.0258332E0,8.573781E-6,-4.1852923E-4,-1.0212273E-3,-1.698238E-4,5.4630273E-5,4.6202933E-4],"split_indices":[6,6,1,0,1,0,7,0,0,0,0,0,0],"split_type":[0,0,0,0,0,0,0,0,0,0,0,0,0],"sum_hessian":[4.66E2,4.48E2,1.8E1,4.39E2,9E0,2E0,1.6E1,4.29E2,1E1,2E0,7E0,1.4E1,2E0],"tree_param":{"num_deleted":"0","num_feature":"8","num_nodes":"13","size_leaf_vector":"1"}},{"base_weights":[-1.44072055E-5,6.6144555E-4,-9.9816985E-5,-1.1235272E-3,-3.1763198E-6,-4.2800172E-4,6.3806146E-6],"categories":[],"categories_nodes":[],"categories_segments":[],"categories_sizes":[],"default_left":[0,0,0,0,0,0,0],"id":38,"left_children":[1,-1,3,-1,5,-1,-1],"loss_changes":[5.295483E-4,0E0,1.0052223E-3,0E0,5.2037317E-4,0E0,0E0],"parents":[2147483647,0,0,2,2,4,4],"right_children":[2,-1,4,-1,6,-1,-1],"split_conditions":[-1.4737594E-1,6.6144555E-4,-6.34329E-2,-1.1235272E-3,8.705684E-3,-4.2800172E-4,6.3806146E-6],"split_indices":[1,0,0,0,4,0,0],"split_type":[0,0,0,0,0,0,0],"sum_hessian":[4.66E2,2E0,4.64E2,1E0,4.63E2,6E0,4.57E2],"tree_param":{"num_deleted":"0","num_feature":"8","num_nodes":"7","size_leaf_vector":"1"}},{"base_weights":[-1.5579155E-5,-2.3047095E-4,5.0634732E-3,-4.138591E-5,-8.527165E-3,8.98102E-4,2.489404E-3,8.1099015E-6,-3.9979522E-4,-9.873993E-4,-1.6267317E-4,5.1783096E-5,4.4641565E-4],"categories":[],"categories_nodes":[],"categories_segments":[],"categories_sizes":[],"default_left":[0,0,0,0,0,0,0,0,0,0,0,0,0],"id":39,"left_children":[1,3,5,7,9,-1,11,-1,-1,-1,-1,-1,-1],"loss_changes":[5.108726E-4,7.040297E-4,5.861196E-4,7.1383826E-4,5.275031E-4,0E0,1.49882E-4,0E0,0E0,0E0,0E0,0E0,0E0],"parents":[2147483647,0,0,1,1,2,2,3,3,4,4,6,6],"right_children":[2,4,6,8,10,-1,12,-1,-1,-1,-1,-1,-1],"split_conditions":[4.2977014E-1,3.3703244E-1,1.7921893E-2,3.4603152E-2,9.305352E-3,8.98102E-4,1.0258332E0,8.1099015E-6,-3.9979522E-4,-9.873993E-4,-1.6267317E-4,5.1783096E-5,4.4641565E-4],"split_indices":[6,6,1,0,1,0,7,0,0,0,0,0,0],"split_type":[0,0,0,0,0,0,0,0,0,0,0,0,0],"sum_hessian":[4.66E2,4.48E2,1.8E1,4.39E2,9E0,2E0,1.6E1,4.29E2,1E1,2E0,7E0,1.4E1,2E0],"tree_param":{"num_deleted":"0","num_feature":"8","num_nodes":"13","size_leaf_vector":"1"}},{"base_weights":[-1.5111673E-5,-5.971339E-4,1.8569338E-3,-2.5635597E-4,-8.927882E-3,9.703573E-3,-1.9171379E-4,-1.2694653E-4,3.7166927E-5,-2.5904782E-3,-8.219702E-5,5.5619555E-5,1.2836496E-3,-1.052331E-4,2.2622278E-4],"categories":[],"categories_nodes":[],"categories_segments":[],"categories_sizes":[],"default_left":[0,0,0,0,0,0,0,0,0,0,0,0,0,0,0],"id":40,"left_children":[1,3,5,7,9,11,13,-1,-1,-1,-1,-1,-1,-1,-1],"loss_changes":[5.0993904E-4,1.0112111E-3,1.7861852E-3,7.868531E-4,4.287695E-3,3.126953E-3,8.124614E-4,0E0,0E0,0E0,0E0,0E0,0E0,0E0,0E0],"parents":[2147483647,0,0,1,1,2,2,3,3,4,4,5,5,6,6],"right_children":[2,4,6,8,10,12,14,-1,-1,-1,-1,-1,-1,-1,-1],"split_conditions":[1.00325085E-2,8.146093E-3,4.8590547E-1,-8.126746E-2,-2.257078E-2,4.651661E1,1.5789168E-2,-1.2694653E-4,3.7166927E-5,-2.5904782E-3,-8.219702E-5,5.5619555E-5,1.2836496E-3,-1.052331E-4,2.2622278E-4],"split_indices":[0,0,7,6,1,2,4,0,0,0,0,0,0,0,0],"split_type":[0,0,0,0,0,0,0,0,0,0,0,0,0,0,0],"sum_hessian":[4.66E2,3.56E2,1.1E2,3.43E2,1.3E1,2.2E1,8.8E1,1.04E2,2.39E2,1E0,1.2E1,1.5E1,7E0,6.3E1,2.5E1],"tree_param":{"num_deleted":"0","num_feature":"8","num_nodes":"15","size_leaf_vector":"1"}},{"base_weights":[-1.7144563E-5,1.7130436E-4,-5.707159E-3,-1.6827361E-3,8.2191586E-4,-8.315242E-4,-2.7473797E-3,-1.19327815E-4,5.9264986E-4,1.3461323E-4,-3.413796E-5,-2.9646952E-4,-8.724608E-7],"categories":[],"categories_nodes":[],"categories_segments":[],"categories_sizes":[],"default_left":[0,0,0,0,0,0,0,0,0,0,0,0,0],"id":41,"left_children":[1,3,5,7,9,-1,11,-1,-1,-1,-1,-1,-1],"loss_changes":[5.017311E-4,5.478189E-4,4.3926924E-4,1.152441E-3,9.47432E-4,0E0,1.1282321E-4,0E0,0E0,0E0,0E0,0E0,0E0],"parents":[2147483647,0,0,1,1,2,2,3,3,4,4,6,6],"right_children":[2,4,6,8,10,-1,12,-1,-1,-1,-1,-1,-1],"split_conditions":[7.320291E1,-6.2625255E-3,-3.3497177E-3,2.9327009E-2,5.714633E1,-8.315242E-4,1.1098666E0,-1.19327815E-4,5.9264986E-4,1.3461323E-4,-3.413796E-5,-2.9646952E-4,-8.724608E-7],"split_indices":[2,0,0,4,2,0,5,0,0,0,0,0,0],"split_type":[0,0,0,0,0,0,0,0,0,0,0,0,0],"sum_hessian":[4.66E2,4.52E2,1.4E1,1.17E2,3.35E2,2E0,1.2E1,1.12E2,5E0,1.49E2,1.86E2,5E0,7E0],"tree_param":{"num_deleted":"0","num_feature":"8","num_nodes":"13","size_leaf_vector":"1"}},{"base_weights":[-1.7475868E-5,9.785205E-3,-1.2329861E-4,1.3665248E-4,5.4324913E-4,-9.749932E-3,4.5860088E-5,1.18697295E-4,-8.749524E-4,-2.6152744E-5,9.4193674E-5],"categories":[],"categories_nodes":[],"categories_segments":[],"categories_sizes":[],"default_left":[0,0,0,0,0,0,0,0,0,0,0],"id":42,"left_children":[1,3,5,-1,-1,7,9,-1,-1,-1,-1],"loss_changes":[4.8564735E-4,8.379255E-6,7.544097E-4,0E0,0E0,7.9313637E-4,4.7781237E-4,0E0,0E0,0E0,0E0],"parents":[2147483647,0,0,1,1,2,2,5,5,6,6],"right_children":[2,4,6,-1,-1,8,10,-1,-1,-1,-1],"split_conditions":[-6.365046E-1,-2.4703795E-2,-8.083751E-2,1.3665248E-4,5.4324913E-4,-1.2546992E-1,1.00325085E-2,1.18697295E-4,-8.749524E-4,-2.6152744E-5,9.4193674E-5],"split_indices":[6,0,1,0,0,1,0,0,0,0,0],"split_type":[0,0,0,0,0,0,0,0,0,0,0],"sum_hessian":[4.66E2,4E0,4.62E2,1E0,3E0,7E0,4.55E2,3E0,4E0,3.48E2,1.07E2],"tree_param":{"num_deleted":"0","num_feature":"8","num_nodes":"11","size_leaf_vector":"1"}},{"base_weights":[-1.6619844E-5,1.6593975E-4,-5.5288114E-3,-5.397703E-5,5.483594E-3,-8.0293504E-4,-2.6735442E-3,6.3507755E-6,-4.8764772E-4,8.6612365E-4,1.4605398E-4,-2.8703848E-4,-1.9466065E-6],"categories":[],"categories_nodes":[],"categories_segments":[],"categories_sizes":[],"default_left":[0,0,0,0,0,0,0,0,0,0,0,0,0],"id":43,"left_children":[1,3,5,7,9,-1,11,-1,-1,-1,-1,-1,-1],"loss_changes":[4.7086118E-4,5.3005293E-4,4.08051E-4,7.666117E-4,4.95471E-4,0E0,1.04828825E-4,0E0,0E0,0E0,0E0,0E0,0E0],"parents":[2147483647,0,0,1,1,2,2,3,3,4,4,6,6],"right_children":[2,4,6,8,10,-1,12,-1,-1,-1,-1,-1,-1],"split_conditions":[7.320291E1,4.2977014E-1,-3.3497177E-3,3.5996825E-2,1.7921893E-2,-8.0293504E-4,1.1098666E0,6.3507755E-6,-4.8764772E-4,8.6612365E-4,1.4605398E-4,-2.8703848E-4,-1.9466065E-6],"split_indices":[2,6,0,0,1,0,5,0,0,0,0,0,0],"split_type":[0,0,0,0,0,0,0,0,0,0,0,0,0],"sum_hessian":[4.66E2,4.52E2,1.4E1,4.35E2,1.7E1,2E0,1.2E1,4.28E2,7E0,2E0,1.5E1,5E0,7E0],"tree_param":{"num_deleted":"0","num_feature":"8","num_nodes":"13","size_leaf_vector":"1"}},{"base_weights":[-1.699026E-5,-8.116508E-3,1.0603277E-4,-1.1560165E-2,3.136359E-4,1.6767109E-3,-6.796506E-4,-1.877674E-4,-7.2618684E-4,-3.8374228E-7,4.0493355E-4,-2.140294E-3,-1.3221364E-5],"categories":[],"categories_nodes":[],"categories_segments":[],"categories_sizes":[],"default_left":[0,0,0,0,0,0,0,0,0,0,0,0,0],"id":44,"left_children":[1,3,5,7,-1,9,11,-1,-1,-1,-1,-1,-1],"loss_changes":[4.661921E-4,4.1937458E-4,5.7003926E-4,8.4239175E-5,0E0,1.6658892E-3,5.3761527E-3,0E0,0E0,0E0,0E0,0E0,0E0],"parents":[2147483647,0,0,1,1,2,2,3,3,5,5,6,6],"right_children":[2,4,6,8,-1,10,12,-1,-1,-1,-1,-1,-1],"split_conditions":[8.705684E-3,-9.392008E-4,5.260798E-1,-1.6118912E-2,3.136359E-4,4.5671058E-1,4.7407135E1,-1.877674E-4,-7.2618684E-4,-3.8374228E-7,4.0493355E-4,-2.140294E-3,-1.3221364E-5],"split_indices":[4,0,7,1,0,7,2,0,0,0,0,0,0],"split_type":[0,0,0,0,0,0,0,0,0,0,0,0,0],"sum_hessian":[4.66E2,6E0,4.6E2,5E0,1E0,1.53E2,3.07E2,2E0,3E0,1.22E2,3.1E1,2E0,3.05E2],"tree_param":{"num_deleted":"0","num_feature":"8","num_nodes":"13","size_leaf_vector":"1"}},{"base_weights":[-2.1171327E-5,9.466492E-3,-1.2358416E-4,-2.4751434E-5,6.040315E-4,-2.2974247E-3,3.855157E-4,-5.9293234E-5,-2.475079E-3,-5.1621522E-5,1.1025126E-4],"categories":[],"categories_nodes":[],"categories_segments":[],"categories_sizes":[],"default_left":[0,0,0,0,0,0,0,0,0,0,0],"id":45,"left_children":[1,3,5,-1,-1,7,9,-1,-1,-1,-1],"loss_changes":[4.5493443E-4,1.3618416E-4,5.132887E-4,0E0,0E0,4.5586806E-3,9.7234396E-4,0E0,0E0,0E0,0E0],"parents":[2147483647,0,0,1,1,2,2,5,5,6,6],"right_children":[2,4,6,-1,-1,8,10,-1,-1,-1,-1],"split_conditions":[-1.846669E0,-3.44062E-2,-2.257078E-2,-2.4751434E-5,6.040315E-4,-2.2652995E-2,4.0965024E-3,-5.9293234E-5,-2.475079E-3,-5.1621522E-5,1.1025126E-4],"split_indices":[5,0,1,0,0,1,0,0,0,0,0],"split_type":[0,0,0,0,0,0,0,0,0,0,0],"sum_hessian":[4.66E2,4E0,4.62E2,1E0,3E0,8.7E1,3.75E2,8.6E1,1E0,2.11E2,1.64E2],"tree_param":{"num_deleted":"0","num_feature":"8","num_nodes":"11","size_leaf_vector":"1"}},{"base_weights":[-2.4173696E-5,9.341923E-3,-1.2526722E-4,1.3456933E-4,5.165855E-4,-4.295954E-3,2.258309E-4,-1.4384371E-5,-4.9441744E-4,3.017487E-4,-2.9393464E-6],"categories":[],"categories_nodes":[],"categories_segments":[],"categories_sizes":[],"default_left":[0,0,0,0,0,0,0,0,0,0,0],"id":46,"left_children":[1,3,5,-1,-1,7,9,-1,-1,-1,-1],"loss_changes":[4.4334997E-4,5.106471E-6,6.7895046E-4,0E0,0E0,8.0412434E-4,7.080038E-4,0E0,0E0,0E0,0E0],"parents":[2147483647,0,0,1,1,2,2,5,5,6,6],"right_children":[2,4,6,-1,-1,8,10,-1,-1,-1,-1],"split_conditions":[-6.365046E-1,-2.4703795E-2,-3.7106127E-2,1.3456933E-4,5.165855E-4,-3.5516903E-1,4.1182953E1,-1.4384371E-5,-4.9441744E-4,3.017487E-4,-2.9393464E-6],"split_indices":[6,0,1,0,0,6,2,0,0,0,0],"split_type":[0,0,0,0,0,0,0,0,0,0,0],"sum_hessian":[4.66E2,4E0,4.62E2,1E0,3E0,3.5E1,4.27E2,2.1E1,1.4E1,1.9E1,4.08E2],"tree_param":{"num_deleted":"0","num_feature":"8","num_nodes":"11","size_leaf_vector":"1"}},{"base_weights":[-2.2020342E-5,1.547503E-4,-5.359026E-3,-5.590638E-5,5.2487263E-3,-7.7391113E-4,-2.611594E-3,5.9622835E-6,-4.7207234E-4,8.341164E-4,1.3884401E-4,-2.7765005E-4,-3.9544916E-6],"categories":[],"categories_nodes":[],"categories_segments":[],"categories_sizes":[],"default_left":[0,0,0,0,0,0,0,0,0,0,0,0,0],"id":47,"left_children":[1,3,5,7,9,-1,11,-1,-1,-1,-1,-1,-1],"loss_changes":[4.414092E-4,4.8639876E-4,3.766042E-4,7.1786484E-4,4.6239304E-4,0E0,9.6399446E-5,0E0,0E0,0E0,0E0,0E0,0E0],"parents":[2147483647,0,0,1,1,2,2,3,3,4,4,6,6],"right_children":[2,4,6,8,10,-1,12,-1,-1,-1,-1,-1,-1],"split_conditions":[7.320291E1,4.2977014E-1,-3.3497177E-3,3.5996825E-2,1.7921893E-2,-7.7391113E-4,1.1098666E0,5.9622835E-6,-4.7207234E-4,8.341164E-4,1.3884401E-4,-2.7765005E-4,-3.9544916E-6],"split_indices":[2,6,0,0,1,0,5,0,0,0,0,0,0],"split_type":[0,0,0,0,0,0,0,0,0,0,0,0,0],"sum_hessian":[4.66E2,4.52E2,1.4E1,4.35E2,1.7E1,2E0,1.2E1,4.28E2,7E0,2E0,1.5E1,5E0,7E0],"tree_param":{"num_deleted":"0","num_feature":"8","num_nodes":"13","size_leaf_vector":"1"}},{"base_weights":[-2.20942E-5,5.9472467E-4,-9.892789E-5,-1.0540666E-3,-8.273298E-6,-3.8768456E-4,5.506226E-6],"categories":[],"categories_nodes":[],"categories_segments":[],"categories_sizes":[],"default_left":[0,0,0,0,0,0,0],"id":48,"left_children":[1,-1,3,-1,5,-1,-1],"loss_changes":[4.2875973E-4,0E0,8.843259E-4,0E0,4.2636067E-4,0E0,0E0],"parents":[2147483647,0,0,2,2,4,4],"right_children":[2,-1,4,-1,6,-1,-1],"split_conditions":[-1.4737594E-1,5.9472467E-4,-6.34329E-2,-1.0540666E-3,8.705684E-3,-3.8768456E-4,5.506226E-6],"split_indices":[1,0,0,0,4,0,0],"split_type":[0,0,0,0,0,0,0],"sum_hessian":[4.66E2,2E0,4.64E2,1E0,4.63E2,6E0,4.57E2],"tree_param":{"num_deleted":"0","num_feature":"8","num_nodes":"7","size_leaf_vector":"1"}},{"base_weights":[-2.2791453E-5,1.4758304E-4,-5.1665814E-3,2.3118059E-4,-1.2469111E-2,-7.482976E-4,-2.507759E-3,-9.502566E-5,3.8026057E-5,-1.8333693E-4,-7.518464E-4,-2.6631073E-4,-4.0223786E-6],"categories":[],"categories_nodes":[],"categories_segments":[],"categories_sizes":[],"default_left":[0,0,0,0,0,0,0,0,0,0,0,0,0],"id":49,"left_children":[1,3,5,7,9,-1,11,-1,-1,-1,-1,-1,-1],"loss_changes":[4.1002757E-4,4.806729E-4,3.532907E-4,5.103501E-4,1.2672157E-5,0E0,8.850802E-5,0E0,0E0,0E0,0E0,0E0,0E0],"parents":[2147483647,0,0,1,1,2,2,3,3,4,4,6,6],"right_children":[2,4,6,8,10,-1,12,-1,-1,-1,-1,-1,-1],"split_conditions":[7.320291E1,1.4119911E0,-3.3497177E-3,-2.257078E-2,-6.5747905E-3,-7.482976E-4,1.1098666E0,-9.502566E-5,3.8026057E-5,-1.8333693E-4,-7.518464E-4,-2.6631073E-4,-4.0223786E-6],"split_indices":[2,5,0,1,0,0,5,0,0,0,0,0,0],"split_type":[0,0,0,0,0,0,0,0,0,0,0,0,0],"sum_hessian":[4.66E2,4.52E2,1.4E1,4.5E2,2E0,2E0,1.2E1,8.9E1,3.61E2,1E0,1E0,5E0,7E0],"tree_param":{"num_deleted":"0","num_feature":"8","num_nodes":"13","size_leaf_vector":"1"}},{"base_weights":[-2.5957663E-5,8.954059E-3,-1.2287803E-4,1.3329402E-4,4.9298175E-4,-8.984305E-3,3.2855078E-5,1.12553476E-4,-8.087872E-4,2.4406156E-4,-8.876882E-6],"categories":[],"categories_nodes":[],"categories_segments":[],"categories_sizes":[],"default_left":[0,0,0,0,0,0,0,0,0,0,0],"id":50,"left_children":[1,3,5,-1,-1,7,9,-1,-1,-1,-1],"loss_changes":[4.0755203E-4,2.187502E-6,6.392433E-4,0E0,0E0,6.828008E-4,4.6601534E-4,0E0,0E0,0E0,0E0],"parents":[2147483647,0,0,1,1,2,2,5,5,6,6],"right_children":[2,4,6,-1,-1,8,10,-1,-1,-1,-1],"split_conditions":[-6.365046E-1,-2.4703795E-2,-8.083751E-2,1.3329402E-4,4.9298175E-4,-1.2546992E-1,3.5984398E1,1.12553476E-4,-8.087872E-4,2.4406156E-4,-8.876882E-6],"split_indices":[6,0,1,0,0,1,2,0,0,0,0],"split_type":[0,0,0,0,0,0,0,0,0,0,0],"sum_hessian":[4.66E2,4E0,4.62E2,1E0,3E0,7E0,4.55E2,3E0,4E0,1.8E1,4.37E2],"tree_param":{"num_deleted":"0","num_feature":"8","num_nodes":"11","size_leaf_vector":"1"}},{"base_weights":[-2.4305995E-5,5.679758E-4,-9.769773E-5,-1.0051195E-3,-1.1260049E-5,-3.7136837E-4,5.1055576E-6],"categories":[],"categories_nodes":[],"categories_segments":[],"categories_sizes":[],"default_left":[0,0,0,0,0,0,0],"id":51,"left_children":[1,-1,3,-1,5,-1,-1],"loss_changes":[3.912782E-4,0E0,8.038328E-4,0E0,3.908771E-4,0E0,0E0],"parents":[2147483647,0,0,2,2,4,4],"right_children":[2,-1,4,-1,6,-1,-1],"split_conditions":[-1.4737594E-1,5.679758E-4,-6.34329E-2,-1.0051195E-3,8.705684E-3,-3.7136837E-4,5.1055576E-6],"split_indices":[1,0,0,0,4,0,0],"split_type":[0,0,0,0,0,0,0],"sum_hessian":[4.66E2,2E0,4.64E2,1E0,4.63E2,6E0,4.57E2],"tree_param":{"num_deleted":"0","num_feature":"8","num_nodes":"7","size_leaf_vector":"1"}},{"base_weights":[-2.4811046E-5,-2.1107118E-4,4.3781158E-3,-3.446221E-5,-7.960759E-3,1.2912235E-2,1.241535E-3,7.338105E-6,-3.5577765E-4,-9.0738817E-4,-1.5727687E-4,3.1359858E-5,7.9133484E-4,-2.253472E-5,4.0803416E-4],"categories":[],"categories_nodes":[],"categories_segments":[],"categories_sizes":[],"default_left":[0,0,0,0,0,0,0,0,0,0,0,0,0,0,0],"id":52,"left_children":[1,3,5,7,9,11,13,-1,-1,-1,-1,-1,-1,-1,-1],"loss_changes":[3.8390598E-4,6.1425596E-4,4.925602E-4,5.6568126E-4,4.3344236E-4,1.6909477E-4,1.7930978E-4,0E0,0E0,0E0,0E0,0E0,0E0,0E0,0E0],"parents":[2147483647,0,0,1,1,2,2,3,3,4,4,5,5,6,6],"right_children":[2,4,6,8,10,12,14,-1,-1,-1,-1,-1,-1,-1,-1],"split_conditions":[4.2977014E-1,3.3703244E-1,2.707527E-2,3.4603152E-2,9.305352E-3,-6.6790464E-3,1.0258332E0,7.338105E-6,-3.5577765E-4,-9.0738817E-4,-1.5727687E-4,3.1359858E-5,7.9133484E-4,-2.253472E-5,4.0803416E-4],"split_indices":[6,6,1,0,1,0,7,0,0,0,0,0,0,0,0],"split_type":[0,0,0,0,0,0,0,0,0,0,0,0,0,0,0],"sum_hessian":[4.66E2,4.48E2,1.8E1,4.39E2,9E0,4E0,1.4E1,4.29E2,1E1,2E0,7E0,1E0,3E0,1.2E1,2E0],"tree_param":{"num_deleted":"0","num_feature":"8","num_nodes":"15","size_leaf_vector":"1"}},{"base_weights":[-2.400927E-5,1.3926497E-4,-4.953291E-3,-1.8099716E-3,6.4784545E-4,-7.234732E-4,-2.3762283E-3,3.6704147E-5,-3.381009E-4,1.1630655E-4,-3.4566325E-5,-2.5208815E-4,-4.002449E-6],"categories":[],"categories_nodes":[],"categories_segments":[],"categories_sizes":[],"default_left":[0,0,0,0,0,0,0,0,0,0,0,0,0],"id":53,"left_children":[1,3,5,7,9,-1,11,-1,-1,-1,-1,-1,-1],"loss_changes":[3.7654297E-4,4.502513E-4,3.3347384E-4,1.1892016E-3,8.1071287E-4,0E0,7.916352E-5,0E0,0E0,0E0,0E0,0E0,0E0],"parents":[2147483647,0,0,1,1,2,2,3,3,4,4,6,6],"right_children":[2,4,6,8,10,-1,12,-1,-1,-1,-1,-1,-1],"split_conditions":[7.320291E1,-8.152212E-3,-3.3497177E-3,-1.1878055E-2,5.714633E1,-7.234732E-4,1.1098666E0,3.6704147E-5,-3.381009E-4,1.1630655E-4,-3.4566325E-5,-2.5208815E-4,-4.002449E-6],"split_indices":[2,0,0,0,2,0,5,0,0,0,0,0,0],"split_type":[0,0,0,0,0,0,0,0,0,0,0,0,0],"sum_hessian":[4.66E2,4.52E2,1.4E1,9.3E1,3.59E2,2E0,1.2E1,6.2E1,3.1E1,1.59E2,2E2,5E0,7E0],"tree_param":{"num_deleted":"0","num_feature":"8","num_nodes":"13","size_leaf_vector":"1"}},{"base_weights":[-2.5376732E-5,-1.875159E-3,4.1511474E-4,-8.1126805E-4,-2.4140363E-3,2.3175774E-3,-8.6060964E-4,4.2316027E-5,-4.2134555E-4,-4.922992E-4,1.7630056E-4,-6.3830183E-4,-2.3981027E-5],"categories":[],"categories_nodes":[],"categories_segments":[],"categories_sizes":[],"default_left":[0,0,0,0,0,0,0,0,0,0,0,0,0],"id":54,"left_children":[1,3,5,7,-1,9,11,-1,-1,-1,-1,-1,-1],"loss_changes":[3.8129624E-4,4.404173E-3,9.1940735E-4,1.1306325E-3,0E0,2.2689432E-3,1.0235123E-3,0E0,0E0,0E0,0E0,0E0,0E0],"parents":[2147483647,0,0,1,1,2,2,3,3,5,5,6,6],"right_children":[2,4,6,8,-1,10,12,-1,-1,-1,-1,-1,-1],"split_conditions":[-2.257078E-2,-2.2652995E-2,5.716512E1,4.441013E-3,-2.4140363E-3,1.03573E-2,4.4978563E-2,4.2316027E-5,-4.2134555E-4,-4.922992E-4,1.7630056E-4,-6.3830183E-4,-2.3981027E-5],"split_indices":[1,1,2,0,0,4,5,0,0,0,0,0,0],"split_type":[0,0,0,0,0,0,0,0,0,0,0,0,0],"sum_hessian":[4.66E2,8.9E1,3.77E2,8.8E1,1E0,1.51E2,2.26E2,7.3E1,1.5E1,1.3E1,1.38E2,6E0,2.2E2],"tree_param":{"num_deleted":"0","num_feature":"8","num_nodes":"13","size_leaf_vector":"1"}},{"base_weights":[-3.218357E-5,8.59949E-3,-1.2532868E-4,1.2767508E-4,4.736306E-4,-5.564445E-3,1.07184904E-4,-3.982626E-5,-7.881092E-4,2.3805113E-4,-1.1434301E-5],"categories":[],"categories_nodes":[],"categories_segments":[],"categories_sizes":[],"default_left":[0,0,0,0,0,0,0,0,0,0,0],"id":55,"left_children":[1,3,5,-1,-1,7,9,-1,-1,-1,-1],"loss_changes":[3.7654486E-4,2.2060703E-6,5.8613793E-4,0E0,0E0,9.1126317E-4,6.966633E-4,0E0,0E0,0E0,0E0],"parents":[2147483647,0,0,1,1,2,2,5,5,6,6],"right_children":[2,4,6,-1,-1,8,10,-1,-1,-1,-1],"split_conditions":[-6.365046E-1,-2.4703795E-2,-5.030181E-2,1.2767508E-4,4.736306E-4,-1.2249084E-2,4.1534954E1,-3.982626E-5,-7.881092E-4,2.3805113E-4,-1.1434301E-5],"split_indices":[6,0,1,0,0,7,2,0,0,0,0],"split_type":[0,0,0,0,0,0,0,0,0,0,0],"sum_hessian":[4.66E2,4E0,4.62E2,1E0,3E0,1.8E1,4.44E2,1.3E1,5E0,2.9E1,4.15E2],"tree_param":{"num_deleted":"0","num_feature":"8","num_nodes":"11","size_leaf_vector":"1"}},{"base_weights":[-3.0574425E-5,-5.2815955E-4,1.5700425E-3,-2.1010239E-4,-8.305553E-3,8.835636E-3,-3.2522375E-4,-1.1847799E-4,3.6776786E-5,-2.3533998E-3,-8.5160624E-5,3.700501E-5,1.1961126E-3,-1.0335133E-4,1.9874E-4],"categories":[],"categories_nodes":[],"categories_segments":[],"categories_sizes":[],"default_left":[0,0,0,0,0,0,0,0,0,0,0,0,0,0,0],"id":56,"left_children":[1,3,5,7,9,11,13,-1,-1,-1,-1,-1,-1,-1,-1],"loss_changes":[3.727682E-4,8.813501E-4,1.5313694E-3,7.042133E-4,3.5027529E-3,2.7913824E-3,6.748077E-4,0E0,0E0,0E0,0E0,0E0,0E0,0E0,0E0],"parents":[2147483647,0,0,1,1,2,2,3,3,4,4,5,5,6,6],"right_children":[2,4,6,8,10,12,14,-1,-1,-1,-1,-1,-1,-1,-1],"split_conditions":[1.00325085E-2,8.146093E-3,4.8590547E-1,-8.126746E-2,-2.257078E-2,4.651661E1,1.5789168E-2,-1.1847799E-4,3.6776786E-5,-2.3533998E-3,-8.5160624E-5,3.700501E-5,1.1961126E-3,-1.0335133E-4,1.9874E-4],"split_indices":[0,0,7,6,1,2,4,0,0,0,0,0,0,0,0],"split_type":[0,0,0,0,0,0,0,0,0,0,0,0,0,0,0],"sum_hessian":[4.66E2,3.56E2,1.1E2,3.43E2,1.3E1,2.2E1,8.8E1,1.04E2,2.39E2,1E0,1.2E1,1.5E1,7E0,6.3E1,2.5E1],"tree_param":{"num_deleted":"0","num_feature":"8","num_nodes":"15","size_leaf_vector":"1"}},{"base_weights":[-3.159766E-5,-8.493171E-3,5.984827E-5,3.3138954E-4,-1.393036E-2,4.777221E-3,-2.0893115E-4,-9.781929E-4,-2.7656203E-4,3.2092503E-4,-4.699165E-4,-3.6891302E-4,7.544474E-6],"categories":[],"categories_nodes":[],"categories_segments":[],"categories_sizes":[],"default_left":[0,0,0,0,0,0,0,0,0,0,0,0,0],"id":57,"left_children":[1,3,5,-1,7,9,11,-1,-1,-1,-1,-1,-1],"loss_changes":[3.6186192E-4,5.0340506E-4,5.8805087E-4,0E0,8.1053295E-5,6.419742E-4,1.1335894E-3,0E0,0E0,0E0,0E0,0E0,0E0],"parents":[2147483647,0,0,1,1,2,2,4,4,5,5,6,6],"right_children":[2,4,6,-1,8,10,12,-1,-1,-1,-1,-1,-1],"split_conditions":[-3.7922695E-2,-1.4737594E-1,3.5984398E1,3.3138954E-4,-6.34329E-2,-3.357987E-1,1.2529254E-1,-9.781929E-4,-2.7656203E-4,3.2092503E-4,-4.699165E-4,-3.6891302E-4,7.544474E-6],"split_indices":[0,1,2,0,0,6,7,0,0,0,0,0,0],"split_type":[0,0,0,0,0,0,0,0,0,0,0,0,0],"sum_hessian":[4.66E2,4E0,4.62E2,1E0,3E0,2.4E1,4.38E2,1E0,2E0,2.2E1,2E0,2E1,4.18E2],"tree_param":{"num_deleted":"0","num_feature":"8","num_nodes":"13","size_leaf_vector":"1"}},{"base_weights":[-3.3087817E-5,6.493042E-5,-7.5749774E-3,-1.7108342E-3,5.1711727E-4,-7.0962973E-4,-3.4129352E-3,3.419223E-5,-3.185947E-4,1.1150702E-4,-3.2007836E-5,-2.2008386E-4,1.3550831E-5],"categories":[],"categories_nodes":[],"categories_segments":[],"categories_sizes":[],"default_left":[0,0,0,0,0,0,0,0,0,0,0,0,0],"id":58,"left_children":[1,3,5,7,9,-1,11,-1,-1,-1,-1,-1,-1],"loss_changes":[3.457182E-4,3.7186025E-4,1.1681841E-4,1.0535612E-3,7.329469E-4,0E0,1.9405321E-5,0E0,0E0,0E0,0E0,0E0,0E0],"parents":[2147483647,0,0,1,1,2,2,3,3,4,4,6,6],"right_children":[2,4,6,8,10,-1,12,-1,-1,-1,-1,-1,-1],"split_conditions":[1.4119911E0,-8.152212E-3,9.305352E-3,-1.1878055E-2,5.602599E1,-7.0962973E-4,4.5086694E-4,3.419223E-5,-3.185947E-4,1.1150702E-4,-3.2007836E-5,-2.2008386E-4,1.3550831E-5],"split_indices":[5,0,1,0,2,0,0,0,0,0,0,0,0],"split_type":[0,0,0,0,0,0,0,0,0,0,0,0,0],"sum_hessian":[4.66E2,4.61E2,5E0,9.3E1,3.68E2,1E0,4E0,6.2E1,3.1E1,1.48E2,2.2E2,3E0,1E0],"tree_param":{"num_deleted":"0","num_feature":"8","num_nodes":"13","size_leaf_vector":"1"}},{"base_weights":[-3.3834036E-5,-8.280539E-3,5.529633E-5,3.2225E-4,-1.3573173E-2,4.501706E-3,-1.9804203E-4,-9.545928E-4,-2.6848304E-4,3.034581E-4,-4.5080116E-4,-2.9472334E-4,1.0962629E-5],"categories":[],"categories_nodes":[],"categories_segments":[],"categories_sizes":[],"default_left":[0,0,0,0,0,0,0,0,0,0,0,0,0],"id":59,"left_children":[1,3,5,-1,7,9,11,-1,-1,-1,-1,-1,-1],"loss_changes":[3.4371772E-4,4.7716362E-4,5.224361E-4,0E0,7.857353E-5,5.844307E-4,1.0448337E-3,0E0,0E0,0E0,0E0,0E0,0E0],"parents":[2147483647,0,0,1,1,2,2,4,4,5,5,6,6],"right_children":[2,4,6,-1,8,10,12,-1,-1,-1,-1,-1,-1],"split_conditions":[-3.7922695E-2,-1.4737594E-1,3.5984398E1,3.2225E-4,-6.34329E-2,-3.357987E-1,2.0464773E-1,-9.545928E-4,-2.6848304E-4,3.034581E-4,-4.5080116E-4,-2.9472334E-4,1.0962629E-5],"split_indices":[0,1,2,0,0,6,7,0,0,0,0,0,0],"split_type":[0,0,0,0,0,0,0,0,0,0,0,0,0],"sum_hessian":[4.66E2,4E0,4.62E2,1E0,3E0,2.4E1,4.38E2,1E0,2E0,2.2E1,2E0,2.9E1,4.09E2],"tree_param":{"num_deleted":"0","num_feature":"8","num_nodes":"13","size_leaf_vector":"1"}},{"base_weights":[-3.4994406E-5,-2.1071361E-4,4.1193697E-3,-4.2175307E-5,-7.6053273E-3,1.2369593E-2,1.0946705E-3,6.5764507E-6,-3.4143007E-4,-6.420752E-4,9.957504E-6,3.17435E-5,7.572278E-4,-2.6982345E-5,3.9059113E-4],"categories":[],"categories_nodes":[],"categories_segments":[],"categories_sizes":[],"default_left":[0,0,0,0,0,0,0,0,0,0,0,0,0,0,0],"id":60,"left_children":[1,3,5,7,9,11,13,-1,-1,-1,-1,-1,-1,-1,-1],"loss_changes":[3.417787E-4,5.59257E-4,4.6059373E-4,5.1958405E-4,4.1121355E-4,1.5320233E-4,1.6888499E-4,0E0,0E0,0E0,0E0,0E0,0E0,0E0,0E0],"parents":[2147483647,0,0,1,1,2,2,3,3,4,4,5,5,6,6],"right_children":[2,4,6,8,10,12,14,-1,-1,-1,-1,-1,-1,-1,-1],"split_conditions":[4.2977014E-1,3.3703244E-1,2.707527E-2,3.4603152E-2,3.9334003E-2,-6.6790464E-3,1.0258332E0,6.5764507E-6,-3.4143007E-4,-6.420752E-4,9.957504E-6,3.17435E-5,7.572278E-4,-2.6982345E-5,3.9059113E-4],"split_indices":[6,6,1,0,1,0,7,0,0,0,0,0,0,0,0],"split_type":[0,0,0,0,0,0,0,0,0,0,0,0,0,0,0],"sum_hessian":[4.66E2,4.48E2,1.8E1,4.39E2,9E0,4E0,1.4E1,4.29E2,1E1,5E0,4E0,1E0,3E0,1.2E1,2E0],"tree_param":{"num_deleted":"0","num_feature":"8","num_nodes":"15","size_leaf_vector":"1"}},{"base_weights":[-3.2847256E-5,-5.0454005E-4,1.4845146E-3,-1.9357793E-4,-8.109285E-3,8.397262E-3,-3.1860548E-4,-1.11084584E-4,3.4726425E-5,-2.2979795E-3,-8.311848E-5,-1.6555578E-6,1.0757426E-3,-9.7774064E-5,1.8614407E-4],"categories":[],"categories_nodes":[],"categories_segments":[],"categories_sizes":[],"default_left":[0,0,0,0,0,0,0,0,0,0,0,0,0,0,0],"id":61,"left_children":[1,3,5,7,9,11,13,-1,-1,-1,-1,-1,-1,-1,-1],"loss_changes":[3.3499426E-4,8.426592E-4,1.3862364E-3,6.2114926E-4,3.3398462E-3,2.5441945E-3,5.960516E-4,0E0,0E0,0E0,0E0,0E0,0E0,0E0,0E0],"parents":[2147483647,0,0,1,1,2,2,3,3,4,4,5,5,6,6],"right_children":[2,4,6,8,10,12,14,-1,-1,-1,-1,-1,-1,-1,-1],"split_conditions":[1.00325085E-2,8.146093E-3,4.8590547E-1,-8.126746E-2,-2.257078E-2,-2.237214E-1,1.5789168E-2,-1.11084584E-4,3.4726425E-5,-2.2979795E-3,-8.311848E-5,-1.6555578E-6,1.0757426E-3,-9.7774064E-5,1.8614407E-4],"split_indices":[0,0,7,6,1,5,4,0,0,0,0,0,0,0,0],"split_type":[0,0,0,0,0,0,0,0,0,0,0,0,0,0,0],"sum_hessian":[4.66E2,3.56E2,1.1E2,3.43E2,1.3E1,2.2E1,8.8E1,1.04E2,2.39E2,1E0,1.2E1,1.4E1,8E0,6.3E1,2.5E1],"tree_param":{"num_deleted":"0","num_feature":"8","num_nodes":"15","size_leaf_vector":"1"}},{"base_weights":[-3.3977944E-5,5.2392733E-4,-1.0172761E-4,-9.281152E-4,-2.193692E-5,7.1595236E-6,-2.1861194E-4],"categories":[],"categories_nodes":[],"categories_segments":[],"categories_sizes":[],"default_left":[0,0,0,0,0,0,0],"id":62,"left_children":[1,-1,3,-1,5,-1,-1],"loss_changes":[3.336727E-4,0E0,6.845295E-4,0E0,3.339423E-4,0E0,0E0],"parents":[2147483647,0,0,2,2,4,4],"right_children":[2,-1,4,-1,6,-1,-1],"split_conditions":[-1.4737594E-1,5.2392733E-4,-6.34329E-2,-9.281152E-4,7.280844E1,7.1595236E-6,-2.1861194E-4],"split_indices":[1,0,0,0,2,0,0],"split_type":[0,0,0,0,0,0,0],"sum_hessian":[4.66E2,2E0,4.64E2,1E0,4.63E2,4.47E2,1.6E1],"tree_param":{"num_deleted":"0","num_feature":"8","num_nodes":"7","size_leaf_vector":"1"}},{"base_weights":[-3.3597316E-5,-4.8918446E-4,1.4319721E-3,-1.8695119E-4,-7.880546E-3,8.017249E-3,-2.8593064E-4,-1.0598462E-4,3.29701E-5,-2.2407088E-3,-7.961268E-5,2.3203605E-5,1.1060725E-3,-9.225583E-5,1.7815315E-4],"categories":[],"categories_nodes":[],"categories_segments":[],"categories_sizes":[],"default_left":[0,0,0,0,0,0,0,0,0,0,0,0,0,0,0],"id":63,"left_children":[1,3,5,7,9,11,13,-1,-1,-1,-1,-1,-1,-1,-1],"loss_changes":[3.125139E-4,7.9603464E-4,1.2580205E-3,5.641065E-4,3.1801374E-3,2.4399592E-3,5.406897E-4,0E0,0E0,0E0,0E0,0E0,0E0,0E0,0E0],"parents":[2147483647,0,0,1,1,2,2,3,3,4,4,5,5,6,6],"right_children":[2,4,6,8,10,12,14,-1,-1,-1,-1,-1,-1,-1,-1],"split_conditions":[1.00325085E-2,8.146093E-3,4.8590547E-1,-8.126746E-2,-2.257078E-2,4.651661E1,1.5789168E-2,-1.0598462E-4,3.29701E-5,-2.2407088E-3,-7.961268E-5,2.3203605E-5,1.1060725E-3,-9.225583E-5,1.7815315E-4],"split_indices":[0,0,7,6,1,2,4,0,0,0,0,0,0,0,0],"split_type":[0,0,0,0,0,0,0,0,0,0,0,0,0,0,0],"sum_hessian":[4.66E2,3.56E2,1.1E2,3.43E2,1.3E1,2.2E1,8.8E1,1.04E2,2.39E2,1E0,1.2E1,1.5E1,7E0,6.3E1,2.5E1],"tree_param":{"num_deleted":"0","num_feature":"8","num_nodes":"15","size_leaf_vector":"1"}},{"base_weights":[-3.4440298E-5,5.099959E-4,-1.0039435E-4,-1.2813965E-2,9.8971595E-6,-9.022627E-4,-2.5275585E-4,1.9303488E-4,-1.0032376E-5],"categories":[],"categories_nodes":[],"categories_segments":[],"categories_sizes":[],"default_left":[0,0,0,0,0,0,0,0,0],"id":64,"left_children":[1,-1,3,5,7,-1,-1,-1,-1],"loss_changes":[3.1624775E-4,0E0,6.5214926E-4,7.113424E-5,3.7534832E-4,0E0,0E0,0E0,0E0],"parents":[2147483647,0,0,2,2,3,3,4,4],"right_children":[2,-1,4,6,8,-1,-1,-1,-1],"split_conditions":[-1.4737594E-1,5.099959E-4,-3.7922695E-2,-6.34329E-2,3.5984398E1,-9.022627E-4,-2.5275585E-4,1.9303488E-4,-1.0032376E-5],"split_indices":[1,0,0,0,2,0,0,0,0],"split_type":[0,0,0,0,0,0,0,0,0],"sum_hessian":[4.66E2,2E0,4.64E2,3E0,4.61E2,1E0,2E0,2.3E1,4.38E2],"tree_param":{"num_deleted":"0","num_feature":"8","num_nodes":"9","size_leaf_vector":"1"}},{"base_weights":[-3.37076E-5,5.938946E-5,-7.1965633E-3,-1.6243246E-3,4.654883E-4,-6.7773176E-4,-3.2140224E-3,-3.304022E-5,-2.1844404E-3,-3.810198E-5,1.0087679E-4,-2.0927504E-4,1.6797278E-5],"categories":[],"categories_nodes":[],"categories_segments":[],"categories_sizes":[],"default_left":[0,0,0,0,0,0,0,0,0,0,0,0,0],"id":65,"left_children":[1,3,5,7,9,-1,11,-1,-1,-1,-1,-1,-1],"loss_changes":[3.1184204E-4,3.166506E-4,1.0836279E-4,3.618828E-3,7.1217027E-4,0E0,1.864969E-5,0E0,0E0,0E0,0E0,0E0,0E0],"parents":[2147483647,0,0,1,1,2,2,3,3,4,4,6,6],"right_children":[2,4,6,8,10,-1,12,-1,-1,-1,-1,-1,-1],"split_conditions":[1.4119911E0,-2.257078E-2,9.305352E-3,-2.2652995E-2,4.0965024E-3,-6.7773176E-4,4.5086694E-4,-3.304022E-5,-2.1844404E-3,-3.810198E-5,1.0087679E-4,-2.0927504E-4,1.6797278E-5],"split_indices":[5,1,1,1,0,0,0,0,0,0,0,0,0],"split_type":[0,0,0,0,0,0,0,0,0,0,0,0,0],"sum_hessian":[4.66E2,4.61E2,5E0,8.9E1,3.72E2,1E0,4E0,8.8E1,1E0,2.08E2,1.64E2,3E0,1E0],"tree_param":{"num_deleted":"0","num_feature":"8","num_nodes":"13","size_leaf_vector":"1"}},{"base_weights":[-3.849956E-5,1.183922E-4,-4.198481E-3,2.151908E-4,-5.3763244E-4,-6.9253705E-4,-1.9881302E-3,-8.7210665E-6,1.2994613E-4,-2.530007E-4,3.1100815E-5],"categories":[],"categories_nodes":[],"categories_segments":[],"categories_sizes":[],"default_left":[0,0,0,0,0,0,0,0,0,0,0],"id":66,"left_children":[1,3,5,7,-1,-1,9,-1,-1,-1,-1],"loss_changes":[3.0529243E-4,4.7690186E-4,3.3515593E-4,4.1652468E-4,0E0,0E0,1.2341842E-4,0E0,0E0,0E0,0E0],"parents":[2147483647,0,0,1,1,2,2,3,3,6,6],"right_children":[2,4,6,8,-1,-1,10,-1,-1,-1,-1],"split_conditions":[7.280844E1,1.3944223E0,-3.3497177E-3,6.599044E1,-5.3763244E-4,-6.9253705E-4,1.1098666E0,-8.7210665E-6,1.2994613E-4,-2.530007E-4,3.1100815E-5],"split_indices":[2,5,0,2,0,0,5,0,0,0,0],"split_type":[0,0,0,0,0,0,0,0,0,0,0],"sum_hessian":[4.66E2,4.5E2,1.6E1,4.47E2,3E0,2E0,1.4E1,3.85E2,6.2E1,6E0,8E0],"tree_param":{"num_deleted":"0","num_feature":"8","num_nodes":"11","size_leaf_vector":"1"}},{"base_weights":[-3.9424358E-5,1.0774818E-3,-6.1401544E-4,-4.1496338E-4,7.508828E-3,-1.8204335E-3,-2.622305E-4,1.0058365E-4,-2.4449723E-4,-6.244346E-5,5.97506E-4,-3.8485412E-4,-5.9294183E-7],"categories":[],"categories_nodes":[],"categories_segments":[],"categories_sizes":[],"default_left":[0,0,0,0,0,0,0,0,0,0,0,0,0],"id":67,"left_children":[1,3,5,7,9,-1,11,-1,-1,-1,-1,-1,-1],"loss_changes":[3.003655E-4,1.5292665E-3,3.881387E-3,1.4215268E-3,1.1817886E-3,0E0,5.713819E-4,0E0,0E0,0E0,0E0,0E0,0E0],"parents":[2147483647,0,0,1,1,2,2,3,3,4,4,6,6],"right_children":[2,4,6,8,10,-1,12,-1,-1,-1,-1,-1,-1],"split_conditions":[5.260798E-1,4.7059163E-1,4.7407135E1,7.3936306E-2,-2.8420456E-2,-1.8204335E-3,5.419252E-1,1.0058365E-4,-2.4449723E-4,-6.244346E-5,5.97506E-4,-3.8485412E-4,-5.9294183E-7],"split_indices":[7,7,2,5,1,0,7,0,0,0,0,0,0],"split_type":[0,0,0,0,0,0,0,0,0,0,0,0,0],"sum_hessian":[4.66E2,1.58E2,3.08E2,1.29E2,2.9E1,2E0,3.06E2,8.4E1,4.5E1,1E1,1.9E1,9E0,2.97E2],"tree_param":{"num_deleted":"0","num_feature":"8","num_nodes":"13","size_leaf_vector":"1"}},{"base_weights":[-4.133913E-5,3.5904167E-4,-1.6129256E-3,1.4406063E-4,1.0149545E-2,-4.180503E-3,1.4581416E-3,8.441022E-7,7.7635207E-4,-7.923795E-5,7.1625534E-4,-1.8094268E-5,-4.6856297E-4,-3.6199196E-4,1.1355804E-4],"categories":[],"categories_nodes":[],"categories_segments":[],"categories_sizes":[],"default_left":[0,0,0,0,0,0,0,0,0,0,0,0,0,0,0],"id":68,"left_children":[1,3,5,7,9,11,13,-1,-1,-1,-1,-1,-1,-1,-1],"loss_changes":[2.9443094E-4,7.836181E-4,7.5519015E-4,7.15775E-4,4.1468028E-4,1.0273273E-3,3.275943E-4,0E0,0E0,0E0,0E0,0E0,0E0,0E0,0E0],"parents":[2147483647,0,0,1,1,2,2,3,3,4,4,5,5,6,6],"right_children":[2,4,6,8,10,12,14,-1,-1,-1,-1,-1,-1,-1,-1],"split_conditions":[3.1478565E-2,3.6976077E-2,9.0142584E-1,3.0973477E-2,-1.6791752E-2,7.5677264E-1,6.3638737E1,8.441022E-7,7.7635207E-4,-7.923795E-5,7.1625534E-4,-1.8094268E-5,-4.6856297E-4,-3.6199196E-4,1.1355804E-4],"split_indices":[1,4,7,1,0,7,2,0,0,0,0,0,0,0,0],"split_type":[0,0,0,0,0,0,0,0,0,0,0,0,0,0,0],"sum_hessian":[4.66E2,3.72E2,9.4E1,3.65E2,7E0,5.1E1,4.3E1,3.63E2,2E0,2E0,5E0,3E1,2.1E1,3E0,4E1],"tree_param":{"num_deleted":"0","num_feature":"8","num_nodes":"15","size_leaf_vector":"1"}},{"base_weights":[-3.7817903E-5,-2.0112286E-4,3.8233267E-3,2.1635164E-5,-5.243628E-3,1.1695633E-2,9.4433635E-4,9.737012E-6,-3.3027676E-4,-7.748777E-4,-1.17620955E-4,3.0493617E-5,7.1573025E-4,-2.7226215E-5,3.5406437E-4],"categories":[],"categories_nodes":[],"categories_segments":[],"categories_sizes":[],"default_left":[0,0,0,0,0,0,0,0,0,0,0,0,0,0,0],"id":69,"left_children":[1,3,5,7,9,11,13,-1,-1,-1,-1,-1,-1,-1,-1],"loss_changes":[2.9523307E-4,5.0445646E-4,4.19577E-4,4.9572816E-4,5.268219E-4,1.3643637E-4,1.4091188E-4,0E0,0E0,0E0,0E0,0E0,0E0,0E0,0E0],"parents":[2147483647,0,0,1,1,2,2,3,3,4,4,5,5,6,6],"right_children":[2,4,6,8,10,12,14,-1,-1,-1,-1,-1,-1,-1,-1],"split_conditions":[4.2977014E-1,2.9512873E-1,2.707527E-2,3.4603152E-2,9.305352E-3,-6.6790464E-3,1.0258332E0,9.737012E-6,-3.3027676E-4,-7.748777E-4,-1.17620955E-4,3.0493617E-5,7.1573025E-4,-2.7226215E-5,3.5406437E-4],"split_indices":[6,6,1,0,1,0,7,0,0,0,0,0,0,0,0],"split_type":[0,0,0,0,0,0,0,0,0,0,0,0,0,0,0],"sum_hessian":[4.66E2,4.48E2,1.8E1,4.3E2,1.8E1,4E0,1.4E1,4.2E2,1E1,3E0,1.5E1,1E0,3E0,1.2E1,2E0],"tree_param":{"num_deleted":"0","num_feature":"8","num_nodes":"15","size_leaf_vector":"1"}},{"base_weights":[-3.6226793E-5,-7.6762773E-3,4.6357392E-5,2.9187286E-4,-1.2514075E-2,4.2070346E-3,-1.9068884E-4,-8.8144134E-4,-2.4664414E-4,2.8574033E-4,-4.3774463E-4,-3.241628E-4,6.2572763E-6],"categories":[],"categories_nodes":[],"categories_segments":[],"categories_sizes":[],"default_left":[0,0,0,0,0,0,0,0,0,0,0,0,0],"id":70,"left_children":[1,3,5,-1,7,9,11,-1,-1,-1,-1,-1,-1],"loss_changes":[2.950083E-4,3.9993395E-4,4.5744656E-4,0E0,6.814266E-5,5.386231E-4,8.732838E-4,0E0,0E0,0E0,0E0,0E0,0E0],"parents":[2147483647,0,0,1,1,2,2,4,4,5,5,6,6],"right_children":[2,4,6,-1,8,10,12,-1,-1,-1,-1,-1,-1],"split_conditions":[-3.7922695E-2,-1.4737594E-1,3.5984398E1,2.9187286E-4,-6.34329E-2,-3.357987E-1,1.2529254E-1,-8.8144134E-4,-2.4664414E-4,2.8574033E-4,-4.3774463E-4,-3.241628E-4,6.2572763E-6],"split_indices":[0,1,2,0,0,6,7,0,0,0,0,0,0],"split_type":[0,0,0,0,0,0,0,0,0,0,0,0,0],"sum_hessian":[4.66E2,4E0,4.62E2,1E0,3E0,2.4E1,4.38E2,1E0,2E0,2.2E1,2E0,2E1,4.18E2],"tree_param":{"num_deleted":"0","num_feature":"8","num_nodes":"13","size_leaf_vector":"1"}},{"base_weights":[-3.7212274E-5,-1.976055E-3,2.8682683E-4,1.115897E-3,-9.846034E-3,5.8809486E-3,-2.8103436E-4,8.835273E-4,2.0143605E-5,-2.0845216E-3,-2.880383E-4,3.888447E-5,4.476734E-4,-7.8632304E-4,-5.479516E-6],"categories":[],"categories_nodes":[],"categories_segments":[],"categories_sizes":[],"default_left":[0,0,0,0,0,0,0,0,0,0,0,0,0,0,0],"id":71,"left_children":[1,3,5,7,9,11,13,-1,-1,-1,-1,-1,-1,-1,-1],"loss_changes":[2.9396464E-4,1.6413382E-3,1.2755033E-3,5.71271E-4,2.2315965E-3,5.731919E-4,9.6480607E-4,0E0,0E0,0E0,0E0,0E0,0E0,0E0,0E0],"parents":[2147483647,0,0,1,1,2,2,3,3,4,4,5,5,6,6],"right_children":[2,4,6,8,10,12,14,-1,-1,-1,-1,-1,-1,-1,-1],"split_conditions":[-3.2146564E-1,-5.142151E-1,-1.4971034E-2,9.502765E-3,-5.047987E-1,-2.8291498E-3,-3.6488488E-1,8.835273E-4,2.0143605E-5,-2.0845216E-3,-2.880383E-4,3.888447E-5,4.476734E-4,-7.8632304E-4,-5.479516E-6],"split_indices":[5,5,5,4,5,0,6,0,0,0,0,0,0,0,0],"split_type":[0,0,0,0,0,0,0,0,0,0,0,0,0,0,0],"sum_hessian":[4.66E2,6.6E1,4E2,4.8E1,1.8E1,3.6E1,3.64E2,1E0,4.7E1,1E0,1.7E1,1.4E1,2.2E1,3E0,3.61E2],"tree_param":{"num_deleted":"0","num_feature":"8","num_nodes":"15","size_leaf_vector":"1"}},{"base_weights":[-3.9150655E-5,1.2166507E-4,-3.8374197E-3,2.1361659E-4,-5.0806726E-4,-6.6174386E-4,-1.9533143E-3,-8.1201415E-6,1.2947581E-4,-2.1084817E-4,2.636849E-5],"categories":[],"categories_nodes":[],"categories_segments":[],"categories_sizes":[],"default_left":[0,0,0,0,0,0,0,0,0,0,0],"id":72,"left_children":[1,3,5,7,-1,-1,9,-1,-1,-1,-1],"loss_changes":[2.8572048E-4,4.267174E-4,3.105583E-4,3.9886998E-4,0E0,0E0,9.768568E-5,0E0,0E0,0E0,0E0],"parents":[2147483647,0,0,1,1,2,2,3,3,6,6],"right_children":[2,4,6,8,-1,-1,10,-1,-1,-1,-1],"split_conditions":[7.256197E1,1.3944223E0,-3.3497177E-3,6.599044E1,-5.0806726E-4,-6.6174386E-4,1.1098666E0,-8.1201415E-6,1.2947581E-4,-2.1084817E-4,2.636849E-5],"split_indices":[2,5,0,2,0,0,5,0,0,0,0],"split_type":[0,0,0,0,0,0,0,0,0,0,0],"sum_hessian":[4.66E2,4.48E2,1.8E1,4.45E2,3E0,2E0,1.6E1,3.85E2,6E1,8E0,8E0],"tree_param":{"num_deleted":"0","num_feature":"8","num_nodes":"11","size_leaf_vector":"1"}},{"base_weights":[-3.9833238E-5,4.8065485E-4,-1.0202454E-4,-1.2184096E-2,2.802965E-6,-8.5970585E-4,-2.3913581E-4,5.9317663E-5,-2.9353307E-5],"categories":[],"categories_nodes":[],"categories_segments":[],"categories_sizes":[],"default_left":[0,0,0,0,0,0,0,0,0],"id":73,"left_children":[1,-1,3,5,7,-1,-1,-1,-1],"loss_changes":[2.813341E-4,0E0,5.889721E-4,6.608968E-5,3.2323704E-4,0E0,0E0,0E0,0E0],"parents":[2147483647,0,0,2,2,3,3,4,4],"right_children":[2,-1,4,6,8,-1,-1,-1,-1],"split_conditions":[-1.4737594E-1,4.8065485E-4,-3.7922695E-2,-6.34329E-2,5.260798E-1,-8.5970585E-4,-2.3913581E-4,5.9317663E-5,-2.9353307E-5],"split_indices":[1,0,0,0,7,0,0,0,0],"split_type":[0,0,0,0,0,0,0,0,0],"sum_hessian":[4.66E2,2E0,4.64E2,3E0,4.61E2,1E0,2E0,1.53E2,3.08E2],"tree_param":{"num_deleted":"0","num_feature":"8","num_nodes":"9","size_leaf_vector":"1"}},{"base_weights":[-3.9101153E-5,-1.9268106E-3,2.7639917E-4,1.048708E-3,-9.499106E-3,5.5846656E-3,-2.624563E-4,8.601592E-4,1.768784E-5,-2.0314716E-3,-2.7562262E-4,-2.8768E-4,3.3771622E-4,-7.5875584E-4,-4.8475263E-6],"categories":[],"categories_nodes":[],"categories_segments":[],"categories_sizes":[],"default_left":[0,0,0,0,0,0,0,0,0,0,0,0,0,0,0],"id":74,"left_children":[1,3,5,7,9,11,13,-1,-1,-1,-1,-1,-1,-1,-1],"loss_changes":[2.7866513E-4,1.5195725E-3,1.1484815E-3,5.4401637E-4,2.1340428E-3,5.295521E-4,8.9939684E-4,0E0,0E0,0E0,0E0,0E0,0E0,0E0,0E0],"parents":[2147483647,0,0,1,1,2,2,3,3,4,4,5,5,6,6],"right_children":[2,4,6,8,10,12,14,-1,-1,-1,-1,-1,-1,-1,-1],"split_conditions":[-3.2146564E-1,-5.142151E-1,-1.4971034E-2,9.502765E-3,-5.047987E-1,-1.13045976E-1,-3.6488488E-1,8.601592E-4,1.768784E-5,-2.0314716E-3,-2.7562262E-4,-2.8768E-4,3.3771622E-4,-7.5875584E-4,-4.8475263E-6],"split_indices":[5,5,5,4,5,7,6,0,0,0,0,0,0,0,0],"split_type":[0,0,0,0,0,0,0,0,0,0,0,0,0,0,0],"sum_hessian":[4.66E2,6.6E1,4E2,4.8E1,1.8E1,3.6E1,3.64E2,1E0,4.7E1,1E0,1.7E1,3E0,3.3E1,3E0,3.61E2],"tree_param":{"num_deleted":"0","num_feature":"8","num_nodes":"15","size_leaf_vector":"1"}},{"base_weights":[-4.1734576E-5,-1.974479E-4,3.6402137E-3,1.3211007E-5,-4.9656867E-3,1.1134187E-2,8.9954166E-4,8.864874E-6,-3.134013E-4,-7.328159E-4,-1.1163369E-4,3.0769857E-5,6.8050175E-4,-2.6348082E-5,3.3906044E-4],"categories":[],"categories_nodes":[],"categories_segments":[],"categories_sizes":[],"default_left":[0,0,0,0,0,0,0,0,0,0,0,0,0,0,0],"id":75,"left_children":[1,3,5,7,9,11,13,-1,-1,-1,-1,-1,-1,-1,-1],"loss_changes":[2.684631E-4,4.5107357E-4,3.8021625E-4,4.453284E-4,4.7048499E-4,1.2183911E-4,1.2942671E-4,0E0,0E0,0E0,0E0,0E0,0E0,0E0,0E0],"parents":[2147483647,0,0,1,1,2,2,3,3,4,4,5,5,6,6],"right_children":[2,4,6,8,10,12,14,-1,-1,-1,-1,-1,-1,-1,-1],"split_conditions":[4.2977014E-1,2.9512873E-1,2.707527E-2,3.4603152E-2,9.305352E-3,-6.6790464E-3,1.0258332E0,8.864874E-6,-3.134013E-4,-7.328159E-4,-1.1163369E-4,3.0769857E-5,6.8050175E-4,-2.6348082E-5,3.3906044E-4],"split_indices":[6,6,1,0,1,0,7,0,0,0,0,0,0,0,0],"split_type":[0,0,0,0,0,0,0,0,0,0,0,0,0,0,0],"sum_hessian":[4.66E2,4.48E2,1.8E1,4.3E2,1.8E1,4E0,1.4E1,4.2E2,1E1,3E0,1.5E1,1E0,3E0,1.2E1,2E0],"tree_param":{"num_deleted":"0","num_feature":"8","num_nodes":"15","size_leaf_vector":"1"}},{"base_weights":[-3.9915536E-5,-7.261777E-3,3.816054E-5,2.7159523E-4,-1.1793173E-2,3.8623486E-3,-1.7970476E-4,-8.38877E-4,-2.2696024E-4,2.6490664E-4,-4.2163912E-4,-2.5952727E-4,9.369021E-6],"categories":[],"categories_nodes":[],"categories_segments":[],"categories_sizes":[],"default_left":[0,0,0,0,0,0,0,0,0,0,0,0,0],"id":76,"left_children":[1,3,5,-1,7,9,11,-1,-1,-1,-1,-1,-1],"loss_changes":[2.635972E-4,3.516599E-4,3.864462E-4,0E0,6.846909E-5,4.86007E-4,8.084715E-4,0E0,0E0,0E0,0E0,0E0,0E0],"parents":[2147483647,0,0,1,1,2,2,4,4,5,5,6,6],"right_children":[2,4,6,-1,8,10,12,-1,-1,-1,-1,-1,-1],"split_conditions":[-3.7922695E-2,-1.4737594E-1,3.5984398E1,2.7159523E-4,-6.34329E-2,-3.357987E-1,2.0464773E-1,-8.38877E-4,-2.2696024E-4,2.6490664E-4,-4.2163912E-4,-2.5952727E-4,9.369021E-6],"split_indices":[0,1,2,0,0,6,7,0,0,0,0,0,0],"split_type":[0,0,0,0,0,0,0,0,0,0,0,0,0],"sum_hessian":[4.66E2,4E0,4.62E2,1E0,3E0,2.4E1,4.38E2,1E0,2E0,2.2E1,2E0,2.9E1,4.09E2],"tree_param":{"num_deleted":"0","num_feature":"8","num_nodes":"13","size_leaf_vector":"1"}},{"base_weights":[-4.049177E-5,-1.8676652E-3,2.6489754E-4,9.87194E-4,-9.131899E-3,5.3131254E-3,-2.475664E-4,6.832241E-4,7.850066E-6,-1.9811408E-3,-2.6183456E-4,3.0912062E-5,4.0720007E-4,-7.274581E-4,-4.4426924E-6],"categories":[],"categories_nodes":[],"categories_segments":[],"categories_sizes":[],"default_left":[0,0,0,0,0,0,0,0,0,0,0,0,0,0,0],"id":77,"left_children":[1,3,5,7,9,11,13,-1,-1,-1,-1,-1,-1,-1,-1],"loss_changes":[2.6108033E-4,1.3984854E-3,1.0387163E-3,5.135597E-4,2.0491076E-3,4.867186E-4,8.2719984E-4,0E0,0E0,0E0,0E0,0E0,0E0,0E0,0E0],"parents":[2147483647,0,0,1,1,2,2,3,3,4,4,5,5,6,6],"right_children":[2,4,6,8,10,12,14,-1,-1,-1,-1,-1,-1,-1,-1],"split_conditions":[-3.2146564E-1,-5.142151E-1,-1.4971034E-2,1.608198E-2,-5.047987E-1,-2.8291498E-3,-3.6488488E-1,6.832241E-4,7.850066E-6,-1.9811408E-3,-2.6183456E-4,3.0912062E-5,4.0720007E-4,-7.274581E-4,-4.4426924E-6],"split_indices":[5,5,5,4,5,0,6,0,0,0,0,0,0,0,0],"split_type":[0,0,0,0,0,0,0,0,0,0,0,0,0,0,0],"sum_hessian":[4.66E2,6.6E1,4E2,4.8E1,1.8E1,3.6E1,3.64E2,2E0,4.6E1,1E0,1.7E1,1.4E1,2.2E1,3E0,3.61E2],"tree_param":{"num_deleted":"0","num_feature":"8","num_nodes":"15","size_leaf_vector":"1"}},{"base_weights":[-4.2419415E-5,3.3233955E-4,-1.513395E-3,8.796634E-5,7.67657E-3,-3.9729862E-3,1.4277903E-3,-3.4680238E-6,5.6674867E-4,3.485196E-5,6.281186E-4,-1.8619394E-5,-4.4329834E-4,-2.9875978E-4,1.15873445E-4],"categories":[],"categories_nodes":[],"categories_segments":[],"categories_sizes":[],"default_left":[0,0,0,0,0,0,0,0,0,0,0,0,0,0,0],"id":78,"left_children":[1,3,5,7,9,11,13,-1,-1,-1,-1,-1,-1,-1,-1],"loss_changes":[2.5794198E-4,6.687602E-4,6.929135E-4,6.413292E-4,4.0045078E-4,9.1281673E-4,3.0364355E-4,0E0,0E0,0E0,0E0,0E0,0E0,0E0,0E0],"parents":[2147483647,0,0,1,1,2,2,3,3,4,4,5,5,6,6],"right_children":[2,4,6,8,10,12,14,-1,-1,-1,-1,-1,-1,-1,-1],"split_conditions":[3.1478565E-2,2.9161317E-2,9.0142584E-1,3.7896264E-2,4.6239626E-3,7.5677264E-1,6.3942013E1,-3.4680238E-6,5.6674867E-4,3.485196E-5,6.281186E-4,-1.8619394E-5,-4.4329834E-4,-2.9875978E-4,1.15873445E-4],"split_indices":[1,1,7,4,0,7,2,0,0,0,0,0,0,0,0],"split_type":[0,0,0,0,0,0,0,0,0,0,0,0,0,0,0],"sum_hessian":[4.66E2,3.72E2,9.4E1,3.61E2,1.1E1,5.1E1,4.3E1,3.57E2,4E0,5E0,6E0,3E1,2.1E1,4E0,3.9E1],"tree_param":{"num_deleted":"0","num_feature":"8","num_nodes":"15","size_leaf_vector":"1"}},{"base_weights":[-3.9053375E-5,9.593302E-5,-4.113039E-3,2.5235306E-4,-4.1920613E-3,-6.3153997E-4,-1.8310143E-3,-1.31583865E-5,1.13842325E-4,-4.999481E-4,1.45987715E-5,-1.963956E-4,2.6372834E-5],"categories":[],"categories_nodes":[],"categories_segments":[],"categories_sizes":[],"default_left":[0,0,0,0,0,0,0,0,0,0,0,0,0],"id":79,"left_children":[1,3,5,7,9,-1,11,-1,-1,-1,-1,-1,-1],"loss_changes":[2.5721313E-4,3.0489772E-4,2.684389E-4,4.5772595E-4,4.195331E-4,0E0,6.636294E-5,0E0,0E0,0E0,0E0,0E0,0E0],"parents":[2147483647,0,0,1,1,2,2,3,3,4,4,6,6],"right_children":[2,4,6,8,10,-1,12,-1,-1,-1,-1,-1,-1],"split_conditions":[7.320291E1,2.8833546E-2,-3.3497177E-3,1.00325085E-2,1.4903789E-2,-6.3153997E-4,1.05092805E-2,-1.31583865E-5,1.13842325E-4,-4.999481E-4,1.45987715E-5,-1.963956E-4,2.6372834E-5],"split_indices":[2,0,0,0,4,0,0,0,0,0,0,0,0],"split_type":[0,0,0,0,0,0,0,0,0,0,0,0,0],"sum_hessian":[4.66E2,4.52E2,1.4E1,4.37E2,1.5E1,2E0,1.2E1,3.49E2,8.8E1,6E0,9E0,6E0,6E0],"tree_param":{"num_deleted":"0","num_feature":"8","num_nodes":"13","size_leaf_vector":"1"}},{"base_weights":[-3.964085E-5,-2.3579777E-3,1.9501356E-4,7.614708E-4,-7.1736914E-3,4.7966833E-3,-9.235989E-5,1.0704922E-4,-8.7764714E-4,-5.807685E-4,4.1545063E-5,1.11237125E-4,6.285186E-4,-3.2798442E-4,2.0535477E-5],"categories":[],"categories_nodes":[],"categories_segments":[],"categories_sizes":[],"default_left":[0,0,0,0,0,0,0,0,0,0,0,0,0,0,0],"id":80,"left_children":[1,3,5,7,9,11,13,-1,-1,-1,-1,-1,-1,-1,-1],"loss_changes":[2.5451154E-4,6.514245E-4,5.624621E-4,7.1973517E-4,6.140662E-4,4.7187088E-4,1.3073538E-3,0E0,0E0,0E0,0E0,0E0,0E0,0E0,0E0],"parents":[2147483647,0,0,1,1,2,2,3,3,4,4,5,5,6,6],"right_children":[2,4,6,8,10,12,14,-1,-1,-1,-1,-1,-1,-1,-1],"split_conditions":[-3.6315963E-2,-3.5516903E-1,4.187605E1,7.5304046E-2,2.652623E-1,-1.8583609E-1,-3.3418983E-1,1.0704922E-4,-8.7764714E-4,-5.807685E-4,4.1545063E-5,1.11237125E-4,6.285186E-4,-3.2798442E-4,2.0535477E-5],"split_indices":[1,6,2,5,5,6,5,0,0,0,0,0,0,0,0],"split_type":[0,0,0,0,0,0,0,0,0,0,0,0,0,0,0],"sum_hessian":[4.66E2,4.2E1,4.24E2,2.6E1,1.6E1,2.4E1,4E2,2.5E1,1E0,1E1,6E0,1.9E1,5E0,2.8E1,3.72E2],"tree_param":{"num_deleted":"0","num_feature":"8","num_nodes":"15","size_leaf_vector":"1"}},{"base_weights":[-3.95378E-5,-1.923576E-4,3.5739164E-3,9.245691E-6,-4.755445E-3,1.05162915E-2,1.0215301E-3,7.305887E-6,-3.212384E-4,-6.980927E-4,-1.0783138E-4,2.9779727E-5,6.4237835E-4,-1.5120927E-5,3.2090658E-4],"categories":[],"categories_nodes":[],"categories_segments":[],"categories_sizes":[],"default_left":[0,0,0,0,0,0,0,0,0,0,0,0,0,0,0],"id":81,"left_children":[1,3,5,7,9,11,13,-1,-1,-1,-1,-1,-1,-1,-1],"loss_changes":[2.585683E-4,4.130941E-4,3.2593013E-4,3.8049312E-4,4.2447925E-4,1.07987435E-4,1.09113316E-4,0E0,0E0,0E0,0E0,0E0,0E0,0E0,0E0],"parents":[2147483647,0,0,1,1,2,2,3,3,4,4,5,5,6,6],"right_children":[2,4,6,8,10,12,14,-1,-1,-1,-1,-1,-1,-1,-1],"split_conditions":[4.2977014E-1,2.9512873E-1,2.707527E-2,3.5996825E-2,9.305352E-3,-6.6790464E-3,1.0258332E0,7.305887E-6,-3.212384E-4,-6.980927E-4,-1.0783138E-4,2.9779727E-5,6.4237835E-4,-1.5120927E-5,3.2090658E-4],"split_indices":[6,6,1,0,1,0,7,0,0,0,0,0,0,0,0],"split_type":[0,0,0,0,0,0,0,0,0,0,0,0,0,0,0],"sum_hessian":[4.66E2,4.48E2,1.8E1,4.3E2,1.8E1,4E0,1.4E1,4.22E2,8E0,3E0,1.5E1,1E0,3E0,1.2E1,2E0],"tree_param":{"num_deleted":"0","num_feature":"8","num_nodes":"15","size_leaf_vector":"1"}},{"base_weights":[-3.7864826E-5,-4.5723427E-4,2.0970285E-5,1.1465788E-3,-5.5100874E-4,2.3846482E-5,6.77959E-4,-1.5958569E-3,-1.2135226E-5],"categories":[],"categories_nodes":[],"categories_segments":[],"categories_sizes":[],"default_left":[0,0,0,0,0,0,0,0,0],"id":82,"left_children":[1,-1,3,5,7,-1,-1,-1,-1],"loss_changes":[2.5041073E-4,0E0,3.0001017E-4,1.298531E-3,2.9803794E-3,0E0,0E0,0E0,0E0],"parents":[2147483647,0,0,2,2,3,3,4,4],"right_children":[2,-1,4,6,8,-1,-1,-1,-1],"split_conditions":[8.448719E-3,-4.5723427E-4,5.260798E-1,5.3360962E1,4.7407135E1,2.3846482E-5,6.77959E-4,-1.5958569E-3,-1.2135226E-5],"split_indices":[4,0,7,2,2,0,0,0,0],"split_type":[0,0,0,0,0,0,0,0,0],"sum_hessian":[4.66E2,2E0,4.64E2,1.56E2,3.08E2,1.49E2,7E0,2E0,3.06E2],"tree_param":{"num_deleted":"0","num_feature":"8","num_nodes":"9","size_leaf_vector":"1"}},{"base_weights":[-3.8891074E-5,-1.8899388E-3,2.4914573E-4,-1.459632E-4,-7.0037446E-3,7.160146E-3,-1.6619364E-5,1.5812251E-4,-2.4679324E-4,-1.6632355E-4,-8.6019747E-4,7.7429303E-4,2.3440235E-4,-3.8097287E-4,1.6404347E-5],"categories":[],"categories_nodes":[],"categories_segments":[],"categories_sizes":[],"default_left":[0,0,0,0,0,0,0,0,0,0,0,0,0,0,0],"id":83,"left_children":[1,3,5,7,9,11,13,-1,-1,-1,-1,-1,-1,-1,-1],"loss_changes":[2.494612E-4,5.6083396E-4,7.439835E-4,7.7626406E-4,5.429147E-4,2.3613143E-4,1.0272115E-3,0E0,0E0,0E0,0E0,0E0,0E0,0E0,0E0],"parents":[2147483647,0,0,1,1,2,2,3,3,4,4,5,5,6,6],"right_children":[2,4,6,8,10,12,14,-1,-1,-1,-1,-1,-1,-1,-1],"split_conditions":[-3.0363144E-2,3.260194E-3,4.1182953E1,1.608198E-2,1.6759825E-1,9.727464E-3,4.5117046E1,1.5812251E-4,-2.4679324E-4,-1.6632355E-4,-8.6019747E-4,7.7429303E-4,2.3440235E-4,-3.8097287E-4,1.6404347E-5],"split_indices":[1,0,2,4,5,4,2,0,0,0,0,0,0,0,0],"split_type":[0,0,0,0,0,0,0,0,0,0,0,0,0,0,0],"sum_hessian":[4.66E2,6.2E1,4.04E2,4.7E1,1.5E1,1.4E1,3.9E2,2.8E1,1.9E1,1.2E1,3E0,2E0,1.2E1,1.6E1,3.74E2],"tree_param":{"num_deleted":"0","num_feature":"8","num_nodes":"15","size_leaf_vector":"1"}},{"base_weights":[-3.795521E-5,4.587185E-4,-9.7307944E-5,-1.1337105E-2,2.1694018E-7,-7.977754E-4,-2.2395675E-4,5.4264332E-5,-2.7028143E-5],"categories":[],"categories_nodes":[],"categories_segments":[],"categories_sizes":[],"default_left":[0,0,0,0,0,0,0,0,0],"id":84,"left_children":[1,-1,3,5,7,-1,-1,-1,-1],"loss_changes":[2.5623743E-4,0E0,5.097168E-4,5.5224576E-5,2.7168074E-4,0E0,0E0,0E0,0E0],"parents":[2147483647,0,0,2,2,3,3,4,4],"right_children":[2,-1,4,6,8,-1,-1,-1,-1],"split_conditions":[-1.4737594E-1,4.587185E-4,-3.7922695E-2,-6.34329E-2,5.260798E-1,-7.977754E-4,-2.2395675E-4,5.4264332E-5,-2.7028143E-5],"split_indices":[1,0,0,0,7,0,0,0,0],"split_type":[0,0,0,0,0,0,0,0,0],"sum_hessian":[4.66E2,2E0,4.64E2,3E0,4.61E2,1E0,2E0,1.53E2,3.08E2],"tree_param":{"num_deleted":"0","num_feature":"8","num_nodes":"9","size_leaf_vector":"1"}},{"base_weights":[-3.7204773E-5,-1.8545974E-4,3.4682523E-3,-1.1033595E-4,-5.6585425E-4,1.0143115E-2,1.012081E-3,7.3849988E-6,-1.5301745E-4,2.960421E-5,6.191426E-4,-1.33726235E-5,3.1096832E-4],"categories":[],"categories_nodes":[],"categories_segments":[],"categories_sizes":[],"default_left":[0,0,0,0,0,0,0,0,0,0,0,0,0],"id":85,"left_children":[1,3,5,7,-1,9,11,-1,-1,-1,-1,-1,-1],"loss_changes":[2.4334378E-4,3.7422747E-4,3.0123183E-4,3.4071258E-4,0E0,9.96273E-5,1.0160683E-4,0E0,0E0,0E0,0E0,0E0,0E0],"parents":[2147483647,0,0,1,1,2,2,3,3,5,5,6,6],"right_children":[2,4,6,8,-1,10,12,-1,-1,-1,-1,-1,-1],"split_conditions":[4.2977014E-1,3.799448E-1,2.707527E-2,4.6314582E-2,-5.6585425E-4,-6.6790464E-3,1.0258332E0,7.3849988E-6,-1.5301745E-4,2.960421E-5,6.191426E-4,-1.33726235E-5,3.1096832E-4],"split_indices":[6,6,1,1,0,0,7,0,0,0,0,0,0],"split_type":[0,0,0,0,0,0,0,0,0,0,0,0,0],"sum_hessian":[4.66E2,4.48E2,1.8E1,4.46E2,2E0,4E0,1.4E1,4.11E2,3.5E1,1E0,3E0,1.2E1,2E0],"tree_param":{"num_deleted":"0","num_feature":"8","num_nodes":"13","size_leaf_vector":"1"}},{"base_weights":[-3.4841694E-5,-1.8609713E-3,2.4930894E-4,-1.8571463E-4,-6.7704306E-3,6.8303933E-3,-3.7999405E-6,1.479333E-4,-2.3678904E-4,-1.6149244E-4,-8.2923577E-4,2.2117286E-4,7.491826E-4,-3.6476325E-4,1.633783E-5],"categories":[],"categories_nodes":[],"categories_segments":[],"categories_sizes":[],"default_left":[0,0,0,0,0,0,0,0,0,0,0,0,0,0,0],"id":86,"left_children":[1,3,5,7,9,11,13,-1,-1,-1,-1,-1,-1,-1,-1],"loss_changes":[2.4278834E-4,5.1689276E-4,6.74647E-4,7.0075435E-4,5.024063E-4,2.2808596E-4,9.4478816E-4,0E0,0E0,0E0,0E0,0E0,0E0,0E0,0E0],"parents":[2147483647,0,0,1,1,2,2,3,3,4,4,5,5,6,6],"right_children":[2,4,6,8,10,12,14,-1,-1,-1,-1,-1,-1,-1,-1],"split_conditions":[-3.0363144E-2,3.260194E-3,4.1182953E1,1.608198E-2,1.6759825E-1,3.6976077E-2,4.5117046E1,1.479333E-4,-2.3678904E-4,-1.6149244E-4,-8.2923577E-4,2.2117286E-4,7.491826E-4,-3.6476325E-4,1.633783E-5],"split_indices":[1,0,2,4,5,4,2,0,0,0,0,0,0,0,0],"split_type":[0,0,0,0,0,0,0,0,0,0,0,0,0,0,0],"sum_hessian":[4.66E2,6.2E1,4.04E2,4.7E1,1.5E1,1.4E1,3.9E2,2.8E1,1.9E1,1.2E1,3E0,1.2E1,2E0,1.6E1,3.74E2],"tree_param":{"num_deleted":"0","num_feature":"8","num_nodes":"15","size_leaf_vector":"1"}},{"base_weights":[-3.407953E-5,6.996232E-3,-1.0992722E-4,4.270422E-4,1.5597713E-4,-4.8835706E-3,9.413829E-5,-2.4166487E-5,-7.168436E-4,1.944653E-4,-8.988899E-6],"categories":[],"categories_nodes":[],"categories_segments":[],"categories_sizes":[],"default_left":[0,0,0,0,0,0,0,0,0,0,0],"id":87,"left_children":[1,3,5,-1,-1,7,9,-1,-1,-1,-1],"loss_changes":[2.497888E-4,3.2963871E-6,4.514847E-4,0E0,0E0,7.8340963E-4,4.633026E-4,0E0,0E0,0E0,0E0],"parents":[2147483647,0,0,1,1,2,2,5,5,6,6],"right_children":[2,4,6,-1,-1,8,10,-1,-1,-1,-1],"split_conditions":[-6.365046E-1,-8.5826147E-1,-5.030181E-2,4.270422E-4,1.5597713E-4,-1.2249084E-2,4.1534954E1,-2.4166487E-5,-7.168436E-4,1.944653E-4,-8.988899E-6],"split_indices":[6,5,1,0,0,7,2,0,0,0,0],"split_type":[0,0,0,0,0,0,0,0,0,0,0],"sum_hessian":[4.66E2,4E0,4.62E2,2E0,2E0,1.8E1,4.44E2,1.3E1,5E0,2.9E1,4.15E2],"tree_param":{"num_deleted":"0","num_feature":"8","num_nodes":"11","size_leaf_vector":"1"}},{"base_weights":[-3.231669E-5,4.4436014E-4,-8.979248E-5,-1.1004653E-2,4.9028363E-6,-7.7149173E-4,-2.1931574E-4,2.8306223E-4,-4.728005E-6],"categories":[],"categories_nodes":[],"categories_segments":[],"categories_sizes":[],"default_left":[0,0,0,0,0,0,0,0,0],"id":88,"left_children":[1,-1,3,5,7,-1,-1,-1,-1],"loss_changes":[2.4020857E-4,0E0,4.8067153E-4,4.9469294E-5,2.604548E-4,0E0,0E0,0E0,0E0],"parents":[2147483647,0,0,2,2,3,3,4,4],"right_children":[2,-1,4,6,8,-1,-1,-1,-1],"split_conditions":[-1.4737594E-1,4.4436014E-4,-3.7922695E-2,-6.34329E-2,-3.2221943E-2,-7.7149173E-4,-2.1931574E-4,2.8306223E-4,-4.728005E-6],"split_indices":[1,0,0,0,0,0,0,0,0],"split_type":[0,0,0,0,0,0,0,0,0],"sum_hessian":[4.66E2,2E0,4.64E2,3E0,4.61E2,1E0,2E0,7E0,4.54E2],"tree_param":{"num_deleted":"0","num_feature":"8","num_nodes":"9","size_leaf_vector":"1"}},{"base_weights":[-3.127498E-5,-1.4797337E-3,3.136789E-4,-6.586945E-4,-1.8638058E-3,1.9003798E-3,-7.5016345E-4,4.431522E-5,-3.881573E-4,-4.0926613E-4,1.451267E-4,-5.6687597E-4,-2.0571146E-5],"categories":[],"categories_nodes":[],"categories_segments":[],"categories_sizes":[],"default_left":[0,0,0,0,0,0,0,0,0,0,0,0,0],"id":89,"left_children":[1,3,5,7,-1,9,11,-1,-1,-1,-1,-1,-1],"loss_changes":[2.338014E-4,2.6205676E-3,6.3948944E-4,9.837773E-4,0E0,1.5600875E-3,8.094407E-4,0E0,0E0,0E0,0E0,0E0,0E0],"parents":[2147483647,0,0,1,1,2,2,3,3,5,5,6,6],"right_children":[2,4,6,8,-1,10,12,-1,-1,-1,-1,-1,-1],"split_conditions":[-2.257078E-2,-2.2652995E-2,5.716512E1,4.441013E-3,-1.8638058E-3,1.03573E-2,4.4978563E-2,4.431522E-5,-3.881573E-4,-4.0926613E-4,1.451267E-4,-5.6687597E-4,-2.0571146E-5],"split_indices":[1,1,2,0,0,4,5,0,0,0,0,0,0],"split_type":[0,0,0,0,0,0,0,0,0,0,0,0,0],"sum_hessian":[4.66E2,8.9E1,3.77E2,8.8E1,1E0,1.51E2,2.26E2,7.3E1,1.5E1,1.3E1,1.38E2,6E0,2.2E2],"tree_param":{"num_deleted":"0","num_feature":"8","num_nodes":"13","size_leaf_vector":"1"}},{"base_weights":[-3.6262034E-5,-1.4728692E-3,3.2490733E-4,7.361181E-4,-5.775786E-3,1.8231268E-3,-7.915579E-4,-1.1150837E-4,2.8246277E-4,-2.4127576E-5,-6.273453E-4,-9.132573E-5,1.7017835E-4,-5.4258126E-4,-2.2541522E-5],"categories":[],"categories_nodes":[],"categories_segments":[],"categories_sizes":[],"default_left":[0,0,0,0,0,0,0,0,0,0,0,0,0,0,0],"id":90,"left_children":[1,3,5,7,9,11,13,-1,-1,-1,-1,-1,-1,-1,-1],"loss_changes":[2.4278545E-4,8.977299E-4,6.270367E-4,9.307462E-4,1.1408614E-3,9.29103E-4,7.3207205E-4,0E0,0E0,0E0,0E0,0E0,0E0,0E0,0E0],"parents":[2147483647,0,0,1,1,2,2,3,3,4,4,5,5,6,6],"right_children":[2,4,6,8,10,12,14,-1,-1,-1,-1,-1,-1,-1,-1],"split_conditions":[-8.152212E-3,-1.1878055E-2,5.714633E1,3.4134973E-2,-4.677268E-3,-2.257078E-2,4.4978563E-2,-1.1150837E-4,2.8246277E-4,-2.4127576E-5,-6.273453E-4,-9.132573E-5,1.7017835E-4,-5.4258126E-4,-2.2541522E-5],"split_indices":[0,0,2,6,1,1,5,0,0,0,0,0,0,0,0],"split_type":[0,0,0,0,0,0,0,0,0,0,0,0,0,0,0],"sum_hessian":[4.66E2,9.3E1,3.73E2,6.2E1,3.1E1,1.59E2,2.14E2,3.9E1,2.3E1,1.8E1,1.3E1,4.8E1,1.11E2,6E0,2.08E2],"tree_param":{"num_deleted":"0","num_feature":"8","num_nodes":"15","size_leaf_vector":"1"}},{"base_weights":[-3.651914E-5,6.8956595E-3,-1.1130181E-4,9.850092E-5,3.8172826E-4,-4.5876424E-3,8.0072954E-5,-2.0971476E-5,-6.774433E-4,1.8303299E-4,-8.916746E-6],"categories":[],"categories_nodes":[],"categories_segments":[],"categories_sizes":[],"default_left":[0,0,0,0,0,0,0,0,0,0,0],"id":91,"left_children":[1,3,5,-1,-1,7,9,-1,-1,-1,-1],"loss_changes":[2.4286346E-4,3.1577074E-6,3.9700026E-4,0E0,0E0,7.040105E-4,4.1238987E-4,0E0,0E0,0E0,0E0],"parents":[2147483647,0,0,1,1,2,2,5,5,6,6],"right_children":[2,4,6,-1,-1,8,10,-1,-1,-1,-1],"split_conditions":[-6.365046E-1,-2.4703795E-2,-5.030181E-2,9.850092E-5,3.8172826E-4,-1.2249084E-2,4.1534954E1,-2.0971476E-5,-6.774433E-4,1.8303299E-4,-8.916746E-6],"split_indices":[6,0,1,0,0,7,2,0,0,0,0],"split_type":[0,0,0,0,0,0,0,0,0,0,0],"sum_hessian":[4.66E2,4E0,4.62E2,1E0,3E0,1.8E1,4.44E2,1.3E1,5E0,2.9E1,4.15E2],"tree_param":{"num_deleted":"0","num_feature":"8","num_nodes":"11","size_leaf_vector":"1"}},{"base_weights":[-3.4787525E-5,-1.7427948E-3,2.50677E-4,8.844482E-4,-8.42659E-3,4.7373194E-3,-2.0482011E-4,6.397757E-4,5.267469E-6,8.404638E-5,-8.8457245E-4,2.0198066E-5,3.6787262E-4,-6.602246E-4,-3.0305762E-6],"categories":[],"categories_nodes":[],"categories_segments":[],"categories_sizes":[],"default_left":[0,0,0,0,0,0,0,0,0,0,0,0,0,0,0],"id":92,"left_children":[1,3,5,7,9,11,13,-1,-1,-1,-1,-1,-1,-1,-1],"loss_changes":[2.2813464E-4,1.1839699E-3,8.20475E-4,4.5336699E-4,1.808988E-3,4.171249E-4,6.834521E-4,0E0,0E0,0E0,0E0,0E0,0E0,0E0,0E0],"parents":[2147483647,0,0,1,1,2,2,3,3,4,4,5,5,6,6],"right_children":[2,4,6,8,10,12,14,-1,-1,-1,-1,-1,-1,-1,-1],"split_conditions":[-3.2146564E-1,-5.142151E-1,-1.4971034E-2,1.608198E-2,4.4672634E1,-2.8291498E-3,-3.6488488E-1,6.397757E-4,5.267469E-6,8.404638E-5,-8.8457245E-4,2.0198066E-5,3.6787262E-4,-6.602246E-4,-3.0305762E-6],"split_indices":[5,5,5,4,2,0,6,0,0,0,0,0,0,0,0],"split_type":[0,0,0,0,0,0,0,0,0,0,0,0,0,0,0],"sum_hessian":[4.66E2,6.6E1,4E2,4.8E1,1.8E1,3.6E1,3.64E2,2E0,4.6E1,9E0,9E0,1.4E1,2.2E1,3E0,3.61E2],"tree_param":{"num_deleted":"0","num_feature":"8","num_nodes":"15","size_leaf_vector":"1"}},{"base_weights":[-3.397039E-5,-1.7680858E-4,3.3433095E-3,-1.0359211E-4,-5.513564E-4,9.6617965E-3,1.01426E-3,2.5316456E-6,-2.1305967E-4,3.0175079E-5,5.8877474E-4,-1.1258233E-5,3.023507E-4],"categories":[],"categories_nodes":[],"categories_segments":[],"categories_sizes":[],"default_left":[0,0,0,0,0,0,0,0,0,0,0,0,0],"id":93,"left_children":[1,3,5,7,-1,9,11,-1,-1,-1,-1,-1,-1],"loss_changes":[2.2587406E-4,3.555532E-4,2.6980572E-4,2.868349E-4,0E0,8.8625966E-5,9.492735E-5,0E0,0E0,0E0,0E0,0E0,0E0],"parents":[2147483647,0,0,1,1,2,2,3,3,5,5,6,6],"right_children":[2,4,6,8,-1,10,12,-1,-1,-1,-1,-1,-1],"split_conditions":[4.2977014E-1,3.799448E-1,2.707527E-2,2.8833546E-2,-5.513564E-4,-6.6790464E-3,1.0258332E0,2.5316456E-6,-2.1305967E-4,3.0175079E-5,5.8877474E-4,-1.1258233E-5,3.023507E-4],"split_indices":[6,6,1,0,0,0,7,0,0,0,0,0,0],"split_type":[0,0,0,0,0,0,0,0,0,0,0,0,0],"sum_hessian":[4.66E2,4.48E2,1.8E1,4.46E2,2E0,4E0,1.4E1,4.31E2,1.5E1,1E0,3E0,1.2E1,2E0],"tree_param":{"num_deleted":"0","num_feature":"8","num_nodes":"13","size_leaf_vector":"1"}},{"base_weights":[-3.195462E-5,6.640683E-3,-1.0394432E-4,9.584342E-5,3.6712099E-4,-3.081846E-3,1.6956653E-4,7.1582153E-6,-3.4261562E-4,8.70908E-5,-2.2021226E-5],"categories":[],"categories_nodes":[],"categories_segments":[],"categories_sizes":[],"default_left":[0,0,0,0,0,0,0,0,0,0,0],"id":94,"left_children":[1,3,5,-1,-1,7,9,-1,-1,-1,-1],"loss_changes":[2.2501897E-4,2.4999026E-6,3.7763076E-4,0E0,0E0,4.7521284E-4,4.0836685E-4,0E0,0E0,0E0,0E0],"parents":[2147483647,0,0,1,1,2,2,5,5,6,6],"right_children":[2,4,6,-1,-1,8,10,-1,-1,-1,-1],"split_conditions":[-6.365046E-1,-2.4703795E-2,-3.6315963E-2,9.584342E-5,3.6712099E-4,1.608198E-2,5.260798E-1,7.1582153E-6,-3.4261562E-4,8.70908E-5,-2.2021226E-5],"split_indices":[6,0,1,0,0,4,7,0,0,0,0],"split_type":[0,0,0,0,0,0,0,0,0,0,0],"sum_hessian":[4.66E2,4E0,4.62E2,1E0,3E0,3.8E1,4.24E2,2.1E1,1.7E1,1.18E2,3.06E2],"tree_param":{"num_deleted":"0","num_feature":"8","num_nodes":"11","size_leaf_vector":"1"}},{"base_weights":[-2.9944524E-5,-4.295285E-4,2.5349716E-5,-1.1997122E-3,4.406714E-4,-8.444941E-5,4.107471E-4,1.0364603E-4,-3.8168808E-5],"categories":[],"categories_nodes":[],"categories_segments":[],"categories_sizes":[],"default_left":[0,0,0,0,0,0,0,0,0],"id":95,"left_children":[1,-1,3,5,7,-1,-1,-1,-1],"loss_changes":[2.2127373E-4,0E0,2.3711822E-4,5.574262E-4,6.855087E-4,0E0,0E0,0E0,0E0],"parents":[2147483647,0,0,2,2,3,3,4,4],"right_children":[2,-1,4,6,8,-1,-1,-1,-1],"split_conditions":[8.448719E-3,-4.295285E-4,-6.2625255E-3,2.9327009E-2,5.714633E1,-8.444941E-5,4.107471E-4,1.0364603E-4,-3.8168808E-5],"split_indices":[4,0,0,4,2,0,0,0,0],"split_type":[0,0,0,0,0,0,0,0,0],"sum_hessian":[4.66E2,2E0,4.64E2,1.17E2,3.47E2,1.12E2,5E0,1.47E2,2E2],"tree_param":{"num_deleted":"0","num_feature":"8","num_nodes":"9","size_leaf_vector":"1"}},{"base_weights":[-2.8528128E-5,-1.7201491E-3,2.541829E-4,8.0271484E-4,-8.135948E-3,4.4169286E-3,-1.6849046E-4,7.5618824E-4,9.464061E-6,-1.794694E-3,-2.299868E-4,-2.5762286E-4,2.7064147E-4,-6.292898E-4,-1.5408613E-6],"categories":[],"categories_nodes":[],"categories_segments":[],"categories_sizes":[],"default_left":[0,0,0,0,0,0,0,0,0,0,0,0,0,0,0],"id":96,"left_children":[1,3,5,7,9,11,13,-1,-1,-1,-1,-1,-1,-1,-1],"loss_changes":[2.2377526E-4,1.0910055E-3,7.062965E-4,4.2760305E-4,1.6998979E-3,3.805051E-4,6.235908E-4,0E0,0E0,0E0,0E0,0E0,0E0,0E0,0E0],"parents":[2147483647,0,0,1,1,2,2,3,3,4,4,5,5,6,6],"right_children":[2,4,6,8,10,12,14,-1,-1,-1,-1,-1,-1,-1,-1],"split_conditions":[-3.2146564E-1,-5.142151E-1,-1.4971034E-2,9.502765E-3,-5.047987E-1,-1.13045976E-1,-3.6488488E-1,7.5618824E-4,9.464061E-6,-1.794694E-3,-2.299868E-4,-2.5762286E-4,2.7064147E-4,-6.292898E-4,-1.5408613E-6],"split_indices":[5,5,5,4,5,7,6,0,0,0,0,0,0,0,0],"split_type":[0,0,0,0,0,0,0,0,0,0,0,0,0,0,0],"sum_hessian":[4.66E2,6.6E1,4E2,4.8E1,1.8E1,3.6E1,3.64E2,1E0,4.7E1,1E0,1.7E1,3E0,3.3E1,3E0,3.61E2],"tree_param":{"num_deleted":"0","num_feature":"8","num_nodes":"15","size_leaf_vector":"1"}},{"base_weights":[-3.1120708E-5,9.275412E-5,-3.7700657E-3,-2.2533532E-4,2.2629378E-3,-8.1859995E-3,8.3445986E-5,1.9266983E-5,-1.7926797E-4,-2.624997E-4,1.9687535E-4,-6.025907E-4,-2.114656E-4,1.5876051E-4,-1.5125038E-4],"categories":[],"categories_nodes":[],"categories_segments":[],"categories_sizes":[],"default_left":[0,0,0,0,0,0,0,0,0,0,0,0,0,0,0],"id":97,"left_children":[1,3,5,7,9,11,13,-1,-1,-1,-1,-1,-1,-1,-1],"loss_changes":[2.1664595E-4,3.1322148E-4,2.5593588E-4,8.1392704E-4,7.503653E-4,5.6099874E-5,9.6100484E-5,0E0,0E0,0E0,0E0,0E0,0E0,0E0,0E0],"parents":[2147483647,0,0,1,1,2,2,3,3,4,4,5,5,6,6],"right_children":[2,4,6,8,10,12,14,-1,-1,-1,-1,-1,-1,-1,-1],"split_conditions":[7.320291E1,9.14445E-1,4.6239626E-3,6.260617E1,6.421147E1,-3.3497177E-3,4.042171E-2,1.9266983E-5,-1.7926797E-4,-2.624997E-4,1.9687535E-4,-6.025907E-4,-2.114656E-4,1.5876051E-4,-1.5125038E-4],"split_indices":[2,7,0,2,2,0,1,0,0,0,0,0,0,0,0],"split_type":[0,0,0,0,0,0,0,0,0,0,0,0,0,0,0],"sum_hessian":[4.66E2,4.52E2,1.4E1,3.95E2,5.7E1,6E0,8E0,3.35E2,6E1,1E1,4.7E1,2E0,4E0,4E0,4E0],"tree_param":{"num_deleted":"0","num_feature":"8","num_nodes":"15","size_leaf_vector":"1"}},{"base_weights":[-3.1774896E-5,-1.6719127E-3,2.4234233E-4,7.5933075E-4,-7.853966E-3,4.1776877E-3,-1.5724705E-4,7.368019E-4,8.057427E-6,-1.7503084E-3,-2.2003616E-4,-1.403068E-5,3.1644487E-4,-2.4370375E-4,9.451128E-6],"categories":[],"categories_nodes":[],"categories_segments":[],"categories_sizes":[],"default_left":[0,0,0,0,0,0,0,0,0,0,0,0,0,0,0],"id":98,"left_children":[1,3,5,7,9,11,13,-1,-1,-1,-1,-1,-1,-1,-1],"loss_changes":[2.1036371E-4,1.012979E-3,6.3123833E-4,4.0729556E-4,1.6274474E-3,3.5663327E-4,5.970737E-4,0E0,0E0,0E0,0E0,0E0,0E0,0E0,0E0],"parents":[2147483647,0,0,1,1,2,2,3,3,4,4,5,5,6,6],"right_children":[2,4,6,8,10,12,14,-1,-1,-1,-1,-1,-1,-1,-1],"split_conditions":[-3.2146564E-1,-5.142151E-1,-1.4971034E-2,9.502765E-3,-5.047987E-1,-3.2675713E-2,2.0464773E-1,7.368019E-4,8.057427E-6,-1.7503084E-3,-2.2003616E-4,-1.403068E-5,3.1644487E-4,-2.4370375E-4,9.451128E-6],"split_indices":[5,5,5,4,5,1,7,0,0,0,0,0,0,0,0],"split_type":[0,0,0,0,0,0,0,0,0,0,0,0,0,0,0],"sum_hessian":[4.66E2,6.6E1,4E2,4.8E1,1.8E1,3.6E1,3.64E2,1E0,4.7E1,1E0,1.7E1,1.2E1,2.4E1,2.4E1,3.4E2],"tree_param":{"num_deleted":"0","num_feature":"8","num_nodes":"15","size_leaf_vector":"1"}},{"base_weights":[-3.2664353E-5,4.1018907E-4,-8.573246E-5,-7.404384E-4,-2.2086337E-5,5.7331686E-6,-1.6154717E-4],"categories":[],"categories_nodes":[],"categories_segments":[],"categories_sizes":[],"default_left":[0,0,0,0,0,0,0],"id":99,"left_children":[1,-1,3,-1,5,-1,-1],"loss_changes":[2.048256E-4,0E0,4.354078E-4,0E0,2.0397842E-4,0E0,0E0],"parents":[2147483647,0,0,2,2,4,4],"right_children":[2,-1,4,-1,6,-1,-1],"split_conditions":[-1.4737594E-1,4.1018907E-4,-6.34329E-2,-7.404384E-4,7.256197E1,5.7331686E-6,-1.6154717E-4],"split_indices":[1,0,0,0,2,0,0],"split_type":[0,0,0,0,0,0,0],"sum_hessian":[4.66E2,2E0,4.64E2,1E0,4.63E2,4.45E2,1.8E1],"tree_param":{"num_deleted":"0","num_feature":"8","num_nodes":"7","size_leaf_vector":"1"}}]},"name":"gbtree"},"learner_model_param":{"base_score":"[1.1513846E-3]","boost_from_average":"1","num_class":"0","num_feature":"8","num_target":"1"},"objective":{"name":"reg:squarederror","reg_loss_param":{"scale_pos_weight":"1"}}},"version":[3,1,2]}