{"learner":{"attributes":{"scikit_learn":"{\"_estimator_type\": \"regressor\"}"},"feature_names":["Ret_1d","Ret_5d","RSI","Trend_Signal","Vol_20d","MACD","MACD_Diff","BB_Pos"],"feature_types":["float","float","float","int","float","float","float","float"],"gradient_booster":{"model":{"cats":{"enc":[],"feature_segments":[],"sorted_idx":[]},"gbtree_model_param":{"num_parallel_tree":"1","num_trees":"100"},"iteration_indptr":[0,1,2,3,4,5,6,7,8,9,10,11,12,13,14,15,16,17,18,19,20,21,22,23,24,25,26,27,28,29,30,31,32,33,34,35,36,37,38,39,40,41,42,43,44,45,46,47,48,49,50,51,52,53,54,55,56,57,58,59,60,61,62,63,64,65,66,67,68,69,70,71,72,73,74,75,76,77,78,79,80,81,82,83,84,85,86,87,88,89,90,91,92,93,94,95,96,97,98,99,100],"tree_info":[0,0,0,0,0,0,0,0,0,0,0,0,0,0,0,0,0,0,0,0,0,0,0,0,0,0,0,0,0,0,0,0,0,0,0,0,0,0,0,0,0,0,0,0,0,0,0,0,0,0,0,0,0,0,0,0,0,0,0,0,0,0,0,0,0,0,0,0,0,0,0,0,0,0,0,0,0,0,0,0,0,0,0,0,0,0,0,0,0,0,0,0,0,0,0,0,0,0,0,0],"trees":[{"base_weights":[-6.729092E-11,3.0848226E-2,-3.3313426E-4,1.7636361E-3,3.2875614E-4,-1.7253567E-2,-7.3230185E-5,-1.4423026E-3,-6.738453E-5,7.5261883E-6,-5.045042E-4],"categories":[],"categories_nodes":[],"categories_segments":[],"categories_sizes":[],"default_left":[0,0,0,0,0,0,0,0,0,0,0],"id":0,"left_children":[1,3,5,-1,-1,7,9,-1,-1,-1,-1],"loss_changes":[4.809448E-3,3.0505843E-4,2.0348667E-3,0E0,0E0,1.2518447E-3,1.0257976E-3,0E0,0E0,0E0,0E0],"parents":[2147483647,0,0,1,1,2,2,5,5,6,6],"right_children":[2,4,6,-1,-1,8,10,-1,-1,-1,-1],"split_conditions":[-4.4419694E0,-1.2161046E-2,-2.9289078E-2,1.7636361E-3,3.2875614E-4,1E0,2.8091239E-2,-1.4423026E-3,-6.738453E-5,7.5261883E-6,-5.045042E-4],"split_indices":[5,0,0,0,0,3,0,0,0,0,0],"split_type":[0,0,0,0,0,0,0,0,0,0,0],"sum_hessian":[4.66E2,4E0,4.62E2,3E0,1E0,6E0,4.56E2,3E0,3E0,4.47E2,9E0],"tree_param":{"num_deleted":"0","num_feature":"8","num_nodes":"11","size_leaf_vector":"1"}},{"base_weights":[1.8356435E-7,2.9724292E-2,-3.2081152E-4,2.1720745E-3,7.717311E-4,-1.6606558E-2,-7.0656104E-5,-1.3882163E-3,-6.485761E-5,7.150721E-6,-4.818015E-4],"categories":[],"categories_nodes":[],"categories_segments":[],"categories_sizes":[],"default_left":[0,0,0,0,0,0,0,0,0,0,0],"id":1,"left_children":[1,3,5,-1,-1,7,9,-1,-1,-1,-1],"loss_changes":[4.46532E-3,3.0956836E-4,1.8850738E-3,0E0,0E0,1.1597169E-3,9.354123E-4,0E0,0E0,0E0,0E0],"parents":[2147483647,0,0,1,1,2,2,5,5,6,6],"right_children":[2,4,6,-1,-1,8,10,-1,-1,-1,-1],"split_conditions":[-4.4419694E0,-9.1993876E-2,-2.9289078E-2,2.1720745E-3,7.717311E-4,1E0,2.8091239E-2,-1.3882163E-3,-6.485761E-5,7.150721E-6,-4.818015E-4],"split_indices":[5,1,0,0,0,3,0,0,0,0,0],"split_type":[0,0,0,0,0,0,0,0,0,0,0],"sum_hessian":[4.66E2,4E0,4.62E2,1E0,3E0,6E0,4.56E2,3E0,3E0,4.47E2,9E0],"tree_param":{"num_deleted":"0","num_feature":"8","num_nodes":"11","size_leaf_vector":"1"}},{"base_weights":[2.350104E-6,2.882684E-2,-3.0893454E-4,2.1177726E-3,7.4279116E-4,-1.5983813E-2,-6.8161964E-5,-3.21986E-4,-1.8312092E-3,-1.51929535E-5,4.0025875E-4],"categories":[],"categories_nodes":[],"categories_segments":[],"categories_sizes":[],"default_left":[0,0,0,0,0,0,0,0,0,0,0],"id":2,"left_children":[1,3,5,-1,-1,7,9,-1,-1,-1,-1],"loss_changes":[4.1991193E-3,3.1581754E-4,1.74631E-3,0E0,0E0,1.1431056E-3,8.7204046E-4,0E0,0E0,0E0,0E0],"parents":[2147483647,0,0,1,1,2,2,5,5,6,6],"right_children":[2,4,6,-1,-1,8,10,-1,-1,-1,-1],"split_conditions":[-4.4419694E0,-9.1993876E-2,-2.9289078E-2,2.1177726E-3,7.4279116E-4,-4.5202628E-2,3.2018214E-2,-3.21986E-4,-1.8312092E-3,-1.51929535E-5,4.0025875E-4],"split_indices":[5,1,0,0,0,1,4,0,0,0,0],"split_type":[0,0,0,0,0,0,0,0,0,0,0],"sum_hessian":[4.66E2,4E0,4.62E2,1E0,3E0,6E0,4.56E2,5E0,1E0,4.44E2,1.2E1],"tree_param":{"num_deleted":"0","num_feature":"8","num_nodes":"11","size_leaf_vector":"1"}},{"base_weights":[4.5718457E-6,2.7957609E-2,-2.973067E-4,2.0648283E-3,7.1493647E-4,-1.549222E-2,-6.3911284E-5,-3.085699E-4,-1.7854288E-3,7.0418914E-6,-4.6151402E-4],"categories":[],"categories_nodes":[],"categories_segments":[],"categories_sizes":[],"default_left":[0,0,0,0,0,0,0,0,0,0,0],"id":3,"left_children":[1,3,5,-1,-1,7,9,-1,-1,-1,-1],"loss_changes":[3.949055E-3,3.2048766E-4,1.6410038E-3,0E0,0E0,1.0986596E-3,8.5900025E-4,0E0,0E0,0E0,0E0],"parents":[2147483647,0,0,1,1,2,2,5,5,6,6],"right_children":[2,4,6,-1,-1,8,10,-1,-1,-1,-1],"split_conditions":[-4.4419694E0,-9.1993876E-2,-2.9289078E-2,2.0648283E-3,7.1493647E-4,-4.5202628E-2,2.8091239E-2,-3.085699E-4,-1.7854288E-3,7.0418914E-6,-4.6151402E-4],"split_indices":[5,1,0,0,0,1,0,0,0,0,0],"split_type":[0,0,0,0,0,0,0,0,0,0,0],"sum_hessian":[4.66E2,4E0,4.62E2,1E0,3E0,6E0,4.56E2,5E0,1E0,4.47E2,9E0],"tree_param":{"num_deleted":"0","num_feature":"8","num_nodes":"11","size_leaf_vector":"1"}},{"base_weights":[4.8386732E-6,2.7115684E-2,-2.8794547E-4,2.0132076E-3,6.881264E-4,-1.5016752E-2,-6.1710045E-5,-2.9571282E-4,-1.7407931E-3,-1.4365137E-5,3.832624E-4],"categories":[],"categories_nodes":[],"categories_segments":[],"categories_sizes":[],"default_left":[0,0,0,0,0,0,0,0,0,0,0],"id":4,"left_children":[1,3,5,-1,-1,7,9,-1,-1,-1,-1],"loss_changes":[3.714679E-3,3.2373145E-4,1.5418717E-3,0E0,0E0,1.0556391E-3,7.9881964E-4,0E0,0E0,0E0,0E0],"parents":[2147483647,0,0,1,1,2,2,5,5,6,6],"right_children":[2,4,6,-1,-1,8,10,-1,-1,-1,-1],"split_conditions":[-4.4419694E0,-9.1993876E-2,-2.9289078E-2,2.0132076E-3,6.881264E-4,-4.5202628E-2,3.2018214E-2,-2.9571282E-4,-1.7407931E-3,-1.4365137E-5,3.832624E-4],"split_indices":[5,1,0,0,0,1,4,0,0,0,0],"split_type":[0,0,0,0,0,0,0,0,0,0,0],"sum_hessian":[4.66E2,4E0,4.62E2,1E0,3E0,6E0,4.56E2,5E0,1E0,4.44E2,1.2E1],"tree_param":{"num_deleted":"0","num_feature":"8","num_nodes":"11","size_leaf_vector":"1"}},{"base_weights":[6.810134E-6,2.6300166E-2,-2.771501E-4,1.9628776E-3,6.6232163E-4,-1.4556844E-2,-5.781748E-5,-2.8339145E-4,-1.6972733E-3,6.919077E-6,-4.4208762E-4],"categories":[],"categories_nodes":[],"categories_segments":[],"categories_sizes":[],"default_left":[0,0,0,0,0,0,0,0,0,0,0],"id":5,"left_children":[1,3,5,-1,-1,7,9,-1,-1,-1,-1],"loss_changes":[3.494036E-3,3.2568863E-4,1.4492756E-3,0E0,0E0,1.0140234E-3,7.8881707E-4,0E0,0E0,0E0,0E0],"parents":[2147483647,0,0,1,1,2,2,5,5,6,6],"right_children":[2,4,6,-1,-1,8,10,-1,-1,-1,-1],"split_conditions":[-4.4419694E0,-9.1993876E-2,-2.9289078E-2,1.9628776E-3,6.6232163E-4,-4.5202628E-2,2.8091239E-2,-2.8339145E-4,-1.6972733E-3,6.919077E-6,-4.4208762E-4],"split_indices":[5,1,0,0,0,1,0,0,0,0,0],"split_type":[0,0,0,0,0,0,0,0,0,0,0],"sum_hessian":[4.66E2,4E0,4.62E2,1E0,3E0,6E0,4.56E2,5E0,1E0,4.47E2,9E0],"tree_param":{"num_deleted":"0","num_feature":"8","num_nodes":"11","size_leaf_vector":"1"}},{"base_weights":[6.9179373E-6,2.5510198E-2,-2.685104E-4,1.9138055E-3,6.374846E-4,-1.4111954E-2,-5.587884E-5,-1.2177328E-3,-1.7063187E-5,5.9242164E-5,-6.989303E-5],"categories":[],"categories_nodes":[],"categories_segments":[],"categories_sizes":[],"default_left":[0,0,0,0,0,0,0,0,0,0,0],"id":6,"left_children":[1,3,5,-1,-1,7,9,-1,-1,-1,-1],"loss_changes":[3.2872097E-3,3.264891E-4,1.3620764E-3,0E0,0E0,9.790323E-4,7.625733E-4,0E0,0E0,0E0,0E0],"parents":[2147483647,0,0,1,1,2,2,5,5,6,6],"right_children":[2,4,6,-1,-1,8,10,-1,-1,-1,-1],"split_conditions":[-4.4419694E0,-9.1993876E-2,-2.9289078E-2,1.9138055E-3,6.374846E-4,1E0,5.172744E-1,-1.2177328E-3,-1.7063187E-5,5.9242164E-5,-6.989303E-5],"split_indices":[5,1,0,0,0,3,7,0,0,0,0],"split_type":[0,0,0,0,0,0,0,0,0,0,0],"sum_hessian":[4.66E2,4E0,4.62E2,1E0,3E0,6E0,4.56E2,3E0,3E0,2.37E2,2.19E2],"tree_param":{"num_deleted":"0","num_feature":"8","num_nodes":"11","size_leaf_vector":"1"}},{"base_weights":[9.3683375E-6,2.4744945E-2,-2.5777475E-4,1.8659603E-3,6.135789E-4,-1.3582756E-2,-5.310813E-5,-2.5086134E-4,-1.6243983E-3,-1.3440476E-5,3.6673012E-4],"categories":[],"categories_nodes":[],"categories_segments":[],"categories_sizes":[],"default_left":[0,0,0,0,0,0,0,0,0,0,0],"id":7,"left_children":[1,3,5,-1,-1,7,9,-1,-1,-1,-1],"loss_changes":[3.0922857E-3,3.2625115E-4,1.2619625E-3,0E0,0E0,9.7053254E-4,7.302191E-4,0E0,0E0,0E0,0E0],"parents":[2147483647,0,0,1,1,2,2,5,5,6,6],"right_children":[2,4,6,-1,-1,8,10,-1,-1,-1,-1],"split_conditions":[-4.4419694E0,-9.1993876E-2,-2.9289078E-2,1.8659603E-3,6.135789E-4,-4.5202628E-2,3.2018214E-2,-2.5086134E-4,-1.6243983E-3,-1.3440476E-5,3.6673012E-4],"split_indices":[5,1,0,0,0,1,4,0,0,0,0],"split_type":[0,0,0,0,0,0,0,0,0,0,0],"sum_hessian":[4.66E2,4E0,4.62E2,1E0,3E0,6E0,4.56E2,5E0,1E0,4.44E2,1.2E1],"tree_param":{"num_deleted":"0","num_feature":"8","num_nodes":"11","size_leaf_vector":"1"}},{"base_weights":[1.09503835E-5,2.4003604E-2,-2.4817322E-4,1.8193113E-3,5.9056975E-4,-1.3171512E-2,-4.9679682E-5,-2.404088E-4,-1.5837882E-3,6.8632157E-6,-4.2099017E-4],"categories":[],"categories_nodes":[],"categories_segments":[],"categories_sizes":[],"default_left":[0,0,0,0,0,0,0,0,0,0,0],"id":8,"left_children":[1,3,5,-1,-1,7,9,-1,-1,-1,-1],"loss_changes":[2.9093253E-3,3.250856E-4,1.1870329E-3,0E0,0E0,9.3099824E-4,7.1624387E-4,0E0,0E0,0E0,0E0],"parents":[2147483647,0,0,1,1,2,2,5,5,6,6],"right_children":[2,4,6,-1,-1,8,10,-1,-1,-1,-1],"split_conditions":[-4.4419694E0,-9.1993876E-2,-2.9289078E-2,1.8193113E-3,5.9056975E-4,-4.5202628E-2,2.8091239E-2,-2.404088E-4,-1.5837882E-3,6.8632157E-6,-4.2099017E-4],"split_indices":[5,1,0,0,0,1,0,0,0,0,0],"split_type":[0,0,0,0,0,0,0,0,0,0,0],"sum_hessian":[4.66E2,4E0,4.62E2,1E0,3E0,6E0,4.56E2,5E0,1E0,4.47E2,9E0],"tree_param":{"num_deleted":"0","num_feature":"8","num_nodes":"11","size_leaf_vector":"1"}},{"base_weights":[1.077037E-5,2.32854E-2,-2.4059879E-4,1.7738285E-3,5.6842336E-4,-1.2773536E-2,-4.810173E-5,-2.3039174E-4,-1.5441936E-3,5.6150806E-5,-6.5740984E-5],"categories":[],"categories_nodes":[],"categories_segments":[],"categories_sizes":[],"default_left":[0,0,0,0,0,0,0,0,0,0,0],"id":9,"left_children":[1,3,5,-1,-1,7,9,-1,-1,-1,-1],"loss_changes":[2.7377973E-3,3.2309256E-4,1.1163978E-3,0E0,0E0,8.9287746E-4,6.794251E-4,0E0,0E0,0E0,0E0],"parents":[2147483647,0,0,1,1,2,2,5,5,6,6],"right_children":[2,4,6,-1,-1,8,10,-1,-1,-1,-1],"split_conditions":[-4.4419694E0,-9.1993876E-2,-2.9289078E-2,1.7738285E-3,5.6842336E-4,-4.5202628E-2,5.172744E-1,-2.3039174E-4,-1.5441936E-3,5.6150806E-5,-6.5740984E-5],"split_indices":[5,1,0,0,0,1,7,0,0,0,0],"split_type":[0,0,0,0,0,0,0,0,0,0,0],"sum_hessian":[4.66E2,4E0,4.62E2,1E0,3E0,6E0,4.56E2,5E0,1E0,2.37E2,2.19E2],"tree_param":{"num_deleted":"0","num_feature":"8","num_nodes":"11","size_leaf_vector":"1"}},{"base_weights":[1.142669E-5,2.2589581E-2,-2.3242255E-4,1.7294828E-3,5.471075E-4,-1.2388372E-2,-4.5717818E-5,-2.2079209E-4,-1.5055888E-3,-1.2598119E-5,3.508854E-4],"categories":[],"categories_nodes":[],"categories_segments":[],"categories_sizes":[],"default_left":[0,0,0,0,0,0,0,0,0,0,0],"id":10,"left_children":[1,3,5,-1,-1,7,9,-1,-1,-1,-1],"loss_changes":[2.5763963E-3,3.2036495E-4,1.0502461E-3,0E0,0E0,8.5613364E-4,6.675226E-4,0E0,0E0,0E0,0E0],"parents":[2147483647,0,0,1,1,2,2,5,5,6,6],"right_children":[2,4,6,-1,-1,8,10,-1,-1,-1,-1],"split_conditions":[-4.4419694E0,-9.1993876E-2,-2.9289078E-2,1.7294828E-3,5.471075E-4,-4.5202628E-2,3.2018214E-2,-2.2079209E-4,-1.5055888E-3,-1.2598119E-5,3.508854E-4],"split_indices":[5,1,0,0,0,1,4,0,0,0,0],"split_type":[0,0,0,0,0,0,0,0,0,0,0],"sum_hessian":[4.66E2,4E0,4.62E2,1E0,3E0,6E0,4.56E2,5E0,1E0,4.44E2,1.2E1],"tree_param":{"num_deleted":"0","num_feature":"8","num_nodes":"11","size_leaf_vector":"1"}},{"base_weights":[1.2757968E-5,2.191542E-2,-2.2379942E-4,1.6862458E-3,1.05318185E-2,-1.2015578E-2,-4.269165E-5,5.97381E-4,1.5711047E-4,-1.0702818E-3,1.891871E-5,6.77225E-6,-4.0094723E-4],"categories":[],"categories_nodes":[],"categories_segments":[],"categories_sizes":[],"default_left":[0,0,0,0,0,0,0,0,0,0,0,0,0],"id":11,"left_children":[1,3,5,-1,7,9,11,-1,-1,-1,-1,-1,-1],"loss_changes":[2.4245426E-3,3.1698798E-4,9.882619E-4,0E0,4.3069012E-6,8.227589E-4,6.504205E-4,0E0,0E0,0E0,0E0,0E0,0E0],"parents":[2147483647,0,0,1,1,2,2,4,4,5,5,6,6],"right_children":[2,4,6,-1,8,10,12,-1,-1,-1,-1,-1,-1],"split_conditions":[-4.4419694E0,-9.1993876E-2,-2.9289078E-2,1.6862458E-3,-1.2161046E-2,1E0,2.8091239E-2,5.97381E-4,1.5711047E-4,-1.0702818E-3,1.891871E-5,6.77225E-6,-4.0094723E-4],"split_indices":[5,1,0,0,0,3,0,0,0,0,0,0,0],"split_type":[0,0,0,0,0,0,0,0,0,0,0,0,0],"sum_hessian":[4.66E2,4E0,4.62E2,1E0,3E0,6E0,4.56E2,2E0,1E0,3E0,3E0,4.47E2,9E0],"tree_param":{"num_deleted":"0","num_feature":"8","num_nodes":"13","size_leaf_vector":"1"}},{"base_weights":[1.4251221E-5,2.1307798E-2,-2.1573146E-4,1.6440897E-3,1.0193851E-2,-1.1564994E-2,-4.1419495E-5,5.7746825E-4,1.531827E-4,-1.9422737E-4,-1.4411919E-3,-1.1940982E-5,3.359463E-4],"categories":[],"categories_nodes":[],"categories_segments":[],"categories_sizes":[],"default_left":[0,0,0,0,0,0,0,0,0,0,0,0,0],"id":12,"left_children":[1,3,5,-1,7,9,11,-1,-1,-1,-1,-1,-1],"loss_changes":[2.2915646E-3,3.079716E-4,9.1547956E-4,0E0,3.277033E-6,8.1592175E-4,6.1146804E-4,0E0,0E0,0E0,0E0,0E0,0E0],"parents":[2147483647,0,0,1,1,2,2,4,4,5,5,6,6],"right_children":[2,4,6,-1,8,10,12,-1,-1,-1,-1,-1,-1],"split_conditions":[-4.4419694E0,-9.1993876E-2,-2.9289078E-2,1.6440897E-3,-1.2161046E-2,-4.5202628E-2,3.2018214E-2,5.7746825E-4,1.531827E-4,-1.9422737E-4,-1.4411919E-3,-1.1940982E-5,3.359463E-4],"split_indices":[5,1,0,0,0,1,4,0,0,0,0,0,0],"split_type":[0,0,0,0,0,0,0,0,0,0,0,0,0],"sum_hessian":[4.66E2,4E0,4.62E2,1E0,3E0,6E0,4.56E2,2E0,1E0,5E0,1E0,4.44E2,1.2E1],"tree_param":{"num_deleted":"0","num_feature":"8","num_nodes":"13","size_leaf_vector":"1"}},{"base_weights":[1.5815522E-5,2.0717356E-2,-2.0777738E-4,1.6029874E-3,9.866821E-3,-1.1220376E-2,-3.86396E-5,5.582193E-4,1.4935315E-4,-1.8613455E-4,-1.4051622E-3,5.3279186E-5,-6.165164E-5],"categories":[],"categories_nodes":[],"categories_segments":[],"categories_sizes":[],"default_left":[0,0,0,0,0,0,0,0,0,0,0,0,0],"id":13,"left_children":[1,3,5,-1,7,9,11,-1,-1,-1,-1,-1,-1],"loss_changes":[2.1659157E-3,2.990272E-4,8.619718E-4,0E0,2.359011E-6,7.8145723E-4,6.0404063E-4,0E0,0E0,0E0,0E0,0E0,0E0],"parents":[2147483647,0,0,1,1,2,2,4,4,5,5,6,6],"right_children":[2,4,6,-1,8,10,12,-1,-1,-1,-1,-1,-1],"split_conditions":[-4.4419694E0,-9.1993876E-2,-2.9289078E-2,1.6029874E-3,-1.2161046E-2,-4.5202628E-2,5.172744E-1,5.582193E-4,1.4935315E-4,-1.8613455E-4,-1.4051622E-3,5.3279186E-5,-6.165164E-5],"split_indices":[5,1,0,0,0,1,7,0,0,0,0,0,0],"split_type":[0,0,0,0,0,0,0,0,0,0,0,0,0],"sum_hessian":[4.66E2,4E0,4.62E2,1E0,3E0,6E0,4.56E2,2E0,1E0,5E0,1E0,2.37E2,2.19E2],"tree_param":{"num_deleted":"0","num_feature":"8","num_nodes":"13","size_leaf_vector":"1"}},{"base_weights":[1.6547014E-5,2.01436E-2,-2.0084351E-4,1.5629128E-3,9.550373E-3,-1.0886685E-2,-3.6725934E-5,5.3961197E-4,1.4561931E-4,-1.7837893E-4,-1.3700331E-3,6.6515236E-6,-3.81907E-4],"categories":[],"categories_nodes":[],"categories_segments":[],"categories_sizes":[],"default_left":[0,0,0,0,0,0,0,0,0,0,0,0,0],"id":14,"left_children":[1,3,5,-1,7,9,11,-1,-1,-1,-1,-1,-1],"loss_changes":[2.047372E-3,2.9017217E-4,8.1157923E-4,0E0,1.542794E-6,7.4831874E-4,5.907237E-4,0E0,0E0,0E0,0E0,0E0,0E0],"parents":[2147483647,0,0,1,1,2,2,4,4,5,5,6,6],"right_children":[2,4,6,-1,8,10,12,-1,-1,-1,-1,-1,-1],"split_conditions":[-4.4419694E0,-9.1993876E-2,-2.9289078E-2,1.5629128E-3,-1.2161046E-2,-4.5202628E-2,2.8091239E-2,5.3961197E-4,1.4561931E-4,-1.7837893E-4,-1.3700331E-3,6.6515236E-6,-3.81907E-4],"split_indices":[5,1,0,0,0,1,0,0,0,0,0,0,0],"split_type":[0,0,0,0,0,0,0,0,0,0,0,0,0],"sum_hessian":[4.66E2,4E0,4.62E2,1E0,3E0,6E0,4.56E2,2E0,1E0,5E0,1E0,4.47E2,9E0],"tree_param":{"num_deleted":"0","num_feature":"8","num_nodes":"13","size_leaf_vector":"1"}},{"base_weights":[1.6414495E-5,1.9586049E-2,-1.949561E-4,1.5238399E-3,4.6220815E-4,-1.0563552E-2,-3.571074E-5,-1.709465E-4,-1.3357822E-3,8.955253E-5,-3.6066234E-5],"categories":[],"categories_nodes":[],"categories_segments":[],"categories_sizes":[],"default_left":[0,0,0,0,0,0,0,0,0,0,0],"id":15,"left_children":[1,3,5,-1,-1,7,9,-1,-1,-1,-1],"loss_changes":[1.9355384E-3,2.8142193E-4,7.641056E-4,0E0,0E0,7.1646535E-4,5.736629E-4,0E0,0E0,0E0,0E0],"parents":[2147483647,0,0,1,1,2,2,5,5,6,6],"right_children":[2,4,6,-1,-1,8,10,-1,-1,-1,-1],"split_conditions":[-4.4419694E0,-9.1993876E-2,-2.9289078E-2,1.5238399E-3,4.6220815E-4,-4.5202628E-2,9.426176E-3,-1.709465E-4,-1.3357822E-3,8.955253E-5,-3.6066234E-5],"split_indices":[5,1,0,0,0,1,4,0,0,0,0],"split_type":[0,0,0,0,0,0,0,0,0,0,0],"sum_hessian":[4.66E2,4E0,4.62E2,1E0,3E0,6E0,4.56E2,5E0,1E0,1.24E2,3.32E2],"tree_param":{"num_deleted":"0","num_feature":"8","num_nodes":"11","size_leaf_vector":"1"}},{"base_weights":[1.6734637E-5,1.9003956E-2,-1.883471E-4,1.4857439E-3,8.897506E-3,-1.02506215E-2,-3.3808217E-5,5.06218E-4,1.3042362E-4,-9.42502E-4,4.5572546E-5,-1.1173244E-5,3.230443E-4],"categories":[],"categories_nodes":[],"categories_segments":[],"categories_sizes":[],"default_left":[0,0,0,0,0,0,0,0,0,0,0,0,0],"id":16,"left_children":[1,3,5,-1,7,9,11,-1,-1,-1,-1,-1,-1],"loss_changes":[1.8220459E-3,2.768587E-4,7.1962434E-4,0E0,4.4537883E-6,6.8909203E-4,5.6435907E-4,0E0,0E0,0E0,0E0,0E0,0E0],"parents":[2147483647,0,0,1,1,2,2,4,4,5,5,6,6],"right_children":[2,4,6,-1,8,10,12,-1,-1,-1,-1,-1,-1],"split_conditions":[-4.4419694E0,-9.1993876E-2,-2.9289078E-2,1.4857439E-3,-1.2161046E-2,1E0,3.2018214E-2,5.06218E-4,1.3042362E-4,-9.42502E-4,4.5572546E-5,-1.1173244E-5,3.230443E-4],"split_indices":[5,1,0,0,0,3,4,0,0,0,0,0,0],"split_type":[0,0,0,0,0,0,0,0,0,0,0,0,0],"sum_hessian":[4.66E2,4E0,4.62E2,1E0,3E0,6E0,4.56E2,2E0,1E0,3E0,3E0,4.44E2,1.2E1],"tree_param":{"num_deleted":"0","num_feature":"8","num_nodes":"13","size_leaf_vector":"1"}},{"base_weights":[1.918982E-5,2.394134E-2,-1.351879E-4,1.4486003E-3,3.470002E-4,-9.866224E-3,1.3510217E-5,-1.4925467E-4,-1.2788251E-3,-4.8917055E-4,8.243384E-6],"categories":[],"categories_nodes":[],"categories_segments":[],"categories_sizes":[],"default_left":[0,0,0,0,0,0,0,0,0,0,0],"id":17,"left_children":[1,3,5,-1,-1,7,9,-1,-1,-1,-1],"loss_changes":[1.7278895E-3,5.5518234E-5,6.72982E-4,0E0,0E0,6.803831E-4,6.8223523E-4,0E0,0E0,0E0,0E0],"parents":[2147483647,0,0,1,1,2,2,5,5,6,6],"right_children":[2,4,6,-1,-1,8,10,-1,-1,-1,-1],"split_conditions":[-2.1615424E0,-2.4459798E-2,-2.9289078E-2,1.4486003E-3,3.470002E-4,-4.5202628E-2,-1.9261413E0,-1.4925467E-4,-1.2788251E-3,-4.8917055E-4,8.243384E-6],"split_indices":[6,0,0,0,0,1,6,0,0,0,0],"split_type":[0,0,0,0,0,0,0,0,0,0,0],"sum_hessian":[4.66E2,2E0,4.64E2,1E0,1E0,6E0,4.58E2,5E0,1E0,6E0,4.52E2],"tree_param":{"num_deleted":"0","num_feature":"8","num_nodes":"11","size_leaf_vector":"1"}},{"base_weights":[1.798751E-5,1.8183568E-2,-1.7822393E-4,1.4123853E-3,8.605609E-3,-9.576923E-3,-3.3871365E-5,4.890693E-4,1.2695696E-4,-1.4303571E-4,-1.2468545E-3,5.0852163E-5,-5.8530797E-5],"categories":[],"categories_nodes":[],"categories_segments":[],"categories_sizes":[],"default_left":[0,0,0,0,0,0,0,0,0,0,0,0,0],"id":18,"left_children":[1,3,5,-1,7,9,11,-1,-1,-1,-1,-1,-1],"loss_changes":[1.6677665E-3,2.3888075E-4,6.278399E-4,0E0,3.694964E-6,6.507968E-4,5.471326E-4,0E0,0E0,0E0,0E0,0E0,0E0],"parents":[2147483647,0,0,1,1,2,2,4,4,5,5,6,6],"right_children":[2,4,6,-1,8,10,12,-1,-1,-1,-1,-1,-1],"split_conditions":[-4.4419694E0,-9.1993876E-2,-2.9289078E-2,1.4123853E-3,-1.2161046E-2,-4.5202628E-2,5.172744E-1,4.890693E-4,1.2695696E-4,-1.4303571E-4,-1.2468545E-3,5.0852163E-5,-5.8530797E-5],"split_indices":[5,1,0,0,0,1,7,0,0,0,0,0,0],"split_type":[0,0,0,0,0,0,0,0,0,0,0,0,0],"sum_hessian":[4.66E2,4E0,4.62E2,1E0,3E0,6E0,4.56E2,2E0,1E0,5E0,1E0,2.37E2,2.19E2],"tree_param":{"num_deleted":"0","num_feature":"8","num_nodes":"13","size_leaf_vector":"1"}},{"base_weights":[1.843896E-5,1.7680073E-2,-1.7233126E-4,1.3770757E-3,8.329336E-3,1.7124297E-3,-8.6679374E-4,4.7276702E-4,1.2378304E-4,2.2728117E-4,-1.0484369E-4,-2.8284856E-7,-2.7057886E-4],"categories":[],"categories_nodes":[],"categories_segments":[],"categories_sizes":[],"default_left":[0,0,0,0,0,0,0,0,0,0,0,0,0],"id":19,"left_children":[1,3,5,-1,7,9,11,-1,-1,-1,-1,-1,-1],"loss_changes":[1.5765164E-3,2.3165613E-4,6.0750305E-4,0E0,2.9568619E-6,1.3585933E-3,1.3267071E-3,0E0,0E0,0E0,0E0,0E0,0E0],"parents":[2147483647,0,0,1,1,2,2,4,4,5,5,6,6],"right_children":[2,4,6,-1,8,10,12,-1,-1,-1,-1,-1,-1],"split_conditions":[-4.4419694E0,-9.1993876E-2,9.426176E-3,1.3770757E-3,-1.2161046E-2,1.6640295E-1,1.1250261E-2,4.7276702E-4,1.2378304E-4,2.2728117E-4,-1.0484369E-4,-2.8284856E-7,-2.7057886E-4],"split_indices":[5,1,4,0,0,6,0,0,0,0,0,0,0],"split_type":[0,0,0,0,0,0,0,0,0,0,0,0,0],"sum_hessian":[4.66E2,4E0,4.62E2,1E0,3E0,1.24E2,3.38E2,2E0,1E0,7.1E1,5.3E1,2.85E2,5.3E1],"tree_param":{"num_deleted":"0","num_feature":"8","num_nodes":"13","size_leaf_vector":"1"}},{"base_weights":[2.1425323E-5,2.2396129E-2,-1.2297368E-4,1.3426488E-3,3.3706098E-4,-9.330239E-3,1.7710052E-5,-6.849409E-4,5.304014E-5,-4.6481952E-4,8.079874E-6],"categories":[],"categories_nodes":[],"categories_segments":[],"categories_sizes":[],"default_left":[0,0,0,0,0,0,0,0,0,0,0],"id":20,"left_children":[1,3,5,-1,-1,7,9,-1,-1,-1,-1],"loss_changes":[1.5115774E-3,2.8292881E-5,6.0248555E-4,0E0,0E0,3.322903E-4,6.1664573E-4,0E0,0E0,0E0,0E0],"parents":[2147483647,0,0,1,1,2,2,5,5,6,6],"right_children":[2,4,6,-1,-1,8,10,-1,-1,-1,-1],"split_conditions":[-2.1615424E0,-2.4459798E-2,-1.9261413E0,1.3426488E-3,3.3706098E-4,-1.6349678E0,-2.9289078E-2,-6.849409E-4,5.304014E-5,-4.6481952E-4,8.079874E-6],"split_indices":[6,0,6,0,0,5,0,0,0,0,0],"split_type":[0,0,0,0,0,0,0,0,0,0,0],"sum_hessian":[4.66E2,2E0,4.64E2,1E0,1E0,6E0,4.58E2,4E0,2E0,6E0,4.52E2],"tree_param":{"num_deleted":"0","num_feature":"8","num_nodes":"11","size_leaf_vector":"1"}},{"base_weights":[2.161978E-5,1.6917417E-2,-1.6088692E-4,1.3090825E-3,8.055946E-3,-5.6422496E-4,2.8414065E-3,4.5673875E-4,1.2048646E-4,4.2083437E-5,-1.2434783E-4,2.957173E-4,-1.6461429E-4],"categories":[],"categories_nodes":[],"categories_segments":[],"categories_sizes":[],"default_left":[0,0,0,0,0,0,0,0,0,0,0,0,0],"id":21,"left_children":[1,3,5,-1,7,9,11,-1,-1,-1,-1,-1,-1],"loss_changes":[1.4427613E-3,1.9955565E-4,5.62268E-4,0E0,2.3528992E-6,1.1076842E-3,1.0561373E-3,0E0,0E0,0E0,0E0,0E0,0E0],"parents":[2147483647,0,0,1,1,2,2,4,4,5,5,6,6],"right_children":[2,4,6,-1,8,10,12,-1,-1,-1,-1,-1,-1],"split_conditions":[-4.4419694E0,-9.1993876E-2,3.0925319E-2,1.3090825E-3,-1.2161046E-2,5.172744E-1,1.30131E0,4.5673875E-4,1.2048646E-4,4.2083437E-5,-1.2434783E-4,2.957173E-4,-1.6461429E-4],"split_indices":[5,1,1,0,0,7,6,0,0,0,0,0,0],"split_type":[0,0,0,0,0,0,0,0,0,0,0,0,0],"sum_hessian":[4.66E2,4E0,4.62E2,1E0,3E0,4.08E2,5.4E1,2E0,1E0,2.36E2,1.72E2,3.6E1,1.8E1],"tree_param":{"num_deleted":"0","num_feature":"8","num_nodes":"13","size_leaf_vector":"1"}},{"base_weights":[2.4682562E-5,2.1385837E-2,-1.1318442E-4,1.2763555E-3,3.2758235E-4,-8.99007E-3,2.2439512E-5,-6.5922656E-4,4.9869355E-5,-4.4670227E-4,8.03952E-6],"categories":[],"categories_nodes":[],"categories_segments":[],"categories_sizes":[],"default_left":[0,0,0,0,0,0,0,0,0,0,0],"id":22,"left_children":[1,3,5,-1,-1,7,9,-1,-1,-1,-1],"loss_changes":[1.3777346E-3,1.7052516E-5,5.600237E-4,0E0,0E0,3.0639407E-4,5.702006E-4,0E0,0E0,0E0,0E0],"parents":[2147483647,0,0,1,1,2,2,5,5,6,6],"right_children":[2,4,6,-1,-1,8,10,-1,-1,-1,-1],"split_conditions":[-2.1615424E0,-2.4459798E-2,-1.9261413E0,1.2763555E-3,3.2758235E-4,-1.6349678E0,-2.9289078E-2,-6.5922656E-4,4.9869355E-5,-4.4670227E-4,8.03952E-6],"split_indices":[6,0,6,0,0,5,0,0,0,0,0],"split_type":[0,0,0,0,0,0,0,0,0,0,0],"sum_hessian":[4.66E2,2E0,4.64E2,1E0,1E0,6E0,4.58E2,4E0,2E0,6E0,4.52E2],"tree_param":{"num_deleted":"0","num_feature":"8","num_nodes":"11","size_leaf_vector":"1"}},{"base_weights":[2.4638834E-5,1.6188713E-2,-1.4997242E-4,1.2444466E-3,7.791425E-3,-3.3340565E-4,6.225286E-3,4.4124617E-4,1.17273325E-4,6.381634E-6,-2.8258492E-4,7.36437E-4,-3.075099E-4],"categories":[],"categories_nodes":[],"categories_segments":[],"categories_sizes":[],"default_left":[0,0,0,0,0,0,0,0,0,0,0,0,0],"id":23,"left_children":[1,3,5,-1,7,9,11,-1,-1,-1,-1,-1,-1],"loss_changes":[1.3205023E-3,1.7137092E-4,5.4352364E-4,0E0,1.8149876E-6,1.1065447E-3,1.4586312E-3,0E0,0E0,0E0,0E0,0E0,0E0],"parents":[2147483647,0,0,1,1,2,2,4,4,5,5,6,6],"right_children":[2,4,6,-1,8,10,12,-1,-1,-1,-1,-1,-1],"split_conditions":[-4.4419694E0,-9.1993876E-2,3.2018214E-2,1.2444466E-3,-1.2161046E-2,1.8992512E-2,7.607585E-3,4.4124617E-4,1.17273325E-4,6.381634E-6,-2.8258492E-4,7.36437E-4,-3.075099E-4],"split_indices":[5,1,4,0,0,4,0,0,0,0,0,0,0],"split_type":[0,0,0,0,0,0,0,0,0,0,0,0,0],"sum_hessian":[4.66E2,4E0,4.62E2,1E0,3E0,4.5E2,1.2E1,2E0,1E0,4.15E2,3.5E1,7E0,5E0],"tree_param":{"num_deleted":"0","num_feature":"8","num_nodes":"13","size_leaf_vector":"1"}},{"base_weights":[2.7594644E-5,2.0434247E-2,-1.04120525E-4,1.2133353E-3,3.1923325E-4,-8.550526E-3,2.4918596E-5,-6.273334E-4,4.7994323E-5,-4.2576736E-4,7.841619E-6],"categories":[],"categories_nodes":[],"categories_segments":[],"categories_sizes":[],"default_left":[0,0,0,0,0,0,0,0,0,0,0],"id":24,"left_children":[1,3,5,-1,-1,7,9,-1,-1,-1,-1],"loss_changes":[1.257361E-3,6.5984204E-6,5.070243E-4,0E0,0E0,2.7807814E-4,5.184351E-4,0E0,0E0,0E0,0E0],"parents":[2147483647,0,0,1,1,2,2,5,5,6,6],"right_children":[2,4,6,-1,-1,8,10,-1,-1,-1,-1],"split_conditions":[-2.1615424E0,-2.4459798E-2,-1.9261413E0,1.2133353E-3,3.1923325E-4,-1.6349678E0,-2.9289078E-2,-6.273334E-4,4.7994323E-5,-4.2576736E-4,7.841619E-6],"split_indices":[6,0,6,0,0,5,0,0,0,0,0],"split_type":[0,0,0,0,0,0,0,0,0,0,0],"sum_hessian":[4.66E2,2E0,4.64E2,1E0,1E0,6E0,4.58E2,4E0,2E0,6E0,4.52E2],"tree_param":{"num_deleted":"0","num_feature":"8","num_nodes":"11","size_leaf_vector":"1"}},{"base_weights":[2.7361175E-5,1.5492498E-2,-1.3970803E-4,1.183002E-3,7.535603E-3,1.6102113E-3,-7.845464E-4,4.2627656E-4,1.14145456E-4,2.1428708E-4,-9.934905E-5,1.1230052E-6,-2.5220818E-4],"categories":[],"categories_nodes":[],"categories_segments":[],"categories_sizes":[],"default_left":[0,0,0,0,0,0,0,0,0,0,0,0,0],"id":25,"left_children":[1,3,5,-1,7,9,11,-1,-1,-1,-1,-1,-1],"loss_changes":[1.2087749E-3,1.4664861E-4,5.2371953E-4,0E0,1.3361569E-6,1.2115653E-3,1.1654388E-3,0E0,0E0,0E0,0E0,0E0,0E0],"parents":[2147483647,0,0,1,1,2,2,4,4,5,5,6,6],"right_children":[2,4,6,-1,8,10,12,-1,-1,-1,-1,-1,-1],"split_conditions":[-4.4419694E0,-9.1993876E-2,9.426176E-3,1.183002E-3,-1.2161046E-2,1.6640295E-1,1.1250261E-2,4.2627656E-4,1.14145456E-4,2.1428708E-4,-9.934905E-5,1.1230052E-6,-2.5220818E-4],"split_indices":[5,1,4,0,0,6,0,0,0,0,0,0,0],"split_type":[0,0,0,0,0,0,0,0,0,0,0,0,0],"sum_hessian":[4.66E2,4E0,4.62E2,1E0,3E0,1.24E2,3.38E2,2E0,1E0,7.1E1,5.3E1,2.85E2,5.3E1],"tree_param":{"num_deleted":"0","num_feature":"8","num_nodes":"13","size_leaf_vector":"1"}},{"base_weights":[2.9392E-5,9.7643415E-4,-9.6473086E-5,-4.7978113E-4,2.7696374E-3,4.341236E-5,-1.1696564E-4,2.836274E-4,-1.5145849E-4],"categories":[],"categories_nodes":[],"categories_segments":[],"categories_sizes":[],"default_left":[0,0,0,0,0,0,0,0,0],"id":26,"left_children":[1,-1,3,5,7,-1,-1,-1,-1],"loss_changes":[1.1480328E-3,0E0,5.121793E-4,1.0322854E-3,9.4302115E-4,0E0,0E0,0E0,0E0],"parents":[2147483647,0,0,2,2,3,3,4,4],"right_children":[2,-1,4,6,8,-1,-1,-1,-1],"split_conditions":[-2.1615424E0,9.7643415E-4,3.0925319E-2,5.172744E-1,1.30131E0,4.341236E-5,-1.1696564E-4,2.836274E-4,-1.5145849E-4],"split_indices":[6,0,1,7,6,0,0,0,0],"split_type":[0,0,0,0,0,0,0,0,0],"sum_hessian":[4.66E2,2E0,4.64E2,4.1E2,5.4E1,2.38E2,1.72E2,3.6E1,1.8E1],"tree_param":{"num_deleted":"0","num_feature":"8","num_nodes":"9","size_leaf_vector":"1"}},{"base_weights":[3.013878E-5,1.4841223E-2,-1.2987322E-4,1.129016E-3,7.2613684E-3,-3.0682862E-4,6.0191075E-3,4.1062027E-4,1.102065E-4,6.1688925E-6,-2.63479E-4,7.028609E-4,-2.8507784E-4],"categories":[],"categories_nodes":[],"categories_segments":[],"categories_sizes":[],"default_left":[0,0,0,0,0,0,0,0,0,0,0,0,0],"id":27,"left_children":[1,3,5,-1,7,9,11,-1,-1,-1,-1,-1,-1],"loss_changes":[1.1086948E-3,1.2934208E-4,5.0563493E-4,0E0,1.1372467E-6,9.6353865E-4,1.3049039E-3,0E0,0E0,0E0,0E0,0E0,0E0],"parents":[2147483647,0,0,1,1,2,2,4,4,5,5,6,6],"right_children":[2,4,6,-1,8,10,12,-1,-1,-1,-1,-1,-1],"split_conditions":[-4.4419694E0,-9.1993876E-2,3.2018214E-2,1.129016E-3,-1.2161046E-2,1.8992512E-2,7.607585E-3,4.1062027E-4,1.102065E-4,6.1688925E-6,-2.63479E-4,7.028609E-4,-2.8507784E-4],"split_indices":[5,1,4,0,0,4,0,0,0,0,0,0,0],"split_type":[0,0,0,0,0,0,0,0,0,0,0,0,0],"sum_hessian":[4.66E2,4E0,4.62E2,1E0,3E0,4.5E2,1.2E1,2E0,1E0,4.15E2,3.5E1,7E0,5E0],"tree_param":{"num_deleted":"0","num_feature":"8","num_nodes":"13","size_leaf_vector":"1"}},{"base_weights":[3.2508295E-5,1.4429131E-2,-1.23033E-4,1.1007906E-3,3.5142535E-4,-4.962274E-4,2.6544135E-3,3.7802034E-5,-1.1044469E-4,2.7007447E-4,-1.4174308E-4],"categories":[],"categories_nodes":[],"categories_segments":[],"categories_sizes":[],"default_left":[0,0,0,0,0,0,0,0,0,0,0],"id":28,"left_children":[1,3,5,-1,-1,7,9,-1,-1,-1,-1],"loss_changes":[1.047514E-3,1.2599258E-4,4.8122945E-4,0E0,0E0,8.788595E-4,8.4468245E-4,0E0,0E0,0E0,0E0],"parents":[2147483647,0,0,1,1,2,2,5,5,6,6],"right_children":[2,4,6,-1,-1,8,10,-1,-1,-1,-1],"split_conditions":[-4.4419694E0,-9.1993876E-2,3.0925319E-2,1.1007906E-3,3.5142535E-4,5.172744E-1,1.30131E0,3.7802034E-5,-1.1044469E-4,2.7007447E-4,-1.4174308E-4],"split_indices":[5,1,1,0,0,7,6,0,0,0,0],"split_type":[0,0,0,0,0,0,0,0,0,0,0],"sum_hessian":[4.66E2,4E0,4.62E2,1E0,3E0,4.08E2,5.4E1,2.36E2,1.72E2,3.6E1,1.8E1],"tree_param":{"num_deleted":"0","num_feature":"8","num_nodes":"11","size_leaf_vector":"1"}},{"base_weights":[3.4111847E-5,1.81198E-2,-8.2643375E-5,1.0732709E-3,2.8571422E-4,1.1104463E-5,-1.0889858E-2,-2.1563335E-5,1.7536622E-4,-7.367346E-4,1.611609E-5],"categories":[],"categories_nodes":[],"categories_segments":[],"categories_sizes":[],"default_left":[0,0,0,0,0,0,0,0,0,0,0],"id":29,"left_children":[1,3,5,-1,-1,7,9,-1,-1,-1,-1],"loss_changes":[9.87614E-4,1.8528663E-6,4.7123706E-4,0E0,0E0,7.160542E-4,1.771852E-4,0E0,0E0,0E0,0E0],"parents":[2147483647,0,0,1,1,2,2,5,5,6,6],"right_children":[2,4,6,-1,-1,8,10,-1,-1,-1,-1],"split_conditions":[-2.1615424E0,-2.4459798E-2,8.6134724E-2,1.0732709E-3,2.8571422E-4,3.0925319E-2,6.510034E1,-2.1563335E-5,1.7536622E-4,-7.367346E-4,1.611609E-5],"split_indices":[6,0,1,0,0,1,2,0,0,0,0],"split_type":[0,0,0,0,0,0,0,0,0,0,0],"sum_hessian":[4.66E2,2E0,4.64E2,1E0,1E0,4.61E2,3E0,4.1E2,5.1E1,2E0,1E0],"tree_param":{"num_deleted":"0","num_feature":"8","num_nodes":"11","size_leaf_vector":"1"}},{"base_weights":[3.410254E-5,1.3796401E-2,-1.1459205E-4,8.1267266E-4,9.9204786E-5,-3.9267736E-3,1.5860016E-4,-7.823464E-5,-4.7634472E-4,1.14005255E-4,-2.5523797E-5],"categories":[],"categories_nodes":[],"categories_segments":[],"categories_sizes":[],"default_left":[0,0,0,0,0,0,0,0,0,0,0],"id":30,"left_children":[1,3,5,-1,-1,7,9,-1,-1,-1,-1],"loss_changes":[9.5724E-4,1.12868904E-4,4.8281797E-4,0E0,0E0,3.9515947E-4,6.15785E-4,0E0,0E0,0E0,0E0],"parents":[2147483647,0,0,1,1,2,2,5,5,6,6],"right_children":[2,4,6,-1,-1,8,10,-1,-1,-1,-1],"split_conditions":[-4.4419694E0,-1.2161046E-2,-1.3352921E0,8.1267266E-4,9.9204786E-5,1.6820822E-2,-1.7143257E0,-7.823464E-5,-4.7634472E-4,1.14005255E-4,-2.5523797E-5],"split_indices":[5,0,6,0,0,4,5,0,0,0,0],"split_type":[0,0,0,0,0,0,0,0,0,0,0],"sum_hessian":[4.66E2,4E0,4.62E2,3E0,1E0,3E1,4.32E2,2.2E1,8E0,1.03E2,3.29E2],"tree_param":{"num_deleted":"0","num_feature":"8","num_nodes":"11","size_leaf_vector":"1"}},{"base_weights":[3.3351982E-5,8.7109965E-4,-7.890452E-5,-8.147385E-3,4.4316097E-5,-8.043381E-5,-1.1844909E-3,-3.9664577E-4,8.374338E-6],"categories":[],"categories_nodes":[],"categories_segments":[],"categories_sizes":[],"default_left":[0,0,0,0,0,0,0,0,0],"id":31,"left_children":[1,-1,3,5,7,-1,-1,-1,-1],"loss_changes":[9.1295317E-4,0E0,4.6266554E-4,6.732828E-4,4.5232408E-4,0E0,0E0,0E0,0E0],"parents":[2147483647,0,0,2,2,3,3,4,4],"right_children":[2,-1,4,6,8,-1,-1,-1,-1],"split_conditions":[-2.1615424E0,8.7109965E-4,-2.9289078E-2,-4.5202628E-2,-1.9261413E0,-8.043381E-5,-1.1844909E-3,-3.9664577E-4,8.374338E-6],"split_indices":[6,0,0,1,6,0,0,0,0],"split_type":[0,0,0,0,0,0,0,0,0],"sum_hessian":[4.66E2,2E0,4.64E2,6E0,4.58E2,5E0,1E0,6E0,4.52E2],"tree_param":{"num_deleted":"0","num_feature":"8","num_nodes":"9","size_leaf_vector":"1"}},{"base_weights":[3.0009633E-5,1.3109712E-2,-1.1130467E-4,1.0043448E-3,3.1718463E-4,1.5413765E-3,-7.20372E-4,2.0276022E-4,-9.194692E-5,2.1862284E-6,-2.3769568E-4],"categories":[],"categories_nodes":[],"categories_segments":[],"categories_sizes":[],"default_left":[0,0,0,0,0,0,0,0,0,0,0],"id":32,"left_children":[1,3,5,-1,-1,7,9,-1,-1,-1,-1],"loss_changes":[8.646382E-4,1.0861369E-4,4.6716342E-4,0E0,0E0,1.0696485E-3,1.0450111E-3,0E0,0E0,0E0,0E0],"parents":[2147483647,0,0,1,1,2,2,5,5,6,6],"right_children":[2,4,6,-1,-1,8,10,-1,-1,-1,-1],"split_conditions":[-4.4419694E0,-9.1993876E-2,9.426176E-3,1.0043448E-3,3.1718463E-4,1.6640295E-1,1.1250261E-2,2.0276022E-4,-9.194692E-5,2.1862284E-6,-2.3769568E-4],"split_indices":[5,1,4,0,0,6,0,0,0,0,0],"split_type":[0,0,0,0,0,0,0,0,0,0,0],"sum_hessian":[4.66E2,4E0,4.62E2,1E0,3E0,1.24E2,3.38E2,7.1E1,5.3E1,2.85E2,5.3E1],"tree_param":{"num_deleted":"0","num_feature":"8","num_nodes":"11","size_leaf_vector":"1"}},{"base_weights":[3.107198E-5,1.650575E-2,-7.528308E-5,9.792362E-4,2.5869507E-4,6.051644E-4,-1.5403131E-4,-1.609869E-5,2.842065E-4],"categories":[],"categories_nodes":[],"categories_segments":[],"categories_sizes":[],"default_left":[0,0,0,0,0,0,0,0,0],"id":33,"left_children":[1,3,5,-1,-1,-1,7,-1,-1],"loss_changes":[8.1950385E-4,3.3419346E-6,4.4781825E-4,0E0,0E0,0E0,4.557902E-4,0E0,0E0],"parents":[2147483647,0,0,1,1,2,2,6,6],"right_children":[2,4,6,-1,-1,-1,8,-1,-1],"split_conditions":[-2.1615424E0,-2.4459798E-2,6.814263E-3,9.792362E-4,2.5869507E-4,6.051644E-4,3.2018214E-2,-1.609869E-5,2.842065E-4],"split_indices":[6,0,4,0,0,0,4,0,0],"split_type":[0,0,0,0,0,0,0,0,0],"sum_hessian":[4.66E2,2E0,4.64E2,1E0,1E0,2E0,4.62E2,4.5E2,1.2E1],"tree_param":{"num_deleted":"0","num_feature":"8","num_nodes":"9","size_leaf_vector":"1"}},{"base_weights":[3.403918E-5,1.2532344E-2,-1.0100524E-4,1.4775548E-2,8.898818E-5,-7.908794E-3,1.8809922E-5,9.5475523E-4,3.4853313E-4,-7.6502714E-5,-1.1545308E-3,-1.835158E-4,1.4329734E-5],"categories":[],"categories_nodes":[],"categories_segments":[],"categories_sizes":[],"default_left":[0,0,0,0,0,0,0,0,0,0,0,0,0],"id":34,"left_children":[1,3,5,7,-1,9,11,-1,-1,-1,-1,-1,-1],"loss_changes":[7.8948075E-4,9.430415E-5,4.332813E-4,1.7490238E-6,0E0,6.4255635E-4,4.5251838E-4,0E0,0E0,0E0,0E0,0E0,0E0],"parents":[2147483647,0,0,1,1,2,2,3,3,5,5,6,6],"right_children":[2,4,6,8,-1,10,12,-1,-1,-1,-1,-1,-1],"split_conditions":[-4.4419694E0,-1.2161046E-2,-2.9289078E-2,-9.1993876E-2,8.898818E-5,-4.5202628E-2,-1.3352921E0,9.5475523E-4,3.4853313E-4,-7.6502714E-5,-1.1545308E-3,-1.835158E-4,1.4329734E-5],"split_indices":[5,0,0,1,0,1,6,0,0,0,0,0,0],"split_type":[0,0,0,0,0,0,0,0,0,0,0,0,0],"sum_hessian":[4.66E2,4E0,4.62E2,3E0,1E0,6E0,4.56E2,1E0,2E0,5E0,1E0,3E1,4.26E2],"tree_param":{"num_deleted":"0","num_feature":"8","num_nodes":"13","size_leaf_vector":"1"}},{"base_weights":[3.2320204E-5,7.918013E-4,-6.9708694E-5,2.0123602E-5,-1.0427912E-2,-2.0062142E-5,1.675076E-4,-7.099465E-4,2.2128545E-5],"categories":[],"categories_nodes":[],"categories_segments":[],"categories_sizes":[],"default_left":[0,0,0,0,0,0,0,0,0],"id":35,"left_children":[1,-1,3,5,7,-1,-1,-1,-1],"loss_changes":[7.5411086E-4,0E0,4.328929E-4,6.4960524E-4,1.7025517E-4,0E0,0E0,0E0,0E0],"parents":[2147483647,0,0,2,2,3,3,4,4],"right_children":[2,-1,4,6,8,-1,-1,-1,-1],"split_conditions":[-2.1615424E0,7.918013E-4,8.6134724E-2,3.0925319E-2,6.510034E1,-2.0062142E-5,1.675076E-4,-7.099465E-4,2.2128545E-5],"split_indices":[6,0,1,1,2,0,0,0,0],"split_type":[0,0,0,0,0,0,0,0,0],"sum_hessian":[4.66E2,2E0,4.64E2,4.61E2,3E0,4.1E2,5.1E1,2E0,1E0],"tree_param":{"num_deleted":"0","num_feature":"8","num_nodes":"9","size_leaf_vector":"1"}},{"base_weights":[3.1242576E-5,1.2037859E-2,-9.8485994E-5,7.087337E-4,8.726504E-5,5.8518327E-4,-1.7507594E-4,-1.6718997E-5,2.6702532E-4],"categories":[],"categories_nodes":[],"categories_segments":[],"categories_sizes":[],"default_left":[0,0,0,0,0,0,0,0,0],"id":36,"left_children":[1,3,5,-1,-1,-1,7,-1,-1],"loss_changes":[7.2858535E-4,8.5227366E-5,4.2056688E-4,0E0,0E0,0E0,4.0684536E-4,0E0,0E0],"parents":[2147483647,0,0,1,1,2,2,6,6],"right_children":[2,4,6,-1,-1,-1,8,-1,-1],"split_conditions":[-4.4419694E0,-1.2161046E-2,6.814263E-3,7.087337E-4,8.726504E-5,5.8518327E-4,3.2018214E-2,-1.6718997E-5,2.6702532E-4],"split_indices":[5,0,4,0,0,0,4,0,0],"split_type":[0,0,0,0,0,0,0,0,0],"sum_hessian":[4.66E2,4E0,4.62E2,3E0,1E0,2E0,4.6E2,4.48E2,1.2E1],"tree_param":{"num_deleted":"0","num_feature":"8","num_nodes":"9","size_leaf_vector":"1"}},{"base_weights":[3.3174023E-5,1.5077487E-2,-6.39574E-5,8.93373E-4,2.3743855E-4,-7.6576895E-3,5.199049E-5,-7.178255E-5,-1.124748E-3,7.0315086E-6,-5.0329656E-4],"categories":[],"categories_nodes":[],"categories_segments":[],"categories_sizes":[],"default_left":[0,0,0,0,0,0,0,0,0,0,0],"id":37,"left_children":[1,3,5,-1,-1,7,9,-1,-1,-1,-1],"loss_changes":[6.8338006E-4,1.601933E-6,4.0982003E-4,0E0,0E0,6.1393157E-4,4.130694E-4,0E0,0E0,0E0,0E0],"parents":[2147483647,0,0,1,1,2,2,5,5,6,6],"right_children":[2,4,6,-1,-1,8,10,-1,-1,-1,-1],"split_conditions":[-2.1615424E0,-2.4459798E-2,-2.9289078E-2,8.93373E-4,2.3743855E-4,-4.5202628E-2,8.6134724E-2,-7.178255E-5,-1.124748E-3,7.0315086E-6,-5.0329656E-4],"split_indices":[6,0,0,0,0,1,1,0,0,0,0],"split_type":[0,0,0,0,0,0,0,0,0,0,0],"sum_hessian":[4.66E2,2E0,4.64E2,1E0,1E0,6E0,4.58E2,5E0,1E0,4.55E2,3E0],"tree_param":{"num_deleted":"0","num_feature":"8","num_nodes":"11","size_leaf_vector":"1"}},{"base_weights":[3.0311918E-5,1.1412273E-2,-9.2668895E-5,8.7103865E-4,2.7774772E-4,1.4618842E-3,-6.656084E-4,1.9222745E-4,-8.710369E-5,-8.3388406E-4,-2.3650375E-5],"categories":[],"categories_nodes":[],"categories_segments":[],"categories_sizes":[],"default_left":[0,0,0,0,0,0,0,0,0,0,0],"id":38,"left_children":[1,3,5,-1,-1,7,9,-1,-1,-1,-1],"loss_changes":[6.547468E-4,7.919688E-5,4.1335088E-4,0E0,0E0,9.609421E-4,1.0375668E-3,0E0,0E0,0E0,0E0],"parents":[2147483647,0,0,1,1,2,2,5,5,6,6],"right_children":[2,4,6,-1,-1,8,10,-1,-1,-1,-1],"split_conditions":[-4.4419694E0,-9.1993876E-2,9.426176E-3,8.7103865E-4,2.7774772E-4,1.6640295E-1,9.454982E-3,1.9222745E-4,-8.710369E-5,-8.3388406E-4,-2.3650375E-5],"split_indices":[5,1,4,0,0,6,4,0,0,0,0],"split_type":[0,0,0,0,0,0,0,0,0,0,0],"sum_hessian":[4.66E2,4E0,4.62E2,1E0,3E0,1.24E2,3.38E2,7.1E1,5.3E1,3E0,3.35E2],"tree_param":{"num_deleted":"0","num_feature":"8","num_nodes":"11","size_leaf_vector":"1"}},{"base_weights":[2.9645118E-5,7.209043E-4,-6.324729E-5,-7.425466E-3,4.9168353E-5,-6.7806184E-5,-1.096038E-3,-3.6547E-4,8.13842E-6],"categories":[],"categories_nodes":[],"categories_segments":[],"categories_sizes":[],"default_left":[0,0,0,0,0,0,0,0,0],"id":39,"left_children":[1,-1,3,5,7,-1,-1,-1,-1],"loss_changes":[6.250933E-4,0E0,3.852124E-4,5.861111E-4,3.848832E-4,0E0,0E0,0E0,0E0],"parents":[2147483647,0,0,2,2,3,3,4,4],"right_children":[2,-1,4,6,8,-1,-1,-1,-1],"split_conditions":[-2.1615424E0,7.209043E-4,-2.9289078E-2,-4.5202628E-2,-1.9261413E0,-6.7806184E-5,-1.096038E-3,-3.6547E-4,8.13842E-6],"split_indices":[6,0,0,1,6,0,0,0,0],"split_type":[0,0,0,0,0,0,0,0,0],"sum_hessian":[4.66E2,2E0,4.64E2,6E0,4.58E2,5E0,1E0,6E0,4.52E2],"tree_param":{"num_deleted":"0","num_feature":"8","num_nodes":"9","size_leaf_vector":"1"}},{"base_weights":[2.6449192E-5,1.0922353E-2,-9.1274276E-5,6.437668E-4,7.776048E-5,5.58764E-4,-1.6439441E-4,-2.4830812E-5,1.148518E-4],"categories":[],"categories_nodes":[],"categories_segments":[],"categories_sizes":[],"default_left":[0,0,0,0,0,0,0,0,0],"id":40,"left_children":[1,3,5,-1,-1,-1,7,-1,-1],"loss_changes":[6.0001947E-4,7.144548E-5,3.8326212E-4,0E0,0E0,0E0,3.7811924E-4,0E0,0E0],"parents":[2147483647,0,0,1,1,2,2,6,6],"right_children":[2,4,6,-1,-1,-1,8,-1,-1],"split_conditions":[-4.4419694E0,-1.2161046E-2,6.814263E-3,6.437668E-4,7.776048E-5,5.58764E-4,3.0925319E-2,-2.4830812E-5,1.148518E-4],"split_indices":[5,0,4,0,0,0,1,0,0],"split_type":[0,0,0,0,0,0,0,0,0],"sum_hessian":[4.66E2,4E0,4.62E2,3E0,1E0,2E0,4.6E2,4.06E2,5.4E1],"tree_param":{"num_deleted":"0","num_feature":"8","num_nodes":"9","size_leaf_vector":"1"}},{"base_weights":[2.8061015E-5,1.3731171E-2,-6.04065E-5,8.1514585E-4,2.1469202E-4,2.3729075E-5,-9.762963E-3,-3.3424396E-6,6.952213E-4,-6.722591E-4,3.209223E-5],"categories":[],"categories_nodes":[],"categories_segments":[],"categories_sizes":[],"default_left":[0,0,0,0,0,0,0,0,0,0,0],"id":41,"left_children":[1,3,5,-1,-1,7,9,-1,-1,-1,-1],"loss_changes":[5.6696427E-4,2.80916E-6,3.7982521E-4,0E0,0E0,5.8179465E-4,1.6188077E-4,0E0,0E0,0E0,0E0],"parents":[2147483647,0,0,1,1,2,2,5,5,6,6],"right_children":[2,4,6,-1,-1,8,10,-1,-1,-1,-1],"split_conditions":[-2.1615424E0,-2.4459798E-2,8.6134724E-2,8.1514585E-4,2.1469202E-4,7.8768164E-2,6.510034E1,-3.3424396E-6,6.952213E-4,-6.722591E-4,3.209223E-5],"split_indices":[6,0,1,0,0,1,2,0,0,0,0],"split_type":[0,0,0,0,0,0,0,0,0,0,0],"sum_hessian":[4.66E2,2E0,4.64E2,1E0,1E0,4.61E2,3E0,4.59E2,2E0,2E0,1E0],"tree_param":{"num_deleted":"0","num_feature":"8","num_nodes":"11","size_leaf_vector":"1"}},{"base_weights":[2.8973896E-5,1.3415922E-2,-5.745582E-5,7.947672E-4,2.1142697E-4,-7.1963086E-3,5.1540745E-5,-6.380703E-5,-1.0679329E-3,9.299856E-6,-3.0020752E-4],"categories":[],"categories_nodes":[],"categories_segments":[],"categories_sizes":[],"default_left":[0,0,0,0,0,0,0,0,0,0,0],"id":42,"left_children":[1,3,5,-1,-1,7,9,-1,-1,-1,-1],"loss_changes":[5.4110395E-4,1.1241063E-6,3.6219225E-4,0E0,0E0,5.5964774E-4,3.7484666E-4,0E0,0E0,0E0,0E0],"parents":[2147483647,0,0,1,1,2,2,5,5,6,6],"right_children":[2,4,6,-1,-1,8,10,-1,-1,-1,-1],"split_conditions":[2.55992E1,-2.4459798E-2,-2.9289078E-2,7.947672E-4,2.1142697E-4,-4.5202628E-2,2.8091239E-2,-6.380703E-5,-1.0679329E-3,9.299856E-6,-3.0020752E-4],"split_indices":[2,0,0,0,0,1,0,0,0,0,0],"split_type":[0,0,0,0,0,0,0,0,0,0,0],"sum_hessian":[4.66E2,2E0,4.64E2,1E0,1E0,6E0,4.58E2,5E0,1E0,4.49E2,9E0],"tree_param":{"num_deleted":"0","num_feature":"8","num_nodes":"11","size_leaf_vector":"1"}},{"base_weights":[2.6633483E-5,1.0194982E-2,-8.323342E-5,7.7489804E-4,2.4973738E-4,-3.412006E-3,1.5527739E-4,-6.133245E-5,-4.3088474E-4,1.08314525E-4,-2.394835E-5],"categories":[],"categories_nodes":[],"categories_segments":[],"categories_sizes":[],"default_left":[0,0,0,0,0,0,0,0,0,0,0],"id":43,"left_children":[1,3,5,-1,-1,7,9,-1,-1,-1,-1],"loss_changes":[5.2256463E-4,6.0475257E-5,3.6812783E-4,0E0,0E0,3.420941E-4,5.533178E-4,0E0,0E0,0E0,0E0],"parents":[2147483647,0,0,1,1,2,2,5,5,6,6],"right_children":[2,4,6,-1,-1,8,10,-1,-1,-1,-1],"split_conditions":[-4.4419694E0,-9.1993876E-2,-1.3352921E0,7.7489804E-4,2.4973738E-4,1.6820822E-2,-1.7143257E0,-6.133245E-5,-4.3088474E-4,1.08314525E-4,-2.394835E-5],"split_indices":[5,1,6,0,0,4,5,0,0,0,0],"split_type":[0,0,0,0,0,0,0,0,0,0,0],"sum_hessian":[4.66E2,4E0,4.62E2,1E0,3E0,3E1,4.32E2,2.2E1,8E0,1.03E2,3.29E2],"tree_param":{"num_deleted":"0","num_feature":"8","num_nodes":"11","size_leaf_vector":"1"}},{"base_weights":[2.6622582E-5,6.441008E-4,-5.6372686E-5,5.4073817E-4,-1.2669025E-4,-1.3737119E-5,2.5096623E-4],"categories":[],"categories_nodes":[],"categories_segments":[],"categories_sizes":[],"default_left":[0,0,0,0,0,0,0],"id":44,"left_children":[1,-1,3,-1,5,-1,-1],"loss_changes":[4.9898564E-4,0E0,3.5683095E-4,0E0,3.5412863E-4,0E0,0E0],"parents":[2147483647,0,0,2,2,4,4],"right_children":[2,-1,4,-1,6,-1,-1],"split_conditions":[-2.1615424E0,6.441008E-4,6.814263E-3,5.4073817E-4,3.2018214E-2,-1.3737119E-5,2.5096623E-4],"split_indices":[6,0,4,0,4,0,0],"split_type":[0,0,0,0,0,0,0],"sum_hessian":[4.66E2,2E0,4.64E2,2E0,4.62E2,4.5E2,1.2E1],"tree_param":{"num_deleted":"0","num_feature":"8","num_nodes":"7","size_leaf_vector":"1"}},{"base_weights":[2.8336526E-5,9.769582E-3,-7.6921715E-5,5.7571515E-4,6.976752E-5,1.382327E-3,-6.147659E-4,1.8174721E-4,-8.233805E-5,-8.0079766E-4,-2.147944E-5],"categories":[],"categories_nodes":[],"categories_segments":[],"categories_sizes":[],"default_left":[0,0,0,0,0,0,0,0,0,0,0],"id":45,"left_children":[1,3,5,-1,-1,7,9,-1,-1,-1,-1],"loss_changes":[4.7958829E-4,5.6986988E-5,3.6423467E-4,0E0,0E0,8.589078E-4,9.599298E-4,0E0,0E0,0E0,0E0],"parents":[2147483647,0,0,1,1,2,2,5,5,6,6],"right_children":[2,4,6,-1,-1,8,10,-1,-1,-1,-1],"split_conditions":[-4.4419694E0,-1.2161046E-2,9.426176E-3,5.7571515E-4,6.976752E-5,1.6640295E-1,9.454982E-3,1.8174721E-4,-8.233805E-5,-8.0079766E-4,-2.147944E-5],"split_indices":[5,0,4,0,0,6,4,0,0,0,0],"split_type":[0,0,0,0,0,0,0,0,0,0,0],"sum_hessian":[4.66E2,4E0,4.62E2,3E0,1E0,1.24E2,3.38E2,7.1E1,5.3E1,3E0,3.35E2],"tree_param":{"num_deleted":"0","num_feature":"8","num_nodes":"11","size_leaf_vector":"1"}},{"base_weights":[2.6753964E-5,6.1617565E-4,-5.2637497E-5,2.7330403E-5,-9.275771E-3,-3.0212955E-6,6.737094E-4,-6.452342E-4,4.0274237E-5],"categories":[],"categories_nodes":[],"categories_segments":[],"categories_sizes":[],"default_left":[0,0,0,0,0,0,0,0,0],"id":46,"left_children":[1,-1,3,5,7,-1,-1,-1,-1],"loss_changes":[4.5656099E-4,0E0,3.4321638E-4,5.4599566E-4,1.5673053E-4,0E0,0E0,0E0,0E0],"parents":[2147483647,0,0,2,2,3,3,4,4],"right_children":[2,-1,4,6,8,-1,-1,-1,-1],"split_conditions":[2.55992E1,6.1617565E-4,8.6134724E-2,7.8768164E-2,6.510034E1,-3.0212955E-6,6.737094E-4,-6.452342E-4,4.0274237E-5],"split_indices":[2,0,1,1,2,0,0,0,0],"split_type":[0,0,0,0,0,0,0,0,0],"sum_hessian":[4.66E2,2E0,4.64E2,4.61E2,3E0,4.59E2,2E0,2E0,1E0],"tree_param":{"num_deleted":"0","num_feature":"8","num_nodes":"9","size_leaf_vector":"1"}},{"base_weights":[2.6876438E-5,6.0317427E-4,-5.08369E-5,-6.9448673E-3,5.4411572E-5,-7.2897755E-4,1.21301615E-4,6.625708E-5,-2.6535019E-5],"categories":[],"categories_nodes":[],"categories_segments":[],"categories_sizes":[],"default_left":[0,0,0,0,0,0,0,0,0],"id":47,"left_children":[1,-1,3,5,7,-1,-1,-1,-1],"loss_changes":[4.3744748E-4,0E0,3.3777542E-4,5.361774E-4,3.4197865E-4,0E0,0E0,0E0,0E0],"parents":[2147483647,0,0,2,2,3,3,4,4],"right_children":[2,-1,4,6,8,-1,-1,-1,-1],"split_conditions":[-2.1615424E0,6.0317427E-4,-2.9289078E-2,1E0,3.2963294E-1,-7.2897755E-4,1.21301615E-4,6.625708E-5,-2.6535019E-5],"split_indices":[6,0,0,3,7,0,0,0,0],"split_type":[0,0,0,0,0,0,0,0,0],"sum_hessian":[4.66E2,2E0,4.64E2,6E0,4.58E2,3E0,3E0,1.44E2,3.14E2],"tree_param":{"num_deleted":"0","num_feature":"8","num_nodes":"9","size_leaf_vector":"1"}},{"base_weights":[2.5608051E-5,9.128389E-3,-7.274943E-5,6.9454656E-4,2.2325106E-4,-3.3199461E-3,1.5989687E-4,-2.8975517E-4,5.409891E-5,1.9952557E-4,-7.786974E-6],"categories":[],"categories_nodes":[],"categories_segments":[],"categories_sizes":[],"default_left":[0,0,0,0,0,0,0,0,0,0,0],"id":48,"left_children":[1,3,5,-1,-1,7,9,-1,-1,-1,-1],"loss_changes":[4.1878162E-4,4.902415E-5,3.5030342E-4,0E0,0E0,3.4402928E-4,5.241536E-4,0E0,0E0,0E0,0E0],"parents":[2147483647,0,0,1,1,2,2,5,5,6,6],"right_children":[2,4,6,-1,-1,8,10,-1,-1,-1,-1],"split_conditions":[-4.4419694E0,-9.1993876E-2,-1.3352921E0,6.9454656E-4,2.2325106E-4,-1.6349678E0,-8.903952E-1,-2.8975517E-4,5.409891E-5,1.9952557E-4,-7.786974E-6],"split_indices":[5,1,6,0,0,5,6,0,0,0,0],"split_type":[0,0,0,0,0,0,0,0,0,0,0],"sum_hessian":[4.66E2,4E0,4.62E2,1E0,3E0,3E1,4.32E2,1.9E1,1.1E1,3.2E1,4E2],"tree_param":{"num_deleted":"0","num_feature":"8","num_nodes":"11","size_leaf_vector":"1"}},{"base_weights":[2.6198917E-5,5.7632197E-4,-4.8052523E-5,-3.5496114E-4,2.2462655E-3,-7.080866E-6,-4.447943E-4,-8.081351E-5,2.8824812E-4],"categories":[],"categories_nodes":[],"categories_segments":[],"categories_sizes":[],"default_left":[0,0,0,0,0,0,0,0,0],"id":49,"left_children":[1,-1,3,5,7,-1,-1,-1,-1],"loss_changes":[3.9932955E-4,0E0,3.2822523E-4,7.4764533E-4,7.5682777E-4,0E0,0E0,0E0,0E0],"parents":[2147483647,0,0,2,2,3,3,4,4],"right_children":[2,-1,4,6,8,-1,-1,-1,-1],"split_conditions":[-2.1615424E0,5.7632197E-4,3.0925319E-2,9.827123E-1,4.9267597E-3,-7.080866E-6,-4.447943E-4,-8.081351E-5,2.8824812E-4],"split_indices":[6,0,1,7,0,0,0,0,0],"split_type":[0,0,0,0,0,0,0,0,0],"sum_hessian":[4.66E2,2E0,4.64E2,4.1E2,5.4E1,4.01E2,9E0,2.6E1,2.8E1],"tree_param":{"num_deleted":"0","num_feature":"8","num_nodes":"9","size_leaf_vector":"1"}},{"base_weights":[2.5599627E-5,8.744514E-3,-6.8612404E-5,5.1601307E-4,6.103818E-5,1.324556E-3,-5.8211514E-4,1.8418046E-5,4.1560477E-4,7.538519E-6,-2.226457E-4],"categories":[],"categories_nodes":[],"categories_segments":[],"categories_sizes":[],"default_left":[0,0,0,0,0,0,0,0,0,0,0],"id":50,"left_children":[1,3,5,-1,-1,7,9,-1,-1,-1,-1],"loss_changes":[3.842062E-4,4.6679022E-5,3.3199927E-4,0E0,0E0,8.3211943E-4,9.623643E-4,0E0,0E0,0E0,0E0],"parents":[2147483647,0,0,1,1,2,2,5,5,6,6],"right_children":[2,4,6,-1,-1,8,10,-1,-1,-1,-1],"split_conditions":[-4.4419694E0,-1.2161046E-2,9.426176E-3,5.1601307E-4,6.103818E-5,1.1520005E-2,1.1250261E-2,1.8418046E-5,4.1560477E-4,7.538519E-6,-2.226457E-4],"split_indices":[5,0,4,0,0,0,0,0,0,0,0],"split_type":[0,0,0,0,0,0,0,0,0,0,0],"sum_hessian":[4.66E2,4E0,4.62E2,3E0,1E0,1.24E2,3.38E2,1.1E2,1.4E1,2.85E2,5.3E1],"tree_param":{"num_deleted":"0","num_feature":"8","num_nodes":"11","size_leaf_vector":"1"}},{"base_weights":[2.602408E-5,5.5463874E-4,-4.5430275E-5,-6.767001E-3,5.717632E-5,-5.4317654E-5,-1.0212723E-3,6.8039235E-6,-4.4759814E-4],"categories":[],"categories_nodes":[],"categories_segments":[],"categories_sizes":[],"default_left":[0,0,0,0,0,0,0,0,0],"id":51,"left_children":[1,-1,3,5,7,-1,-1,-1,-1],"loss_changes":[3.6979237E-4,0E0,3.2108693E-4,5.209324E-4,3.2749394E-4,0E0,0E0,0E0,0E0],"parents":[2147483647,0,0,2,2,3,3,4,4],"right_children":[2,-1,4,6,8,-1,-1,-1,-1],"split_conditions":[2.55992E1,5.5463874E-4,-2.9289078E-2,-4.5202628E-2,8.6134724E-2,-5.4317654E-5,-1.0212723E-3,6.8039235E-6,-4.4759814E-4],"split_indices":[2,0,0,1,1,0,0,0,0],"split_type":[0,0,0,0,0,0,0,0,0],"sum_hessian":[4.66E2,2E0,4.64E2,6E0,4.58E2,5E0,1E0,4.55E2,3E0],"tree_param":{"num_deleted":"0","num_feature":"8","num_nodes":"9","size_leaf_vector":"1"}},{"base_weights":[2.2663464E-5,5.39028E-4,-4.6791058E-5,5.122937E-4,-1.1338113E-4,-1.2781075E-5,2.414994E-4],"categories":[],"categories_nodes":[],"categories_segments":[],"categories_sizes":[],"default_left":[0,0,0,0,0,0,0],"id":52,"left_children":[1,-1,3,-1,5,-1,-1],"loss_changes":[3.4943965E-4,0E0,3.1986766E-4,0E0,3.2679157E-4,0E0,0E0],"parents":[2147483647,0,0,2,2,4,4],"right_children":[2,-1,4,-1,6,-1,-1],"split_conditions":[-2.1615424E0,5.39028E-4,6.814263E-3,5.122937E-4,3.2018214E-2,-1.2781075E-5,2.414994E-4],"split_indices":[6,0,4,0,4,0,0],"split_type":[0,0,0,0,0,0,0],"sum_hessian":[4.66E2,2E0,4.64E2,2E0,4.62E2,4.5E2,1.2E1],"tree_param":{"num_deleted":"0","num_feature":"8","num_nodes":"7","size_leaf_vector":"1"}},{"base_weights":[2.4271278E-5,8.207552E-3,-6.415351E-5,4.831412E-4,5.9661666E-5,-3.163128E-3,1.5786117E-4,-1.01499936E-4,-6.531167E-4,9.081462E-5,-2.4927664E-5],"categories":[],"categories_nodes":[],"categories_segments":[],"categories_sizes":[],"default_left":[0,0,0,0,0,0,0,0,0,0,0],"id":53,"left_children":[1,3,5,-1,-1,7,9,-1,-1,-1,-1],"loss_changes":[3.3844996E-4,3.9508683E-5,3.1905159E-4,0E0,0E0,3.2121295E-4,4.7227717E-4,0E0,0E0,0E0,0E0],"parents":[2147483647,0,0,1,1,2,2,5,5,6,6],"right_children":[2,4,6,-1,-1,8,10,-1,-1,-1,-1],"split_conditions":[-4.4419694E0,-1.2161046E-2,-1.3352921E0,4.831412E-4,5.9661666E-5,1.7555468E-2,-1.441442E0,-1.01499936E-4,-6.531167E-4,9.081462E-5,-2.4927664E-5],"split_indices":[5,0,6,0,0,4,5,0,0,0,0],"split_type":[0,0,0,0,0,0,0,0,0,0,0],"sum_hessian":[4.66E2,4E0,4.62E2,3E0,1E0,3E1,4.32E2,2.8E1,2E0,1.22E2,3.1E2],"tree_param":{"num_deleted":"0","num_feature":"8","num_nodes":"11","size_leaf_vector":"1"}},{"base_weights":[2.2745227E-5,5.1781413E-4,-4.3971668E-5,-3.3939135E-4,2.1644186E-3,1.0357463E-5,-1.7096136E-4,2.3503916E-4,-1.4443674E-4],"categories":[],"categories_nodes":[],"categories_segments":[],"categories_sizes":[],"default_left":[0,0,0,0,0,0,0,0,0],"id":54,"left_children":[1,-1,3,5,7,-1,-1,-1,-1],"loss_changes":[3.2241523E-4,0E0,3.0410153E-4,6.925263E-4,7.1849447E-4,0E0,0E0,0E0,0E0],"parents":[2147483647,0,0,2,2,3,3,4,4],"right_children":[2,-1,4,6,8,-1,-1,-1,-1],"split_conditions":[2.55992E1,5.1781413E-4,3.0925319E-2,1.0412492E-2,5.9917558E-2,1.0357463E-5,-1.7096136E-4,2.3503916E-4,-1.4443674E-4],"split_indices":[2,0,1,0,1,0,0,0,0],"split_type":[0,0,0,0,0,0,0,0,0],"sum_hessian":[4.66E2,2E0,4.64E2,4.1E2,5.4E1,3.49E2,6.1E1,3.6E1,1.8E1],"tree_param":{"num_deleted":"0","num_feature":"8","num_nodes":"9","size_leaf_vector":"1"}},{"base_weights":[2.2566892E-5,-6.575397E-3,1.2270395E-4,-1.0375858E-3,-9.950566E-4,2.327229E-3,-2.913141E-4,-2.569685E-4,1.1490743E-4,3.1790487E-4,-1.2417088E-4,-2.181012E-4,6.1342513E-7],"categories":[],"categories_nodes":[],"categories_segments":[],"categories_sizes":[],"default_left":[0,0,0,0,0,0,0,0,0,0,0,0,0],"id":55,"left_children":[1,3,5,7,-1,9,11,-1,-1,-1,-1,-1,-1],"loss_changes":[3.0935404E-4,4.959187E-4,4.214387E-4,9.390579E-5,0E0,1.4313387E-3,4.8077846E-4,0E0,0E0,0E0,0E0,0E0,0E0],"parents":[2147483647,0,0,1,1,2,2,3,3,5,5,6,6],"right_children":[2,4,6,8,-1,10,12,-1,-1,-1,-1,-1,-1],"split_conditions":[-2.9289078E-2,-4.5202628E-2,-9.288693E-3,3.220521E1,-9.950566E-4,1E0,-7.1774614E-3,-2.569685E-4,1.1490743E-4,3.1790487E-4,-1.2417088E-4,-2.181012E-4,6.1342513E-7],"split_indices":[0,1,0,2,0,3,0,0,0,0,0,0,0],"split_type":[0,0,0,0,0,0,0,0,0,0,0,0,0],"sum_hessian":[4.66E2,6E0,4.6E2,5E0,1E0,7.2E1,3.88E2,2E0,3E0,3.9E1,3.3E1,2.6E1,3.62E2],"tree_param":{"num_deleted":"0","num_feature":"8","num_nodes":"13","size_leaf_vector":"1"}},{"base_weights":[1.8952738E-5,5.0266803E-4,-4.5826135E-5,4.9776223E-4,-1.1052891E-4,-2.0079568E-5,1.0279635E-4],"categories":[],"categories_nodes":[],"categories_segments":[],"categories_sizes":[],"default_left":[0,0,0,0,0,0,0],"id":56,"left_children":[1,-1,3,-1,5,-1,-1],"loss_changes":[3.0401893E-4,0E0,3.0200044E-4,0E0,2.927814E-4,0E0,0E0],"parents":[2147483647,0,0,2,2,4,4],"right_children":[2,-1,4,-1,6,-1,-1],"split_conditions":[-2.1615424E0,5.0266803E-4,6.814263E-3,4.9776223E-4,3.0925319E-2,-2.0079568E-5,1.0279635E-4],"split_indices":[6,0,4,0,1,0,0],"split_type":[0,0,0,0,0,0,0],"sum_hessian":[4.66E2,2E0,4.64E2,2E0,4.62E2,4.08E2,5.4E1],"tree_param":{"num_deleted":"0","num_feature":"8","num_nodes":"7","size_leaf_vector":"1"}},{"base_weights":[2.0324474E-5,1.3918086E-4,-5.4253307E-3,4.306152E-5,1.4702928E-2,-1.1466917E-2,5.135463E-4,9.650615E-6,-3.7129698E-4,1.8212637E-4,9.205933E-4,-6.797871E-4,-7.379049E-5,1.695709E-4,-8.8662215E-5],"categories":[],"categories_nodes":[],"categories_segments":[],"categories_sizes":[],"default_left":[0,0,0,0,0,0,0,0,0,0,0,0,0,0,0],"id":57,"left_children":[1,3,5,7,9,11,13,-1,-1,-1,-1,-1,-1,-1,-1],"loss_changes":[3.030213E-4,6.4050185E-4,3.6469116E-4,5.121452E-4,5.600124E-5,8.6281856E-5,4.5500354E-5,0E0,0E0,0E0,0E0,0E0,0E0,0E0,0E0],"parents":[2147483647,0,0,1,1,2,2,3,3,4,4,5,5,6,6],"right_children":[2,4,6,8,10,12,14,-1,-1,-1,-1,-1,-1,-1,-1],"split_conditions":[2.8091239E-2,2.6197106E-2,-5.136769E-1,6.613903E-2,4.089703E-2,3.0919455E-2,1.0611984E0,9.650615E-6,-3.7129698E-4,1.8212637E-4,9.205933E-4,-6.797871E-4,-7.379049E-5,1.695709E-4,-8.8662215E-5],"split_indices":[0,0,5,1,1,4,5,0,0,0,0,0,0,0,0],"split_type":[0,0,0,0,0,0,0,0,0,0,0,0,0,0,0],"sum_hessian":[4.66E2,4.57E2,9E0,4.55E2,2E0,4E0,5E0,4.47E2,8E0,1E0,1E0,3E0,1E0,2E0,3E0],"tree_param":{"num_deleted":"0","num_feature":"8","num_nodes":"15","size_leaf_vector":"1"}},{"base_weights":[1.9454723E-5,-6.400134E-3,1.16890005E-4,-1.0006925E-3,-9.6991955E-4,2.197342E-3,-2.738295E-4,-2.4805524E-4,1.1098949E-4,3.019548E-4,-1.193498E-4,-2.0684754E-4,7.1322177E-7],"categories":[],"categories_nodes":[],"categories_segments":[],"categories_sizes":[],"default_left":[0,0,0,0,0,0,0,0,0,0,0,0,0],"id":58,"left_children":[1,3,5,7,-1,9,11,-1,-1,-1,-1,-1,-1],"loss_changes":[2.9285403E-4,4.7187143E-4,3.7533627E-4,8.753923E-5,0E0,1.3000838E-3,4.329934E-4,0E0,0E0,0E0,0E0,0E0,0E0],"parents":[2147483647,0,0,1,1,2,2,3,3,5,5,6,6],"right_children":[2,4,6,8,-1,10,12,-1,-1,-1,-1,-1,-1],"split_conditions":[-2.9289078E-2,-4.5202628E-2,-9.288693E-3,3.220521E1,-9.6991955E-4,1E0,-7.1774614E-3,-2.4805524E-4,1.1098949E-4,3.019548E-4,-1.193498E-4,-2.0684754E-4,7.1322177E-7],"split_indices":[0,1,0,2,0,3,0,0,0,0,0,0,0],"split_type":[0,0,0,0,0,0,0,0,0,0,0,0,0],"sum_hessian":[4.66E2,6E0,4.6E2,5E0,1E0,7.2E1,3.88E2,2E0,3E0,3.9E1,3.3E1,2.6E1,3.62E2],"tree_param":{"num_deleted":"0","num_feature":"8","num_nodes":"13","size_leaf_vector":"1"}},{"base_weights":[1.6061163E-5,4.828257E-4,-4.6169847E-5,4.8254733E-4,-1.08902415E-4,-1.2097789E-5,2.2577017E-4],"categories":[],"categories_nodes":[],"categories_segments":[],"categories_sizes":[],"default_left":[0,0,0,0,0,0,0],"id":59,"left_children":[1,-1,3,-1,5,-1,-1],"loss_changes":[2.8061555E-4,0E0,2.8392213E-4,0E0,2.8596693E-4,0E0,0E0],"parents":[2147483647,0,0,2,2,4,4],"right_children":[2,-1,4,-1,6,-1,-1],"split_conditions":[6.814263E-3,4.828257E-4,-2.1615424E0,4.8254733E-4,3.2018214E-2,-1.2097789E-5,2.2577017E-4],"split_indices":[4,0,6,0,4,0,0],"split_type":[0,0,0,0,0,0,0],"sum_hessian":[4.66E2,2E0,4.64E2,2E0,4.62E2,4.5E2,1.2E1],"tree_param":{"num_deleted":"0","num_feature":"8","num_nodes":"7","size_leaf_vector":"1"}},{"base_weights":[1.7782813E-5,1.3243077E-4,-5.2348715E-3,3.8650123E-5,1.4342945E-2,-1.1082753E-2,5.108411E-4,9.1143565E-6,-3.5577876E-4,1.7785783E-4,8.9786306E-4,-6.5386813E-4,-7.760782E-5,-8.506578E-5,1.6450514E-4],"categories":[],"categories_nodes":[],"categories_segments":[],"categories_sizes":[],"default_left":[0,0,0,0,0,0,0,0,0,0,0,0,0,0,0],"id":60,"left_children":[1,3,5,7,9,11,13,-1,-1,-1,-1,-1,-1,-1,-1],"loss_changes":[2.819235E-4,6.09809E-4,3.4166395E-4,4.6988792E-4,5.307299E-5,7.475098E-5,4.2486477E-5,0E0,0E0,0E0,0E0,0E0,0E0,0E0,0E0],"parents":[2147483647,0,0,1,1,2,2,3,3,4,4,5,5,6,6],"right_children":[2,4,6,8,10,12,14,-1,-1,-1,-1,-1,-1,-1,-1],"split_conditions":[2.8091239E-2,2.6197106E-2,-5.136769E-1,6.613903E-2,4.089703E-2,3.0919455E-2,4.961346E-2,9.1143565E-6,-3.5577876E-4,1.7785783E-4,8.9786306E-4,-6.5386813E-4,-7.760782E-5,-8.506578E-5,1.6450514E-4],"split_indices":[0,0,5,1,1,4,1,0,0,0,0,0,0,0,0],"split_type":[0,0,0,0,0,0,0,0,0,0,0,0,0,0,0],"sum_hessian":[4.66E2,4.57E2,9E0,4.55E2,2E0,4E0,5E0,4.47E2,8E0,1E0,1E0,3E0,1E0,3E0,2E0],"tree_param":{"num_deleted":"0","num_feature":"8","num_nodes":"15","size_leaf_vector":"1"}},{"base_weights":[1.705861E-5,-6.235711E-3,1.11966045E-4,-9.7101583E-4,-9.455971E-4,1.3574515E-3,-4.6961594E-4,-2.3968726E-4,1.0693925E-4,-1.913763E-5,2.3705512E-4,-2.0495146E-4,9.910748E-6],"categories":[],"categories_nodes":[],"categories_segments":[],"categories_sizes":[],"default_left":[0,0,0,0,0,0,0,0,0,0,0,0,0],"id":61,"left_children":[1,3,5,7,-1,9,11,-1,-1,-1,-1,-1,-1],"loss_changes":[2.77832E-4,4.487916E-4,3.3456372E-4,8.158036E-5,0E0,8.6738635E-4,7.643202E-4,0E0,0E0,0E0,0E0,0E0,0E0],"parents":[2147483647,0,0,1,1,2,2,3,3,5,5,6,6],"right_children":[2,4,6,8,-1,10,12,-1,-1,-1,-1,-1,-1],"split_conditions":[-2.9289078E-2,-4.5202628E-2,3.2963294E-1,3.220521E1,-9.455971E-4,4.0165394E1,-3.0265763E-1,-2.3968726E-4,1.0693925E-4,-1.913763E-5,2.3705512E-4,-2.0495146E-4,9.910748E-6],"split_indices":[0,1,7,2,0,2,6,0,0,0,0,0,0],"split_type":[0,0,0,0,0,0,0,0,0,0,0,0,0],"sum_hessian":[4.66E2,6E0,4.6E2,5E0,1E0,1.46E2,3.14E2,2E0,3E0,9.7E1,4.9E1,4.8E1,2.66E2],"tree_param":{"num_deleted":"0","num_feature":"8","num_nodes":"13","size_leaf_vector":"1"}},{"base_weights":[1.39456015E-5,7.2826035E-3,-6.457974E-5,5.5739173E-4,1.7646687E-4,1.236952E-3,-5.443051E-4,-5.1754305E-5,2.0737282E-4,-7.5217086E-4,-1.8503833E-5],"categories":[],"categories_nodes":[],"categories_segments":[],"categories_sizes":[],"default_left":[0,0,0,0,0,0,0,0,0,0,0],"id":62,"left_children":[1,3,5,-1,-1,7,9,-1,-1,-1,-1],"loss_changes":[2.670217E-4,3.3191725E-5,2.897602E-4,0E0,0E0,8.3089015E-4,8.508002E-4,0E0,0E0,0E0,0E0],"parents":[2147483647,0,0,1,1,2,2,5,5,6,6],"right_children":[2,4,6,-1,-1,8,10,-1,-1,-1,-1],"split_conditions":[-4.4419694E0,-9.1993876E-2,9.426176E-3,5.5739173E-4,1.7646687E-4,4.352993E-3,9.454982E-3,-5.1754305E-5,2.0737282E-4,-7.5217086E-4,-1.8503833E-5],"split_indices":[5,1,4,0,0,1,4,0,0,0,0],"split_type":[0,0,0,0,0,0,0,0,0,0,0],"sum_hessian":[4.66E2,4E0,4.62E2,1E0,3E0,1.24E2,3.38E2,7E1,5.4E1,3E0,3.35E2],"tree_param":{"num_deleted":"0","num_feature":"8","num_nodes":"11","size_leaf_vector":"1"}},{"base_weights":[1.35027085E-5,-6.062114E-3,1.0572791E-4,-9.291699E-4,-9.214945E-4,2.0337172E-3,-2.5635166E-4,-2.310809E-4,1.03622944E-4,2.8376933E-4,-1.1552074E-4,-1.9625985E-4,8.6219245E-7],"categories":[],"categories_nodes":[],"categories_segments":[],"categories_sizes":[],"default_left":[0,0,0,0,0,0,0,0,0,0,0,0,0],"id":63,"left_children":[1,3,5,7,-1,9,11,-1,-1,-1,-1,-1,-1],"loss_changes":[2.6231268E-4,4.2725724E-4,3.2233878E-4,7.6078264E-5,0E0,1.1679647E-3,3.9053796E-4,0E0,0E0,0E0,0E0,0E0,0E0],"parents":[2147483647,0,0,1,1,2,2,3,3,5,5,6,6],"right_children":[2,4,6,8,-1,10,12,-1,-1,-1,-1,-1,-1],"split_conditions":[-2.9289078E-2,-4.5202628E-2,-9.288693E-3,3.220521E1,-9.214945E-4,1E0,-7.1774614E-3,-2.310809E-4,1.03622944E-4,2.8376933E-4,-1.1552074E-4,-1.9625985E-4,8.6219245E-7],"split_indices":[0,1,0,2,0,3,0,0,0,0,0,0,0],"split_type":[0,0,0,0,0,0,0,0,0,0,0,0,0],"sum_hessian":[4.66E2,6E0,4.6E2,5E0,1E0,7.2E1,3.88E2,2E0,3E0,3.9E1,3.3E1,2.6E1,3.62E2],"tree_param":{"num_deleted":"0","num_feature":"8","num_nodes":"13","size_leaf_vector":"1"}},{"base_weights":[1.0523274E-5,4.6594773E-4,-4.9553753E-5,-3.105705E-4,2.0753776E-3,-5.537192E-6,-4.1962377E-4,2.4305734E-4,-1.2428108E-4],"categories":[],"categories_nodes":[],"categories_segments":[],"categories_sizes":[],"default_left":[0,0,0,0,0,0,0,0,0],"id":64,"left_children":[1,-1,3,5,7,-1,-1,-1,-1],"loss_changes":[2.6161884E-4,0E0,2.585534E-4,6.692873E-4,6.600833E-4,0E0,0E0,0E0,0E0],"parents":[2147483647,0,0,2,2,3,3,4,4],"right_children":[2,-1,4,6,8,-1,-1,-1,-1],"split_conditions":[6.814263E-3,4.6594773E-4,3.230883E-2,9.827123E-1,1.8167578E-2,-5.537192E-6,-4.1962377E-4,2.4305734E-4,-1.2428108E-4],"split_indices":[4,0,1,7,4,0,0,0,0],"split_type":[0,0,0,0,0,0,0,0,0],"sum_hessian":[4.66E2,2E0,4.64E2,4.14E2,5E1,4.05E2,9E0,3.1E1,1.9E1],"tree_param":{"num_deleted":"0","num_feature":"8","num_nodes":"9","size_leaf_vector":"1"}},{"base_weights":[1.03387865E-5,1.2116583E-4,-5.0665736E-3,3.0419505E-5,1.3874219E-2,-1.0662227E-2,4.4089943E-4,9.80281E-6,-2.8145255E-4,1.7103307E-4,8.6953334E-4,-6.302055E-4,-7.236733E-5,-1.2381059E-4,1.2592539E-4],"categories":[],"categories_nodes":[],"categories_segments":[],"categories_sizes":[],"default_left":[0,0,0,0,0,0,0,0,0,0,0,0,0,0,0],"id":65,"left_children":[1,3,5,7,9,11,13,-1,-1,-1,-1,-1,-1,-1,-1],"loss_changes":[2.6337575E-4,5.711798E-4,3.1288006E-4,4.285653E-4,5.0790608E-5,7.12286E-5,4.2600044E-5,0E0,0E0,0E0,0E0,0E0,0E0,0E0,0E0],"parents":[2147483647,0,0,1,1,2,2,3,3,4,4,5,5,6,6],"right_children":[2,4,6,8,10,12,14,-1,-1,-1,-1,-1,-1,-1,-1],"split_conditions":[2.8091239E-2,2.6197106E-2,-5.136769E-1,6.1906908E-2,4.089703E-2,3.0919455E-2,1.2406157E-2,9.80281E-6,-2.8145255E-4,1.7103307E-4,8.6953334E-4,-6.302055E-4,-7.236733E-5,-1.2381059E-4,1.2592539E-4],"split_indices":[0,0,5,1,1,4,4,0,0,0,0,0,0,0,0],"split_type":[0,0,0,0,0,0,0,0,0,0,0,0,0,0,0],"sum_hessian":[4.66E2,4.57E2,9E0,4.55E2,2E0,4E0,5E0,4.43E2,1.2E1,1E0,1E0,3E0,1E0,2E0,3E0],"tree_param":{"num_deleted":"0","num_feature":"8","num_nodes":"15","size_leaf_vector":"1"}},{"base_weights":[9.968442E-6,-1.1616151E-4,4.42375E-3,1.753164E-4,-3.3193615E-3,1.1863545E-2,-6.2332684E-3,-8.409177E-6,2.2344753E-4,4.2181867E-4,-2.2840177E-4,3.4201445E-4,1.1756584E-3,-4.2911308E-4,-5.1176085E-5],"categories":[],"categories_nodes":[],"categories_segments":[],"categories_sizes":[],"default_left":[0,0,0,0,0,0,0,0,0,0,0,0,0,0,0],"id":66,"left_children":[1,3,5,7,9,11,13,-1,-1,-1,-1,-1,-1,-1,-1],"loss_changes":[2.6049747E-4,4.2539815E-4,1.1046671E-3,6.172444E-4,5.963425E-4,3.0731538E-4,6.4641834E-5,0E0,0E0,0E0,0E0,0E0,0E0,0E0,0E0],"parents":[2147483647,0,0,1,1,2,2,3,3,4,4,5,5,6,6],"right_children":[2,4,6,8,10,12,14,-1,-1,-1,-1,-1,-1,-1,-1],"split_conditions":[3.2018214E-2,1.8992512E-2,7.607585E-3,3.5314433E-2,-4.3932643E0,1.2090115E-3,3.958321E-2,-8.409177E-6,2.2344753E-4,4.2181867E-4,-2.2840177E-4,3.4201445E-4,1.1756584E-3,-4.2911308E-4,-5.1176085E-5],"split_indices":[4,4,0,1,5,0,1,0,0,0,0,0,0,0,0],"split_type":[0,0,0,0,0,0,0,0,0,0,0,0,0,0,0],"sum_hessian":[4.66E2,4.54E2,1.2E1,4.17E2,3.7E1,7E0,5E0,3.87E2,3E1,3E0,3.4E1,6E0,1E0,3E0,2E0],"tree_param":{"num_deleted":"0","num_feature":"8","num_nodes":"15","size_leaf_vector":"1"}},{"base_weights":[1.2566043E-5,1.202407E-4,-4.92019E-3,3.3187323E-5,1.3312275E-2,-6.493019E-4,-1.2804733E-3,9.594563E-6,-2.6948575E-4,1.5621178E-4,8.422088E-4,1.1721639E-4,-1.9621097E-4],"categories":[],"categories_nodes":[],"categories_segments":[],"categories_sizes":[],"default_left":[0,0,0,0,0,0,0,0,0,0,0,0,0],"id":67,"left_children":[1,3,5,7,9,-1,11,-1,-1,-1,-1,-1,-1],"loss_changes":[2.4863065E-4,5.255305E-4,2.7694576E-4,3.9348422E-4,5.5324228E-5,0E0,8.5864085E-5,0E0,0E0,0E0,0E0,0E0,0E0],"parents":[2147483647,0,0,1,1,2,2,3,3,4,4,6,6],"right_children":[2,4,6,8,10,-1,12,-1,-1,-1,-1,-1,-1],"split_conditions":[2.8091239E-2,2.6197106E-2,-1.6168307E-3,6.1906908E-2,4.089703E-2,-6.493019E-4,3.6815744E-2,9.594563E-6,-2.6948575E-4,1.5621178E-4,8.422088E-4,1.1721639E-4,-1.9621097E-4],"split_indices":[0,0,1,1,1,0,0,0,0,0,0,0,0],"split_type":[0,0,0,0,0,0,0,0,0,0,0,0,0],"sum_hessian":[4.66E2,4.57E2,9E0,4.55E2,2E0,2E0,7E0,4.43E2,1.2E1,1E0,1E0,3E0,4E0],"tree_param":{"num_deleted":"0","num_feature":"8","num_nodes":"13","size_leaf_vector":"1"}},{"base_weights":[1.1959616E-5,-1.11504145E-4,4.3322714E-3,1.6062839E-4,-3.1020278E-3,1.1486567E-2,-5.9288344E-3,-8.3972545E-6,2.1339573E-4,2.567297E-4,-2.403425E-4,3.2893894E-4,1.1460271E-3,-4.1338112E-4,-4.17086E-5],"categories":[],"categories_nodes":[],"categories_segments":[],"categories_sizes":[],"default_left":[0,0,0,0,0,0,0,0,0,0,0,0,0,0,0],"id":68,"left_children":[1,3,5,7,9,11,13,-1,-1,-1,-1,-1,-1,-1,-1],"loss_changes":[2.4958176E-4,3.707858E-4,1.0224447E-3,5.6482677E-4,5.582764E-4,2.981351E-4,6.4595384E-5,0E0,0E0,0E0,0E0,0E0,0E0,0E0,0E0],"parents":[2147483647,0,0,1,1,2,2,3,3,4,4,5,5,6,6],"right_children":[2,4,6,8,10,12,14,-1,-1,-1,-1,-1,-1,-1,-1],"split_conditions":[3.2018214E-2,1.8992512E-2,7.607585E-3,3.5314433E-2,-1.953948E-2,1.2090115E-3,3.958321E-2,-8.3972545E-6,2.1339573E-4,2.567297E-4,-2.403425E-4,3.2893894E-4,1.1460271E-3,-4.1338112E-4,-4.17086E-5],"split_indices":[4,4,0,1,0,0,1,0,0,0,0,0,0,0,0],"split_type":[0,0,0,0,0,0,0,0,0,0,0,0,0,0,0],"sum_hessian":[4.66E2,4.54E2,1.2E1,4.17E2,3.7E1,7E0,5E0,3.87E2,3E1,6E0,3.1E1,6E0,1E0,3E0,2E0],"tree_param":{"num_deleted":"0","num_feature":"8","num_nodes":"15","size_leaf_vector":"1"}},{"base_weights":[1.4019634E-5,-5.9127817E-3,1.03984035E-4,-9.090214E-4,-8.9838356E-4,1.2849332E-3,-4.4745568E-4,1.4691935E-4,-1.7836611E-4,-1.910782E-5,2.2633652E-4,-1.901693E-4,8.505128E-6],"categories":[],"categories_nodes":[],"categories_segments":[],"categories_sizes":[],"default_left":[0,0,0,0,0,0,0,0,0,0,0,0,0],"id":69,"left_children":[1,3,5,7,-1,9,11,-1,-1,-1,-1,-1,-1],"loss_changes":[2.4961974E-4,4.0590542E-4,3.0078844E-4,7.1847586E-5,0E0,7.961716E-4,6.53479E-4,0E0,0E0,0E0,0E0,0E0,0E0],"parents":[2147483647,0,0,1,1,2,2,3,3,5,5,6,6],"right_children":[2,4,6,8,-1,10,12,-1,-1,-1,-1,-1,-1],"split_conditions":[-2.9289078E-2,-4.5202628E-2,3.2963294E-1,-1.1130341E0,-8.9838356E-4,4.0165394E1,-3.0265763E-1,1.4691935E-4,-1.7836611E-4,-1.910782E-5,2.2633652E-4,-1.901693E-4,8.505128E-6],"split_indices":[0,1,7,6,0,2,6,0,0,0,0,0,0],"split_type":[0,0,0,0,0,0,0,0,0,0,0,0,0],"sum_hessian":[4.66E2,6E0,4.6E2,5E0,1E0,1.46E2,3.14E2,2E0,3E0,9.7E1,4.9E1,4.8E1,2.66E2],"tree_param":{"num_deleted":"0","num_feature":"8","num_nodes":"13","size_leaf_vector":"1"}},{"base_weights":[1.1382305E-5,4.4641574E-4,-4.617077E-5,4.441568E-4,-1.0392832E-4,-1.1341817E-5,2.0840146E-4],"categories":[],"categories_nodes":[],"categories_segments":[],"categories_sizes":[],"default_left":[0,0,0,0,0,0,0],"id":70,"left_children":[1,-1,3,-1,5,-1,-1],"loss_changes":[2.4007518E-4,0E0,2.4073992E-4,0E0,2.4404723E-4,0E0,0E0],"parents":[2147483647,0,0,2,2,4,4],"right_children":[2,-1,4,-1,6,-1,-1],"split_conditions":[6.814263E-3,4.4641574E-4,-2.1615424E0,4.441568E-4,3.2018214E-2,-1.1341817E-5,2.0840146E-4],"split_indices":[4,0,6,0,4,0,0],"split_type":[0,0,0,0,0,0,0],"sum_hessian":[4.66E2,2E0,4.64E2,2E0,4.62E2,4.5E2,1.2E1],"tree_param":{"num_deleted":"0","num_feature":"8","num_nodes":"7","size_leaf_vector":"1"}},{"base_weights":[1.3142129E-5,1.1819922E-4,-4.7997865E-3,3.3732565E-5,1.2917731E-2,-6.2704884E-4,-1.2968673E-3,9.332453E-6,-2.5957744E-4,1.5294018E-4,8.158896E-4,1.10180656E-4,-1.918939E-4],"categories":[],"categories_nodes":[],"categories_segments":[],"categories_sizes":[],"default_left":[0,0,0,0,0,0,0,0,0,0,0,0,0],"id":71,"left_children":[1,3,5,7,9,-1,11,-1,-1,-1,-1,-1,-1],"loss_changes":[2.366976E-4,4.947234E-4,2.5490363E-4,3.653275E-4,5.064992E-5,0E0,7.961525E-5,0E0,0E0,0E0,0E0,0E0,0E0],"parents":[2147483647,0,0,1,1,2,2,3,3,4,4,6,6],"right_children":[2,4,6,8,10,-1,12,-1,-1,-1,-1,-1,-1],"split_conditions":[2.8091239E-2,2.6197106E-2,-1.6168307E-3,6.1906908E-2,4.089703E-2,-6.2704884E-4,3.6815744E-2,9.332453E-6,-2.5957744E-4,1.5294018E-4,8.158896E-4,1.10180656E-4,-1.918939E-4],"split_indices":[0,0,1,1,1,0,0,0,0,0,0,0,0],"split_type":[0,0,0,0,0,0,0,0,0,0,0,0,0],"sum_hessian":[4.66E2,4.57E2,9E0,4.55E2,2E0,2E0,7E0,4.43E2,1.2E1,1E0,1E0,3E0,4E0],"tree_param":{"num_deleted":"0","num_feature":"8","num_nodes":"13","size_leaf_vector":"1"}},{"base_weights":[1.2506089E-5,-5.748253E-3,9.995252E-5,-8.671373E-4,-8.7587367E-4,8.523053E-4,-7.138521E-4,-2.1801975E-4,9.847952E-5,6.356104E-5,-3.000494E-4,-6.10488E-4,-1.1352181E-5],"categories":[],"categories_nodes":[],"categories_segments":[],"categories_sizes":[],"default_left":[0,0,0,0,0,0,0,0,0,0,0,0,0],"id":72,"left_children":[1,3,5,7,-1,9,11,-1,-1,-1,-1,-1,-1],"loss_changes":[2.3582947E-4,3.8693845E-4,2.828641E-4,6.804471E-5,0E0,6.9665664E-4,1.2396076E-3,0E0,0E0,0E0,0E0,0E0,0E0],"parents":[2147483647,0,0,1,1,2,2,3,3,5,5,6,6],"right_children":[2,4,6,8,-1,10,12,-1,-1,-1,-1,-1,-1],"split_conditions":[-2.9289078E-2,-4.5202628E-2,5.1461524E-1,3.220521E1,-8.7587367E-4,2.1047482E-2,4.7874268E1,-2.1801975E-4,9.847952E-5,6.356104E-5,-3.000494E-4,-6.10488E-4,-1.1352181E-5],"split_indices":[0,1,7,2,0,1,2,0,0,0,0,0,0],"split_type":[0,0,0,0,0,0,0,0,0,0,0,0,0],"sum_hessian":[4.66E2,6E0,4.6E2,5E0,1E0,2.39E2,2.21E2,2E0,3E0,2.26E2,1.3E1,8E0,2.13E2],"tree_param":{"num_deleted":"0","num_feature":"8","num_nodes":"13","size_leaf_vector":"1"}},{"base_weights":[7.9113515E-6,-5.603042E-3,9.309305E-5,-8.437037E-4,-8.539768E-4,1.8284642E-3,-2.3280719E-4,1.3880637E-4,-1.6738256E-4,2.641973E-4,-1.1452931E-4,-1.8347992E-4,1.173163E-6],"categories":[],"categories_nodes":[],"categories_segments":[],"categories_sizes":[],"default_left":[0,0,0,0,0,0,0,0,0,0,0,0,0],"id":73,"left_children":[1,3,5,7,-1,9,11,-1,-1,-1,-1,-1,-1],"loss_changes":[2.2372449E-4,3.6793354E-4,2.6114786E-4,6.36767E-5,0E0,1.0511342E-3,3.4269705E-4,0E0,0E0,0E0,0E0,0E0,0E0],"parents":[2147483647,0,0,1,1,2,2,3,3,5,5,6,6],"right_children":[2,4,6,8,-1,10,12,-1,-1,-1,-1,-1,-1],"split_conditions":[-2.9289078E-2,-4.5202628E-2,-9.288693E-3,-1.1130341E0,-8.539768E-4,1E0,-7.1774614E-3,1.3880637E-4,-1.6738256E-4,2.641973E-4,-1.1452931E-4,-1.8347992E-4,1.173163E-6],"split_indices":[0,1,0,6,0,3,0,0,0,0,0,0,0],"split_type":[0,0,0,0,0,0,0,0,0,0,0,0,0],"sum_hessian":[4.66E2,6E0,4.6E2,5E0,1E0,7.2E1,3.88E2,2E0,3E0,3.9E1,3.3E1,2.6E1,3.62E2],"tree_param":{"num_deleted":"0","num_feature":"8","num_nodes":"13","size_leaf_vector":"1"}},{"base_weights":[5.5560536E-6,4.3099473E-4,-5.003227E-5,-3.0241994E-4,1.8369015E-3,-5.4920747E-6,-4.0069158E-4,-7.89662E-5,2.477092E-4],"categories":[],"categories_nodes":[],"categories_segments":[],"categories_sizes":[],"default_left":[0,0,0,0,0,0,0,0,0],"id":74,"left_children":[1,-1,3,5,7,-1,-1,-1,-1],"loss_changes":[2.2405732E-4,0E0,2.2200655E-4,6.0947594E-4,5.93538E-4,0E0,0E0,0E0,0E0],"parents":[2147483647,0,0,2,2,3,3,4,4],"right_children":[2,-1,4,6,8,-1,-1,-1,-1],"split_conditions":[6.814263E-3,4.3099473E-4,3.0925319E-2,9.827123E-1,4.9267597E-3,-5.4920747E-6,-4.0069158E-4,-7.89662E-5,2.477092E-4],"split_indices":[4,0,1,7,0,0,0,0,0],"split_type":[0,0,0,0,0,0,0,0,0],"sum_hessian":[4.66E2,2E0,4.64E2,4.1E2,5.4E1,4.01E2,9E0,2.6E1,2.8E1],"tree_param":{"num_deleted":"0","num_feature":"8","num_nodes":"9","size_leaf_vector":"1"}},{"base_weights":[5.6926615E-6,1.0877544E-4,-4.716068E-3,2.6800777E-5,1.2532666E-2,-9.463556E-3,2.618359E-5,8.632992E-6,-2.4784546E-4,1.5039583E-4,7.8955415E-4,-5.5652513E-4,-6.9894326E-5,-1.3938965E-4,1.0650601E-4],"categories":[],"categories_nodes":[],"categories_segments":[],"categories_sizes":[],"default_left":[0,0,0,0,0,0,0,0,0,0,0,0,0,0,0],"id":75,"left_children":[1,3,5,7,9,11,13,-1,-1,-1,-1,-1,-1,-1,-1],"loss_changes":[2.2781696E-4,4.6611158E-4,2.2538562E-4,3.3233108E-4,4.5608584E-5,5.1665993E-5,4.1460906E-5,0E0,0E0,0E0,0E0,0E0,0E0,0E0,0E0],"parents":[2147483647,0,0,1,1,2,2,3,3,4,4,5,5,6,6],"right_children":[2,4,6,8,10,12,14,-1,-1,-1,-1,-1,-1,-1,-1],"split_conditions":[2.8091239E-2,2.6197106E-2,-5.136769E-1,6.1906908E-2,4.089703E-2,3.0919455E-2,1.2406157E-2,8.632992E-6,-2.4784546E-4,1.5039583E-4,7.8955415E-4,-5.5652513E-4,-6.9894326E-5,-1.3938965E-4,1.0650601E-4],"split_indices":[0,0,5,1,1,4,4,0,0,0,0,0,0,0,0],"split_type":[0,0,0,0,0,0,0,0,0,0,0,0,0,0,0],"sum_hessian":[4.66E2,4.57E2,9E0,4.55E2,2E0,4E0,5E0,4.43E2,1.2E1,1E0,1E0,3E0,1E0,2E0,3E0],"tree_param":{"num_deleted":"0","num_feature":"8","num_nodes":"15","size_leaf_vector":"1"}},{"base_weights":[5.4967563E-6,4.2432244E-4,-4.9230883E-5,-2.6958105E-3,1.4602207E-4,-3.6475714E-5,-3.819866E-4,1.7982264E-4,-7.3448655E-6],"categories":[],"categories_nodes":[],"categories_segments":[],"categories_sizes":[],"default_left":[0,0,0,0,0,0,0,0,0],"id":76,"left_children":[1,-1,3,5,7,-1,-1,-1,-1],"loss_changes":[2.1717233E-4,0E0,2.4068353E-4,3.0550553E-4,4.3917124E-4,0E0,0E0,0E0,0E0],"parents":[2147483647,0,0,2,2,3,3,4,4],"right_children":[2,-1,4,6,8,-1,-1,-1,-1],"split_conditions":[-2.1615424E0,4.2432244E-4,-1.3352921E0,-1.3384394E-2,-8.903952E-1,-3.6475714E-5,-3.819866E-4,1.7982264E-4,-7.3448655E-6],"split_indices":[6,0,6,1,6,0,0,0,0],"split_type":[0,0,0,0,0,0,0,0,0],"sum_hessian":[4.66E2,2E0,4.64E2,3.1E1,4.33E2,2.3E1,8E0,3.3E1,4E2],"tree_param":{"num_deleted":"0","num_feature":"8","num_nodes":"9","size_leaf_vector":"1"}},{"base_weights":[5.6038284E-6,-5.5255797E-3,8.957928E-5,-8.963617E-4,-8.3252223E-4,7.878721E-4,-6.657354E-4,-2.0815234E-4,8.888712E-5,5.931056E-5,-2.8635943E-4,-5.805161E-4,-1.0116906E-5],"categories":[],"categories_nodes":[],"categories_segments":[],"categories_sizes":[],"default_left":[0,0,0,0,0,0,0,0,0,0,0,0,0],"id":77,"left_children":[1,3,5,7,-1,9,11,-1,-1,-1,-1,-1,-1],"loss_changes":[2.1740883E-4,3.4557108E-4,2.4367013E-4,5.981356E-5,0E0,6.296425E-4,1.1235664E-3,0E0,0E0,0E0,0E0,0E0,0E0],"parents":[2147483647,0,0,1,1,2,2,3,3,5,5,6,6],"right_children":[2,4,6,8,-1,10,12,-1,-1,-1,-1,-1,-1],"split_conditions":[-2.9289078E-2,-4.5202628E-2,5.1461524E-1,3.220521E1,-8.3252223E-4,2.1047482E-2,4.7874268E1,-2.0815234E-4,8.888712E-5,5.931056E-5,-2.8635943E-4,-5.805161E-4,-1.0116906E-5],"split_indices":[0,1,7,2,0,1,2,0,0,0,0,0,0],"split_type":[0,0,0,0,0,0,0,0,0,0,0,0,0],"sum_hessian":[4.66E2,6E0,4.6E2,5E0,1E0,2.39E2,2.21E2,2E0,3E0,2.26E2,1.3E1,8E0,2.13E2],"tree_param":{"num_deleted":"0","num_feature":"8","num_nodes":"13","size_leaf_vector":"1"}},{"base_weights":[1.5345911E-6,1.1551675E-3,-3.874089E-4,-1.4632028E-3,3.9829533E-3,2.4688046E-4,-3.7218365E-3,9.205027E-6,-6.3027564E-4,4.7965263E-4,3.4559762E-5,-2.3603604E-6,5.401589E-4,-7.6708785E-4,-4.311253E-5],"categories":[],"categories_nodes":[],"categories_segments":[],"categories_sizes":[],"default_left":[0,0,0,0,0,0,0,0,0,0,0,0,0,0,0],"id":78,"left_children":[1,3,5,7,9,11,13,-1,-1,-1,-1,-1,-1,-1,-1],"loss_changes":[2.0998946E-4,8.795224E-4,7.4116606E-4,1.140316E-3,1.0459935E-3,9.163306E-4,1.8475484E-3,0E0,0E0,0E0,0E0,0E0,0E0,0E0,0E0],"parents":[2147483647,0,0,1,1,2,2,3,3,4,4,5,5,6,6],"right_children":[2,4,6,8,10,12,14,-1,-1,-1,-1,-1,-1,-1,-1],"split_conditions":[9.331916E-3,2.6307013E-3,1.1370408E-2,3.7329134E-1,1.6640295E-1,3.2018214E-2,1.3027029E-2,9.205027E-6,-6.3027564E-4,4.7965263E-4,3.4559762E-5,-2.3603604E-6,5.401589E-4,-7.6708785E-4,-4.311253E-5],"split_indices":[4,1,0,6,6,4,0,0,0,0,0,0,0,0,0],"split_type":[0,0,0,0,0,0,0,0,0,0,0,0,0,0,0],"sum_hessian":[4.66E2,1.17E2,3.49E2,6.1E1,5.6E1,2.94E2,5.5E1,5.4E1,7E0,2E1,3.6E1,2.87E2,7E0,1E1,4.5E1],"tree_param":{"num_deleted":"0","num_feature":"8","num_nodes":"15","size_leaf_vector":"1"}},{"base_weights":[6.457592E-7,-5.3832475E-3,8.239545E-5,-8.694543E-4,-8.116501E-4,7.4904045E-4,-6.38673E-4,-2.0113525E-4,8.5642365E-5,5.6067245E-5,-2.6705564E-4,-5.474073E-4,-1.010563E-5],"categories":[],"categories_nodes":[],"categories_segments":[],"categories_sizes":[],"default_left":[0,0,0,0,0,0,0,0,0,0,0,0,0],"id":79,"left_children":[1,3,5,7,-1,9,11,-1,-1,-1,-1,-1,-1],"loss_changes":[2.0598501E-4,3.2870105E-4,2.2207954E-4,5.574615E-5,0E0,5.50163E-4,9.969443E-4,0E0,0E0,0E0,0E0,0E0,0E0],"parents":[2147483647,0,0,1,1,2,2,3,3,5,5,6,6],"right_children":[2,4,6,8,-1,10,12,-1,-1,-1,-1,-1,-1],"split_conditions":[-2.9289078E-2,-4.5202628E-2,5.1461524E-1,3.220521E1,-8.116501E-4,2.1047482E-2,4.7874268E1,-2.0113525E-4,8.5642365E-5,5.6067245E-5,-2.6705564E-4,-5.474073E-4,-1.010563E-5],"split_indices":[0,1,7,2,0,1,2,0,0,0,0,0,0],"split_type":[0,0,0,0,0,0,0,0,0,0,0,0,0],"sum_hessian":[4.66E2,6E0,4.6E2,5E0,1E0,2.39E2,2.21E2,2E0,3E0,2.26E2,1.3E1,8E0,2.13E2],"tree_param":{"num_deleted":"0","num_feature":"8","num_nodes":"13","size_leaf_vector":"1"}},{"base_weights":[-3.0174454E-6,-2.4846572E-4,1.8401307E-3,-6.657618E-5,-7.5719557E-3,-1.3815793E-3,4.776201E-3,-1.4203736E-5,3.248481E-4,-8.830723E-4,-1.420951E-4,4.821488E-5,-3.0902386E-4,9.588203E-4,1.4996411E-4],"categories":[],"categories_nodes":[],"categories_segments":[],"categories_sizes":[],"default_left":[0,0,0,0,0,0,0,0,0,0,0,0,0,0,0],"id":80,"left_children":[1,3,5,7,9,11,13,-1,-1,-1,-1,-1,-1,-1,-1],"loss_changes":[2.1172686E-4,5.4963917E-4,5.2685285E-4,5.7857984E-4,4.270462E-4,3.0991566E-4,6.845365E-4,0E0,0E0,0E0,0E0,0E0,0E0,0E0,0E0],"parents":[2147483647,0,0,1,1,2,2,3,3,4,4,5,5,6,6],"right_children":[2,4,6,8,10,12,14,-1,-1,-1,-1,-1,-1,-1,-1],"split_conditions":[3.0925319E-2,9.827123E-1,4.9267597E-3,1.248423E0,1.9326204E-2,5.7467874E-2,3.5314433E-2,-1.4203736E-5,3.248481E-4,-8.830723E-4,-1.420951E-4,4.821488E-5,-3.0902386E-4,9.588203E-4,1.4996411E-4],"split_indices":[1,7,0,6,1,1,1,0,0,0,0,0,0,0,0],"split_type":[0,0,0,0,0,0,0,0,0,0,0,0,0,0,0],"sum_hessian":[4.66E2,4.12E2,5.4E1,4.03E2,9E0,2.6E1,2.8E1,3.91E2,1.2E1,2E0,7E0,1.8E1,8E0,2E0,2.6E1],"tree_param":{"num_deleted":"0","num_feature":"8","num_nodes":"15","size_leaf_vector":"1"}},{"base_weights":[-2.5808251E-6,9.566721E-5,-4.5020827E-3,1.528525E-5,1.2281835E-2,-8.913177E-3,-7.582357E-5,6.617124E-5,-2.3057873E-5,1.5330447E-4,7.678332E-4,-5.2200904E-4,-7.012907E-5,-1.0625832E-4,1.340954E-4],"categories":[],"categories_nodes":[],"categories_segments":[],"categories_sizes":[],"default_left":[0,0,0,0,0,0,0,0,0,0,0,0,0,0,0],"id":81,"left_children":[1,3,5,7,9,11,13,-1,-1,-1,-1,-1,-1,-1,-1],"loss_changes":[2.0687608E-4,4.484453E-4,1.945706E-4,2.8481393E-4,3.792561E-5,4.2700325E-5,3.9608723E-5,0E0,0E0,0E0,0E0,0E0,0E0,0E0,0E0],"parents":[2147483647,0,0,1,1,2,2,3,3,4,4,5,5,6,6],"right_children":[2,4,6,8,10,12,14,-1,-1,-1,-1,-1,-1,-1,-1],"split_conditions":[2.8091239E-2,2.6197106E-2,-5.136769E-1,-1.7143257E0,4.089703E-2,3.0919455E-2,4.961346E-2,6.617124E-5,-2.3057873E-5,1.5330447E-4,7.678332E-4,-5.2200904E-4,-7.012907E-5,-1.0625832E-4,1.340954E-4],"split_indices":[0,0,5,5,1,4,1,0,0,0,0,0,0,0,0],"split_type":[0,0,0,0,0,0,0,0,0,0,0,0,0,0,0],"sum_hessian":[4.66E2,4.57E2,9E0,4.55E2,2E0,4E0,5E0,1.21E2,3.34E2,1E0,1E0,3E0,1E0,3E0,2E0],"tree_param":{"num_deleted":"0","num_feature":"8","num_nodes":"15","size_leaf_vector":"1"}},{"base_weights":[-1.5953422E-6,4.1055513E-4,-5.4577056E-5,-4.2887128E-4,1.1866443E-3,-3.153528E-5,5.7585974E-4,8.9557376E-4,2.6910324E-5],"categories":[],"categories_nodes":[],"categories_segments":[],"categories_sizes":[],"default_left":[0,0,0,0,0,0,0,0,0],"id":82,"left_children":[1,-1,3,5,7,-1,-1,-1,-1],"loss_changes":[2.0365049E-4,0E0,2.1653954E-4,8.704471E-4,1.1616212E-3,0E0,0E0,0E0,0E0],"parents":[2147483647,0,0,2,2,3,3,4,4],"right_children":[2,-1,4,6,8,-1,-1,-1,-1],"split_conditions":[6.814263E-3,4.1055513E-4,1.9326204E-2,1.2734207E0,-1.1593711E-2,-3.153528E-5,5.7585974E-4,8.9557376E-4,2.6910324E-5],"split_indices":[4,0,1,6,0,0,0,0,0],"split_type":[0,0,0,0,0,0,0,0,0],"sum_hessian":[4.66E2,2E0,4.64E2,3.57E2,1.07E2,3.52E2,5E0,3E0,1.04E2],"tree_param":{"num_deleted":"0","num_feature":"8","num_nodes":"9","size_leaf_vector":"1"}},{"base_weights":[2.5044906E-6,8.1146E-3,-4.9836995E-5,4.8597567E-4,1.2261933E-4,-1.646815E-3,2.6640244E-4,-3.891473E-5,-5.110417E-4,2.0706479E-4,-5.2209984E-6],"categories":[],"categories_nodes":[],"categories_segments":[],"categories_sizes":[],"default_left":[0,0,0,0,0,0,0,0,0,0,0],"id":83,"left_children":[1,3,5,-1,-1,7,9,-1,-1,-1,-1],"loss_changes":[1.986922E-4,3.4260738E-6,2.3527647E-4,0E0,0E0,5.654418E-4,5.5938546E-4,0E0,0E0,0E0,0E0],"parents":[2147483647,0,0,1,1,2,2,5,5,6,6],"right_children":[2,4,6,-1,-1,8,10,-1,-1,-1,-1],"split_conditions":[-2.1615424E0,-2.4459798E-2,-2.2881977E-2,4.8597567E-4,1.2261933E-4,1.7688456E0,-1.5784906E-2,-3.891473E-5,-5.110417E-4,2.0706479E-4,-5.2209984E-6],"split_indices":[6,0,1,0,0,5,1,0,0,0,0],"split_type":[0,0,0,0,0,0,0,0,0,0,0],"sum_hessian":[4.66E2,2E0,4.64E2,1E0,1E0,7.6E1,3.88E2,7E1,6E0,3.3E1,3.55E2],"tree_param":{"num_deleted":"0","num_feature":"8","num_nodes":"11","size_leaf_vector":"1"}},{"base_weights":[2.93705E-6,9.770809E-5,-4.3378705E-3,1.9450257E-5,1.19603295E-2,-8.57318E-3,-8.54673E-5,7.768901E-6,-2.3122507E-4,1.4892963E-4,7.480951E-4,-5.013647E-4,-6.8918074E-5,-1.0308698E-4,1.2890258E-4],"categories":[],"categories_nodes":[],"categories_segments":[],"categories_sizes":[],"default_left":[0,0,0,0,0,0,0,0,0,0,0,0,0,0,0],"id":84,"left_children":[1,3,5,7,9,11,13,-1,-1,-1,-1,-1,-1,-1,-1],"loss_changes":[1.9253964E-4,4.2494846E-4,1.793697E-4,2.885649E-4,3.6312616E-5,3.8489234E-5,3.6898302E-5,0E0,0E0,0E0,0E0,0E0,0E0,0E0,0E0],"parents":[2147483647,0,0,1,1,2,2,3,3,4,4,5,5,6,6],"right_children":[2,4,6,8,10,12,14,-1,-1,-1,-1,-1,-1,-1,-1],"split_conditions":[2.8091239E-2,2.6197106E-2,-5.136769E-1,6.1906908E-2,4.089703E-2,3.0919455E-2,4.961346E-2,7.768901E-6,-2.3122507E-4,1.4892963E-4,7.480951E-4,-5.013647E-4,-6.8918074E-5,-1.0308698E-4,1.2890258E-4],"split_indices":[0,0,5,1,1,4,1,0,0,0,0,0,0,0,0],"split_type":[0,0,0,0,0,0,0,0,0,0,0,0,0,0,0],"sum_hessian":[4.66E2,4.57E2,9E0,4.55E2,2E0,4E0,5E0,4.43E2,1.2E1,1E0,1E0,3E0,1E0,3E0,2E0],"tree_param":{"num_deleted":"0","num_feature":"8","num_nodes":"15","size_leaf_vector":"1"}},{"base_weights":[3.0666222E-6,-2.2319549E-4,1.853032E-3,2.0551425E-4,-3.5231833E-3,4.13086E-3,-1.884144E-3,-7.700887E-6,2.3893034E-4,-1.4664462E-3,-1.1750526E-4,9.872353E-5,5.176609E-4,5.303552E-4,-1.9306722E-4],"categories":[],"categories_nodes":[],"categories_segments":[],"categories_sizes":[],"default_left":[0,0,0,0,0,0,0,0,0,0,0,0,0,0,0],"id":85,"left_children":[1,3,5,7,9,11,13,-1,-1,-1,-1,-1,-1,-1,-1],"loss_changes":[1.9588908E-4,5.9066934E-4,4.4192796E-4,6.0908E-4,1.3841368E-3,4.0892826E-4,5.3491164E-4,0E0,0E0,0E0,0E0,0E0,0E0,0E0,0E0],"parents":[2147483647,0,0,1,1,2,2,3,3,4,4,5,5,6,6],"right_children":[2,4,6,8,10,12,14,-1,-1,-1,-1,-1,-1,-1,-1],"split_conditions":[3.230883E-2,6.220602E1,1.8167578E-2,2.6898425E0,-4.1234124E-1,1.2406157E-2,3.5314433E-2,-7.700887E-6,2.3893034E-4,-1.4664462E-3,-1.1750526E-4,9.872353E-5,5.176609E-4,5.303552E-4,-1.9306722E-4],"split_indices":[1,2,4,5,6,4,1,0,0,0,0,0,0,0,0],"split_type":[0,0,0,0,0,0,0,0,0,0,0,0,0,0,0],"sum_hessian":[4.66E2,4.16E2,5E1,3.69E2,4.7E1,3.1E1,1.9E1,3.43E2,2.6E1,1E0,4.6E1,2.4E1,7E0,2E0,1.7E1],"tree_param":{"num_deleted":"0","num_feature":"8","num_nodes":"15","size_leaf_vector":"1"}},{"base_weights":[2.0587831E-6,7.953619E-3,-4.924603E-5,4.7382453E-4,1.2269687E-4,-3.8596147E-4,1.7267343E-5,6.1703955E-5,-1.9477762E-5],"categories":[],"categories_nodes":[],"categories_segments":[],"categories_sizes":[],"default_left":[0,0,0,0,0,0,0,0,0],"id":86,"left_children":[1,3,5,-1,-1,-1,7,-1,-1],"loss_changes":[1.9090586E-4,1.8712162E-6,2.3735603E-4,0E0,0E0,0E0,2.2918297E-4,0E0,0E0],"parents":[2147483647,0,0,1,1,2,2,6,6],"right_children":[2,4,6,-1,-1,-1,8,-1,-1],"split_conditions":[2.55992E1,-2.4459798E-2,-2.9657274E-1,4.7382453E-4,1.2269687E-4,-3.8596147E-4,9.331916E-3,6.1703955E-5,-1.9477762E-5],"split_indices":[2,0,7,0,0,0,4,0,0],"split_type":[0,0,0,0,0,0,0,0,0],"sum_hessian":[4.66E2,2E0,4.64E2,1E0,1E0,3E0,4.61E2,1.15E2,3.46E2],"tree_param":{"num_deleted":"0","num_feature":"8","num_nodes":"9","size_leaf_vector":"1"}},{"base_weights":[2.4971237E-6,3.9144684E-4,-4.800141E-5,-4.0658587E-4,1.1410841E-3,-1.3287613E-5,-8.491658E-4,8.6513505E-4,2.5726802E-5],"categories":[],"categories_nodes":[],"categories_segments":[],"categories_sizes":[],"default_left":[0,0,0,0,0,0,0,0,0],"id":87,"left_children":[1,-1,3,5,7,-1,-1,-1,-1],"loss_changes":[1.849453E-4,0E0,1.9873418E-4,8.3125953E-4,1.0847084E-3,0E0,0E0,0E0,0E0],"parents":[2147483647,0,0,2,2,3,3,4,4],"right_children":[2,-1,4,6,8,-1,-1,-1,-1],"split_conditions":[6.814263E-3,3.9144684E-4,1.9326204E-2,9.4782394E-1,-1.1593711E-2,-1.3287613E-5,-8.491658E-4,8.6513505E-4,2.5726802E-5],"split_indices":[4,0,1,7,0,0,0,0,0],"split_type":[0,0,0,0,0,0,0,0,0],"sum_hessian":[4.66E2,2E0,4.64E2,3.57E2,1.07E2,3.55E2,2E0,3E0,1.04E2],"tree_param":{"num_deleted":"0","num_feature":"8","num_nodes":"9","size_leaf_vector":"1"}},{"base_weights":[3.2713344E-6,7.769096E-3,-4.68378E-5,4.6231094E-4,1.2037128E-4,-2.5985914E-3,1.4141786E-4,-3.5225392E-5,-3.6803746E-4,1.687804E-4,-6.6577704E-6],"categories":[],"categories_nodes":[],"categories_segments":[],"categories_sizes":[],"default_left":[0,0,0,0,0,0,0,0,0,0,0],"id":88,"left_children":[1,3,5,-1,-1,7,9,-1,-1,-1,-1],"loss_changes":[1.820917E-4,1.4999532E-6,2.2374516E-4,0E0,0E0,2.8345187E-4,3.8585108E-4,0E0,0E0,0E0,0E0],"parents":[2147483647,0,0,1,1,2,2,5,5,6,6],"right_children":[2,4,6,-1,-1,8,10,-1,-1,-1,-1],"split_conditions":[-2.1615424E0,-2.4459798E-2,-1.3352921E0,4.6231094E-4,1.2037128E-4,-1.3384394E-2,-8.903952E-1,-3.5225392E-5,-3.6803746E-4,1.687804E-4,-6.6577704E-6],"split_indices":[6,0,6,0,0,1,6,0,0,0,0],"split_type":[0,0,0,0,0,0,0,0,0,0,0],"sum_hessian":[4.66E2,2E0,4.64E2,1E0,1E0,3.1E1,4.33E2,2.3E1,8E0,3.3E1,4E2],"tree_param":{"num_deleted":"0","num_feature":"8","num_nodes":"11","size_leaf_vector":"1"}},{"base_weights":[3.839128E-6,-5.0587407E-3,8.070295E-5,-6.506504E-4,-7.876821E-4,-5.463114E-4,7.8212854E-4,-1.802364E-4,8.637853E-5,6.9332673E-6,-2.917685E-4,6.783107E-5,-1.2997522E-4],"categories":[],"categories_nodes":[],"categories_segments":[],"categories_sizes":[],"default_left":[0,0,0,0,0,0,0,0,0,0,0,0,0],"id":89,"left_children":[1,3,5,7,-1,9,11,-1,-1,-1,-1,-1,-1],"loss_changes":[1.8213161E-4,3.1975855E-4,2.0317687E-4,4.8380116E-5,0E0,8.847923E-4,4.270402E-4,0E0,0E0,0E0,0E0,0E0,0E0],"parents":[2147483647,0,0,1,1,2,2,3,3,5,5,6,6],"right_children":[2,4,6,8,-1,10,12,-1,-1,-1,-1,-1,-1],"split_conditions":[-2.9289078E-2,-4.5202628E-2,1.1004603E-2,3.220521E1,-7.876821E-4,1.0602301E-2,7.8752875E-1,-1.802364E-4,8.637853E-5,6.9332673E-6,-2.917685E-4,6.783107E-5,-1.2997522E-4],"split_indices":[0,1,4,2,0,4,7,0,0,0,0,0,0],"split_type":[0,0,0,0,0,0,0,0,0,0,0,0,0],"sum_hessian":[4.66E2,6E0,4.6E2,5E0,1E0,2.43E2,2.17E2,2E0,3E0,2.16E2,2.7E1,1.86E2,3.1E1],"tree_param":{"num_deleted":"0","num_feature":"8","num_nodes":"13","size_leaf_vector":"1"}},{"base_weights":[1.0165138E-6,-2.1579447E-4,1.7737452E-3,1.9034998E-4,-3.3419954E-3,7.127492E-3,2.9411202E-4,1.7337634E-5,-4.677936E-4,-1.4215052E-3,-1.1016551E-4,1.817229E-4,1.0514458E-3,1.6222957E-4,-1.8280999E-4],"categories":[],"categories_nodes":[],"categories_segments":[],"categories_sizes":[],"default_left":[0,0,0,0,0,0,0,0,0,0,0,0,0,0,0],"id":90,"left_children":[1,3,5,7,9,11,13,-1,-1,-1,-1,-1,-1,-1,-1],"loss_changes":[1.7987283E-4,5.300965E-4,4.019044E-4,5.5567437E-4,1.3085979E-3,4.57711E-4,4.8973074E-4,0E0,0E0,0E0,0E0,0E0,0E0,0E0,0E0],"parents":[2147483647,0,0,1,1,2,2,3,3,4,4,5,5,6,6],"right_children":[2,4,6,8,10,12,14,-1,-1,-1,-1,-1,-1,-1,-1],"split_conditions":[3.230883E-2,6.220602E1,3.631075E-2,9.4782394E-1,-4.1234124E-1,1.8332252E-2,1.7783808E-2,1.7337634E-5,-4.677936E-4,-1.4215052E-3,-1.1016551E-4,1.817229E-4,1.0514458E-3,1.6222957E-4,-1.8280999E-4],"split_indices":[1,2,1,7,6,4,4,0,0,0,0,0,0,0,0],"split_type":[0,0,0,0,0,0,0,0,0,0,0,0,0,0,0],"sum_hessian":[4.66E2,4.16E2,5E1,3.69E2,4.7E1,1E1,4E1,3.64E2,5E0,1E0,4.6E1,9E0,1E0,2.3E1,1.7E1],"tree_param":{"num_deleted":"0","num_feature":"8","num_nodes":"15","size_leaf_vector":"1"}},{"base_weights":[-6.8215115E-7,-8.198499E-5,4.674316E-3,2.5102802E-4,-1.5126157E-3,1.4005271E-2,-7.702139E-4,-8.380194E-6,1.782102E-4,-2.74227E-4,5.694466E-5,2.5235558E-5,1.0251597E-3,-1.9706502E-4,1.8573197E-4],"categories":[],"categories_nodes":[],"categories_segments":[],"categories_sizes":[],"default_left":[0,0,0,0,0,0,0,0,0,0,0,0,0,0,0],"id":91,"left_children":[1,3,5,7,9,11,13,-1,-1,-1,-1,-1,-1,-1,-1],"loss_changes":[1.7788554E-4,2.1953229E-4,4.172084E-4,5.193358E-4,9.224948E-4,2.5282864E-4,9.9971665E-5,0E0,0E0,0E0,0E0,0E0,0E0,0E0,0E0],"parents":[2147483647,0,0,1,1,2,2,3,3,4,4,5,5,6,6],"right_children":[2,4,6,8,10,12,14,-1,-1,-1,-1,-1,-1,-1,-1],"split_conditions":[3.2776978E-2,5.837081E-1,3.5314433E-2,4.1339886E-1,9.553346E-1,-7.785893E-3,-2.9863077E-1,-8.380194E-6,1.782102E-4,-2.74227E-4,5.694466E-5,2.5235558E-5,1.0251597E-3,-1.9706502E-4,1.8573197E-4],"split_indices":[4,6,1,6,6,0,5,0,0,0,0,0,0,0,0],"split_type":[0,0,0,0,0,0,0,0,0,0,0,0,0,0,0],"sum_hessian":[4.66E2,4.59E2,7E0,3.73E2,8.6E1,2E0,5E0,3.32E2,4.1E1,3.4E1,5.2E1,1E0,1E0,3E0,2E0],"tree_param":{"num_deleted":"0","num_feature":"8","num_nodes":"15","size_leaf_vector":"1"}},{"base_weights":[1.4753283E-6,-4.9394155E-3,7.64965E-5,-6.4122543E-4,-7.6821394E-4,1.5680749E-3,-2.0361076E-4,-1.7452711E-4,8.280343E-5,2.419666E-4,-1.16329116E-4,-1.7405658E-4,2.036634E-6],"categories":[],"categories_nodes":[],"categories_segments":[],"categories_sizes":[],"default_left":[0,0,0,0,0,0,0,0,0,0,0,0,0],"id":92,"left_children":[1,3,5,7,-1,9,11,-1,-1,-1,-1,-1,-1],"loss_changes":[1.734814E-4,3.038043E-4,1.92926E-4,4.505489E-5,0E0,9.413102E-4,3.1166882E-4,0E0,0E0,0E0,0E0,0E0,0E0],"parents":[2147483647,0,0,1,1,2,2,3,3,5,5,6,6],"right_children":[2,4,6,8,-1,10,12,-1,-1,-1,-1,-1,-1],"split_conditions":[-2.9289078E-2,-4.5202628E-2,-9.288693E-3,3.220521E1,-7.6821394E-4,1E0,-7.1774614E-3,-1.7452711E-4,8.280343E-5,2.419666E-4,-1.16329116E-4,-1.7405658E-4,2.036634E-6],"split_indices":[0,1,0,2,0,3,0,0,0,0,0,0,0],"split_type":[0,0,0,0,0,0,0,0,0,0,0,0,0],"sum_hessian":[4.66E2,6E0,4.6E2,5E0,1E0,7.2E1,3.88E2,2E0,3E0,3.9E1,3.3E1,2.6E1,3.62E2],"tree_param":{"num_deleted":"0","num_feature":"8","num_nodes":"13","size_leaf_vector":"1"}},{"base_weights":[-5.39169E-7,3.7707176E-4,-4.9195907E-5,-3.9129332E-4,1.0852492E-3,-2.9137216E-5,5.4688106E-4,8.2647643E-4,2.4328E-5],"categories":[],"categories_nodes":[],"categories_segments":[],"categories_sizes":[],"default_left":[0,0,0,0,0,0,0,0,0],"id":93,"left_children":[1,-1,3,5,7,-1,-1,-1,-1],"loss_changes":[1.7174499E-4,0E0,1.8088684E-4,7.8285136E-4,9.905604E-4,0E0,0E0,0E0,0E0],"parents":[2147483647,0,0,2,2,3,3,4,4],"right_children":[2,-1,4,6,8,-1,-1,-1,-1],"split_conditions":[6.814263E-3,3.7707176E-4,1.9326204E-2,1.2734207E0,-1.1593711E-2,-2.9137216E-5,5.4688106E-4,8.2647643E-4,2.4328E-5],"split_indices":[4,0,1,6,0,0,0,0,0],"split_type":[0,0,0,0,0,0,0,0,0],"sum_hessian":[4.66E2,2E0,4.64E2,3.57E2,1.07E2,3.52E2,5E0,3E0,1.04E2],"tree_param":{"num_deleted":"0","num_feature":"8","num_nodes":"9","size_leaf_vector":"1"}},{"base_weights":[3.2257299E-6,9.272032E-5,-4.095949E-3,1.7543261E-5,1.1488726E-2,-5.1653705E-4,-1.2459083E-3,7.406762E-6,-2.2220123E-4,1.480822E-4,7.135723E-4,8.332728E-5,-1.6633449E-4],"categories":[],"categories_nodes":[],"categories_segments":[],"categories_sizes":[],"default_left":[0,0,0,0,0,0,0,0,0,0,0,0,0],"id":94,"left_children":[1,3,5,7,9,-1,11,-1,-1,-1,-1,-1,-1],"loss_changes":[1.717006E-4,3.921754E-4,1.6482298E-4,2.6634443E-4,2.8918497E-5,0E0,5.4025524E-5,0E0,0E0,0E0,0E0,0E0,0E0],"parents":[2147483647,0,0,1,1,2,2,3,3,4,4,6,6],"right_children":[2,4,6,8,10,-1,12,-1,-1,-1,-1,-1,-1],"split_conditions":[2.8091239E-2,2.6197106E-2,-1.6168307E-3,6.1906908E-2,4.089703E-2,-5.1653705E-4,3.6815744E-2,7.406762E-6,-2.2220123E-4,1.480822E-4,7.135723E-4,8.332728E-5,-1.6633449E-4],"split_indices":[0,0,1,1,1,0,0,0,0,0,0,0,0],"split_type":[0,0,0,0,0,0,0,0,0,0,0,0,0],"sum_hessian":[4.66E2,4.57E2,9E0,4.55E2,2E0,2E0,7E0,4.43E2,1.2E1,1E0,1E0,3E0,4E0],"tree_param":{"num_deleted":"0","num_feature":"8","num_nodes":"13","size_leaf_vector":"1"}},{"base_weights":[3.1657403E-6,-7.7633864E-5,4.6487474E-3,1.4528508E-4,-2.242808E-3,1.3709144E-2,-6.56242E-4,-6.3874245E-6,1.778961E-4,2.3258074E-4,-1.856301E-4,2.9499352E-5,9.986864E-4,-1.8589965E-4,1.82242E-4],"categories":[],"categories_nodes":[],"categories_segments":[],"categories_sizes":[],"default_left":[0,0,0,0,0,0,0,0,0,0,0,0,0,0,0],"id":95,"left_children":[1,3,5,7,9,11,13,-1,-1,-1,-1,-1,-1,-1,-1],"loss_changes":[1.7565457E-4,2.2234868E-4,3.9351895E-4,3.8993204E-4,4.5300493E-4,2.3477396E-4,9.256454E-5,0E0,0E0,0E0,0E0,0E0,0E0,0E0,0E0],"parents":[2147483647,0,0,1,1,2,2,3,3,4,4,5,5,6,6],"right_children":[2,4,6,8,10,12,14,-1,-1,-1,-1,-1,-1,-1,-1],"split_conditions":[3.2776978E-2,1.8992512E-2,3.5314433E-2,3.5314433E-2,-1.953948E-2,-7.785893E-3,-2.9863077E-1,-6.3874245E-6,1.778961E-4,2.3258074E-4,-1.856301E-4,2.9499352E-5,9.986864E-4,-1.8589965E-4,1.82242E-4],"split_indices":[4,4,1,1,0,0,5,0,0,0,0,0,0,0,0],"split_type":[0,0,0,0,0,0,0,0,0,0,0,0,0,0,0],"sum_hessian":[4.66E2,4.59E2,7E0,4.17E2,4.2E1,2E0,5E0,3.87E2,3E1,7E0,3.5E1,1E0,1E0,3E0,2E0],"tree_param":{"num_deleted":"0","num_feature":"8","num_nodes":"15","size_leaf_vector":"1"}},{"base_weights":[5.66913E-6,-7.327724E-5,4.5443764E-3,5.82761E-4,-8.235662E-4,1.3366416E-2,-6.2403944E-4,4.632554E-5,-2.589921E-4,-5.0633645E-4,-2.0755117E-5,2.8761873E-5,9.7371935E-4,-1.7892841E-4,1.7616728E-4],"categories":[],"categories_nodes":[],"categories_segments":[],"categories_sizes":[],"default_left":[0,0,0,0,0,0,0,0,0,0,0,0,0,0,0],"id":96,"left_children":[1,3,5,7,9,11,13,-1,-1,-1,-1,-1,-1,-1,-1],"loss_changes":[1.6766586E-4,2.2690035E-4,3.73109E-4,4.9209886E-4,8.1279763E-4,2.2318203E-4,8.612994E-5,0E0,0E0,0E0,0E0,0E0,0E0,0E0,0E0],"parents":[2147483647,0,0,1,1,2,2,3,3,4,4,5,5,6,6],"right_children":[2,4,6,8,10,12,14,-1,-1,-1,-1,-1,-1,-1,-1],"split_conditions":[3.2776978E-2,5.172744E-1,3.5314433E-2,2.1047482E-2,4.7874268E1,-7.785893E-3,-2.9863077E-1,4.632554E-5,-2.589921E-4,-5.0633645E-4,-2.0755117E-5,2.8761873E-5,9.7371935E-4,-1.7892841E-4,1.7616728E-4],"split_indices":[4,7,1,1,2,0,5,0,0,0,0,0,0,0,0],"split_type":[0,0,0,0,0,0,0,0,0,0,0,0,0,0,0],"sum_hessian":[4.66E2,4.59E2,7E0,2.45E2,2.14E2,2E0,5E0,2.32E2,1.3E1,8E0,2.06E2,1E0,1E0,3E0,2E0],"tree_param":{"num_deleted":"0","num_feature":"8","num_nodes":"15","size_leaf_vector":"1"}},{"base_weights":[5.9423433E-6,-4.8650377E-3,7.989227E-5,-6.794527E-4,-7.494637E-4,-5.75853E-4,7.075132E-4,-1.732993E-4,7.901552E-5,6.5643867E-6,-7.9316105E-4,6.5507396E-5,-1.5196524E-4],"categories":[],"categories_nodes":[],"categories_segments":[],"categories_sizes":[],"default_left":[0,0,0,0,0,0,0,0,0,0,0,0,0],"id":97,"left_children":[1,3,5,7,-1,9,11,-1,-1,-1,-1,-1,-1],"loss_changes":[1.6860612E-4,2.8644642E-4,1.9013634E-4,4.3258762E-5,0E0,2.4452154E-3,5.368611E-4,0E0,0E0,0E0,0E0,0E0,0E0],"parents":[2147483647,0,0,1,1,2,2,3,3,5,5,6,6],"right_children":[2,4,6,8,-1,10,12,-1,-1,-1,-1,-1,-1],"split_conditions":[-2.9289078E-2,-4.5202628E-2,1.0703167E-2,3.220521E1,-7.494637E-4,1.0602301E-2,7.8752875E-1,-1.732993E-4,7.901552E-5,6.5643867E-6,-7.9316105E-4,6.5507396E-5,-1.5196524E-4],"split_indices":[0,1,4,2,0,4,7,0,0,0,0,0,0],"split_type":[0,0,0,0,0,0,0,0,0,0,0,0,0],"sum_hessian":[4.66E2,6E0,4.6E2,5E0,1E0,2.25E2,2.35E2,2E0,3E0,2.16E2,9E0,2.03E2,3.2E1],"tree_param":{"num_deleted":"0","num_feature":"8","num_nodes":"13","size_leaf_vector":"1"}},{"base_weights":[1.9689714E-6,-7.614958E-5,4.4935397E-3,2.3299806E-4,-1.5040863E-3,1.2988583E-2,-5.029054E-4,-7.844968E-6,1.4952528E-4,-2.977281E-4,5.2171505E-5,2.6405138E-5,9.4773865E-4,-1.6923831E-4,1.7536053E-4],"categories":[],"categories_nodes":[],"categories_segments":[],"categories_sizes":[],"default_left":[0,0,0,0,0,0,0,0,0,0,0,0,0,0,0],"id":98,"left_children":[1,3,5,7,9,11,13,-1,-1,-1,-1,-1,-1,-1,-1],"loss_changes":[1.6420081E-4,2.0341435E-4,3.460922E-4,4.0794918E-4,9.3590136E-4,2.1301472E-4,8.121067E-5,0E0,0E0,0E0,0E0,0E0,0E0,0E0,0E0],"parents":[2147483647,0,0,1,1,2,2,3,3,4,4,5,5,6,6],"right_children":[2,4,6,8,10,12,14,-1,-1,-1,-1,-1,-1,-1,-1],"split_conditions":[3.2776978E-2,6.60355E-1,3.5314433E-2,4.1339886E-1,9.553346E-1,-7.785893E-3,-2.9863077E-1,-7.844968E-6,1.4952528E-4,-2.977281E-4,5.2171505E-5,2.6405138E-5,9.4773865E-4,-1.6923831E-4,1.7536053E-4],"split_indices":[4,6,1,6,6,0,5,0,0,0,0,0,0,0,0],"split_type":[0,0,0,0,0,0,0,0,0,0,0,0,0,0,0],"sum_hessian":[4.66E2,4.59E2,7E0,3.78E2,8.1E1,2E0,5E0,3.32E2,4.6E1,2.9E1,5.2E1,1E0,1E0,3E0,2E0],"tree_param":{"num_deleted":"0","num_feature":"8","num_nodes":"15","size_leaf_vector":"1"}},{"base_weights":[3.747163E-6,1.0238872E-3,-3.4019648E-4,-1.4819632E-3,3.731586E-3,2.3600236E-4,-3.306201E-3,1.1666791E-6,-5.822817E-4,4.5370948E-4,2.9922196E-5,-1.2758381E-6,4.7942504E-4,-6.526671E-4,-3.4579734E-5],"categories":[],"categories_nodes":[],"categories_segments":[],"categories_sizes":[],"default_left":[0,0,0,0,0,0,0,0,0,0,0,0,0,0,0],"id":99,"left_children":[1,3,5,7,9,11,13,-1,-1,-1,-1,-1,-1,-1,-1],"loss_changes":[1.6420492E-4,8.061705E-4,5.9893326E-4,9.488308E-4,9.4870036E-4,7.1932666E-4,1.443614E-3,0E0,0E0,0E0,0E0,0E0,0E0,0E0,0E0],"parents":[2147483647,0,0,1,1,2,2,3,3,4,4,5,5,6,6],"right_children":[2,4,6,8,10,12,14,-1,-1,-1,-1,-1,-1,-1,-1],"split_conditions":[9.331916E-3,2.6307013E-3,1.1250261E-2,3.7329134E-1,1.6640295E-1,3.2018214E-2,1.3027029E-2,1.1666791E-6,-5.822817E-4,4.5370948E-4,2.9922196E-5,-1.2758381E-6,4.7942504E-4,-6.526671E-4,-3.4579734E-5],"split_indices":[4,1,0,6,6,4,0,0,0,0,0,0,0,0,0],"split_type":[0,0,0,0,0,0,0,0,0,0,0,0,0,0,0],"sum_hessian":[4.66E2,1.17E2,3.49E2,6.1E1,5.6E1,2.93E2,5.6E1,5.4E1,7E0,2E1,3.6E1,2.86E2,7E0,1.1E1,4.5E1],"tree_param":{"num_deleted":"0","num_feature":"8","num_nodes":"15","size_leaf_vector":"1"}}]},"name":"gbtree"},"learner_model_param":{"base_score":"[1.6444168E-4]","boost_from_average":"1","num_class":"0","num_feature":"8","num_target":"1"},"objective":{"name":"reg:squarederror","reg_loss_param":{"scale_pos_weight":"1"}}},"version":[3,1,2]}