{"learner":{"attributes":{"scikit_learn":"{\"_estimator_type\": \"regressor\"}"},"feature_names":["Ret_1d","Ret_5d","RSI","Trend_Signal","Vol_20d","MACD","MACD_Diff","BB_Pos"],"feature_types":["float","float","float","int","float","float","float","float"],"gradient_booster":{"model":{"cats":{"enc":[],"feature_segments":[],"sorted_idx":[]},"gbtree_model_param":{"num_parallel_tree":"1","num_trees":"100"},"iteration_indptr":[0,1,2,3,4,5,6,7,8,9,10,11,12,13,14,15,16,17,18,19,20,21,22,23,24,25,26,27,28,29,30,31,32,33,34,35,36,37,38,39,40,41,42,43,44,45,46,47,48,49,50,51,52,53,54,55,56,57,58,59,60,61,62,63,64,65,66,67,68,69,70,71,72,73,74,75,76,77,78,79,80,81,82,83,84,85,86,87,88,89,90,91,92,93,94,95,96,97,98,99,100],"tree_info":[0,0,0,0,0,0,0,0,0,0,0,0,0,0,0,0,0,0,0,0,0,0,0,0,0,0,0,0,0,0,0,0,0,0,0,0,0,0,0,0,0,0,0,0,0,0,0,0,0,0,0,0,0,0,0,0,0,0,0,0,0,0,0,0,0,0,0,0,0,0,0,0,0,0,0,0,0,0,0,0,0,0,0,0,0,0,0,0,0,0,0,0,0,0,0,0,0,0,0,0],"trees":[{"base_weights":[-4.758196E-11,1.0177753E-2,-1.5454294E-4,3.5876792E-4,8.7261497E-4,9.697233E-5,-6.010686E-3,9.2023125E-5,-1.02157894E-4,-6.224689E-5,4.889325E-5,-4.814981E-4,1.7180362E-4],"categories":[],"categories_nodes":[],"categories_segments":[],"categories_sizes":[],"default_left":[0,0,0,0,0,0,0,0,0,0,0,0,0],"id":0,"left_children":[1,3,5,7,-1,9,11,-1,-1,-1,-1,-1,-1],"loss_changes":[7.3611696E-4,4.9373944E-4,6.795941E-4,1.7996035E-5,0E0,5.248782E-4,6.827073E-4,0E0,0E0,0E0,0E0,0E0,0E0],"parents":[2147483647,0,0,1,1,2,2,3,3,5,5,6,6],"right_children":[2,4,6,8,-1,10,12,-1,-1,-1,-1,-1,-1],"split_conditions":[-4.266962E-2,-5.4322286E-3,1.8703563E-2,-1.6001172E-2,8.7261497E-4,-5.785292E-3,1.2552056E-2,9.2023125E-5,-1.02157894E-4,-6.224689E-5,4.889325E-5,-4.814981E-4,1.7180362E-4],"split_indices":[1,0,0,0,0,1,4,0,0,0,0,0,0],"split_type":[0,0,0,0,0,0,0,0,0,0,0,0,0],"sum_hessian":[4.66E2,6E0,4.6E2,3E0,3E0,4.42E2,1.8E1,2E0,1E0,1.75E2,2.67E2,1.3E1,5E0],"tree_param":{"num_deleted":"0","num_feature":"8","num_nodes":"13","size_leaf_vector":"1"}},{"base_weights":[1.1550364E-6,9.792077E-3,-1.4751656E-4,3.382958E-4,8.3989196E-4,9.209354E-5,-5.7264515E-3,8.895568E-5,-9.960395E-5,-5.9152233E-5,4.6457702E-5,5.169241E-5,-5.36851E-4],"categories":[],"categories_nodes":[],"categories_segments":[],"categories_sizes":[],"default_left":[0,0,0,0,0,0,0,0,0,0,0,0,0],"id":1,"left_children":[1,3,5,7,-1,9,11,-1,-1,-1,-1,-1,-1],"loss_changes":[6.812246E-4,4.5793393E-4,6.1677804E-4,1.6974718E-5,0E0,4.739432E-4,6.5468636E-4,0E0,0E0,0E0,0E0,0E0,0E0],"parents":[2147483647,0,0,1,1,2,2,3,3,5,5,6,6],"right_children":[2,4,6,8,-1,10,12,-1,-1,-1,-1,-1,-1],"split_conditions":[-4.266962E-2,-5.4322286E-3,1.8703563E-2,-1.6001172E-2,8.3989196E-4,-5.785292E-3,7.521697E-3,8.895568E-5,-9.960395E-5,-5.9152233E-5,4.6457702E-5,5.169241E-5,-5.36851E-4],"split_indices":[1,0,0,0,0,1,6,0,0,0,0,0,0],"split_type":[0,0,0,0,0,0,0,0,0,0,0,0,0],"sum_hessian":[4.66E2,6E0,4.6E2,3E0,3E0,4.42E2,1.8E1,2E0,1E0,1.75E2,2.67E2,8E0,1E1],"tree_param":{"num_deleted":"0","num_feature":"8","num_nodes":"13","size_leaf_vector":"1"}},{"base_weights":[1.8069376E-6,9.420937E-3,-1.4122065E-4,3.1871896E-4,8.08396E-4,8.7460256E-5,-5.4656635E-3,1.239918E-4,-6.141327E-5,-5.6211426E-5,4.4143493E-5,-9.3755625E-5,-7.572092E-4],"categories":[],"categories_nodes":[],"categories_segments":[],"categories_sizes":[],"default_left":[0,0,0,0,0,0,0,0,0,0,0,0,0],"id":2,"left_children":[1,3,5,7,-1,9,11,-1,-1,-1,-1,-1,-1],"loss_changes":[6.304707E-4,4.247345E-4,5.617909E-4,1.6418755E-5,0E0,4.27951E-4,6.3187623E-4,0E0,0E0,0E0,0E0,0E0,0E0],"parents":[2147483647,0,0,1,1,2,2,3,3,5,5,6,6],"right_children":[2,4,6,8,-1,10,12,-1,-1,-1,-1,-1,-1],"split_conditions":[-4.266962E-2,-5.4322286E-3,1.8703563E-2,2.4985456E1,8.08396E-4,-5.785292E-3,6.883451E-1,1.239918E-4,-6.141327E-5,-5.6211426E-5,4.4143493E-5,-9.3755625E-5,-7.572092E-4],"split_indices":[1,0,0,2,0,1,5,0,0,0,0,0,0],"split_type":[0,0,0,0,0,0,0,0,0,0,0,0,0],"sum_hessian":[4.66E2,6E0,4.6E2,3E0,3E0,4.42E2,1.8E1,1E0,2E0,1.75E2,2.67E2,1.4E1,4E0],"tree_param":{"num_deleted":"0","num_feature":"8","num_nodes":"13","size_leaf_vector":"1"}},{"base_weights":[1.7336698E-6,9.074315E-3,-1.3603164E-4,3.1842757E-4,7.780812E-4,8.306007E-5,-5.237168E-3,8.494752E-5,-9.5578514E-5,8.6796545E-6,-4.948168E-4,-4.3326593E-4,1.817356E-4],"categories":[],"categories_nodes":[],"categories_segments":[],"categories_sizes":[],"default_left":[0,0,0,0,0,0,0,0,0,0,0,0,0],"id":3,"left_children":[1,3,5,7,-1,9,11,-1,-1,-1,-1,-1,-1],"loss_changes":[5.8493164E-4,3.9265974E-4,5.156563E-4,1.5561915E-5,0E0,4.0195286E-4,6.0936454E-4,0E0,0E0,0E0,0E0,0E0,0E0],"parents":[2147483647,0,0,1,1,2,2,3,3,5,5,6,6],"right_children":[2,4,6,8,-1,10,12,-1,-1,-1,-1,-1,-1],"split_conditions":[-4.266962E-2,-5.4322286E-3,1.8703563E-2,-1.6001172E-2,7.780812E-4,2.1946762E0,1.2552056E-2,8.494752E-5,-9.5578514E-5,8.6796545E-6,-4.948168E-4,-4.3326593E-4,1.817356E-4],"split_indices":[1,0,0,0,0,5,4,0,0,0,0,0,0],"split_type":[0,0,0,0,0,0,0,0,0,0,0,0,0],"sum_hessian":[4.66E2,6E0,4.6E2,3E0,3E0,4.42E2,1.8E1,2E0,1E0,4.39E2,3E0,1.3E1,5E0],"tree_param":{"num_deleted":"0","num_feature":"8","num_nodes":"13","size_leaf_vector":"1"}},{"base_weights":[1.7106755E-6,8.730235E-3,-1.3083027E-4,2.998485E-4,7.4890314E-4,7.78096E-5,-4.988548E-3,1.1876832E-4,-5.918898E-5,-5.384834E-5,4.1793995E-5,-7.7361314E-5,-7.157402E-4],"categories":[],"categories_nodes":[],"categories_segments":[],"categories_sizes":[],"default_left":[0,0,0,0,0,0,0,0,0,0,0,0,0],"id":4,"left_children":[1,3,5,7,-1,9,11,-1,-1,-1,-1,-1,-1],"loss_changes":[5.4140843E-4,3.642101E-4,4.6761797E-4,1.5129097E-5,0E0,3.8870316E-4,5.876501E-4,0E0,0E0,0E0,0E0,0E0,0E0],"parents":[2147483647,0,0,1,1,2,2,3,3,5,5,6,6],"right_children":[2,4,6,8,-1,10,12,-1,-1,-1,-1,-1,-1],"split_conditions":[-4.266962E-2,-5.4322286E-3,1.8703563E-2,2.4985456E1,7.4890314E-4,-5.785292E-3,6.883451E-1,1.1876832E-4,-5.918898E-5,-5.384834E-5,4.1793995E-5,-7.7361314E-5,-7.157402E-4],"split_indices":[1,0,0,2,0,1,5,0,0,0,0,0,0],"split_type":[0,0,0,0,0,0,0,0,0,0,0,0,0],"sum_hessian":[4.66E2,6E0,4.6E2,3E0,3E0,4.42E2,1.8E1,1E0,2E0,1.75E2,2.67E2,1.4E1,4E0],"tree_param":{"num_deleted":"0","num_feature":"8","num_nodes":"13","size_leaf_vector":"1"}},{"base_weights":[1.6322805E-6,8.409221E-3,-1.2603529E-4,2.9975094E-4,1.4416385E-2,7.389193E-5,-4.780863E-3,1.15799114E-4,-5.7216013E-5,2.1688546E-4,8.165021E-4,8.063683E-6,-4.7782846E-4,1.6259411E-5,-5.2451924E-4],"categories":[],"categories_nodes":[],"categories_segments":[],"categories_sizes":[],"default_left":[0,0,0,0,0,0,0,0,0,0,0,0,0,0,0],"id":5,"left_children":[1,3,5,7,9,11,13,-1,-1,-1,-1,-1,-1,-1,-1],"loss_changes":[5.0232664E-4,3.3668306E-4,4.2937222E-4,1.4296552E-5,6.313552E-6,3.743373E-4,5.573205E-4,0E0,0E0,0E0,0E0,0E0,0E0,0E0,0E0],"parents":[2147483647,0,0,1,1,2,2,3,3,4,4,5,5,6,6],"right_children":[2,4,6,8,10,12,14,-1,-1,-1,-1,-1,-1,-1,-1],"split_conditions":[-4.266962E-2,-5.4322286E-3,1.8703563E-2,2.4985456E1,-5.320028E-3,2.1946762E0,1.4347626E-1,1.15799114E-4,-5.7216013E-5,2.1688546E-4,8.165021E-4,8.063683E-6,-4.7782846E-4,1.6259411E-5,-5.2451924E-4],"split_indices":[1,0,0,2,0,5,6,0,0,0,0,0,0,0,0],"split_type":[0,0,0,0,0,0,0,0,0,0,0,0,0,0,0],"sum_hessian":[4.66E2,6E0,4.6E2,3E0,3E0,4.42E2,1.8E1,1E0,2E0,1E0,2E0,4.39E2,3E0,1E1,8E0],"tree_param":{"num_deleted":"0","num_feature":"8","num_nodes":"15","size_leaf_vector":"1"}},{"base_weights":[1.7947247E-6,8.144755E-3,-1.2185499E-4,2.9940906E-4,1.3953913E-2,6.913698E-5,-4.5685703E-3,8.014656E-5,-9.027893E-5,2.1146331E-4,7.892853E-4,-5.157211E-5,3.958237E-5,-3.9188526E-4,1.9104201E-4],"categories":[],"categories_nodes":[],"categories_segments":[],"categories_sizes":[],"default_left":[0,0,0,0,0,0,0,0,0,0,0,0,0,0,0],"id":6,"left_children":[1,3,5,7,9,11,13,-1,-1,-1,-1,-1,-1,-1,-1],"loss_changes":[4.7120298E-4,3.1484597E-4,3.9183712E-4,1.3869811E-5,4.4922926E-6,3.5308127E-4,5.5104285E-4,0E0,0E0,0E0,0E0,0E0,0E0,0E0,0E0],"parents":[2147483647,0,0,1,1,2,2,3,3,4,4,5,5,6,6],"right_children":[2,4,6,8,10,12,14,-1,-1,-1,-1,-1,-1,-1,-1],"split_conditions":[-4.266962E-2,-5.4322286E-3,1.8703563E-2,-1.6001172E-2,-5.320028E-3,-5.785292E-3,1.2552056E-2,8.014656E-5,-9.027893E-5,2.1146331E-4,7.892853E-4,-5.157211E-5,3.958237E-5,-3.9188526E-4,1.9104201E-4],"split_indices":[1,0,0,0,0,1,4,0,0,0,0,0,0,0,0],"split_type":[0,0,0,0,0,0,0,0,0,0,0,0,0,0,0],"sum_hessian":[4.66E2,6E0,4.6E2,3E0,3E0,4.42E2,1.8E1,2E0,1E0,1E0,2E0,1.75E2,2.67E2,1.3E1,5E0],"tree_param":{"num_deleted":"0","num_feature":"8","num_nodes":"15","size_leaf_vector":"1"}},{"base_weights":[3.3704619E-6,7.879035E-3,-1.16223935E-4,2.8190564E-4,1.3506404E-2,6.5653054E-5,-4.3507125E-3,1.1090047E-4,-5.5139943E-5,2.0617673E-4,7.6297583E-4,7.4995273E-6,-4.6139426E-4,-5.4981294E-5,-6.6169153E-4],"categories":[],"categories_nodes":[],"categories_segments":[],"categories_sizes":[],"default_left":[0,0,0,0,0,0,0,0,0,0,0,0,0,0,0],"id":7,"left_children":[1,3,5,7,9,11,13,-1,-1,-1,-1,-1,-1,-1,-1],"loss_changes":[4.4077617E-4,2.9545542E-4,3.5532756E-4,1.3169744E-5,2.8737704E-6,3.4860472E-4,5.341636E-4,0E0,0E0,0E0,0E0,0E0,0E0,0E0,0E0],"parents":[2147483647,0,0,1,1,2,2,3,3,4,4,5,5,6,6],"right_children":[2,4,6,8,10,12,14,-1,-1,-1,-1,-1,-1,-1,-1],"split_conditions":[-4.266962E-2,-5.4322286E-3,1.8703563E-2,2.4985456E1,-5.320028E-3,2.1946762E0,6.883451E-1,1.1090047E-4,-5.5139943E-5,2.0617673E-4,7.6297583E-4,7.4995273E-6,-4.6139426E-4,-5.4981294E-5,-6.6169153E-4],"split_indices":[1,0,0,2,0,5,5,0,0,0,0,0,0,0,0],"split_type":[0,0,0,0,0,0,0,0,0,0,0,0,0,0,0],"sum_hessian":[4.66E2,6E0,4.6E2,3E0,3E0,4.42E2,1.8E1,1E0,2E0,1E0,2E0,4.39E2,3E0,1.4E1,4E0],"tree_param":{"num_deleted":"0","num_feature":"8","num_nodes":"15","size_leaf_vector":"1"}},{"base_weights":[2.890009E-6,7.631499E-3,-1.12951966E-4,2.8175046E-4,1.3073373E-2,6.134577E-5,-4.1708965E-3,7.6545664E-5,-8.664346E-5,2.010223E-4,7.3754333E-4,-7.4666555E-6,1.794935E-4,-3.6463744E-4,1.9042873E-4],"categories":[],"categories_nodes":[],"categories_segments":[],"categories_sizes":[],"default_left":[0,0,0,0,0,0,0,0,0,0,0,0,0,0,0],"id":8,"left_children":[1,3,5,7,9,11,13,-1,-1,-1,-1,-1,-1,-1,-1],"loss_changes":[4.13556E-4,2.7629136E-4,3.263168E-4,1.2719223E-5,1.4398829E-6,3.298558E-4,5.010788E-4,0E0,0E0,0E0,0E0,0E0,0E0,0E0,0E0],"parents":[2147483647,0,0,1,1,2,2,3,3,4,4,5,5,6,6],"right_children":[2,4,6,8,10,12,14,-1,-1,-1,-1,-1,-1,-1,-1],"split_conditions":[-4.266962E-2,-5.4322286E-3,1.8703563E-2,-1.6001172E-2,-5.320028E-3,9.899011E-1,1.2552056E-2,7.6545664E-5,-8.664346E-5,2.010223E-4,7.3754333E-4,-7.4666555E-6,1.794935E-4,-3.6463744E-4,1.9042873E-4],"split_indices":[1,0,0,0,0,7,4,0,0,0,0,0,0,0,0],"split_type":[0,0,0,0,0,0,0,0,0,0,0,0,0,0,0],"sum_hessian":[4.66E2,6E0,4.6E2,3E0,3E0,4.42E2,1.8E1,2E0,1E0,1E0,2E0,4.18E2,2.4E1,1.3E1,5E0],"tree_param":{"num_deleted":"0","num_feature":"8","num_nodes":"15","size_leaf_vector":"1"}},{"base_weights":[4.7290396E-6,7.382562E-3,-1.0730905E-4,2.651384E-4,6.327173E-4,-3.0490208E-5,-8.876239E-3,1.0621431E-4,-5.3133648E-5,-2.343687E-5,1.0075199E-4,4.64705E-5,-6.2272965E-4],"categories":[],"categories_nodes":[],"categories_segments":[],"categories_sizes":[],"default_left":[0,0,0,0,0,0,0,0,0,0,0,0,0],"id":9,"left_children":[1,3,5,7,-1,9,11,-1,-1,-1,-1,-1,-1],"loss_changes":[3.8681363E-4,2.5929543E-4,3.1026776E-4,1.2131812E-5,0E0,4.1151763E-4,1.5192773E-4,0E0,0E0,0E0,0E0,0E0,0E0],"parents":[2147483647,0,0,1,1,2,2,3,3,5,5,6,6],"right_children":[2,4,6,8,-1,10,12,-1,-1,-1,-1,-1,-1],"split_conditions":[-4.266962E-2,-5.4322286E-3,2.1946762E0,2.4985456E1,6.327173E-4,1.1726824E-2,-9.494093E-3,1.0621431E-4,-5.3133648E-5,-2.343687E-5,1.0075199E-4,4.64705E-5,-6.2272965E-4],"split_indices":[1,0,5,2,0,4,0,0,0,0,0,0,0],"split_type":[0,0,0,0,0,0,0,0,0,0,0,0,0],"sum_hessian":[4.66E2,6E0,4.6E2,3E0,3E0,4.57E2,3E0,1E0,2E0,3.77E2,8E1,1E0,2E0],"tree_param":{"num_deleted":"0","num_feature":"8","num_nodes":"13","size_leaf_vector":"1"}},{"base_weights":[4.892696E-6,7.111405E-3,-1.03025915E-4,2.6515173E-4,1.2179807E-2,-9.711047E-6,-7.1777846E-3,7.310947E-5,-8.3149025E-5,1.8017883E-4,6.918679E-4,3.297763E-6,-4.288246E-4,-1.0146814E-3,2.2267718E-4],"categories":[],"categories_nodes":[],"categories_segments":[],"categories_sizes":[],"default_left":[0,0,0,0,0,0,0,0,0,0,0,0,0,0,0],"id":10,"left_children":[1,3,5,7,9,11,13,-1,-1,-1,-1,-1,-1,-1,-1],"loss_changes":[3.5888658E-4,2.3966742E-4,3.042734E-4,1.1663779E-5,6.9981907E-6,2.9615246E-4,1.0057066E-3,0E0,0E0,0E0,0E0,0E0,0E0,0E0,0E0],"parents":[2147483647,0,0,1,1,2,2,3,3,4,4,5,5,6,6],"right_children":[2,4,6,8,10,12,14,-1,-1,-1,-1,-1,-1,-1,-1],"split_conditions":[-4.266962E-2,-5.4322286E-3,2.593577E-2,-1.6001172E-2,-5.320028E-3,2.1946762E0,3.5425056E-2,7.310947E-5,-8.3149025E-5,1.8017883E-4,6.918679E-4,3.297763E-6,-4.288246E-4,-1.0146814E-3,2.2267718E-4],"split_indices":[1,0,0,0,0,5,0,0,0,0,0,0,0,0,0],"split_type":[0,0,0,0,0,0,0,0,0,0,0,0,0,0,0],"sum_hessian":[4.66E2,6E0,4.6E2,3E0,3E0,4.55E2,5E0,2E0,1E0,1E0,2E0,4.52E2,3E0,2E0,3E0],"tree_param":{"num_deleted":"0","num_feature":"8","num_nodes":"15","size_leaf_vector":"1"}},{"base_weights":[3.886788E-6,6.878979E-3,-1.0051567E-4,2.493843E-4,1.1788828E-2,6.348979E-5,-3.919142E-3,1.0173123E-4,-5.11952E-5,1.7567436E-4,6.6880573E-4,-4.88553E-5,3.733146E-5,-4.2730477E-5,-6.1644556E-4],"categories":[],"categories_nodes":[],"categories_segments":[],"categories_sizes":[],"default_left":[0,0,0,0,0,0,0,0,0,0,0,0,0,0,0],"id":11,"left_children":[1,3,5,7,9,11,13,-1,-1,-1,-1,-1,-1,-1,-1],"loss_changes":[3.358931E-4,2.2491222E-4,2.8896186E-4,1.1175762E-5,5.5445125E-6,3.156458E-4,4.791318E-4,0E0,0E0,0E0,0E0,0E0,0E0,0E0,0E0],"parents":[2147483647,0,0,1,1,2,2,3,3,4,4,5,5,6,6],"right_children":[2,4,6,8,10,12,14,-1,-1,-1,-1,-1,-1,-1,-1],"split_conditions":[-4.266962E-2,-5.4322286E-3,1.8703563E-2,2.4985456E1,-5.320028E-3,-5.785292E-3,6.883451E-1,1.0173123E-4,-5.11952E-5,1.7567436E-4,6.6880573E-4,-4.88553E-5,3.733146E-5,-4.2730477E-5,-6.1644556E-4],"split_indices":[1,0,0,2,0,1,5,0,0,0,0,0,0,0,0],"split_type":[0,0,0,0,0,0,0,0,0,0,0,0,0,0,0],"sum_hessian":[4.66E2,6E0,4.6E2,3E0,3E0,4.42E2,1.8E1,1E0,2E0,1E0,2E0,1.75E2,2.67E2,1.4E1,4E0],"tree_param":{"num_deleted":"0","num_feature":"8","num_nodes":"15","size_leaf_vector":"1"}},{"base_weights":[4.1727308E-6,2.4086477E-3,-2.9639667E-4,-9.5127226E-4,3.6715465E-3,-1.7734322E-3,3.736766E-4,-1.2952849E-4,3.2347205E-4,4.5031967E-4,1.1949064E-4,-6.8148154E-5,-7.1812357E-4,-2.2399495E-4,3.6724472E-5],"categories":[],"categories_nodes":[],"categories_segments":[],"categories_sizes":[],"default_left":[0,0,0,0,0,0,0,0,0,0,0,0,0,0,0],"id":12,"left_children":[1,3,5,7,9,11,13,-1,-1,-1,-1,-1,-1,-1,-1],"loss_changes":[3.3822024E-4,2.2414103E-4,4.1238707E-4,1.992309E-4,2.383148E-4,6.521881E-4,5.0589413E-4,0E0,0E0,0E0,0E0,0E0,0E0,0E0,0E0],"parents":[2147483647,0,0,1,1,2,2,3,3,4,4,5,5,6,6],"right_children":[2,4,6,8,10,12,14,-1,-1,-1,-1,-1,-1,-1,-1],"split_conditions":[-2.2565855E-2,-2.682916E-2,-5.8513973E-3,-2.9569173E-2,-3.4105077E-2,1.7073603E-1,-1.8106623E-1,-1.2952849E-4,3.2347205E-4,4.5031967E-4,1.1949064E-4,-6.8148154E-5,-7.1812357E-4,-2.2399495E-4,3.6724472E-5],"split_indices":[1,7,1,1,1,6,6,0,0,0,0,0,0,0,0],"split_type":[0,0,0,0,0,0,0,0,0,0,0,0,0,0,0],"sum_hessian":[4.66E2,5.1E1,4.15E2,1.4E1,3.7E1,1.29E2,2.86E2,1.2E1,2E0,6E0,3.1E1,1.26E2,3E0,1.9E1,2.67E2],"tree_param":{"num_deleted":"0","num_feature":"8","num_nodes":"15","size_leaf_vector":"1"}},{"base_weights":[3.5148933E-6,2.302903E-3,-2.8391706E-4,7.5972144E-4,4.9431804E-3,-1.9900266E-3,2.4812302E-4,-1.6402862E-4,1.1727251E-4,-2.0209076E-4,2.8334462E-4,-7.828478E-5,-7.5233605E-4,2.678696E-5,-2.2876212E-4],"categories":[],"categories_nodes":[],"categories_segments":[],"categories_sizes":[],"default_left":[0,0,0,0,0,0,0,0,0,0,0,0,0,0,0],"id":13,"left_children":[1,3,5,7,9,11,13,-1,-1,-1,-1,-1,-1,-1,-1],"loss_changes":[3.0930236E-4,2.0811477E-4,3.7810474E-4,2.2552593E-4,1.4645292E-4,5.2493706E-4,4.4360544E-4,0E0,0E0,0E0,0E0,0E0,0E0,0E0,0E0],"parents":[2147483647,0,0,1,1,2,2,3,3,4,4,5,5,6,6],"right_children":[2,4,6,8,10,12,14,-1,-1,-1,-1,-1,-1,-1,-1],"split_conditions":[-2.2565855E-2,9.437005E-3,-8.800775E-3,-3.5280976E-2,-1.2475644E-1,1.7073603E-1,1.8703563E-2,-1.6402862E-4,1.1727251E-4,-2.0209076E-4,2.8334462E-4,-7.828478E-5,-7.5233605E-4,2.678696E-5,-2.2876212E-4],"split_indices":[1,4,1,1,7,6,0,0,0,0,0,0,0,0,0],"split_type":[0,0,0,0,0,0,0,0,0,0,0,0,0,0,0],"sum_hessian":[4.66E2,5.1E1,4.15E2,3.3E1,1.8E1,9.8E1,3.17E2,9E0,2.4E1,1E0,1.7E1,9.6E1,2E0,3E2,1.7E1],"tree_param":{"num_deleted":"0","num_feature":"8","num_nodes":"15","size_leaf_vector":"1"}},{"base_weights":[1.2018475E-6,6.474272E-3,-9.709033E-5,2.1291146E-4,5.5585324E-4,-2.4970781E-5,-8.330505E-3,1.06526866E-4,-5.6823814E-5,-2.213741E-5,9.624827E-5,5.3508276E-5,-5.9103925E-4],"categories":[],"categories_nodes":[],"categories_segments":[],"categories_sizes":[],"default_left":[0,0,0,0,0,0,0,0,0,0,0,0,0],"id":14,"left_children":[1,3,5,7,-1,9,11,-1,-1,-1,-1,-1,-1],"loss_changes":[2.9775835E-4,2.0112444E-4,2.7352924E-4,1.27717885E-5,0E0,3.739571E-4,1.4389405E-4,0E0,0E0,0E0,0E0,0E0,0E0],"parents":[2147483647,0,0,1,1,2,2,3,3,5,5,6,6],"right_children":[2,4,6,8,-1,10,12,-1,-1,-1,-1,-1,-1],"split_conditions":[-4.266962E-2,-5.4322286E-3,2.1946762E0,2.4985456E1,5.5585324E-4,1.1726824E-2,-9.494093E-3,1.06526866E-4,-5.6823814E-5,-2.213741E-5,9.624827E-5,5.3508276E-5,-5.9103925E-4],"split_indices":[1,0,5,2,0,4,0,0,0,0,0,0,0],"split_type":[0,0,0,0,0,0,0,0,0,0,0,0,0],"sum_hessian":[4.66E2,6E0,4.6E2,3E0,3E0,4.57E2,3E0,1E0,2E0,3.77E2,8E1,1E0,2E0],"tree_param":{"num_deleted":"0","num_feature":"8","num_nodes":"13","size_leaf_vector":"1"}},{"base_weights":[1.4461258E-6,6.2370664E-3,-9.324105E-5,2.1469171E-4,5.3500873E-4,-6.9318817E-6,-6.6371975E-3,1.03863706E-4,-5.4929686E-5,7.5853677E-6,-1.8318095E-4,-9.6273323E-4,2.2426007E-4],"categories":[],"categories_nodes":[],"categories_segments":[],"categories_sizes":[],"default_left":[0,0,0,0,0,0,0,0,0,0,0,0,0],"id":15,"left_children":[1,3,5,7,-1,9,11,-1,-1,-1,-1,-1,-1],"loss_changes":[2.7631386E-4,1.8585232E-4,2.6032838E-4,1.206649E-5,0E0,2.6507868E-4,9.2838006E-4,0E0,0E0,0E0,0E0,0E0,0E0],"parents":[2147483647,0,0,1,1,2,2,3,3,5,5,6,6],"right_children":[2,4,6,8,-1,10,12,-1,-1,-1,-1,-1,-1],"split_conditions":[-4.266962E-2,-5.4322286E-3,2.593577E-2,2.4985456E1,5.3500873E-4,7.4328705E1,3.5425056E-2,1.03863706E-4,-5.4929686E-5,7.5853677E-6,-1.8318095E-4,-9.6273323E-4,2.2426007E-4],"split_indices":[1,0,0,2,0,2,0,0,0,0,0,0,0],"split_type":[0,0,0,0,0,0,0,0,0,0,0,0,0],"sum_hessian":[4.66E2,6E0,4.6E2,3E0,3E0,4.55E2,5E0,1E0,2E0,4.37E2,1.8E1,2E0,3E0],"tree_param":{"num_deleted":"0","num_feature":"8","num_nodes":"13","size_leaf_vector":"1"}},{"base_weights":[6.669661E-7,2.1269491E-3,-2.651199E-4,-1.043112E-3,3.2103825E-3,-7.97003E-3,-1.519944E-4,6.3773594E-5,-3.5792202E-4,-7.6182034E-5,2.447672E-4,-5.435673E-4,1.6341361E-4,-7.5486656E-5,2.2335083E-5],"categories":[],"categories_nodes":[],"categories_segments":[],"categories_sizes":[],"default_left":[0,0,0,0,0,0,0,0,0,0,0,0,0,0,0],"id":16,"left_children":[1,3,5,7,9,11,13,-1,-1,-1,-1,-1,-1,-1,-1],"loss_changes":[2.644833E-4,1.8194538E-4,3.6138328E-4,2.07635E-4,3.1854789E-4,2.3116561E-4,3.3476515E-4,0E0,0E0,0E0,0E0,0E0,0E0,0E0,0E0],"parents":[2147483647,0,0,1,1,2,2,3,3,4,4,5,5,6,6],"right_children":[2,4,6,8,10,12,14,-1,-1,-1,-1,-1,-1,-1,-1],"split_conditions":[-2.2565855E-2,3.0378662E1,2.8993793E1,2.7548023E1,-3.6063664E-2,4.1750167E-3,-5.8513973E-3,6.3773594E-5,-3.5792202E-4,-7.6182034E-5,2.447672E-4,-5.435673E-4,1.6341361E-4,-7.5486656E-5,2.2335083E-5],"split_indices":[1,2,2,2,7,0,1,0,0,0,0,0,0,0,0],"split_type":[0,0,0,0,0,0,0,0,0,0,0,0,0,0,0],"sum_hessian":[4.66E2,5.1E1,4.15E2,1.3E1,3.8E1,5E0,4.1E2,1E1,3E0,1E1,2.8E1,4E0,1E0,1.25E2,2.85E2],"tree_param":{"num_deleted":"0","num_feature":"8","num_nodes":"15","size_leaf_vector":"1"}},{"base_weights":[-5.6312274E-7,6.818686E-5,-7.97542E-3,-3.2907026E-4,1.8957054E-3,5.1422558E-5,-1.1319527E-2,-8.77099E-6,-7.4025936E-4,2.7565498E-4,-4.961823E-5,-1.769727E-4,-6.719919E-4],"categories":[],"categories_nodes":[],"categories_segments":[],"categories_sizes":[],"default_left":[0,0,0,0,0,0,0,0,0,0,0,0,0],"id":17,"left_children":[1,3,5,7,9,-1,11,-1,-1,-1,-1,-1,-1],"loss_changes":[2.5658653E-4,3.3748534E-4,1.3208122E-4,8.47071E-4,8.725958E-4,0E0,1.9188155E-6,0E0,0E0,0E0,0E0,0E0,0E0],"parents":[2147483647,0,0,1,1,2,2,3,3,4,4,6,6],"right_children":[2,4,6,8,10,-1,12,-1,-1,-1,-1,-1,-1],"split_conditions":[2.1946762E0,1.1726824E-2,-9.494093E-3,2.593577E-2,5.823033E-1,5.1422558E-5,1.3073817E-2,-8.77099E-6,-7.4025936E-4,2.7565498E-4,-4.961823E-5,-1.769727E-4,-6.719919E-4],"split_indices":[5,4,0,0,5,0,0,0,0,0,0,0,0],"split_type":[0,0,0,0,0,0,0,0,0,0,0,0,0],"sum_hessian":[4.66E2,4.63E2,3E0,3.81E2,8.2E1,1E0,2E0,3.78E2,3E0,3.6E1,4.6E1,1E0,1E0],"tree_param":{"num_deleted":"0","num_feature":"8","num_nodes":"13","size_leaf_vector":"1"}},{"base_weights":[-3.3627114E-6,5.882891E-3,-9.273454E-5,1.6400768E-4,1.0131052E-2,-2.5429E-5,-7.776035E-3,9.9892044E-5,-5.566085E-5,1.534737E-4,5.7308766E-4,-7.5920334E-6,2.8264988E-4,5.0136994E-5,-5.51827E-4],"categories":[],"categories_nodes":[],"categories_segments":[],"categories_sizes":[],"default_left":[0,0,0,0,0,0,0,0,0,0,0,0,0,0,0],"id":18,"left_children":[1,3,5,7,9,11,13,-1,-1,-1,-1,-1,-1,-1,-1],"loss_changes":[2.4621803E-4,1.6840156E-4,2.3819858E-4,1.1592898E-5,2.4058681E-6,3.2961965E-4,1.2555977E-4,0E0,0E0,0E0,0E0,0E0,0E0,0E0,0E0],"parents":[2147483647,0,0,1,1,2,2,3,3,4,4,5,5,6,6],"right_children":[2,4,6,8,10,12,14,-1,-1,-1,-1,-1,-1,-1,-1],"split_conditions":[-4.266962E-2,-5.4322286E-3,2.1946762E0,2.4985456E1,-5.320028E-3,1.7682039E0,-9.494093E-3,9.9892044E-5,-5.566085E-5,1.534737E-4,5.7308766E-4,-7.5920334E-6,2.8264988E-4,5.0136994E-5,-5.51827E-4],"split_indices":[1,0,5,2,0,5,0,0,0,0,0,0,0,0,0],"split_type":[0,0,0,0,0,0,0,0,0,0,0,0,0,0,0],"sum_hessian":[4.66E2,6E0,4.6E2,3E0,3E0,4.57E2,3E0,1E0,2E0,1E0,2E0,4.48E2,9E0,1E0,2E0],"tree_param":{"num_deleted":"0","num_feature":"8","num_nodes":"15","size_leaf_vector":"1"}},{"base_weights":[-2.029339E-6,1.4413783E-4,-3.4560834E-3,-2.5332107E-5,3.7805345E-3,9.297015E-4,-8.432478E-3,-6.390262E-6,3.6187013E-4,7.4427406E-4,-4.567401E-5,-2.0460528E-4,1.6621962E-4,-6.396456E-4,2.2763475E-4],"categories":[],"categories_nodes":[],"categories_segments":[],"categories_sizes":[],"default_left":[0,0,0,0,0,0,0,0,0,0,0,0,0,0,0],"id":19,"left_children":[1,3,5,7,9,11,13,-1,-1,-1,-1,-1,-1,-1,-1],"loss_changes":[2.3627211E-4,2.7679643E-4,4.225222E-4,3.209461E-4,1.0561333E-3,1.458862E-4,5.678313E-4,0E0,0E0,0E0,0E0,0E0,0E0,0E0,0E0],"parents":[2147483647,0,0,1,1,2,2,3,3,4,4,5,5,6,6],"right_children":[2,4,6,8,10,12,14,-1,-1,-1,-1,-1,-1,-1,-1],"split_conditions":[1.8703563E-2,1.0103626E0,1.4347626E-1,5.5075383E-1,2.460779E-2,1.91571E-2,3.5425056E-2,-6.390262E-6,3.6187013E-4,7.4427406E-4,-4.567401E-5,-2.0460528E-4,1.6621962E-4,-6.396456E-4,2.2763475E-4],"split_indices":[0,7,6,6,1,0,0,0,0,0,0,0,0,0,0],"split_type":[0,0,0,0,0,0,0,0,0,0,0,0,0,0,0],"sum_hessian":[4.66E2,4.48E2,1.8E1,4.29E2,1.9E1,1E1,8E0,4.24E2,5E0,5E0,1.4E1,3E0,7E0,6E0,2E0],"tree_param":{"num_deleted":"0","num_feature":"8","num_nodes":"15","size_leaf_vector":"1"}},{"base_weights":[-6.352172E-7,1.9953307E-3,-2.5012944E-4,-9.95083E-4,3.0176502E-3,-7.6159267E-3,-1.4199097E-4,6.142047E-5,-3.4304583E-4,-7.241709E-5,2.3037952E-4,-5.2091444E-4,1.598971E-4,-7.136276E-5,2.1237041E-5],"categories":[],"categories_nodes":[],"categories_segments":[],"categories_sizes":[],"default_left":[0,0,0,0,0,0,0,0,0,0,0,0,0,0,0],"id":20,"left_children":[1,3,5,7,9,11,13,-1,-1,-1,-1,-1,-1,-1,-1],"loss_changes":[2.3305666E-4,1.6197504E-4,3.3027344E-4,1.9102493E-4,2.835991E-4,2.1514329E-4,2.9997865E-4,0E0,0E0,0E0,0E0,0E0,0E0,0E0,0E0],"parents":[2147483647,0,0,1,1,2,2,3,3,4,4,5,5,6,6],"right_children":[2,4,6,8,10,12,14,-1,-1,-1,-1,-1,-1,-1,-1],"split_conditions":[-2.2565855E-2,3.0378662E1,2.8993793E1,2.7548023E1,-3.6063664E-2,4.1750167E-3,-5.8513973E-3,6.142047E-5,-3.4304583E-4,-7.241709E-5,2.3037952E-4,-5.2091444E-4,1.598971E-4,-7.136276E-5,2.1237041E-5],"split_indices":[1,2,2,2,7,0,1,0,0,0,0,0,0,0,0],"split_type":[0,0,0,0,0,0,0,0,0,0,0,0,0,0,0],"sum_hessian":[4.66E2,5.1E1,4.15E2,1.3E1,3.8E1,5E0,4.1E2,1E1,3E0,1E1,2.8E1,4E0,1E0,1.25E2,2.85E2],"tree_param":{"num_deleted":"0","num_feature":"8","num_nodes":"15","size_leaf_vector":"1"}},{"base_weights":[-1.7486261E-6,1.344453E-4,-3.6147907E-3,-2.285474E-5,5.89091E-3,-9.028482E-3,3.6041727E-3,2.861057E-6,-4.3827156E-4,1.1885035E-3,-1.3549643E-4,-2.3208841E-4,-8.858447E-4,2.7665612E-4,-2.474619E-4],"categories":[],"categories_nodes":[],"categories_segments":[],"categories_sizes":[],"default_left":[0,0,0,0,0,0,0,0,0,0,0,0,0,0,0],"id":21,"left_children":[1,3,5,7,9,11,13,-1,-1,-1,-1,-1,-1,-1,-1],"loss_changes":[2.3028474E-4,4.0851158E-4,6.969213E-4,3.0853215E-4,1.9097243E-3,2.9889797E-4,1.5937754E-4,0E0,0E0,0E0,0E0,0E0,0E0,0E0,0E0],"parents":[2147483647,0,0,1,1,2,2,3,3,4,4,5,5,6,6],"right_children":[2,4,6,8,10,12,14,-1,-1,-1,-1,-1,-1,-1,-1],"split_conditions":[1.0861E0,1.0103626E0,6.9258415E1,7.59053E1,2.460779E-2,2.593577E-2,6.4082724E-1,2.861057E-6,-4.3827156E-4,1.1885035E-3,-1.3549643E-4,-2.3208841E-4,-8.858447E-4,2.7665612E-4,-2.474619E-4],"split_indices":[7,7,2,2,1,0,6,0,0,0,0,0,0,0,0],"split_type":[0,0,0,0,0,0,0,0,0,0,0,0,0,0,0],"sum_hessian":[4.66E2,4.5E2,1.6E1,4.39E2,1.1E1,9E0,7E0,4.36E2,3E0,3E0,8E0,7E0,2E0,6E0,1E0],"tree_param":{"num_deleted":"0","num_feature":"8","num_nodes":"15","size_leaf_vector":"1"}},{"base_weights":[-2.6700602E-6,6.219144E-5,-7.5259362E-3,-5.5219203E-5,5.3981566E-3,4.8440874E-5,-1.0680459E-2,3.0066896E-5,-4.4394506E-5,3.9191075E-4,-1.454026E-4,-1.5919538E-4,-6.418391E-4],"categories":[],"categories_nodes":[],"categories_segments":[],"categories_sizes":[],"default_left":[0,0,0,0,0,0,0,0,0,0,0,0,0],"id":22,"left_children":[1,3,5,7,9,-1,11,-1,-1,-1,-1,-1,-1],"loss_changes":[2.2835018E-4,2.9099363E-4,1.1753502E-4,2.492806E-4,2.2547031E-4,0E0,7.6238357E-6,0E0,0E0,0E0,0E0,0E0,0E0],"parents":[2147483647,0,0,1,1,2,2,3,3,4,4,6,6],"right_children":[2,4,6,8,10,-1,12,-1,-1,-1,-1,-1,-1],"split_conditions":[2.1946762E0,1.7682039E0,-9.494093E-3,5.910897E-1,5.4339166E-3,4.8440874E-5,1.3073817E-2,3.0066896E-5,-4.4394506E-5,3.9191075E-4,-1.454026E-4,-1.5919538E-4,-6.418391E-4],"split_indices":[5,5,0,7,0,0,0,0,0,0,0,0,0],"split_type":[0,0,0,0,0,0,0,0,0,0,0,0,0],"sum_hessian":[4.66E2,4.63E2,3E0,4.54E2,9E0,1E0,2E0,2.54E2,2E2,7E0,2E0,1E0,1E0],"tree_param":{"num_deleted":"0","num_feature":"8","num_nodes":"13","size_leaf_vector":"1"}},{"base_weights":[-3.6508984E-6,5.6279562E-3,-8.915545E-5,1.5977328E-4,4.8445753E-4,-2.5653955E-5,-7.337788E-3,9.5195785E-5,-5.2812306E-5,-1.92058E-5,8.237428E-5,4.7229852E-5,-5.206725E-4],"categories":[],"categories_nodes":[],"categories_segments":[],"categories_sizes":[],"default_left":[0,0,0,0,0,0,0,0,0,0,0,0,0],"id":23,"left_children":[1,3,5,7,-1,9,11,-1,-1,-1,-1,-1,-1],"loss_changes":[2.2537538E-4,1.5390338E-4,2.1200962E-4,1.0494647E-5,0E0,2.7532157E-4,1.1173176E-4,0E0,0E0,0E0,0E0,0E0,0E0],"parents":[2147483647,0,0,1,1,2,2,3,3,5,5,6,6],"right_children":[2,4,6,8,-1,10,12,-1,-1,-1,-1,-1,-1],"split_conditions":[-4.266962E-2,-5.4322286E-3,2.1946762E0,2.4985456E1,4.8445753E-4,1.1726824E-2,-9.494093E-3,9.5195785E-5,-5.2812306E-5,-1.92058E-5,8.237428E-5,4.7229852E-5,-5.206725E-4],"split_indices":[1,0,5,2,0,4,0,0,0,0,0,0,0],"split_type":[0,0,0,0,0,0,0,0,0,0,0,0,0],"sum_hessian":[4.66E2,6E0,4.6E2,3E0,3E0,4.57E2,3E0,1E0,2E0,3.77E2,8E1,1E0,2E0],"tree_param":{"num_deleted":"0","num_feature":"8","num_nodes":"13","size_leaf_vector":"1"}},{"base_weights":[-3.218762E-6,1.2716887E-4,-3.4621367E-3,-2.6032361E-5,5.73395E-3,-8.641769E-3,3.4451708E-3,2.5288834E-6,-4.1945852E-4,1.1450498E-3,-1.2664769E-4,-2.1978689E-4,-8.541965E-4,2.66074E-4,-2.4222482E-4],"categories":[],"categories_nodes":[],"categories_segments":[],"categories_sizes":[],"default_left":[0,0,0,0,0,0,0,0,0,0,0,0,0,0,0],"id":24,"left_children":[1,3,5,7,9,11,13,-1,-1,-1,-1,-1,-1,-1,-1],"loss_changes":[2.1105733E-4,3.8754282E-4,6.3798676E-4,2.8233242E-4,1.761027E-3,2.8336025E-4,1.5021172E-4,0E0,0E0,0E0,0E0,0E0,0E0,0E0,0E0],"parents":[2147483647,0,0,1,1,2,2,3,3,4,4,5,5,6,6],"right_children":[2,4,6,8,10,12,14,-1,-1,-1,-1,-1,-1,-1,-1],"split_conditions":[1.0861E0,1.0103626E0,6.9258415E1,7.59053E1,2.460779E-2,2.593577E-2,6.4082724E-1,2.5288834E-6,-4.1945852E-4,1.1450498E-3,-1.2664769E-4,-2.1978689E-4,-8.541965E-4,2.66074E-4,-2.4222482E-4],"split_indices":[7,7,2,2,1,0,6,0,0,0,0,0,0,0,0],"split_type":[0,0,0,0,0,0,0,0,0,0,0,0,0,0,0],"sum_hessian":[4.66E2,4.5E2,1.6E1,4.39E2,1.1E1,9E0,7E0,4.36E2,3E0,3E0,8E0,7E0,2E0,6E0,1E0],"tree_param":{"num_deleted":"0","num_feature":"8","num_nodes":"15","size_leaf_vector":"1"}},{"base_weights":[-4.018609E-6,5.4196543E-3,-8.636501E-5,1.6048373E-4,9.323911E-3,-3.492605E-3,4.395509E-5,9.275266E-5,-5.1136194E-5,1.3860919E-4,5.2918796E-4,-2.5679564E-4,2.9440672E-4,2.806545E-4,-3.5420815E-6],"categories":[],"categories_nodes":[],"categories_segments":[],"categories_sizes":[],"default_left":[0,0,0,0,0,0,0,0,0,0,0,0,0,0,0],"id":25,"left_children":[1,3,5,7,9,11,13,-1,-1,-1,-1,-1,-1,-1,-1],"loss_changes":[2.0903957E-4,1.4223575E-4,2.0479213E-4,9.917318E-6,3.6765705E-6,2.9230342E-4,2.848943E-4,0E0,0E0,0E0,0E0,0E0,0E0,0E0,0E0],"parents":[2147483647,0,0,1,1,2,2,3,3,4,4,5,5,6,6],"right_children":[2,4,6,8,10,12,14,-1,-1,-1,-1,-1,-1,-1,-1],"split_conditions":[-4.266962E-2,-5.4322286E-3,2.8993793E1,2.4985456E1,-5.320028E-3,-1.8679224E-1,3.2954132E1,9.275266E-5,-5.1136194E-5,1.3860919E-4,5.2918796E-4,-2.5679564E-4,2.9440672E-4,2.806545E-4,-3.5420815E-6],"split_indices":[1,0,2,2,0,6,2,0,0,0,0,0,0,0,0],"split_type":[0,0,0,0,0,0,0,0,0,0,0,0,0,0,0],"sum_hessian":[4.66E2,6E0,4.6E2,3E0,3E0,1.6E1,4.44E2,1E0,2E0,1E0,2E0,1.4E1,2E0,8E0,4.36E2],"tree_param":{"num_deleted":"0","num_feature":"8","num_nodes":"15","size_leaf_vector":"1"}},{"base_weights":[-1.6246354E-6,-8.211236E-3,5.1344097E-5,-5.5499007E-5,-5.6034373E-4,-2.7804807E-4,1.548683E-3,-7.0400924E-6,-6.606309E-4,2.5274127E-4,-5.9311635E-5],"categories":[],"categories_nodes":[],"categories_segments":[],"categories_sizes":[],"default_left":[0,0,0,0,0,0,0,0,0,0,0],"id":26,"left_children":[1,3,5,-1,-1,7,9,-1,-1,-1,-1],"loss_changes":[2.0349781E-4,5.1378986E-5,2.2977407E-4,0E0,0E0,6.76274E-4,8.1147254E-4,0E0,0E0,0E0,0E0],"parents":[2147483647,0,0,1,1,2,2,5,5,6,6],"right_children":[2,4,6,-1,-1,8,10,-1,-1,-1,-1],"split_conditions":[-2.5798248E-2,-1.8092856E-2,1.1726824E-2,-5.5499007E-5,-5.6034373E-4,2.593577E-2,5.823033E-1,-7.0400924E-6,-6.606309E-4,2.5274127E-4,-5.9311635E-5],"split_indices":[0,1,4,0,0,0,5,0,0,0,0],"split_type":[0,0,0,0,0,0,0,0,0,0,0],"sum_hessian":[4.66E2,2E0,4.64E2,1E0,1E0,3.81E2,8.3E1,3.78E2,3E0,3.6E1,4.7E1],"tree_param":{"num_deleted":"0","num_feature":"8","num_nodes":"11","size_leaf_vector":"1"}},{"base_weights":[-3.8776775E-6,5.6821522E-5,-7.0440155E-3,-5.5787998E-5,5.1748725E-3,-1.2417778E-3,-6.112682E-4,-5.463352E-4,-3.8878107E-7,3.7377616E-4,-1.3425772E-4,4.7557227E-5,-1.4069056E-4],"categories":[],"categories_nodes":[],"categories_segments":[],"categories_sizes":[],"default_left":[0,0,0,0,0,0,0,0,0,0,0,0,0],"id":27,"left_children":[1,3,5,7,9,11,-1,-1,-1,-1,-1,-1,-1],"loss_changes":[1.9996369E-4,2.6771103E-4,1.0507248E-4,2.3739703E-4,2.0090473E-4,1.30183835E-5,0E0,0E0,0E0,0E0,0E0,0E0,0E0],"parents":[2147483647,0,0,1,1,2,2,3,3,4,4,5,5],"right_children":[2,4,6,8,10,12,-1,-1,-1,-1,-1,-1,-1],"split_conditions":[2.1946762E0,1.7682039E0,1.3073817E-2,-2.5798248E-2,5.4339166E-3,-9.494093E-3,-6.112682E-4,-5.463352E-4,-3.8878107E-7,3.7377616E-4,-1.3425772E-4,4.7557227E-5,-1.4069056E-4],"split_indices":[5,5,0,0,0,0,0,0,0,0,0,0,0],"split_type":[0,0,0,0,0,0,0,0,0,0,0,0,0],"sum_hessian":[4.66E2,4.63E2,3E0,4.54E2,9E0,2E0,1E0,1E0,4.53E2,7E0,2E0,1E0,1E0],"tree_param":{"num_deleted":"0","num_feature":"8","num_nodes":"13","size_leaf_vector":"1"}},{"base_weights":[-5.849967E-6,1.8251414E-3,-2.3470982E-4,-1.1375699E-3,2.742394E-3,-1.7608872E-3,2.4115897E-4,1.5274007E-4,-1.6701342E-4,-3.2328146E-5,2.2960424E-4,-6.75246E-5,-7.2216877E-4,-3.9414424E-4,1.9806048E-5],"categories":[],"categories_nodes":[],"categories_segments":[],"categories_sizes":[],"default_left":[0,0,0,0,0,0,0,0,0,0,0,0,0,0,0],"id":28,"left_children":[1,3,5,7,9,11,13,-1,-1,-1,-1,-1,-1,-1,-1],"loss_changes":[1.9612025E-4,1.4443253E-4,3.025489E-4,1.3025275E-4,2.5370996E-4,4.957729E-4,4.0345843E-4,0E0,0E0,0E0,0E0,0E0,0E0,0E0,0E0],"parents":[2147483647,0,0,1,1,2,2,3,3,4,4,5,5,6,6],"right_children":[2,4,6,8,10,12,14,-1,-1,-1,-1,-1,-1,-1,-1],"split_conditions":[-2.2565855E-2,-3.6063664E-2,-8.800775E-3,-3.5896003E-1,-8.1037253E-1,1.7073603E-1,5.6199934E-3,1.5274007E-4,-1.6701342E-4,-3.2328146E-5,2.2960424E-4,-6.75246E-5,-7.2216877E-4,-3.9414424E-4,1.9806048E-5],"split_indices":[1,7,1,6,5,6,4,0,0,0,0,0,0,0,0],"split_type":[0,0,0,0,0,0,0,0,0,0,0,0,0,0,0],"sum_hessian":[4.66E2,5.1E1,4.15E2,1.2E1,3.9E1,9.8E1,3.17E2,4E0,8E0,1.4E1,2.5E1,9.6E1,2E0,5E0,3.12E2],"tree_param":{"num_deleted":"0","num_feature":"8","num_nodes":"15","size_leaf_vector":"1"}},{"base_weights":[-7.658156E-6,5.162655E-5,-6.8827695E-3,-5.5917568E-5,4.9397214E-3,4.5873145E-5,-9.788668E-3,-5.3317193E-4,-4.5326175E-7,3.5764856E-4,-1.3044266E-4,-1.3766844E-4,-5.9648167E-4],"categories":[],"categories_nodes":[],"categories_segments":[],"categories_sizes":[],"default_left":[0,0,0,0,0,0,0,0,0,0,0,0,0],"id":29,"left_children":[1,3,5,7,9,-1,11,-1,-1,-1,-1,-1,-1],"loss_changes":[1.9069937E-4,2.4419444E-4,9.964747E-5,2.2603247E-4,1.857299E-4,0E0,1.2340315E-5,0E0,0E0,0E0,0E0,0E0,0E0],"parents":[2147483647,0,0,1,1,2,2,3,3,4,4,6,6],"right_children":[2,4,6,8,10,-1,12,-1,-1,-1,-1,-1,-1],"split_conditions":[2.1946762E0,1.7682039E0,-9.494093E-3,-2.5798248E-2,5.4339166E-3,4.5873145E-5,1.3073817E-2,-5.3317193E-4,-4.5326175E-7,3.5764856E-4,-1.3044266E-4,-1.3766844E-4,-5.9648167E-4],"split_indices":[5,5,0,0,0,0,0,0,0,0,0,0,0],"split_type":[0,0,0,0,0,0,0,0,0,0,0,0,0],"sum_hessian":[4.66E2,4.63E2,3E0,4.54E2,9E0,1E0,2E0,1E0,4.53E2,7E0,2E0,1E0,1E0],"tree_param":{"num_deleted":"0","num_feature":"8","num_nodes":"13","size_leaf_vector":"1"}},{"base_weights":[-9.405238E-6,5.7045324E-4,-7.0355786E-4,-4.9205206E-5,2.7238142E-3,-4.106286E-3,5.069253E-4,6.773881E-5,-5.539587E-5,-3.3407268E-4,2.0870904E-4,-5.2683614E-4,-1.5619496E-4,6.808928E-5,-1.1627518E-4],"categories":[],"categories_nodes":[],"categories_segments":[],"categories_sizes":[],"default_left":[0,0,0,0,0,0,0,0,0,0,0,0,0,0,0],"id":30,"left_children":[1,3,5,7,9,11,13,-1,-1,-1,-1,-1,-1,-1,-1],"loss_changes":[1.8837365E-4,3.4039287E-4,8.7941694E-4,2.97297E-4,8.054314E-4,3.2084621E-4,3.857371E-4,0E0,0E0,0E0,0E0,0E0,0E0,0E0,0E0],"parents":[2147483647,0,0,1,1,2,2,3,3,4,4,5,5,6,6],"right_children":[2,4,6,8,10,12,14,-1,-1,-1,-1,-1,-1,-1,-1],"split_conditions":[5.910897E-1,4.7026592E-1,7.071114E-1,4.2061584E1,-5.4120964E-1,6.064135E-1,1.1497612E-2,6.773881E-5,-5.539587E-5,-3.3407268E-4,2.0870904E-4,-5.2683614E-4,-1.5619496E-4,6.808928E-5,-1.1627518E-4],"split_indices":[7,7,7,2,5,7,0,0,0,0,0,0,0,0,0],"split_type":[0,0,0,0,0,0,0,0,0,0,0,0,0,0,0],"sum_hessian":[4.66E2,2.54E2,2.12E2,1.98E2,5.6E1,5.5E1,1.57E2,8.5E1,1.13E2,7E0,4.9E1,6E0,4.9E1,1.21E2,3.6E1],"tree_param":{"num_deleted":"0","num_feature":"8","num_nodes":"15","size_leaf_vector":"1"}},{"base_weights":[-1.0742776E-5,5.0871647E-3,-8.812805E-5,2.9976887E-5,4.4362806E-4,-3.3364568E-3,3.616345E-5,8.511893E-5,-5.4747496E-5,-2.4591832E-4,2.8426218E-4,9.069065E-5,-1.4464239E-5],"categories":[],"categories_nodes":[],"categories_segments":[],"categories_sizes":[],"default_left":[0,0,0,0,0,0,0,0,0,0,0,0,0],"id":31,"left_children":[1,3,5,7,-1,9,11,-1,-1,-1,-1,-1,-1],"loss_changes":[1.8468121E-4,1.3373827E-4,1.8624462E-4,9.389338E-6,0E0,2.7057782E-4,2.5797187E-4,0E0,0E0,0E0,0E0,0E0,0E0],"parents":[2147483647,0,0,1,1,2,2,3,3,5,5,6,6],"right_children":[2,4,6,8,-1,10,12,-1,-1,-1,-1,-1,-1],"split_conditions":[-4.266962E-2,-5.4322286E-3,2.8993793E1,2.4985456E1,4.4362806E-4,-1.8679224E-1,4.2061584E1,8.511893E-5,-5.4747496E-5,-2.4591832E-4,2.8426218E-4,9.069065E-5,-1.4464239E-5],"split_indices":[1,0,2,2,0,6,2,0,0,0,0,0,0],"split_type":[0,0,0,0,0,0,0,0,0,0,0,0,0],"sum_hessian":[4.66E2,6E0,4.6E2,3E0,3E0,1.6E1,4.44E2,1E0,2E0,1.4E1,2E0,6.8E1,3.76E2],"tree_param":{"num_deleted":"0","num_feature":"8","num_nodes":"13","size_leaf_vector":"1"}},{"base_weights":[-8.945283E-6,-7.793849E-3,4.1299136E-5,-6.644255E-5,-5.180961E-4,-2.6613477E-4,1.4388998E-3,-6.745414E-6,-6.316656E-4,2.3645074E-4,-5.636039E-5],"categories":[],"categories_nodes":[],"categories_segments":[],"categories_sizes":[],"default_left":[0,0,0,0,0,0,0,0,0,0,0],"id":32,"left_children":[1,3,5,-1,-1,7,9,-1,-1,-1,-1],"loss_changes":[1.8298798E-4,3.6038313E-5,2.0017942E-4,0E0,0E0,6.1824394E-4,7.145249E-4,0E0,0E0,0E0,0E0],"parents":[2147483647,0,0,1,1,2,2,5,5,6,6],"right_children":[2,4,6,-1,-1,8,10,-1,-1,-1,-1],"split_conditions":[-2.5798248E-2,-1.8092856E-2,1.1726824E-2,-6.644255E-5,-5.180961E-4,2.593577E-2,5.823033E-1,-6.745414E-6,-6.316656E-4,2.3645074E-4,-5.636039E-5],"split_indices":[0,1,4,0,0,0,5,0,0,0,0],"split_type":[0,0,0,0,0,0,0,0,0,0,0],"sum_hessian":[4.66E2,2E0,4.64E2,1E0,1E0,3.81E2,8.3E1,3.78E2,3E0,3.6E1,4.7E1],"tree_param":{"num_deleted":"0","num_feature":"8","num_nodes":"11","size_leaf_vector":"1"}},{"base_weights":[-1.0731115E-5,4.376176E-3,-9.672552E-5,9.321489E-3,3.499378E-4,-1.6709107E-4,5.243722E-3,8.315959E-5,5.6599284E-4,-1.0874954E-4,1.7999316E-4,-3.36632E-6,-4.5562463E-4,4.0678107E-4,-2.3039446E-4],"categories":[],"categories_nodes":[],"categories_segments":[],"categories_sizes":[],"default_left":[0,0,0,0,0,0,0,0,0,0,0,0,0,0,0],"id":33,"left_children":[1,3,5,7,9,11,13,-1,-1,-1,-1,-1,-1,-1,-1],"loss_changes":[1.7659878E-4,1.7593711E-4,1.733608E-4,4.2389293E-5,5.7064648E-5,4.0455197E-4,2.0842727E-4,0E0,0E0,0E0,0E0,0E0,0E0,0E0,0E0],"parents":[2147483647,0,0,1,1,2,2,3,3,4,4,5,5,6,6],"right_children":[2,4,6,8,10,12,14,-1,-1,-1,-1,-1,-1,-1,-1],"split_conditions":[-4.3556792E-1,-3.0730832E-2,6.97134E-2,-1.6001172E-2,-1.6496513E-2,2.593577E-2,7.526133E1,8.315959E-5,5.6599284E-4,-1.0874954E-4,1.7999316E-4,-3.36632E-6,-4.5562463E-4,4.0678107E-4,-2.3039446E-4],"split_indices":[6,1,1,0,1,0,2,0,0,0,0,0,0,0,0],"split_type":[0,0,0,0,0,0,0,0,0,0,0,0,0,0,0],"sum_hessian":[4.66E2,8E0,4.58E2,3E0,5E0,4.53E2,5E0,1E0,2E0,3E0,2E0,4.49E2,4E0,4E0,1E0],"tree_param":{"num_deleted":"0","num_feature":"8","num_nodes":"15","size_leaf_vector":"1"}},{"base_weights":[-9.257131E-6,4.7699752E-5,-6.6139414E-3,-5.7425168E-5,4.8261136E-3,-1.1278163E-3,-5.7680794E-4,-5.0505955E-4,-6.5265084E-7,3.4653675E-4,-1.1974571E-4,4.4878856E-5,-1.2946507E-4],"categories":[],"categories_nodes":[],"categories_segments":[],"categories_sizes":[],"default_left":[0,0,0,0,0,0,0,0,0,0,0,0,0],"id":34,"left_children":[1,3,5,7,9,11,-1,-1,-1,-1,-1,-1,-1],"loss_changes":[1.759926E-4,2.3335844E-4,9.500494E-5,2.0264504E-4,1.6857381E-4,1.1204345E-5,0E0,0E0,0E0,0E0,0E0,0E0,0E0],"parents":[2147483647,0,0,1,1,2,2,3,3,4,4,5,5],"right_children":[2,4,6,8,10,12,-1,-1,-1,-1,-1,-1,-1],"split_conditions":[2.1946762E0,1.7682039E0,1.3073817E-2,-2.5798248E-2,5.4339166E-3,-9.494093E-3,-5.7680794E-4,-5.0505955E-4,-6.5265084E-7,3.4653675E-4,-1.1974571E-4,4.4878856E-5,-1.2946507E-4],"split_indices":[5,5,0,0,0,0,0,0,0,0,0,0,0],"split_type":[0,0,0,0,0,0,0,0,0,0,0,0,0],"sum_hessian":[4.66E2,4.63E2,3E0,4.54E2,9E0,2E0,1E0,1E0,4.53E2,7E0,2E0,1E0,1E0],"tree_param":{"num_deleted":"0","num_feature":"8","num_nodes":"13","size_leaf_vector":"1"}},{"base_weights":[-1.080779E-5,-7.5439177E-3,3.7816164E-5,-7.336076E-5,-4.924331E-4,6.095975E-4,-6.47421E-4,-3.265742E-5,8.908145E-5,-1.966578E-4,2.5022251E-5],"categories":[],"categories_nodes":[],"categories_segments":[],"categories_sizes":[],"default_left":[0,0,0,0,0,0,0,0,0,0,0],"id":35,"left_children":[1,3,5,-1,-1,7,9,-1,-1,-1,-1],"loss_changes":[1.7134252E-4,2.7565635E-5,1.8258438E-4,0E0,0E0,3.7707802E-4,8.01544E-4,0E0,0E0,0E0,0E0],"parents":[2147483647,0,0,1,1,2,2,5,5,6,6],"right_children":[2,4,6,-1,-1,8,10,-1,-1,-1,-1],"split_conditions":[-2.5798248E-2,-1.8092856E-2,5.910897E-1,-7.336076E-5,-4.924331E-4,2.7166373E-1,7.071114E-1,-3.265742E-5,8.908145E-5,-1.966578E-4,2.5022251E-5],"split_indices":[0,1,7,0,0,7,7,0,0,0,0],"split_type":[0,0,0,0,0,0,0,0,0,0,0],"sum_hessian":[4.66E2,2E0,4.64E2,1E0,1E0,2.53E2,2.11E2,1.22E2,1.31E2,5.4E1,1.57E2],"tree_param":{"num_deleted":"0","num_feature":"8","num_nodes":"11","size_leaf_vector":"1"}},{"base_weights":[-1.1725635E-5,1.1237122E-4,-2.9437132E-3,-1.0896496E-4,7.544028E-3,6.4969587E-4,-6.242751E-3,3.758731E-6,-3.9896212E-4,-3.69707E-5,4.1479664E-4,-2.7146877E-4,2.8036532E-4,-4.4492717E-4,1.4601387E-4],"categories":[],"categories_nodes":[],"categories_segments":[],"categories_sizes":[],"default_left":[0,0,0,0,0,0,0,0,0,0,0,0,0,0,0],"id":36,"left_children":[1,3,5,7,9,11,13,-1,-1,-1,-1,-1,-1,-1,-1],"loss_changes":[1.7024897E-4,7.3937967E-4,2.2929694E-4,6.3391315E-4,8.710282E-5,3.318208E-4,2.6933718E-4,0E0,0E0,0E0,0E0,0E0,0E0,0E0,0E0],"parents":[2147483647,0,0,1,1,2,2,3,3,4,4,5,5,6,6],"right_children":[2,4,6,8,10,12,14,-1,-1,-1,-1,-1,-1,-1,-1],"split_conditions":[7.4328705E1,7.062402E1,9.4686E-3,1.0861E0,1E0,6.061698E-3,1.573024E-2,3.758731E-6,-3.9896212E-4,-3.69707E-5,4.1479664E-4,-2.7146877E-4,2.8036532E-4,-4.4492717E-4,1.4601387E-4],"split_indices":[2,2,0,7,3,4,4,0,0,0,0,0,0,0,0],"split_type":[0,0,0,0,0,0,0,0,0,0,0,0,0,0,0],"sum_hessian":[4.66E2,4.48E2,1.8E1,4.36E2,1.2E1,9E0,9E0,4.27E2,9E0,1E0,1.1E1,4E0,5E0,7E0,2E0],"tree_param":{"num_deleted":"0","num_feature":"8","num_nodes":"15","size_leaf_vector":"1"}},{"base_weights":[-1.1797625E-5,1.6865748E-3,-2.2406582E-4,-1.2131903E-3,2.5868341E-3,-7.045257E-3,-1.2394122E-4,1.410884E-4,-1.6600174E-4,-2.6226033E-5,2.1411765E-4,-4.7959937E-4,1.4220994E-4,-6.584385E-5,2.0707821E-5],"categories":[],"categories_nodes":[],"categories_segments":[],"categories_sizes":[],"default_left":[0,0,0,0,0,0,0,0,0,0,0,0,0,0,0],"id":37,"left_children":[1,3,5,7,9,11,13,-1,-1,-1,-1,-1,-1,-1,-1],"loss_changes":[1.6873628E-4,1.388864E-4,2.8324194E-4,1.19881755E-4,2.1326062E-4,1.783962E-4,2.6437282E-4,0E0,0E0,0E0,0E0,0E0,0E0,0E0,0E0],"parents":[2147483647,0,0,1,1,2,2,3,3,4,4,5,5,6,6],"right_children":[2,4,6,8,10,12,14,-1,-1,-1,-1,-1,-1,-1,-1],"split_conditions":[-2.2565855E-2,-3.6063664E-2,2.8993793E1,-3.5896003E-1,-8.1037253E-1,4.1750167E-3,-5.785292E-3,1.410884E-4,-1.6600174E-4,-2.6226033E-5,2.1411765E-4,-4.7959937E-4,1.4220994E-4,-6.584385E-5,2.0707821E-5],"split_indices":[1,7,2,6,5,0,1,0,0,0,0,0,0,0,0],"split_type":[0,0,0,0,0,0,0,0,0,0,0,0,0,0,0],"sum_hessian":[4.66E2,5.1E1,4.15E2,1.2E1,3.9E1,5E0,4.1E2,4E0,8E0,1.4E1,2.5E1,4E0,1E0,1.27E2,2.83E2],"tree_param":{"num_deleted":"0","num_feature":"8","num_nodes":"15","size_leaf_vector":"1"}},{"base_weights":[-1.1677871E-5,4.201492E-3,-9.4263596E-5,8.8975355E-3,3.7054764E-4,-7.3139295E-3,-4.6663463E-5,7.829218E-5,5.4097426E-4,-1.0508886E-4,1.7717323E-4,-6.997461E-5,-4.7857012E-4,-1.2475342E-5,8.4346466E-5],"categories":[],"categories_nodes":[],"categories_segments":[],"categories_sizes":[],"default_left":[0,0,0,0,0,0,0,0,0,0,0,0,0,0,0],"id":38,"left_children":[1,3,5,7,9,11,13,-1,-1,-1,-1,-1,-1,-1,-1],"loss_changes":[1.6288763E-4,1.5861556E-4,1.573973E-4,3.9422943E-5,5.4514458E-5,2.6659938E-5,1.6112396E-4,0E0,0E0,0E0,0E0,0E0,0E0,0E0,0E0],"parents":[2147483647,0,0,1,1,2,2,3,3,4,4,5,5,6,6],"right_children":[2,4,6,8,10,12,14,-1,-1,-1,-1,-1,-1,-1,-1],"split_conditions":[-4.3556792E-1,-3.0730832E-2,-2.5798248E-2,-1.6001172E-2,-1.6496513E-2,-1.8092856E-2,1.348609E-2,7.829218E-5,5.4097426E-4,-1.0508886E-4,1.7717323E-4,-6.997461E-5,-4.7857012E-4,-1.2475342E-5,8.4346466E-5],"split_indices":[6,1,0,0,1,1,4,0,0,0,0,0,0,0,0],"split_type":[0,0,0,0,0,0,0,0,0,0,0,0,0,0,0],"sum_hessian":[4.66E2,8E0,4.58E2,3E0,5E0,2E0,4.56E2,1E0,2E0,3E0,2E0,1E0,1E0,4.09E2,4.7E1],"tree_param":{"num_deleted":"0","num_feature":"8","num_nodes":"15","size_leaf_vector":"1"}},{"base_weights":[-1.0634273E-5,-3.6465042E-4,3.6371654E-5,1.5898429E-4,-2.8501663E-3,-2.5169768E-6,3.575526E-4,3.0050465E-5,-3.0081626E-4],"categories":[],"categories_nodes":[],"categories_segments":[],"categories_sizes":[],"default_left":[0,0,0,0,0,0,0,0,0],"id":39,"left_children":[1,-1,3,5,7,-1,-1,-1,-1],"loss_changes":[1.6012626E-4,0E0,1.6502872E-4,6.54592E-4,2.1122833E-4,0E0,0E0,0E0,0E0],"parents":[2147483647,0,0,2,2,3,3,4,4],"right_children":[2,-1,4,6,8,-1,-1,-1,-1],"split_conditions":[5.040809E-3,-3.6465042E-4,7.4328705E1,7.062402E1,9.4686E-3,-2.5169768E-6,3.575526E-4,3.0050465E-5,-3.0081626E-4],"split_indices":[4,0,2,2,0,0,0,0,0],"split_type":[0,0,0,0,0,0,0,0,0],"sum_hessian":[4.66E2,2E0,4.64E2,4.46E2,1.8E1,4.34E2,1.2E1,9E0,9E0],"tree_param":{"num_deleted":"0","num_feature":"8","num_nodes":"9","size_leaf_vector":"1"}},{"base_weights":[-1.0702976E-5,5.1694625E-4,-6.423455E-4,-6.018558E-4,1.5477411E-3,-3.7233818E-3,4.5373282E-4,7.5554264E-5,-1.2247819E-4,1.05163504E-4,-2.1145573E-4,-4.935632E-4,-1.3941053E-4,-4.8556845E-4,3.231535E-5],"categories":[],"categories_nodes":[],"categories_segments":[],"categories_sizes":[],"default_left":[0,0,0,0,0,0,0,0,0,0,0,0,0,0,0],"id":40,"left_children":[1,3,5,7,9,11,13,-1,-1,-1,-1,-1,-1,-1,-1],"loss_changes":[1.5597648E-4,2.9501168E-4,7.210026E-4,4.8390555E-4,4.357199E-4,2.9443897E-4,3.1556725E-4,0E0,0E0,0E0,0E0,0E0,0E0,0E0,0E0],"parents":[2147483647,0,0,1,1,2,2,3,3,4,4,5,5,6,6],"right_children":[2,4,6,8,10,12,14,-1,-1,-1,-1,-1,-1,-1,-1],"split_conditions":[5.910897E-1,2.7166373E-1,7.071114E-1,-1.743639E-2,1.3394473E-1,6.064135E-1,-1.1921606E-2,7.5554264E-5,-1.2247819E-4,1.05163504E-4,-2.1145573E-4,-4.935632E-4,-1.3941053E-4,-4.8556845E-4,3.231535E-5],"split_indices":[7,7,7,1,6,7,1,0,0,0,0,0,0,0,0],"split_type":[0,0,0,0,0,0,0,0,0,0,0,0,0,0,0],"sum_hessian":[4.66E2,2.54E2,2.12E2,1.22E2,1.32E2,5.5E1,1.57E2,5.7E1,6.5E1,1.21E2,1.1E1,6E0,4.9E1,2E0,1.55E2],"tree_param":{"num_deleted":"0","num_feature":"8","num_nodes":"15","size_leaf_vector":"1"}},{"base_weights":[-1.2821863E-5,9.90639E-5,-2.9803312E-3,2.4127467E-5,1.1281529E-2,-7.6544043E-3,3.2348013E-3,7.621214E-6,-1.9865627E-4,9.154685E-4,-6.935378E-5,-1.1279158E-4,-6.3009054E-4,2.4485568E-4,-2.1003453E-4],"categories":[],"categories_nodes":[],"categories_segments":[],"categories_sizes":[],"default_left":[0,0,0,0,0,0,0,0,0,0,0,0,0,0,0],"id":41,"left_children":[1,3,5,7,9,11,13,-1,-1,-1,-1,-1,-1,-1,-1],"loss_changes":[1.5534954E-4,3.7765413E-4,5.1861024E-4,2.3086842E-4,2.9249527E-4,2.3866171E-4,1.194521E-4,0E0,0E0,0E0,0E0,0E0,0E0,0E0,0E0],"parents":[2147483647,0,0,1,1,2,2,3,3,4,4,5,5,6,6],"right_children":[2,4,6,8,10,12,14,-1,-1,-1,-1,-1,-1,-1,-1],"split_conditions":[1.0861E0,1.0667081E0,6.9258415E1,7.4328705E1,1.3936375E-4,9.558868E-3,6.4082724E-1,7.621214E-6,-1.9865627E-4,9.154685E-4,-6.935378E-5,-1.1279158E-4,-6.3009054E-4,2.4485568E-4,-2.1003453E-4],"split_indices":[7,7,2,2,0,4,6,0,0,0,0,0,0,0,0],"split_type":[0,0,0,0,0,0,0,0,0,0,0,0,0,0,0],"sum_hessian":[4.66E2,4.5E2,1.6E1,4.48E2,2E0,9E0,7E0,4.35E2,1.3E1,1E0,1E0,5E0,4E0,6E0,1E0],"tree_param":{"num_deleted":"0","num_feature":"8","num_nodes":"15","size_leaf_vector":"1"}},{"base_weights":[-1.2294223E-5,-7.1230684E-3,3.360818E-5,-6.4867585E-5,-4.6936257E-4,-2.3944788E-4,1.274963E-3,-6.0027264E-6,-5.746053E-4,2.963828E-4,-2.357999E-5],"categories":[],"categories_nodes":[],"categories_segments":[],"categories_sizes":[],"default_left":[0,0,0,0,0,0,0,0,0,0,0],"id":42,"left_children":[1,3,5,-1,-1,7,9,-1,-1,-1,-1],"loss_changes":[1.5266894E-4,2.7392889E-5,1.5792143E-4,0E0,0E0,5.118345E-4,6.8539794E-4,0E0,0E0,0E0,0E0],"parents":[2147483647,0,0,1,1,2,2,5,5,6,6],"right_children":[2,4,6,-1,-1,8,10,-1,-1,-1,-1],"split_conditions":[-2.5798248E-2,-1.8092856E-2,1.1726824E-2,-6.4867585E-5,-4.6936257E-4,2.593577E-2,3.7797177E-1,-6.0027264E-6,-5.746053E-4,2.963828E-4,-2.357999E-5],"split_indices":[0,1,4,0,0,0,5,0,0,0,0],"split_type":[0,0,0,0,0,0,0,0,0,0,0],"sum_hessian":[4.66E2,2E0,4.64E2,1E0,1E0,3.81E2,8.3E1,3.78E2,3E0,2.2E1,6.1E1],"tree_param":{"num_deleted":"0","num_feature":"8","num_nodes":"11","size_leaf_vector":"1"}},{"base_weights":[-1.3482588E-5,4.0737432E-3,-9.359489E-5,8.555877E-3,4.066965E-4,-3.5076446E-4,-4.7952275E-5,7.446848E-5,5.2074617E-4,-1.0125248E-4,1.7567298E-4,2.554911E-7,-3.0292562E-4],"categories":[],"categories_nodes":[],"categories_segments":[],"categories_sizes":[],"default_left":[0,0,0,0,0,0,0,0,0,0,0,0,0],"id":43,"left_children":[1,3,5,7,9,-1,11,-1,-1,-1,-1,-1,-1],"loss_changes":[1.5329439E-4,1.444461E-4,1.4467281E-4,3.7036196E-5,5.244408E-5,0E0,1.4578331E-4,0E0,0E0,0E0,0E0,0E0,0E0],"parents":[2147483647,0,0,1,1,2,2,3,3,4,4,6,6],"right_children":[2,4,6,8,10,-1,12,-1,-1,-1,-1,-1,-1],"split_conditions":[-4.3556792E-1,-3.0730832E-2,5.040809E-3,-1.6001172E-2,-1.6496513E-2,-3.5076446E-4,2.1946762E0,7.446848E-5,5.2074617E-4,-1.0125248E-4,1.7567298E-4,2.554911E-7,-3.0292562E-4],"split_indices":[6,1,4,0,1,0,5,0,0,0,0,0,0],"split_type":[0,0,0,0,0,0,0,0,0,0,0,0,0],"sum_hessian":[4.66E2,8E0,4.58E2,3E0,5E0,2E0,4.56E2,1E0,2E0,3E0,2E0,4.53E2,3E0],"tree_param":{"num_deleted":"0","num_feature":"8","num_nodes":"13","size_leaf_vector":"1"}},{"base_weights":[-1.2773732E-5,-6.945162E-3,3.1978823E-5,-6.3252286E-5,-4.576349E-4,5.491466E-4,-5.877976E-4,-2.9252367E-5,8.009245E-5,-1.787376E-4,2.2784261E-5],"categories":[],"categories_nodes":[],"categories_segments":[],"categories_sizes":[],"default_left":[0,0,0,0,0,0,0,0,0,0,0],"id":44,"left_children":[1,3,5,-1,-1,7,9,-1,-1,-1,-1],"loss_changes":[1.4510516E-4,2.6038586E-5,1.493685E-4,0E0,0E0,3.0420523E-4,6.62398E-4,0E0,0E0,0E0,0E0],"parents":[2147483647,0,0,1,1,2,2,5,5,6,6],"right_children":[2,4,6,-1,-1,8,10,-1,-1,-1,-1],"split_conditions":[-2.5798248E-2,-1.8092856E-2,5.910897E-1,-6.3252286E-5,-4.576349E-4,2.7166373E-1,7.071114E-1,-2.9252367E-5,8.009245E-5,-1.787376E-4,2.2784261E-5],"split_indices":[0,1,7,0,0,7,7,0,0,0,0],"split_type":[0,0,0,0,0,0,0,0,0,0,0],"sum_hessian":[4.66E2,2E0,4.64E2,1E0,1E0,2.53E2,2.11E2,1.22E2,1.31E2,5.4E1,1.57E2],"tree_param":{"num_deleted":"0","num_feature":"8","num_nodes":"11","size_leaf_vector":"1"}},{"base_weights":[-1.3475539E-5,3.970462E-3,-9.156261E-5,8.298826E-3,4.2314205E-4,-6.7715337E-3,-4.7511236E-5,7.333807E-5,5.0436304E-4,-9.6358555E-5,1.7079228E-4,-6.167098E-5,-4.4619406E-4,-1.2114371E-5,8.0859594E-5],"categories":[],"categories_nodes":[],"categories_segments":[],"categories_sizes":[],"default_left":[0,0,0,0,0,0,0,0,0,0,0,0,0,0,0],"id":45,"left_children":[1,3,5,7,9,11,13,-1,-1,-1,-1,-1,-1,-1,-1],"loss_changes":[1.4564443E-4,1.346753E-4,1.3474448E-4,3.407919E-5,4.878566E-5,2.4752939E-5,1.4857156E-4,0E0,0E0,0E0,0E0,0E0,0E0,0E0,0E0],"parents":[2147483647,0,0,1,1,2,2,3,3,4,4,5,5,6,6],"right_children":[2,4,6,8,10,12,14,-1,-1,-1,-1,-1,-1,-1,-1],"split_conditions":[-4.3556792E-1,-3.0730832E-2,-2.5798248E-2,-1.6001172E-2,-1.6496513E-2,-1.8092856E-2,1.348609E-2,7.333807E-5,5.0436304E-4,-9.6358555E-5,1.7079228E-4,-6.167098E-5,-4.4619406E-4,-1.2114371E-5,8.0859594E-5],"split_indices":[6,1,0,0,1,1,4,0,0,0,0,0,0,0,0],"split_type":[0,0,0,0,0,0,0,0,0,0,0,0,0,0,0],"sum_hessian":[4.66E2,8E0,4.58E2,3E0,5E0,2E0,4.56E2,1E0,2E0,3E0,2E0,1E0,1E0,4.09E2,4.7E1],"tree_param":{"num_deleted":"0","num_feature":"8","num_nodes":"15","size_leaf_vector":"1"}},{"base_weights":[-1.2345645E-5,1.1143053E-3,-2.7688284E-4,1.2042291E-4,6.915432E-3,-4.7603627E-3,-5.8831324E-7,9.87016E-5,-1.2054376E-4,4.251396E-4,-6.050148E-5,1.2019823E-5,-3.5550384E-4,-2.5442924E-4,9.529044E-6],"categories":[],"categories_nodes":[],"categories_segments":[],"categories_sizes":[],"default_left":[0,0,0,0,0,0,0,0,0,0,0,0,0,0,0],"id":46,"left_children":[1,3,5,7,9,11,13,-1,-1,-1,-1,-1,-1,-1,-1],"loss_changes":[1.3949373E-4,5.12309E-4,4.6948757E-4,3.66046E-4,1.7796305E-4,2.6021706E-4,3.4918496E-4,0E0,0E0,0E0,0E0,0E0,0E0,0E0,0E0],"parents":[2147483647,0,0,1,1,2,2,3,3,4,4,5,5,6,6],"right_children":[2,4,6,8,10,12,14,-1,-1,-1,-1,-1,-1,-1,-1],"split_conditions":[4.2061584E1,-2.8542979E-3,4.3485695E1,-1.743639E-2,6.661826E-3,-7.072891E-3,-5.142101E-1,9.87016E-5,-1.2054376E-4,4.251396E-4,-6.050148E-5,1.2019823E-5,-3.5550384E-4,-2.5442924E-4,9.529044E-6],"split_indices":[2,1,2,1,0,0,5,0,0,0,0,0,0,0,0],"split_type":[0,0,0,0,0,0,0,0,0,0,0,0,0,0,0],"sum_hessian":[4.66E2,8.8E1,3.78E2,7.6E1,1.2E1,2.1E1,3.57E2,4.4E1,3.2E1,1E1,2E0,7E0,1.4E1,1.2E1,3.45E2],"tree_param":{"num_deleted":"0","num_feature":"8","num_nodes":"15","size_leaf_vector":"1"}},{"base_weights":[-1.2254238E-5,3.846786E-5,-5.8929543E-3,-6.066719E-5,4.545266E-3,-7.538148E-4,-5.327593E-4,1.0033289E-5,-7.754551E-5,3.2252833E-4,-1.0253122E-4,4.480883E-5,-1.01344944E-4],"categories":[],"categories_nodes":[],"categories_segments":[],"categories_sizes":[],"default_left":[0,0,0,0,0,0,0,0,0,0,0,0,0],"id":47,"left_children":[1,3,5,7,9,11,-1,-1,-1,-1,-1,-1,-1],"loss_changes":[1.3952413E-4,2.0758245E-4,8.986307E-5,1.7751078E-4,1.3889921E-4,8.1181915E-6,0E0,0E0,0E0,0E0,0E0,0E0,0E0],"parents":[2147483647,0,0,1,1,2,2,3,3,4,4,5,5],"right_children":[2,4,6,8,10,12,-1,-1,-1,-1,-1,-1,-1],"split_conditions":[2.1946762E0,1.7682039E0,1.3073817E-2,8.183203E-1,5.4339166E-3,-9.494093E-3,-5.327593E-4,1.0033289E-5,-7.754551E-5,3.2252833E-4,-1.0253122E-4,4.480883E-5,-1.01344944E-4],"split_indices":[5,5,0,5,0,0,0,0,0,0,0,0,0],"split_type":[0,0,0,0,0,0,0,0,0,0,0,0,0],"sum_hessian":[4.66E2,4.63E2,3E0,4.54E2,9E0,2E0,1E0,3.87E2,6.7E1,7E0,2E0,1E0,1E0],"tree_param":{"num_deleted":"0","num_feature":"8","num_nodes":"13","size_leaf_vector":"1"}},{"base_weights":[-1.2576872E-5,-4.431153E-3,5.454376E-5,3.9983275E-5,-3.341707E-4,1.7172443E-3,-2.0812459E-4,3.2475386E-5,1.8387969E-4,-1.378838E-4,6.188048E-6],"categories":[],"categories_nodes":[],"categories_segments":[],"categories_sizes":[],"default_left":[0,0,0,0,0,0,0,0,0,0,0],"id":48,"left_children":[1,3,5,-1,-1,7,9,-1,-1,-1,-1],"loss_changes":[1.3874346E-4,8.7812645E-5,2.0169397E-4,0E0,0E0,1.2947901E-4,3.379588E-4,0E0,0E0,0E0,0E0],"parents":[2147483647,0,0,1,1,2,2,5,5,6,6],"right_children":[2,4,6,-1,-1,8,10,-1,-1,-1,-1],"split_conditions":[-1.2475644E-1,-1.4918963E-2,-1.9065313E-2,3.9983275E-5,-3.341707E-4,9.437005E-3,-1.2630168E-2,3.2475386E-5,1.8387969E-4,-1.378838E-4,6.188048E-6],"split_indices":[7,0,1,0,0,4,1,0,0,0,0],"split_type":[0,0,0,0,0,0,0,0,0,0,0],"sum_hessian":[4.66E2,6E0,4.6E2,2E0,4E0,6.2E1,3.98E2,4.1E1,2.1E1,4.5E1,3.53E2],"tree_param":{"num_deleted":"0","num_feature":"8","num_nodes":"11","size_leaf_vector":"1"}},{"base_weights":[-1.23967E-5,9.2769864E-5,-2.8016744E-3,-5.8553847E-5,5.633575E-3,-7.2813374E-3,3.1481136E-3,4.523872E-7,-3.7146948E-4,1.0748323E-3,-1.0213157E-4,-1.09369976E-4,-5.968898E-4,2.385339E-4,-2.0524592E-4],"categories":[],"categories_nodes":[],"categories_segments":[],"categories_sizes":[],"default_left":[0,0,0,0,0,0,0,0,0,0,0,0,0,0,0],"id":49,"left_children":[1,3,5,7,9,11,13,-1,-1,-1,-1,-1,-1,-1,-1],"loss_changes":[1.3724911E-4,3.7847317E-4,4.7602426E-4,2.193105E-4,1.5051281E-3,2.1108438E-4,1.1373133E-4,0E0,0E0,0E0,0E0,0E0,0E0,0E0,0E0],"parents":[2147483647,0,0,1,1,2,2,3,3,4,4,5,5,6,6],"right_children":[2,4,6,8,10,12,14,-1,-1,-1,-1,-1,-1,-1,-1],"split_conditions":[1.0861E0,1.0103626E0,6.9258415E1,7.59053E1,2.460779E-2,9.558868E-3,6.4082724E-1,4.523872E-7,-3.7146948E-4,1.0748323E-3,-1.0213157E-4,-1.09369976E-4,-5.968898E-4,2.385339E-4,-2.0524592E-4],"split_indices":[7,7,2,2,1,4,6,0,0,0,0,0,0,0,0],"split_type":[0,0,0,0,0,0,0,0,0,0,0,0,0,0,0],"sum_hessian":[4.66E2,4.5E2,1.6E1,4.39E2,1.1E1,9E0,7E0,4.36E2,3E0,3E0,8E0,5E0,4E0,6E0,1E0],"tree_param":{"num_deleted":"0","num_feature":"8","num_nodes":"15","size_leaf_vector":"1"}},{"base_weights":[-1.1929515E-5,-3.369427E-4,3.149565E-5,-2.6913572E-3,1.4082568E-4,-2.0316585E-4,2.7614416E-4,9.9299235E-5,-1.0596948E-5],"categories":[],"categories_nodes":[],"categories_segments":[],"categories_sizes":[],"default_left":[0,0,0,0,0,0,0,0,0],"id":50,"left_children":[1,-1,3,5,7,-1,-1,-1,-1],"loss_changes":[1.3663125E-4,0E0,1.3880467E-4,2.2529418E-4,2.9202717E-4,0E0,0E0,0E0,0E0],"parents":[2147483647,0,0,2,2,3,3,4,4],"right_children":[2,-1,4,6,8,-1,-1,-1,-1],"split_conditions":[5.040809E-3,-3.369427E-4,2.8993793E1,-1.8679224E-1,4.2061584E1,-2.0316585E-4,2.7614416E-4,9.9299235E-5,-1.0596948E-5],"split_indices":[4,0,2,6,2,0,0,0,0],"split_type":[0,0,0,0,0,0,0,0,0],"sum_hessian":[4.66E2,2E0,4.64E2,1.7E1,4.47E2,1.5E1,2E0,7.1E1,3.76E2],"tree_param":{"num_deleted":"0","num_feature":"8","num_nodes":"9","size_leaf_vector":"1"}},{"base_weights":[-1.1708336E-5,-6.66879E-3,3.1265754E-5,-6.472993E-5,-4.354293E-4,-4.3214243E-3,9.757854E-5,3.532544E-5,-3.2369499E-4,8.177475E-5,-7.3359743E-6],"categories":[],"categories_nodes":[],"categories_segments":[],"categories_sizes":[],"default_left":[0,0,0,0,0,0,0,0,0,0,0],"id":51,"left_children":[1,3,5,-1,-1,7,9,-1,-1,-1,-1],"loss_changes":[1.338088E-4,2.161265E-5,1.3463882E-4,0E0,0E0,8.033136E-5,1.7269082E-4,0E0,0E0,0E0,0E0],"parents":[2147483647,0,0,1,1,2,2,5,5,6,6],"right_children":[2,4,6,-1,-1,8,10,-1,-1,-1,-1],"split_conditions":[-2.5798248E-2,-1.8092856E-2,-1.2475644E-1,-6.472993E-5,-4.354293E-4,-1.4918963E-2,-1.9065313E-2,3.532544E-5,-3.2369499E-4,8.177475E-5,-7.3359743E-6],"split_indices":[0,1,7,0,0,0,1,0,0,0,0],"split_type":[0,0,0,0,0,0,0,0,0,0,0],"sum_hessian":[4.66E2,2E0,4.64E2,1E0,1E0,6E0,4.58E2,2E0,4E0,6.2E1,3.96E2],"tree_param":{"num_deleted":"0","num_feature":"8","num_nodes":"11","size_leaf_vector":"1"}},{"base_weights":[-1.2652008E-5,3.6724476E-5,-5.7371613E-3,-5.9417333E-5,4.407504E-3,-7.27441E-4,-5.19158E-4,9.260797E-6,-7.271961E-5,3.1017093E-4,-9.253841E-5,4.397092E-5,-9.8528995E-5],"categories":[],"categories_nodes":[],"categories_segments":[],"categories_sizes":[],"default_left":[0,0,0,0,0,0,0,0,0,0,0,0,0],"id":52,"left_children":[1,3,5,7,9,11,-1,-1,-1,-1,-1,-1,-1],"loss_changes":[1.322111E-4,1.9524149E-4,8.5547494E-5,1.5554143E-4,1.2387431E-4,7.725612E-6,0E0,0E0,0E0,0E0,0E0,0E0,0E0],"parents":[2147483647,0,0,1,1,2,2,3,3,4,4,5,5],"right_children":[2,4,6,8,10,12,-1,-1,-1,-1,-1,-1,-1],"split_conditions":[2.1946762E0,1.7682039E0,1.3073817E-2,8.183203E-1,5.4339166E-3,-9.494093E-3,-5.19158E-4,9.260797E-6,-7.271961E-5,3.1017093E-4,-9.253841E-5,4.397092E-5,-9.8528995E-5],"split_indices":[5,5,0,5,0,0,0,0,0,0,0,0,0],"split_type":[0,0,0,0,0,0,0,0,0,0,0,0,0],"sum_hessian":[4.66E2,4.63E2,3E0,4.54E2,9E0,2E0,1E0,3.87E2,6.7E1,7E0,2E0,1E0,1E0],"tree_param":{"num_deleted":"0","num_feature":"8","num_nodes":"13","size_leaf_vector":"1"}},{"base_weights":[-1.2917799E-5,-6.6085476E-3,2.9662431E-5,-7.086596E-5,-4.2477512E-4,-2.61396E-3,1.358132E-4,-2.0369745E-5,-4.134775E-4,9.354674E-5,-9.796153E-6],"categories":[],"categories_nodes":[],"categories_segments":[],"categories_sizes":[],"default_left":[0,0,0,0,0,0,0,0,0,0,0],"id":53,"left_children":[1,3,5,-1,-1,7,9,-1,-1,-1,-1],"loss_changes":[1.3134992E-4,1.7345985E-5,1.3084449E-4,0E0,0E0,2.2126074E-4,2.582366E-4,0E0,0E0,0E0,0E0],"parents":[2147483647,0,0,1,1,2,2,5,5,6,6],"right_children":[2,4,6,-1,-1,8,10,-1,-1,-1,-1],"split_conditions":[-2.5798248E-2,-1.8092856E-2,2.8993793E1,-7.086596E-5,-4.2477512E-4,2.7548023E1,4.2061584E1,-2.0369745E-5,-4.134775E-4,9.354674E-5,-9.796153E-6],"split_indices":[0,1,2,0,0,2,2,0,0,0,0],"split_type":[0,0,0,0,0,0,0,0,0,0,0],"sum_hessian":[4.66E2,2E0,4.64E2,1E0,1E0,1.7E1,4.47E2,1.3E1,4E0,7.1E1,3.76E2],"tree_param":{"num_deleted":"0","num_feature":"8","num_nodes":"11","size_leaf_vector":"1"}},{"base_weights":[-1.4082901E-5,3.7683581E-3,-8.821773E-5,7.855537E-3,4.15512E-4,-1.4979058E-4,4.585498E-3,7.127555E-5,4.7618547E-4,-9.246764E-5,1.6484139E-4,-3.0865417E-6,-4.0226048E-4,3.541713E-4,-1.9760356E-4],"categories":[],"categories_nodes":[],"categories_segments":[],"categories_sizes":[],"default_left":[0,0,0,0,0,0,0,0,0,0,0,0,0,0,0],"id":54,"left_children":[1,3,5,7,9,11,13,-1,-1,-1,-1,-1,-1,-1,-1],"loss_changes":[1.3128418E-4,1.20069075E-4,1.3277514E-4,2.9329443E-5,4.525174E-5,3.1515537E-4,1.559516E-4,0E0,0E0,0E0,0E0,0E0,0E0,0E0,0E0],"parents":[2147483647,0,0,1,1,2,2,3,3,4,4,5,5,6,6],"right_children":[2,4,6,8,10,12,14,-1,-1,-1,-1,-1,-1,-1,-1],"split_conditions":[-4.3556792E-1,-3.0730832E-2,6.97134E-2,-1.6001172E-2,-1.6496513E-2,2.593577E-2,7.526133E1,7.127555E-5,4.7618547E-4,-9.246764E-5,1.6484139E-4,-3.0865417E-6,-4.0226048E-4,3.541713E-4,-1.9760356E-4],"split_indices":[6,1,1,0,1,0,2,0,0,0,0,0,0,0,0],"split_type":[0,0,0,0,0,0,0,0,0,0,0,0,0,0,0],"sum_hessian":[4.66E2,8E0,4.58E2,3E0,5E0,4.53E2,5E0,1E0,2E0,3E0,2E0,4.49E2,4E0,4E0,1E0],"tree_param":{"num_deleted":"0","num_feature":"8","num_nodes":"15","size_leaf_vector":"1"}},{"base_weights":[-1.2584211E-5,-3.25346E-4,2.9341792E-5,-4.217261E-3,9.404087E-5,3.0823892E-5,-3.137026E-4,7.649684E-5,-6.7029296E-6],"categories":[],"categories_nodes":[],"categories_segments":[],"categories_sizes":[],"default_left":[0,0,0,0,0,0,0,0,0],"id":55,"left_children":[1,-1,3,5,7,-1,-1,-1,-1],"loss_changes":[1.273464E-4,0E0,1.2815594E-4,7.346175E-5,1.5054003E-4,0E0,0E0,0E0,0E0],"parents":[2147483647,0,0,2,2,3,3,4,4],"right_children":[2,-1,4,6,8,-1,-1,-1,-1],"split_conditions":[5.040809E-3,-3.25346E-4,-1.2475644E-1,-1.4918963E-2,-1.9065313E-2,3.0823892E-5,-3.137026E-4,7.649684E-5,-6.7029296E-6],"split_indices":[4,0,7,0,1,0,0,0,0],"split_type":[0,0,0,0,0,0,0,0,0],"sum_hessian":[4.66E2,2E0,4.64E2,6E0,4.58E2,2E0,4E0,6.2E1,3.96E2],"tree_param":{"num_deleted":"0","num_feature":"8","num_nodes":"9","size_leaf_vector":"1"}},{"base_weights":[-1.3107978E-5,3.490247E-5,-5.579043E-3,-1.430221E-4,2.2893315E-3,-6.961981E-4,-5.056895E-4,8.4144466E-7,-3.437216E-4,2.658822E-4,-9.5052055E-5,4.3361284E-5,-9.557614E-5],"categories":[],"categories_nodes":[],"categories_segments":[],"categories_sizes":[],"default_left":[0,0,0,0,0,0,0,0,0,0,0,0,0],"id":56,"left_children":[1,3,5,7,9,11,-1,-1,-1,-1,-1,-1,-1],"loss_changes":[1.2498788E-4,1.8644633E-4,8.152863E-5,4.638814E-4,4.4156093E-4,7.3579245E-6,0E0,0E0,0E0,0E0,0E0,0E0,0E0],"parents":[2147483647,0,0,1,1,2,2,3,3,4,4,5,5],"right_children":[2,4,6,8,10,12,-1,-1,-1,-1,-1,-1,-1],"split_conditions":[2.1946762E0,6.9258415E1,1.3073817E-2,1.0861E0,7.526133E1,-9.494093E-3,-5.056895E-4,8.4144466E-7,-3.437216E-4,2.658822E-4,-9.5052055E-5,4.3361284E-5,-9.557614E-5],"split_indices":[5,2,0,7,2,0,0,0,0,0,0,0,0],"split_type":[0,0,0,0,0,0,0,0,0,0,0,0,0],"sum_hessian":[4.66E2,4.63E2,3E0,4.3E2,3.3E1,2E0,1E0,4.21E2,9E0,1.9E1,1.4E1,1E0,1E0],"tree_param":{"num_deleted":"0","num_feature":"8","num_nodes":"13","size_leaf_vector":"1"}},{"base_weights":[-1.4015639E-5,-6.437368E-3,2.7455486E-5,-6.8870606E-5,-4.13932E-4,-2.5535459E-3,1.3109515E-4,-1.9454927E-4,2.715324E-4,8.835908E-5,-9.085737E-6],"categories":[],"categories_nodes":[],"categories_segments":[],"categories_sizes":[],"default_left":[0,0,0,0,0,0,0,0,0,0,0],"id":57,"left_children":[1,3,5,-1,-1,7,9,-1,-1,-1,-1],"loss_changes":[1.245779E-4,1.6547172E-5,1.2471952E-4,0E0,0E0,2.1334137E-4,2.2960034E-4,0E0,0E0,0E0,0E0],"parents":[2147483647,0,0,1,1,2,2,5,5,6,6],"right_children":[2,4,6,-1,-1,8,10,-1,-1,-1,-1],"split_conditions":[-2.5798248E-2,-1.8092856E-2,2.8993793E1,-6.8870606E-5,-4.13932E-4,-1.8679224E-1,4.2061584E1,-1.9454927E-4,2.715324E-4,8.835908E-5,-9.085737E-6],"split_indices":[0,1,2,0,0,6,2,0,0,0,0],"split_type":[0,0,0,0,0,0,0,0,0,0,0],"sum_hessian":[4.66E2,2E0,4.64E2,1E0,1E0,1.7E1,4.47E2,1.5E1,2E0,7.1E1,3.76E2],"tree_param":{"num_deleted":"0","num_feature":"8","num_nodes":"11","size_leaf_vector":"1"}},{"base_weights":[-1.4014102E-5,3.646262E-3,-8.575369E-5,7.5704413E-3,4.2243203E-4,-7.17907E-4,3.8808642E-4,7.242394E-5,4.564135E-4,-8.820129E-5,1.5984492E-4,-2.2506489E-5,-5.455263E-4,2.5891693E-4,4.897922E-6],"categories":[],"categories_nodes":[],"categories_segments":[],"categories_sizes":[],"default_left":[0,0,0,0,0,0,0,0,0,0,0,0,0,0,0],"id":58,"left_children":[1,3,5,7,9,11,13,-1,-1,-1,-1,-1,-1,-1,-1],"loss_changes":[1.2294066E-4,1.1065998E-4,1.3776727E-4,2.4925772E-5,4.2036932E-5,5.3277094E-4,3.650065E-4,0E0,0E0,0E0,0E0,0E0,0E0,0E0,0E0],"parents":[2147483647,0,0,1,1,2,2,3,3,4,4,5,5,6,6],"right_children":[2,4,6,8,10,12,14,-1,-1,-1,-1,-1,-1,-1,-1],"split_conditions":[-4.3556792E-1,-3.0730832E-2,-3.631823E-3,-1.6001172E-2,-1.6496513E-2,1.8784331E-1,4.1846462E1,7.242394E-5,4.564135E-4,-8.820129E-5,1.5984492E-4,-2.2506489E-5,-5.455263E-4,2.5891693E-4,4.897922E-6],"split_indices":[6,1,1,0,1,6,2,0,0,0,0,0,0,0,0],"split_type":[0,0,0,0,0,0,0,0,0,0,0,0,0,0,0],"sum_hessian":[4.66E2,8E0,4.58E2,3E0,5E0,1.96E2,2.62E2,1E0,2E0,3E0,2E0,1.92E2,4E0,1.4E1,2.48E2],"tree_param":{"num_deleted":"0","num_feature":"8","num_nodes":"15","size_leaf_vector":"1"}},{"base_weights":[-1.2679012E-5,3.4104753E-5,-5.4364256E-3,-5.7508423E-5,4.1990937E-3,-6.7600136E-4,-4.9294246E-4,6.342612E-7,-2.2758571E-4,2.9450323E-4,-8.5492946E-5,4.2381947E-5,-9.3082046E-5],"categories":[],"categories_nodes":[],"categories_segments":[],"categories_sizes":[],"default_left":[0,0,0,0,0,0,0,0,0,0,0,0,0],"id":59,"left_children":[1,3,5,7,9,11,-1,-1,-1,-1,-1,-1,-1],"loss_changes":[1.1868352E-4,1.7728897E-4,7.754586E-5,1.4359418E-4,1.0998982E-4,6.9974644E-6,0E0,0E0,0E0,0E0,0E0,0E0,0E0],"parents":[2147483647,0,0,1,1,2,2,3,3,4,4,5,5],"right_children":[2,4,6,8,10,12,-1,-1,-1,-1,-1,-1,-1],"split_conditions":[2.1946762E0,1.7682039E0,1.3073817E-2,1.5592715E0,5.4339166E-3,-9.494093E-3,-4.9294246E-4,6.342612E-7,-2.2758571E-4,2.9450323E-4,-8.5492946E-5,4.2381947E-5,-9.3082046E-5],"split_indices":[5,5,0,5,0,0,0,0,0,0,0,0,0],"split_type":[0,0,0,0,0,0,0,0,0,0,0,0,0],"sum_hessian":[4.66E2,4.63E2,3E0,4.54E2,9E0,2E0,1E0,4.48E2,6E0,7E0,2E0,1E0,1E0],"tree_param":{"num_deleted":"0","num_feature":"8","num_nodes":"13","size_leaf_vector":"1"}},{"base_weights":[-1.3247595E-5,-6.359809E-3,2.7726452E-5,-7.394876E-5,-4.0303692E-4,-2.1653801E-4,1.1382181E-3,-5.4356474E-6,-5.1894144E-4,2.812623E-4,-2.723414E-5],"categories":[],"categories_nodes":[],"categories_segments":[],"categories_sizes":[],"default_left":[0,0,0,0,0,0,0,0,0,0,0],"id":60,"left_children":[1,3,5,-1,-1,7,9,-1,-1,-1,-1],"loss_changes":[1.21617035E-4,1.2984216E-5,1.2637941E-4,0E0,0E0,4.1744803E-4,6.373667E-4,0E0,0E0,0E0,0E0],"parents":[2147483647,0,0,1,1,2,2,5,5,6,6],"right_children":[2,4,6,-1,-1,8,10,-1,-1,-1,-1],"split_conditions":[-2.5798248E-2,-1.8092856E-2,1.1726824E-2,-7.394876E-5,-4.0303692E-4,2.593577E-2,3.7797177E-1,-5.4356474E-6,-5.1894144E-4,2.812623E-4,-2.723414E-5],"split_indices":[0,1,4,0,0,0,5,0,0,0,0],"split_type":[0,0,0,0,0,0,0,0,0,0,0],"sum_hessian":[4.66E2,2E0,4.64E2,1E0,1E0,3.81E2,8.3E1,3.78E2,3E0,2.2E1,6.1E1],"tree_param":{"num_deleted":"0","num_feature":"8","num_nodes":"11","size_leaf_vector":"1"}},{"base_weights":[-1.4185496E-5,-3.137728E-4,2.6240303E-5,-3.3549638E-4,8.349415E-4,1.6908394E-5,-1.3609025E-4,2.0738496E-4,-2.8489942E-5],"categories":[],"categories_nodes":[],"categories_segments":[],"categories_sizes":[],"default_left":[0,0,0,0,0,0,0,0,0],"id":61,"left_children":[1,-1,3,5,7,-1,-1,-1,-1],"loss_changes":[1.1837023E-4,0E0,1.3630977E-4,5.185582E-4,6.724766E-4,0E0,0E0,0E0,0E0],"parents":[2147483647,0,0,2,2,3,3,4,4],"right_children":[2,-1,4,6,8,-1,-1,-1,-1],"split_conditions":[5.040809E-3,-3.137728E-4,5.7962566E1,5.910897E-1,6.146422E1,1.6908394E-5,-1.3609025E-4,2.0738496E-4,-2.8489942E-5],"split_indices":[4,0,2,7,2,0,0,0,0],"split_type":[0,0,0,0,0,0,0,0,0],"sum_hessian":[4.66E2,2E0,4.64E2,3.21E2,1.43E2,2.51E2,7E1,4.2E1,1.01E2],"tree_param":{"num_deleted":"0","num_feature":"8","num_nodes":"9","size_leaf_vector":"1"}},{"base_weights":[-1.4020248E-5,-4.100432E-3,4.8059803E-5,5.4339453E-4,-3.0333208E-4,1.4466243E-3,-1.7288662E-4,4.9898787E-5,-9.144193E-6,2.2758606E-5,1.6368205E-4,-1.3127956E-4,7.3157403E-6],"categories":[],"categories_nodes":[],"categories_segments":[],"categories_sizes":[],"default_left":[0,0,0,0,0,0,0,0,0,0,0,0,0],"id":62,"left_children":[1,3,5,7,-1,9,11,-1,-1,-1,-1,-1,-1],"loss_changes":[1.186678E-4,6.721173E-5,1.427027E-4,1.1729712E-6,0E0,1.1262811E-4,3.12764E-4,0E0,0E0,0E0,0E0,0E0,0E0],"parents":[2147483647,0,0,1,1,2,2,3,3,5,5,6,6],"right_children":[2,4,6,8,-1,10,12,-1,-1,-1,-1,-1,-1],"split_conditions":[-1.2475644E-1,-1.4918963E-2,-1.9065313E-2,-1.6001172E-2,-3.0333208E-4,9.437005E-3,-1.2630168E-2,4.9898787E-5,-9.144193E-6,2.2758606E-5,1.6368205E-4,-1.3127956E-4,7.3157403E-6],"split_indices":[7,0,1,0,0,4,1,0,0,0,0,0,0],"split_type":[0,0,0,0,0,0,0,0,0,0,0,0,0],"sum_hessian":[4.66E2,6E0,4.6E2,2E0,4E0,6.2E1,3.98E2,1E0,1E0,4.1E1,2.1E1,4.5E1,3.53E2],"tree_param":{"num_deleted":"0","num_feature":"8","num_nodes":"13","size_leaf_vector":"1"}},{"base_weights":[-1.3747723E-5,-6.2342566E-3,2.6414158E-5,-7.400267E-5,-3.935666E-4,-2.446492E-3,1.2571304E-4,-1.5087675E-5,-3.9812308E-4,8.335685E-5,-8.450188E-6],"categories":[],"categories_nodes":[],"categories_segments":[],"categories_sizes":[],"default_left":[0,0,0,0,0,0,0,0,0,0,0],"id":63,"left_children":[1,3,5,-1,-1,7,9,-1,-1,-1,-1],"loss_changes":[1.1683404E-4,1.1698976E-5,1.1449147E-4,0E0,0E0,2.1054294E-4,2.0380077E-4,0E0,0E0,0E0,0E0],"parents":[2147483647,0,0,1,1,2,2,5,5,6,6],"right_children":[2,4,6,-1,-1,8,10,-1,-1,-1,-1],"split_conditions":[-2.5798248E-2,-1.8092856E-2,2.8993793E1,-7.400267E-5,-3.935666E-4,2.7548023E1,4.2061584E1,-1.5087675E-5,-3.9812308E-4,8.335685E-5,-8.450188E-6],"split_indices":[0,1,2,0,0,2,2,0,0,0,0],"split_type":[0,0,0,0,0,0,0,0,0,0,0],"sum_hessian":[4.66E2,2E0,4.64E2,1E0,1E0,1.7E1,4.47E2,1.3E1,4E0,7.1E1,3.76E2],"tree_param":{"num_deleted":"0","num_feature":"8","num_nodes":"11","size_leaf_vector":"1"}},{"base_weights":[-1.4785951E-5,-7.098325E-5,4.3148706E-3,9.275575E-6,-7.408495E-3,6.6867187E-3,-1.8860928E-4,5.417063E-6,-1.6950766E-4,-6.5056235E-4,3.318776E-5,-1.5878037E-5,4.2585895E-4],"categories":[],"categories_nodes":[],"categories_segments":[],"categories_sizes":[],"default_left":[0,0,0,0,0,0,0,0,0,0,0,0,0],"id":64,"left_children":[1,3,5,7,9,11,-1,-1,-1,-1,-1,-1,-1],"loss_changes":[1.1393439E-4,2.7214058E-4,1.4031117E-4,1.5460647E-4,2.3477033E-4,6.681E-5,0E0,0E0,0E0,0E0,0E0,0E0,0E0],"parents":[2147483647,0,0,1,1,2,2,3,3,4,4,5,5],"right_children":[2,4,6,8,10,12,-1,-1,-1,-1,-1,-1,-1],"split_conditions":[6.97134E-2,2.593577E-2,7.526133E1,4.09557E-2,3.5425056E-2,-9.021008E-3,-1.8860928E-4,5.417063E-6,-1.6950766E-4,-6.5056235E-4,3.318776E-5,-1.5878037E-5,4.2585895E-4],"split_indices":[1,0,2,1,0,0,0,0,0,0,0,0,0],"split_type":[0,0,0,0,0,0,0,0,0,0,0,0,0],"sum_hessian":[4.66E2,4.61E2,5E0,4.57E2,4E0,4E0,1E0,4.45E2,1.2E1,2E0,2E0,1E0,3E0],"tree_param":{"num_deleted":"0","num_feature":"8","num_nodes":"13","size_leaf_vector":"1"}},{"base_weights":[-1.524598E-5,-3.995898E-3,4.5230834E-5,4.7062713E-4,-2.938317E-4,1.361602E-3,-1.627306E-4,4.643197E-5,-1.1134936E-5,2.0819532E-5,1.5521028E-4,-1.2602132E-4,7.2048147E-6],"categories":[],"categories_nodes":[],"categories_segments":[],"categories_sizes":[],"default_left":[0,0,0,0,0,0,0,0,0,0,0,0,0],"id":65,"left_children":[1,3,5,7,-1,9,11,-1,-1,-1,-1,-1,-1],"loss_changes":[1.1260498E-4,6.1568164E-5,1.2642238E-4,1.1594623E-6,0E0,1.02476544E-4,2.8900153E-4,0E0,0E0,0E0,0E0,0E0,0E0],"parents":[2147483647,0,0,1,1,2,2,3,3,5,5,6,6],"right_children":[2,4,6,8,-1,10,12,-1,-1,-1,-1,-1,-1],"split_conditions":[-1.2475644E-1,-1.4918963E-2,-1.9065313E-2,-1.6001172E-2,-2.938317E-4,9.437005E-3,-1.2630168E-2,4.643197E-5,-1.1134936E-5,2.0819532E-5,1.5521028E-4,-1.2602132E-4,7.2048147E-6],"split_indices":[7,0,1,0,0,4,1,0,0,0,0,0,0],"split_type":[0,0,0,0,0,0,0,0,0,0,0,0,0],"sum_hessian":[4.66E2,6E0,4.6E2,2E0,4E0,6.2E1,3.98E2,1E0,1E0,4.1E1,2.1E1,4.5E1,3.53E2],"tree_param":{"num_deleted":"0","num_feature":"8","num_nodes":"13","size_leaf_vector":"1"}},{"base_weights":[-1.4914761E-5,3.0396892E-5,-5.267338E-3,-1.401524E-4,2.191466E-3,-6.2961E-4,-4.7951305E-4,3.8022657E-7,-3.1807402E-4,2.513497E-4,-8.676678E-5,4.2428317E-5,-8.964907E-5],"categories":[],"categories_nodes":[],"categories_segments":[],"categories_sizes":[],"default_left":[0,0,0,0,0,0,0,0,0,0,0,0,0],"id":66,"left_children":[1,3,5,7,9,11,-1,-1,-1,-1,-1,-1,-1],"loss_changes":[1.1130422E-4,1.7132307E-4,7.415604E-5,3.9624269E-4,3.872984E-4,6.680467E-6,0E0,0E0,0E0,0E0,0E0,0E0,0E0],"parents":[2147483647,0,0,1,1,2,2,3,3,4,4,5,5],"right_children":[2,4,6,8,10,12,-1,-1,-1,-1,-1,-1,-1],"split_conditions":[2.1946762E0,6.9258415E1,1.3073817E-2,1.0861E0,7.526133E1,-9.494093E-3,-4.7951305E-4,3.8022657E-7,-3.1807402E-4,2.513497E-4,-8.676678E-5,4.2428317E-5,-8.964907E-5],"split_indices":[5,2,0,7,2,0,0,0,0,0,0,0,0],"split_type":[0,0,0,0,0,0,0,0,0,0,0,0,0],"sum_hessian":[4.66E2,4.63E2,3E0,4.3E2,3.3E1,2E0,1E0,4.21E2,9E0,1.9E1,1.4E1,1E0,1E0],"tree_param":{"num_deleted":"0","num_feature":"8","num_nodes":"13","size_leaf_vector":"1"}},{"base_weights":[-1.5624788E-5,-3.0370927E-4,2.3496303E-5,-3.2396743E-4,8.003006E-4,1.5780744E-5,-1.2947356E-4,2.0007289E-4,-2.7852646E-5],"categories":[],"categories_nodes":[],"categories_segments":[],"categories_sizes":[],"default_left":[0,0,0,0,0,0,0,0,0],"id":67,"left_children":[1,-1,3,5,7,-1,-1,-1,-1],"loss_changes":[1.10829904E-4,0E0,1.2576804E-4,4.673876E-4,6.279237E-4,0E0,0E0,0E0,0E0],"parents":[2147483647,0,0,2,2,3,3,4,4],"right_children":[2,-1,4,6,8,-1,-1,-1,-1],"split_conditions":[5.040809E-3,-3.0370927E-4,5.7962566E1,5.910897E-1,6.146422E1,1.5780744E-5,-1.2947356E-4,2.0007289E-4,-2.7852646E-5],"split_indices":[4,0,2,7,2,0,0,0,0],"split_type":[0,0,0,0,0,0,0,0,0],"sum_hessian":[4.66E2,2E0,4.64E2,3.21E2,1.43E2,2.51E2,7E1,4.2E1,1.01E2],"tree_param":{"num_deleted":"0","num_feature":"8","num_nodes":"9","size_leaf_vector":"1"}},{"base_weights":[-1.5368572E-5,-6.1146105E-3,2.4014427E-5,-7.4148826E-5,-3.84447E-4,-1.1410218E-3,2.368535E-4,8.959726E-6,-2.555813E-4,1.8459579E-4,2.1109697E-6],"categories":[],"categories_nodes":[],"categories_segments":[],"categories_sizes":[],"default_left":[0,0,0,0,0,0,0,0,0,0,0],"id":68,"left_children":[1,3,5,-1,-1,7,9,-1,-1,-1,-1],"loss_changes":[1.1232326E-4,1.0472628E-5,1.1557409E-4,0E0,0E0,3.7834403E-4,2.647985E-4,0E0,0E0,0E0,0E0],"parents":[2147483647,0,0,1,1,2,2,5,5,6,6],"right_children":[2,4,6,-1,-1,8,10,-1,-1,-1,-1],"split_conditions":[-2.5798248E-2,-1.8092856E-2,-5.0966966E-1,-7.4148826E-5,-3.84447E-4,3.486812E-1,-4.494757E-1,8.959726E-6,-2.555813E-4,1.8459579E-4,2.1109697E-6],"split_indices":[0,1,5,0,0,7,5,0,0,0,0],"split_type":[0,0,0,0,0,0,0,0,0,0,0],"sum_hessian":[4.66E2,2E0,4.64E2,1E0,1E0,7.1E1,3.93E2,5.4E1,1.7E1,2E1,3.73E2],"tree_param":{"num_deleted":"0","num_feature":"8","num_nodes":"11","size_leaf_vector":"1"}},{"base_weights":[-1.5710464E-5,3.4127608E-3,-8.290116E-5,7.1157236E-3,3.7532533E-4,-1.0382662E-3,2.3579417E-4,6.883497E-5,4.284916E-4,-8.6963984E-5,1.534845E-4,3.9511706E-5,-1.2800242E-4,1.7143055E-4,-5.6448366E-6],"categories":[],"categories_nodes":[],"categories_segments":[],"categories_sizes":[],"default_left":[0,0,0,0,0,0,0,0,0,0,0,0,0,0,0],"id":69,"left_children":[1,3,5,7,9,11,13,-1,-1,-1,-1,-1,-1,-1,-1],"loss_changes":[1.07861684E-4,9.855689E-5,1.3999673E-4,2.1582571E-5,3.9524155E-5,3.220196E-4,3.8447772E-4,0E0,0E0,0E0,0E0,0E0,0E0,0E0,0E0],"parents":[2147483647,0,0,1,1,2,2,3,3,4,4,5,5,6,6],"right_children":[2,4,6,8,10,12,14,-1,-1,-1,-1,-1,-1,-1,-1],"split_conditions":[-4.3556792E-1,-3.0730832E-2,2.7166373E-1,-1.6001172E-2,-1.6496513E-2,-1.743639E-2,3.486812E-1,6.883497E-5,4.284916E-4,-8.6963984E-5,1.534845E-4,3.9511706E-5,-1.2800242E-4,1.7143055E-4,-5.6448366E-6],"split_indices":[6,1,7,0,1,1,7,0,0,0,0,0,0,0,0],"split_type":[0,0,0,0,0,0,0,0,0,0,0,0,0,0,0],"sum_hessian":[4.66E2,8E0,4.58E2,3E0,5E0,1.14E2,3.44E2,1E0,2E0,3E0,2E0,5.2E1,6.2E1,3.3E1,3.11E2],"tree_param":{"num_deleted":"0","num_feature":"8","num_nodes":"15","size_leaf_vector":"1"}},{"base_weights":[-1.35520295E-5,-5.957982E-3,2.4828278E-5,-7.215398E-5,-3.7469467E-4,-3.883544E-3,8.437899E-5,2.0902806E-5,-2.8438977E-4,-5.4577424E-5,1.49395755E-5],"categories":[],"categories_nodes":[],"categories_segments":[],"categories_sizes":[],"default_left":[0,0,0,0,0,0,0,0,0,0,0],"id":70,"left_children":[1,3,5,-1,-1,7,9,-1,-1,-1,-1],"loss_changes":[1.0669353E-4,9.989184E-6,1.0855475E-4,0E0,0E0,5.6705983E-5,1.1605544E-4,0E0,0E0,0E0,0E0],"parents":[2147483647,0,0,1,1,2,2,5,5,6,6],"right_children":[2,4,6,-1,-1,8,10,-1,-1,-1,-1],"split_conditions":[-2.5798248E-2,-1.8092856E-2,-1.2475644E-1,-7.215398E-5,-3.7469467E-4,-1.4918963E-2,-5.0966966E-1,2.0902806E-5,-2.8438977E-4,-5.4577424E-5,1.49395755E-5],"split_indices":[0,1,7,0,0,0,5,0,0,0,0],"split_type":[0,0,0,0,0,0,0,0,0,0,0],"sum_hessian":[4.66E2,2E0,4.64E2,1E0,1E0,6E0,4.58E2,2E0,4E0,7E1,3.88E2],"tree_param":{"num_deleted":"0","num_feature":"8","num_nodes":"11","size_leaf_vector":"1"}},{"base_weights":[-1.4480364E-5,2.9592555E-5,-5.123319E-3,-1.3401565E-4,2.1026966E-3,-6.02905E-4,-4.67114E-4,4.0586806E-7,-3.0593135E-4,2.4019182E-4,-8.195014E-5,4.177878E-5,-8.699666E-5],"categories":[],"categories_nodes":[],"categories_segments":[],"categories_sizes":[],"default_left":[0,0,0,0,0,0,0,0,0,0,0,0,0],"id":71,"left_children":[1,3,5,7,9,11,-1,-1,-1,-1,-1,-1,-1],"loss_changes":[1.05301995E-4,1.5765986E-4,7.065329E-5,3.666629E-4,3.5150646E-4,6.360625E-6,0E0,0E0,0E0,0E0,0E0,0E0,0E0],"parents":[2147483647,0,0,1,1,2,2,3,3,4,4,5,5],"right_children":[2,4,6,8,10,12,-1,-1,-1,-1,-1,-1,-1],"split_conditions":[2.1946762E0,6.9258415E1,1.3073817E-2,1.0861E0,7.526133E1,-9.494093E-3,-4.67114E-4,4.0586806E-7,-3.0593135E-4,2.4019182E-4,-8.195014E-5,4.177878E-5,-8.699666E-5],"split_indices":[5,2,0,7,2,0,0,0,0,0,0,0,0],"split_type":[0,0,0,0,0,0,0,0,0,0,0,0,0],"sum_hessian":[4.66E2,4.63E2,3E0,4.3E2,3.3E1,2E0,1E0,4.21E2,9E0,1.9E1,1.4E1,1E0,1E0],"tree_param":{"num_deleted":"0","num_feature":"8","num_nodes":"13","size_leaf_vector":"1"}},{"base_weights":[-1.5168798E-5,-2.9397936E-4,2.269878E-5,-3.016584E-4,7.4783986E-4,1.44863825E-5,-1.25746E-4,1.9098361E-4,-2.7724001E-5],"categories":[],"categories_nodes":[],"categories_segments":[],"categories_sizes":[],"default_left":[0,0,0,0,0,0,0,0,0],"id":72,"left_children":[1,-1,3,5,7,-1,-1,-1,-1],"loss_changes":[1.0384076E-4,0E0,1.0959579E-4,4.2219184E-4,5.7819113E-4,0E0,0E0,0E0,0E0],"parents":[2147483647,0,0,2,2,3,3,4,4],"right_children":[2,-1,4,6,8,-1,-1,-1,-1],"split_conditions":[5.040809E-3,-2.9397936E-4,5.7962566E1,5.293366E1,6.146422E1,1.44863825E-5,-1.25746E-4,1.9098361E-4,-2.7724001E-5],"split_indices":[4,0,2,2,2,0,0,0,0],"split_type":[0,0,0,0,0,0,0,0,0],"sum_hessian":[4.66E2,2E0,4.64E2,3.21E2,1.43E2,2.54E2,6.7E1,4.2E1,1.01E2],"tree_param":{"num_deleted":"0","num_feature":"8","num_nodes":"9","size_leaf_vector":"1"}},{"base_weights":[-1.4928502E-5,-5.8777933E-3,2.2928536E-5,-7.513487E-5,-3.6569964E-4,-2.004302E-4,1.038406E-3,-5.032654E-6,-4.8021023E-4,2.708475E-4,-3.0132045E-5],"categories":[],"categories_nodes":[],"categories_segments":[],"categories_sizes":[],"default_left":[0,0,0,0,0,0,0,0,0,0,0],"id":73,"left_children":[1,3,5,-1,-1,7,9,-1,-1,-1,-1],"loss_changes":[1.0378575E-4,7.859817E-6,1.05677456E-4,0E0,0E0,3.5745683E-4,6.068377E-4,0E0,0E0,0E0,0E0],"parents":[2147483647,0,0,1,1,2,2,5,5,6,6],"right_children":[2,4,6,-1,-1,8,10,-1,-1,-1,-1],"split_conditions":[-2.5798248E-2,-1.8092856E-2,1.1726824E-2,-7.513487E-5,-3.6569964E-4,2.593577E-2,3.7797177E-1,-5.032654E-6,-4.8021023E-4,2.708475E-4,-3.0132045E-5],"split_indices":[0,1,4,0,0,0,5,0,0,0,0],"split_type":[0,0,0,0,0,0,0,0,0,0,0],"sum_hessian":[4.66E2,2E0,4.64E2,1E0,1E0,3.81E2,8.3E1,3.78E2,3E0,2.2E1,6.1E1],"tree_param":{"num_deleted":"0","num_feature":"8","num_nodes":"11","size_leaf_vector":"1"}},{"base_weights":[-1.5649674E-5,3.3065432E-3,-8.075662E-5,6.8893237E-3,3.669325E-4,-7.104163E-4,3.8288263E-4,6.823203E-5,4.138002E-4,-8.3450104E-5,1.4796005E-4,-2.277096E-5,-5.1546114E-4,-2.0367063E-4,3.42795E-5],"categories":[],"categories_nodes":[],"categories_segments":[],"categories_sizes":[],"default_left":[0,0,0,0,0,0,0,0,0,0,0,0,0,0,0],"id":74,"left_children":[1,3,5,7,9,11,13,-1,-1,-1,-1,-1,-1,-1,-1],"loss_changes":[1.01278114E-4,9.225989E-5,1.3427014E-4,1.9350133E-5,3.6605044E-5,4.7260014E-4,3.6026537E-4,0E0,0E0,0E0,0E0,0E0,0E0,0E0,0E0],"parents":[2147483647,0,0,1,1,2,2,3,3,4,4,5,5,6,6],"right_children":[2,4,6,8,10,12,14,-1,-1,-1,-1,-1,-1,-1,-1],"split_conditions":[-4.3556792E-1,-3.0730832E-2,-3.8854084E-3,-1.6001172E-2,-1.6496513E-2,1.8784331E-1,-1.8106623E-1,6.823203E-5,4.138002E-4,-8.3450104E-5,1.4796005E-4,-2.277096E-5,-5.1546114E-4,-2.0367063E-4,3.42795E-5],"split_indices":[6,1,1,0,1,6,6,0,0,0,0,0,0,0,0],"split_type":[0,0,0,0,0,0,0,0,0,0,0,0,0,0,0],"sum_hessian":[4.66E2,8E0,4.58E2,3E0,5E0,1.94E2,2.64E2,1E0,2E0,3E0,2E0,1.9E2,4E0,1.6E1,2.48E2],"tree_param":{"num_deleted":"0","num_feature":"8","num_nodes":"15","size_leaf_vector":"1"}},{"base_weights":[-1.5212109E-5,2.7599483E-5,-4.9775536E-3,-5.669852E-5,3.8603987E-3,-5.7211466E-4,-4.5484677E-4,8.672544E-6,-6.845351E-5,2.6910388E-4,-7.42106E-5,4.132373E-5,-8.423233E-5],"categories":[],"categories_nodes":[],"categories_segments":[],"categories_sizes":[],"default_left":[0,0,0,0,0,0,0,0,0,0,0,0,0],"id":75,"left_children":[1,3,5,7,9,11,-1,-1,-1,-1,-1,-1,-1],"loss_changes":[9.934954E-5,1.5013604E-4,6.7386245E-5,1.3766639E-4,8.931596E-5,6.060243E-6,0E0,0E0,0E0,0E0,0E0,0E0,0E0],"parents":[2147483647,0,0,1,1,2,2,3,3,4,4,5,5],"right_children":[2,4,6,8,10,12,-1,-1,-1,-1,-1,-1,-1],"split_conditions":[2.1946762E0,1.7682039E0,1.3073817E-2,8.183203E-1,5.4339166E-3,-9.494093E-3,-4.5484677E-4,8.672544E-6,-6.845351E-5,2.6910388E-4,-7.42106E-5,4.132373E-5,-8.423233E-5],"split_indices":[5,5,0,5,0,0,0,0,0,0,0,0,0],"split_type":[0,0,0,0,0,0,0,0,0,0,0,0,0],"sum_hessian":[4.66E2,4.63E2,3E0,4.54E2,9E0,2E0,1E0,3.87E2,6.7E1,7E0,2E0,1E0,1E0],"tree_param":{"num_deleted":"0","num_feature":"8","num_nodes":"13","size_leaf_vector":"1"}},{"base_weights":[-1.5228054E-5,-5.80826E-3,2.2179094E-5,-7.941482E-5,-3.5620466E-4,-2.3134486E-3,1.1597177E-4,-1.8097473E-4,2.7116397E-4,8.0911435E-5,-8.56195E-6],"categories":[],"categories_nodes":[],"categories_segments":[],"categories_sizes":[],"default_left":[0,0,0,0,0,0,0,0,0,0,0],"id":76,"left_children":[1,3,5,-1,-1,7,9,-1,-1,-1,-1],"loss_changes":[1.0132809E-4,5.343136E-6,1.0213341E-4,0E0,0E0,2.0151093E-4,1.9357313E-4,0E0,0E0,0E0,0E0],"parents":[2147483647,0,0,1,1,2,2,5,5,6,6],"right_children":[2,4,6,-1,-1,8,10,-1,-1,-1,-1],"split_conditions":[-2.5798248E-2,-1.8092856E-2,2.8993793E1,-7.941482E-5,-3.5620466E-4,-1.8679224E-1,4.2061584E1,-1.8097473E-4,2.7116397E-4,8.0911435E-5,-8.56195E-6],"split_indices":[0,1,2,0,0,6,2,0,0,0,0],"split_type":[0,0,0,0,0,0,0,0,0,0,0],"sum_hessian":[4.66E2,2E0,4.64E2,1E0,1E0,1.7E1,4.47E2,1.5E1,2E0,7.1E1,3.76E2],"tree_param":{"num_deleted":"0","num_feature":"8","num_nodes":"11","size_leaf_vector":"1"}},{"base_weights":[-1.505139E-5,-3.7799452E-3,4.2148844E-5,3.5300583E-4,-5.5037267E-3,1.2392625E-3,-1.4697475E-4,4.1387197E-5,-1.4911758E-5,-1.2407305E-4,-3.3457085E-4,1.7819444E-5,1.4342093E-4,-1.1777284E-4,7.0209157E-6],"categories":[],"categories_nodes":[],"categories_segments":[],"categories_sizes":[],"default_left":[0,0,0,0,0,0,0,0,0,0,0,0,0,0,0],"id":77,"left_children":[1,3,5,7,9,11,13,-1,-1,-1,-1,-1,-1,-1,-1],"loss_changes":[1.0072907E-4,5.1812982E-5,1.0455367E-4,1.174369E-6,1.343069E-6,8.959307E-5,2.53577E-4,0E0,0E0,0E0,0E0,0E0,0E0,0E0,0E0],"parents":[2147483647,0,0,1,1,2,2,3,3,4,4,5,5,6,6],"right_children":[2,4,6,8,10,12,14,-1,-1,-1,-1,-1,-1,-1,-1],"split_conditions":[-1.2475644E-1,-1.4918963E-2,-1.9065313E-2,-1.6001172E-2,-3.6276005E-2,9.437005E-3,-1.2630168E-2,4.1387197E-5,-1.4911758E-5,-1.2407305E-4,-3.3457085E-4,1.7819444E-5,1.4342093E-4,-1.1777284E-4,7.0209157E-6],"split_indices":[7,0,1,0,1,4,1,0,0,0,0,0,0,0,0],"split_type":[0,0,0,0,0,0,0,0,0,0,0,0,0,0,0],"sum_hessian":[4.66E2,6E0,4.6E2,2E0,4E0,6.2E1,3.98E2,1E0,1E0,2E0,2E0,4.1E1,2.1E1,4.5E1,3.53E2],"tree_param":{"num_deleted":"0","num_feature":"8","num_nodes":"15","size_leaf_vector":"1"}},{"base_weights":[-1.5116119E-5,-2.8539269E-4,2.1643726E-5,-2.9679266E-4,7.3355256E-4,1.5003653E-5,-1.2055327E-4,1.8204957E-4,-2.4966203E-5],"categories":[],"categories_nodes":[],"categories_segments":[],"categories_sizes":[],"default_left":[0,0,0,0,0,0,0,0,0],"id":78,"left_children":[1,-1,3,5,7,-1,-1,-1,-1],"loss_changes":[9.7849894E-5,0E0,1.05632134E-4,4.0706721E-4,5.1798794E-4,0E0,0E0,0E0,0E0],"parents":[2147483647,0,0,2,2,3,3,4,4],"right_children":[2,-1,4,6,8,-1,-1,-1,-1],"split_conditions":[5.040809E-3,-2.8539269E-4,5.7962566E1,5.910897E-1,6.146422E1,1.5003653E-5,-1.2055327E-4,1.8204957E-4,-2.4966203E-5],"split_indices":[4,0,2,7,2,0,0,0,0],"split_type":[0,0,0,0,0,0,0,0,0],"sum_hessian":[4.66E2,2E0,4.64E2,3.21E2,1.43E2,2.51E2,7E1,4.2E1,1.01E2],"tree_param":{"num_deleted":"0","num_feature":"8","num_nodes":"9","size_leaf_vector":"1"}},{"base_weights":[-1.486106E-5,-5.6918203E-3,2.1796444E-5,-7.903636E-5,-3.4785017E-4,2.1168025E-4,-1.0899028E-3,4.9253335E-6,2.8582898E-4,3.3236045E-6,-2.0378157E-4],"categories":[],"categories_nodes":[],"categories_segments":[],"categories_sizes":[],"default_left":[0,0,0,0,0,0,0,0,0,0,0],"id":79,"left_children":[1,3,5,-1,-1,7,9,-1,-1,-1,-1],"loss_changes":[9.7308235E-5,4.606729E-6,9.838928E-5,0E0,0E0,2.4739452E-4,2.350492E-4,0E0,0E0,0E0,0E0],"parents":[2147483647,0,0,1,1,2,2,5,5,6,6],"right_children":[2,4,6,-1,-1,8,10,-1,-1,-1,-1],"split_conditions":[-2.5798248E-2,-1.8092856E-2,9.662439E-3,-7.903636E-5,-3.4785017E-4,1.7682039E0,6.958425E-1,4.9253335E-6,2.8582898E-4,3.3236045E-6,-2.0378157E-4],"split_indices":[0,1,0,0,0,5,5,0,0,0,0],"split_type":[0,0,0,0,0,0,0,0,0,0,0],"sum_hessian":[4.66E2,2E0,4.64E2,1E0,1E0,3.97E2,6.7E1,3.9E2,7E0,4.9E1,1.8E1],"tree_param":{"num_deleted":"0","num_feature":"8","num_nodes":"11","size_leaf_vector":"1"}},{"base_weights":[-1.4838767E-5,-6.6892964E-5,3.9958074E-3,6.9130965E-6,-6.8141497E-3,6.166066E-3,-1.7138712E-4,-8.809186E-6,9.8927376E-5,-5.9765344E-4,2.980764E-5,-2.4698273E-5,3.9772826E-4],"categories":[],"categories_nodes":[],"categories_segments":[],"categories_sizes":[],"default_left":[0,0,0,0,0,0,0,0,0,0,0,0,0],"id":80,"left_children":[1,3,5,7,9,11,-1,-1,-1,-1,-1,-1,-1],"loss_changes":[9.776333E-5,2.3011774E-4,1.17801814E-4,1.6568655E-4,1.975306E-4,6.348659E-5,0E0,0E0,0E0,0E0,0E0,0E0,0E0],"parents":[2147483647,0,0,1,1,2,2,3,3,4,4,5,5],"right_children":[2,4,6,8,10,12,-1,-1,-1,-1,-1,-1,-1],"split_conditions":[6.97134E-2,2.593577E-2,7.526133E1,9.536924E-1,3.5425056E-2,-9.021008E-3,-1.7138712E-4,-8.809186E-6,9.8927376E-5,-5.9765344E-4,2.980764E-5,-2.4698273E-5,3.9772826E-4],"split_indices":[1,0,2,7,0,0,0,0,0,0,0,0,0],"split_type":[0,0,0,0,0,0,0,0,0,0,0,0,0],"sum_hessian":[4.66E2,4.61E2,5E0,4.57E2,4E0,4E0,1E0,4.19E2,3.8E1,2E0,2E0,1E0,3E0],"tree_param":{"num_deleted":"0","num_feature":"8","num_nodes":"13","size_leaf_vector":"1"}},{"base_weights":[-1.46880175E-5,3.1972309E-3,-7.7634824E-5,6.6207936E-3,3.8198385E-4,-6.8950583E-4,3.7290287E-4,7.011031E-5,3.9464605E-4,-7.816596E-5,1.4241968E-4,-2.2308812E-5,-4.923398E-4,-1.9428319E-4,3.310754E-5],"categories":[],"categories_nodes":[],"categories_segments":[],"categories_sizes":[],"default_left":[0,0,0,0,0,0,0,0,0,0,0,0,0,0,0],"id":81,"left_children":[1,3,5,7,9,11,13,-1,-1,-1,-1,-1,-1,-1,-1],"loss_changes":[9.466629E-5,8.421455E-5,1.267901E-4,1.5487327E-5,3.3240434E-5,4.301133E-4,3.28995E-4,0E0,0E0,0E0,0E0,0E0,0E0,0E0,0E0],"parents":[2147483647,0,0,1,1,2,2,3,3,4,4,5,5,6,6],"right_children":[2,4,6,8,10,12,14,-1,-1,-1,-1,-1,-1,-1,-1],"split_conditions":[-4.3556792E-1,-3.0730832E-2,-3.8854084E-3,-1.6001172E-2,-1.6496513E-2,1.8784331E-1,-1.8106623E-1,7.011031E-5,3.9464605E-4,-7.816596E-5,1.4241968E-4,-2.2308812E-5,-4.923398E-4,-1.9428319E-4,3.310754E-5],"split_indices":[6,1,1,0,1,6,6,0,0,0,0,0,0,0,0],"split_type":[0,0,0,0,0,0,0,0,0,0,0,0,0,0,0],"sum_hessian":[4.66E2,8E0,4.58E2,3E0,5E0,1.94E2,2.64E2,1E0,2E0,3E0,2E0,1.9E2,4E0,1.6E1,2.48E2],"tree_param":{"num_deleted":"0","num_feature":"8","num_nodes":"15","size_leaf_vector":"1"}},{"base_weights":[-1.4267998E-5,-3.6430955E-3,4.0864456E-5,3.5164002E-4,-5.3113177E-3,7.2426174E-4,-2.8458942E-4,4.063224E-5,-1.4259239E-5,-1.1956431E-4,-3.230455E-4,-1.297288E-5,2.3174984E-4,-9.194213E-5,1.0646123E-5],"categories":[],"categories_nodes":[],"categories_segments":[],"categories_sizes":[],"default_left":[0,0,0,0,0,0,0,0,0,0,0,0,0,0,0],"id":82,"left_children":[1,3,5,7,9,11,13,-1,-1,-1,-1,-1,-1,-1,-1],"loss_changes":[9.357977E-5,4.851642E-5,1.0273911E-4,1.1124918E-6,1.3343379E-6,5.744154E-4,2.4242172E-4,0E0,0E0,0E0,0E0,0E0,0E0,0E0,0E0],"parents":[2147483647,0,0,1,1,2,2,3,3,4,4,5,5,6,6],"right_children":[2,4,6,8,10,12,14,-1,-1,-1,-1,-1,-1,-1,-1],"split_conditions":[-1.2475644E-1,-1.4918963E-2,-8.039897E-2,-1.6001172E-2,-3.6276005E-2,-1.2894224E-1,-5.8513973E-3,4.063224E-5,-1.4259239E-5,-1.1956431E-4,-3.230455E-4,-1.297288E-5,2.3174984E-4,-9.194213E-5,1.0646123E-5],"split_indices":[7,0,6,0,1,6,1,0,0,0,0,0,0,0,0],"split_type":[0,0,0,0,0,0,0,0,0,0,0,0,0,0,0],"sum_hessian":[4.66E2,6E0,4.6E2,2E0,4E0,1.48E2,3.12E2,1E0,1E0,2E0,2E0,1.19E2,2.9E1,7.5E1,2.37E2],"tree_param":{"num_deleted":"0","num_feature":"8","num_nodes":"15","size_leaf_vector":"1"}},{"base_weights":[-1.4151508E-5,2.738638E-5,-4.8290086E-3,-1.258302E-4,1.9688266E-3,-5.9078535E-4,-4.38592E-4,-2.3236751E-7,-3.2663965E-4,-2.3593089E-4,1.6422725E-4,3.2933982E-5,-7.724288E-5],"categories":[],"categories_nodes":[],"categories_segments":[],"categories_sizes":[],"default_left":[0,0,0,0,0,0,0,0,0,0,0,0,0],"id":83,"left_children":[1,3,5,7,9,11,-1,-1,-1,-1,-1,-1,-1],"loss_changes":[9.353179E-5,1.3826955E-4,6.1660125E-5,3.3460415E-4,3.1465752E-4,4.593806E-6,0E0,0E0,0E0,0E0,0E0,0E0,0E0],"parents":[2147483647,0,0,1,1,2,2,3,3,4,4,5,5],"right_children":[2,4,6,8,10,12,-1,-1,-1,-1,-1,-1,-1],"split_conditions":[2.1946762E0,6.9258415E1,1.3073817E-2,1.1021758E0,6.1079194E-3,-9.494093E-3,-4.38592E-4,-2.3236751E-7,-3.2663965E-4,-2.3593089E-4,1.6422725E-4,3.2933982E-5,-7.724288E-5],"split_indices":[5,2,0,7,4,0,0,0,0,0,0,0,0],"split_type":[0,0,0,0,0,0,0,0,0,0,0,0,0],"sum_hessian":[4.66E2,4.63E2,3E0,4.3E2,3.3E1,2E0,1E0,4.23E2,7E0,5E0,2.8E1,1E0,1E0],"tree_param":{"num_deleted":"0","num_feature":"8","num_nodes":"13","size_leaf_vector":"1"}},{"base_weights":[-1.5331447E-5,-2.7720083E-4,2.037046E-5,2.0497368E-4,-1.0604009E-3,-8.833539E-6,8.741404E-5,3.094646E-6,-1.9789976E-4],"categories":[],"categories_nodes":[],"categories_segments":[],"categories_sizes":[],"default_left":[0,0,0,0,0,0,0,0,0],"id":84,"left_children":[1,-1,3,5,7,-1,-1,-1,-1],"loss_changes":[9.2291535E-5,0E0,9.299131E-5,2.3472872E-4,2.213777E-4,0E0,0E0,0E0,0E0],"parents":[2147483647,0,0,2,2,3,3,4,4],"right_children":[2,-1,4,6,8,-1,-1,-1,-1],"split_conditions":[5.040809E-3,-2.7720083E-4,9.662439E-3,4.181227E-3,6.958425E-1,-8.833539E-6,8.741404E-5,3.094646E-6,-1.9789976E-4],"split_indices":[4,0,0,0,5,0,0,0,0],"split_type":[0,0,0,0,0,0,0,0,0],"sum_hessian":[4.66E2,2E0,4.64E2,3.97E2,6.7E1,3.19E2,7.8E1,4.9E1,1.8E1],"tree_param":{"num_deleted":"0","num_feature":"8","num_nodes":"9","size_leaf_vector":"1"}},{"base_weights":[-1.5407317E-5,3.1157383E-3,-7.676876E-5,6.422472E-3,3.919593E-4,-9.484821E-4,2.1402487E-4,6.890852E-5,3.8222581E-4,-7.4408286E-5,1.3840698E-4,1.7921442E-5,-1.4947099E-4,1.594574E-4,-5.5436617E-6],"categories":[],"categories_nodes":[],"categories_segments":[],"categories_sizes":[],"default_left":[0,0,0,0,0,0,0,0,0,0,0,0,0,0,0],"id":85,"left_children":[1,3,5,7,9,11,13,-1,-1,-1,-1,-1,-1,-1,-1],"loss_changes":[8.996466E-5,7.854396E-5,1.1655431E-4,1.4121993E-5,3.0924548E-5,3.078137E-4,3.3383467E-4,0E0,0E0,0E0,0E0,0E0,0E0,0E0,0E0],"parents":[2147483647,0,0,1,1,2,2,3,3,4,4,5,5,6,6],"right_children":[2,4,6,8,10,12,14,-1,-1,-1,-1,-1,-1,-1,-1],"split_conditions":[-4.3556792E-1,-3.0730832E-2,2.7166373E-1,-1.6001172E-2,-1.6496513E-2,4.2061584E1,3.486812E-1,6.890852E-5,3.8222581E-4,-7.4408286E-5,1.3840698E-4,1.7921442E-5,-1.4947099E-4,1.594574E-4,-5.5436617E-6],"split_indices":[6,1,7,0,1,2,7,0,0,0,0,0,0,0,0],"split_type":[0,0,0,0,0,0,0,0,0,0,0,0,0,0,0],"sum_hessian":[4.66E2,8E0,4.58E2,3E0,5E0,1.14E2,3.44E2,1E0,2E0,3E0,2E0,7E1,4.4E1,3.3E1,3.11E2],"tree_param":{"num_deleted":"0","num_feature":"8","num_nodes":"15","size_leaf_vector":"1"}},{"base_weights":[-1.34859965E-5,-1.0481916E-3,1.7467634E-4,1.8520367E-4,-4.7586663E-3,3.409877E-3,-6.477619E-6,-1.4187268E-4,1.4965078E-4,9.318384E-5,-3.391942E-4,3.21874E-4,-1.15733084E-4,-1.6534164E-4,6.9908224E-6],"categories":[],"categories_nodes":[],"categories_segments":[],"categories_sizes":[],"default_left":[0,0,0,0,0,0,0,0,0,0,0,0,0,0,0],"id":86,"left_children":[1,3,5,7,9,11,13,-1,-1,-1,-1,-1,-1,-1,-1],"loss_changes":[9.110455E-5,3.3038802E-4,2.3210558E-4,4.7528045E-4,2.540533E-4,3.7886473E-4,1.8200355E-4,0E0,0E0,0E0,0E0,0E0,0E0,0E0,0E0],"parents":[2147483647,0,0,1,1,2,2,3,3,4,4,5,5,6,6],"right_children":[2,4,6,8,10,12,14,-1,-1,-1,-1,-1,-1,-1,-1],"split_conditions":[-5.0966966E-1,3.486812E-1,-4.494757E-1,-1.415067E-1,-1.026973E0,8.692865E-3,1.1782482E-3,-1.4187268E-4,1.4965078E-4,9.318384E-5,-3.391942E-4,3.21874E-4,-1.15733084E-4,-1.6534164E-4,6.9908224E-6],"split_indices":[5,7,5,6,5,4,7,0,0,0,0,0,0,0,0],"split_type":[0,0,0,0,0,0,0,0,0,0,0,0,0,0,0],"sum_hessian":[4.66E2,7.1E1,3.95E2,5.4E1,1.7E1,2E1,3.75E2,2.6E1,2.8E1,4E0,1.3E1,1.3E1,7E0,1.5E1,3.6E2],"tree_param":{"num_deleted":"0","num_feature":"8","num_nodes":"15","size_leaf_vector":"1"}},{"base_weights":[-1.3219498E-5,-5.4624057E-3,2.196497E-5,-7.379348E-5,-3.3588693E-4,-1.8674145E-4,9.708208E-4,-4.7608996E-6,-4.405952E-4,2.5865805E-4,-3.0188507E-5],"categories":[],"categories_nodes":[],"categories_segments":[],"categories_sizes":[],"default_left":[0,0,0,0,0,0,0,0,0,0,0],"id":87,"left_children":[1,3,5,-1,-1,7,9,-1,-1,-1,-1],"loss_changes":[8.9656365E-5,5.0987874E-6,9.226631E-5,0E0,0E0,3.0071352E-4,5.589486E-4,0E0,0E0,0E0,0E0],"parents":[2147483647,0,0,1,1,2,2,5,5,6,6],"right_children":[2,4,6,-1,-1,8,10,-1,-1,-1,-1],"split_conditions":[-2.5798248E-2,-1.8092856E-2,1.1726824E-2,-7.379348E-5,-3.3588693E-4,2.593577E-2,3.7797177E-1,-4.7608996E-6,-4.405952E-4,2.5865805E-4,-3.0188507E-5],"split_indices":[0,1,4,0,0,0,5,0,0,0,0],"split_type":[0,0,0,0,0,0,0,0,0,0,0],"sum_hessian":[4.66E2,2E0,4.64E2,1E0,1E0,3.81E2,8.3E1,3.78E2,3E0,2.2E1,6.1E1],"tree_param":{"num_deleted":"0","num_feature":"8","num_nodes":"11","size_leaf_vector":"1"}},{"base_weights":[-1.3900188E-5,-5.4538727E-5,4.7036456E-3,1.06660455E-5,-7.555754E-3,-2.2520091E-5,3.2858978E-4,5.7176985E-6,-1.273781E-4,-5.504171E-4,7.0050206E-5],"categories":[],"categories_nodes":[],"categories_segments":[],"categories_sizes":[],"default_left":[0,0,0,0,0,0,0,0,0,0,0],"id":88,"left_children":[1,3,5,7,9,-1,-1,-1,-1,-1,-1],"loss_changes":[8.978705E-5,2.2702996E-4,4.1474064E-5,1.2257497E-4,1.3911867E-4,0E0,0E0,0E0,0E0,0E0,0E0],"parents":[2147483647,0,0,1,1,2,2,3,3,4,4],"right_children":[2,4,6,8,10,-1,-1,-1,-1,-1,-1],"split_conditions":[1.2423581E0,2.593577E-2,5.560518E-2,7.4328705E1,3.5425056E-2,-2.2520091E-5,3.2858978E-4,5.7176985E-6,-1.273781E-4,-5.504171E-4,7.0050206E-5],"split_indices":[7,0,1,2,0,0,0,0,0,0,0],"split_type":[0,0,0,0,0,0,0,0,0,0,0],"sum_hessian":[4.66E2,4.63E2,3E0,4.6E2,3E0,1E0,2E0,4.43E2,1.7E1,2E0,1E0],"tree_param":{"num_deleted":"0","num_feature":"8","num_nodes":"11","size_leaf_vector":"1"}},{"base_weights":[-1.3838922E-5,-2.1171957E-4,9.607106E-4,-1.4955015E-4,-6.083364E-4,-7.486543E-3,1.5110513E-3,1.8312921E-5,-5.4332E-5,2.1081409E-4,-5.73316E-4,1.3282387E-4,-1.4393682E-4],"categories":[],"categories_nodes":[],"categories_segments":[],"categories_sizes":[],"default_left":[0,0,0,0,0,0,0,0,0,0,0,0,0],"id":89,"left_children":[1,3,5,7,-1,9,11,-1,-1,-1,-1,-1,-1],"loss_changes":[9.0261776E-5,2.8729925E-4,3.7857314E-4,1.8794127E-4,0E0,2.8121838E-4,3.847605E-4,0E0,0E0,0E0,0E0,0E0,0E0],"parents":[2147483647,0,0,1,1,2,2,3,3,5,5,6,6],"right_children":[2,4,6,8,-1,10,12,-1,-1,-1,-1,-1,-1],"split_conditions":[1.8662164E-1,1.8402803E-1,-8.112942E-3,5.910897E-1,-6.083364E-4,-1.9156553E-2,7.4328705E1,1.8312921E-5,-5.4332E-5,2.1081409E-4,-5.73316E-4,1.3282387E-4,-1.4393682E-4],"split_indices":[6,6,1,7,0,0,2,0,0,0,0,0,0],"split_type":[0,0,0,0,0,0,0,0,0,0,0,0,0],"sum_hessian":[4.66E2,3.88E2,7.8E1,3.87E2,1E0,4E0,7.4E1,2.5E2,1.37E2,1E0,3E0,5.9E1,1.5E1],"tree_param":{"num_deleted":"0","num_feature":"8","num_nodes":"13","size_leaf_vector":"1"}},{"base_weights":[-1.5326776E-5,-1.0200741E-3,1.6739326E-4,1.5366558E-4,-4.5498298E-3,3.2308474E-3,-4.1491116E-6,-1.3596957E-4,1.411641E-4,8.5250365E-5,-3.2293564E-4,3.0603516E-4,-1.115128E-4,-5.6344074E-5,2.1463695E-5],"categories":[],"categories_nodes":[],"categories_segments":[],"categories_sizes":[],"default_left":[0,0,0,0,0,0,0,0,0,0,0,0,0,0,0],"id":90,"left_children":[1,3,5,7,9,11,13,-1,-1,-1,-1,-1,-1,-1,-1],"loss_changes":[8.5906104E-5,2.989962E-4,2.0811622E-4,4.2952542E-4,2.2592768E-4,3.4506858E-4,1.8345211E-4,0E0,0E0,0E0,0E0,0E0,0E0,0E0,0E0],"parents":[2147483647,0,0,1,1,2,2,3,3,4,4,5,5,6,6],"right_children":[2,4,6,8,10,12,14,-1,-1,-1,-1,-1,-1,-1,-1],"split_conditions":[-5.0966966E-1,3.486812E-1,-4.494757E-1,-1.415067E-1,-1.026973E0,8.692865E-3,-4.6090335E-3,-1.3596957E-4,1.411641E-4,8.5250365E-5,-3.2293564E-4,3.0603516E-4,-1.115128E-4,-5.6344074E-5,2.1463695E-5],"split_indices":[5,7,5,6,5,4,0,0,0,0,0,0,0,0,0],"split_type":[0,0,0,0,0,0,0,0,0,0,0,0,0,0,0],"sum_hessian":[4.66E2,7.1E1,3.95E2,5.4E1,1.7E1,2E1,3.75E2,2.6E1,2.8E1,4E0,1.3E1,1.3E1,7E0,1.04E2,2.71E2],"tree_param":{"num_deleted":"0","num_feature":"8","num_nodes":"15","size_leaf_vector":"1"}},{"base_weights":[-1.4716426E-5,3.0772444E-3,-7.531105E-5,6.2807216E-3,4.2871883E-4,-9.2079845E-4,2.0673637E-4,7.3650124E-5,3.6961472E-4,-6.8288486E-5,1.339232E-4,2.7874072E-5,-1.3303128E-4,1.4521046E-4,-4.394081E-6],"categories":[],"categories_nodes":[],"categories_segments":[],"categories_sizes":[],"default_left":[0,0,0,0,0,0,0,0,0,0,0,0,0,0,0],"id":91,"left_children":[1,3,5,7,9,11,13,-1,-1,-1,-1,-1,-1,-1,-1],"loss_changes":[8.7727094E-5,7.366777E-5,1.0964696E-4,1.0487638E-5,2.7881015E-5,2.9725765E-4,2.74435E-4,0E0,0E0,0E0,0E0,0E0,0E0,0E0,0E0],"parents":[2147483647,0,0,1,1,2,2,3,3,4,4,5,5,6,6],"right_children":[2,4,6,8,10,12,14,-1,-1,-1,-1,-1,-1,-1,-1],"split_conditions":[-4.3556792E-1,-3.0730832E-2,2.7166373E-1,-1.6001172E-2,-1.6496513E-2,-1.5771177E-2,3.486812E-1,7.3650124E-5,3.6961472E-4,-6.8288486E-5,1.339232E-4,2.7874072E-5,-1.3303128E-4,1.4521046E-4,-4.394081E-6],"split_indices":[6,1,7,0,1,1,7,0,0,0,0,0,0,0,0],"split_type":[0,0,0,0,0,0,0,0,0,0,0,0,0,0,0],"sum_hessian":[4.66E2,8E0,4.58E2,3E0,5E0,1.14E2,3.44E2,1E0,2E0,3E0,2E0,6.2E1,5.2E1,3.3E1,3.11E2],"tree_param":{"num_deleted":"0","num_feature":"8","num_nodes":"15","size_leaf_vector":"1"}},{"base_weights":[-1.2814545E-5,-2.6679886E-4,2.1555998E-5,-2.8803383E-4,7.1368355E-4,1.4089147E-5,-1.15321265E-4,1.7490417E-4,-2.335645E-5],"categories":[],"categories_nodes":[],"categories_segments":[],"categories_sizes":[],"default_left":[0,0,0,0,0,0,0,0,0],"id":92,"left_children":[1,-1,3,5,7,-1,-1,-1,-1],"loss_changes":[8.555732E-5,0E0,9.984373E-5,3.7098635E-4,4.750851E-4,0E0,0E0,0E0,0E0],"parents":[2147483647,0,0,2,2,3,3,4,4],"right_children":[2,-1,4,6,8,-1,-1,-1,-1],"split_conditions":[5.040809E-3,-2.6679886E-4,5.7962566E1,5.910897E-1,6.146422E1,1.4089147E-5,-1.15321265E-4,1.7490417E-4,-2.335645E-5],"split_indices":[4,0,2,7,2,0,0,0,0],"split_type":[0,0,0,0,0,0,0,0,0],"sum_hessian":[4.66E2,2E0,4.64E2,3.21E2,1.43E2,2.51E2,7E1,4.2E1,1.01E2],"tree_param":{"num_deleted":"0","num_feature":"8","num_nodes":"9","size_leaf_vector":"1"}},{"base_weights":[-1.2637369E-5,2.7661968E-5,-4.6842014E-3,-1.1450034E-4,2.332826E-3,-2.8902712E-5,-2.9301163E-4,-2.3265497E-6,-2.9956698E-4,2.1994638E-4,5.0047106E-6],"categories":[],"categories_nodes":[],"categories_segments":[],"categories_sizes":[],"default_left":[0,0,0,0,0,0,0,0,0,0,0],"id":93,"left_children":[1,3,5,7,9,-1,-1,-1,-1,-1,-1],"loss_changes":[8.804743E-5,1.5232335E-4,1.5928286E-5,1.7467809E-4,1.2411202E-4,0E0,0E0,0E0,0E0,0E0,0E0],"parents":[2147483647,0,0,1,1,2,2,3,3,4,4],"right_children":[2,4,6,8,10,-1,-1,-1,-1,-1,-1],"split_conditions":[1.682232E-2,1.5512904E-2,-8.260958E-3,2.593577E-2,2.6406618E-3,-2.8902712E-5,-2.9301163E-4,-2.3265497E-6,-2.9956698E-4,2.1994638E-4,5.0047106E-6],"split_indices":[4,4,0,0,0,0,0,0,0,0,0],"split_type":[0,0,0,0,0,0,0,0,0,0,0],"sum_hessian":[4.66E2,4.63E2,3E0,4.37E2,2.6E1,1E0,2E0,4.33E2,4E0,1.3E1,1.3E1],"tree_param":{"num_deleted":"0","num_feature":"8","num_nodes":"11","size_leaf_vector":"1"}},{"base_weights":[-1.2859598E-5,-5.4126964E-3,2.2005712E-5,-7.90861E-5,-3.2686614E-4,1.4650059E-3,-1.06162544E-4,1.1199371E-4,-2.0485498E-4,-6.3680054E-5,