{"learner":{"attributes":{"scikit_learn":"{\"_estimator_type\": \"regressor\"}"},"feature_names":["Ret_1d","Ret_5d","RSI","Trend_Signal","Vol_20d","MACD","MACD_Diff","BB_Pos"],"feature_types":["float","float","float","int","float","float","float","float"],"gradient_booster":{"model":{"cats":{"enc":[],"feature_segments":[],"sorted_idx":[]},"gbtree_model_param":{"num_parallel_tree":"1","num_trees":"100"},"iteration_indptr":[0,1,2,3,4,5,6,7,8,9,10,11,12,13,14,15,16,17,18,19,20,21,22,23,24,25,26,27,28,29,30,31,32,33,34,35,36,37,38,39,40,41,42,43,44,45,46,47,48,49,50,51,52,53,54,55,56,57,58,59,60,61,62,63,64,65,66,67,68,69,70,71,72,73,74,75,76,77,78,79,80,81,82,83,84,85,86,87,88,89,90,91,92,93,94,95,96,97,98,99,100],"tree_info":[0,0,0,0,0,0,0,0,0,0,0,0,0,0,0,0,0,0,0,0,0,0,0,0,0,0,0,0,0,0,0,0,0,0,0,0,0,0,0,0,0,0,0,0,0,0,0,0,0,0,0,0,0,0,0,0,0,0,0,0,0,0,0,0,0,0,0,0,0,0,0,0,0,0,0,0,0,0,0,0,0,0,0,0,0,0,0,0,0,0,0,0,0,0,0,0,0,0,0,0],"trees":[{"base_weights":[8.22635E-12,4.0764017E-3,-3.8068874E-3,-8.085487E-3,6.051294E-3,-2.8788778E-3,-1.9932682E-2,-2.2461852E-4,-2.066075E-3,2.53577E-4,1.2868023E-3,-3.116645E-4,1.2527265E-4,-2.6846337E-4,-2.5679024E-3],"categories":[],"categories_nodes":[],"categories_segments":[],"categories_sizes":[],"default_left":[0,0,0,0,0,0,0,0,0,0,0,0,0,0,0],"id":0,"left_children":[1,3,5,7,9,11,13,-1,-1,-1,-1,-1,-1,-1,-1],"loss_changes":[7.2626118E-3,5.477092E-3,3.5641203E-3,3.635837E-3,3.6302912E-3,4.169708E-3,5.673833E-3,0E0,0E0,0E0,0E0,0E0,0E0,0E0,0E0],"parents":[2147483647,0,0,1,1,2,2,3,3,4,4,5,5,6,6],"right_children":[2,4,6,8,10,12,14,-1,-1,-1,-1,-1,-1,-1,-1],"split_conditions":[6.0788024E-2,-6.256043E-1,4.2175785E-2,1.1103193E0,4.3411665E-2,4.7545135E-2,1.6894168E0,-2.2461852E-4,-2.066075E-3,2.53577E-4,1.2868023E-3,-3.116645E-4,1.2527265E-4,-2.6846337E-4,-2.5679024E-3],"split_indices":[6,6,0,5,0,1,5,0,0,0,0,0,0,0,0],"split_type":[0,0,0,0,0,0,0,0,0,0,0,0,0,0,0],"sum_hessian":[4.66E2,2.25E2,2.41E2,3.1E1,1.94E2,2.29E2,1.2E1,2.9E1,2E0,1.86E2,8E0,1.41E2,8.8E1,9E0,3E0],"tree_param":{"num_deleted":"0","num_feature":"8","num_nodes":"15","size_leaf_vector":"1"}},{"base_weights":[-8.079355E-6,3.8692616E-3,-3.6290337E-3,-7.7527976E-3,5.7566287E-3,-2.7357442E-3,-1.915423E-2,-2.1376196E-4,-1.9972061E-3,8.152825E-4,2.0186098E-4,-2.9619102E-4,1.19079385E-4,-2.5638254E-4,-2.471606E-3],"categories":[],"categories_nodes":[],"categories_segments":[],"categories_sizes":[],"default_left":[0,0,0,0,0,0,0,0,0,0,0,0,0,0,0],"id":1,"left_children":[1,3,5,7,9,11,13,-1,-1,-1,-1,-1,-1,-1,-1],"loss_changes":[6.5705697E-3,5.001962E-3,3.3037749E-3,3.4115403E-3,3.4710965E-3,3.76643E-3,5.2675675E-3,0E0,0E0,0E0,0E0,0E0,0E0,0E0,0E0],"parents":[2147483647,0,0,1,1,2,2,3,3,4,4,5,5,6,6],"right_children":[2,4,6,8,10,12,14,-1,-1,-1,-1,-1,-1,-1,-1],"split_conditions":[6.0788024E-2,-6.256043E-1,4.2175785E-2,1.1103193E0,-3.3777767E-1,4.7545135E-2,1.6894168E0,-2.1376196E-4,-1.9972061E-3,8.152825E-4,2.0186098E-4,-2.9619102E-4,1.19079385E-4,-2.5638254E-4,-2.471606E-3],"split_indices":[6,6,0,5,6,1,5,0,0,0,0,0,0,0,0],"split_type":[0,0,0,0,0,0,0,0,0,0,0,0,0,0,0],"sum_hessian":[4.66E2,2.25E2,2.41E2,3.1E1,1.94E2,2.29E2,1.2E1,2.9E1,2E0,2.6E1,1.68E2,1.41E2,8.8E1,9E0,3E0],"tree_param":{"num_deleted":"0","num_feature":"8","num_nodes":"15","size_leaf_vector":"1"}},{"base_weights":[-1.6452554E-5,3.670516E-3,-3.4595865E-3,-7.4342503E-3,5.4740133E-3,-2.5997271E-3,-1.8406365E-2,-2.0343011E-4,-1.9306323E-3,2.2666245E-4,1.2206396E-3,-2.8148576E-4,1.1319232E-4,-2.4484535E-4,-2.3789208E-3],"categories":[],"categories_nodes":[],"categories_segments":[],"categories_sizes":[],"default_left":[0,0,0,0,0,0,0,0,0,0,0,0,0,0,0],"id":2,"left_children":[1,3,5,7,9,11,13,-1,-1,-1,-1,-1,-1,-1,-1],"loss_changes":[5.9411363E-3,4.5668916E-3,3.0623642E-3,3.200837E-3,3.363633E-3,3.4021556E-3,4.890295E-3,0E0,0E0,0E0,0E0,0E0,0E0,0E0,0E0],"parents":[2147483647,0,0,1,1,2,2,3,3,4,4,5,5,6,6],"right_children":[2,4,6,8,10,12,14,-1,-1,-1,-1,-1,-1,-1,-1],"split_conditions":[6.0788024E-2,-6.256043E-1,4.2175785E-2,1.1103193E0,4.3411665E-2,4.7545135E-2,1.6894168E0,-2.0343011E-4,-1.9306323E-3,2.2666245E-4,1.2206396E-3,-2.8148576E-4,1.1319232E-4,-2.4484535E-4,-2.3789208E-3],"split_indices":[6,6,0,5,0,1,5,0,0,0,0,0,0,0,0],"split_type":[0,0,0,0,0,0,0,0,0,0,0,0,0,0,0],"sum_hessian":[4.66E2,2.25E2,2.41E2,3.1E1,1.94E2,2.29E2,1.2E1,2.9E1,2E0,1.86E2,8E0,1.41E2,8.8E1,9E0,3E0],"tree_param":{"num_deleted":"0","num_feature":"8","num_nodes":"15","size_leaf_vector":"1"}},{"base_weights":[-2.3079236E-5,3.4839513E-3,-3.2981446E-3,5.9188264E-3,-4.1939123E-3,-3.3947543E-4,-7.355735E-3,2.1149479E-4,1.4042706E-3,-3.6372684E-4,8.984796E-4,-2.0074581E-4,2.4184068E-4,-2.9684356E-4,-2.6099638E-3],"categories":[],"categories_nodes":[],"categories_segments":[],"categories_sizes":[],"default_left":[0,0,0,0,0,0,0,0,0,0,0,0,0,0,0],"id":3,"left_children":[1,3,5,7,9,11,13,-1,-1,-1,-1,-1,-1,-1,-1],"loss_changes":[5.375338E-3,4.2498116E-3,2.9027292E-3,6.3205087E-3,3.8859793E-3,2.7019647E-3,6.1800396E-3,0E0,0E0,0E0,0E0,0E0,0E0,0E0,0E0],"parents":[2147483647,0,0,1,1,2,2,3,3,4,4,5,5,6,6],"right_children":[2,4,6,8,10,12,14,-1,-1,-1,-1,-1,-1,-1,-1],"split_conditions":[6.0788024E-2,3.3005677E-2,6.6737854E-3,2.7984643E-2,4.2038362E-2,-3.8327994E-3,3.9424958E0,2.1149479E-4,1.4042706E-3,-3.6372684E-4,8.984796E-4,-2.0074581E-4,2.4184068E-4,-2.9684356E-4,-2.6099638E-3],"split_indices":[6,4,0,4,4,0,5,0,0,0,0,0,0,0,0],"split_type":[0,0,0,0,0,0,0,0,0,0,0,0,0,0,0],"sum_hessian":[4.66E2,2.25E2,2.41E2,1.71E2,5.4E1,1.4E2,1.01E2,1.6E2,1.1E1,4.8E1,6E0,8.2E1,5.8E1,9.9E1,2E0],"tree_param":{"num_deleted":"0","num_feature":"8","num_nodes":"15","size_leaf_vector":"1"}},{"base_weights":[-2.3456712E-5,3.3192695E-3,-3.1450794E-3,-7.024521E-3,4.99969E-3,-2.6940536E-2,-2.63196E-3,-1.8922576E-4,-1.8541537E-3,7.567768E-4,1.6753851E-4,3.7058588E-4,-1.8690765E-3,-8.605695E-5,-8.0290454E-4],"categories":[],"categories_nodes":[],"categories_segments":[],"categories_sizes":[],"default_left":[0,0,0,0,0,0,0,0,0,0,0,0,0,0,0],"id":4,"left_children":[1,3,5,7,9,11,13,-1,-1,-1,-1,-1,-1,-1,-1],"loss_changes":[4.883458E-3,3.963434E-3,2.8838906E-3,2.9761354E-3,3.2083574E-3,2.0704193E-3,2.882817E-3,0E0,0E0,0E0,0E0,0E0,0E0,0E0,0E0],"parents":[2147483647,0,0,1,1,2,2,3,3,4,4,5,5,6,6],"right_children":[2,4,6,8,10,12,14,-1,-1,-1,-1,-1,-1,-1,-1],"split_conditions":[6.0788024E-2,-6.256043E-1,-4.0237814E-2,1.1103193E0,-3.3777767E-1,2.9330708E1,3.922152E-2,-1.8922576E-4,-1.8541537E-3,7.567768E-4,1.6753851E-4,3.7058588E-4,-1.8690765E-3,-8.605695E-5,-8.0290454E-4],"split_indices":[6,6,1,5,6,2,0,0,0,0,0,0,0,0,0],"split_type":[0,0,0,0,0,0,0,0,0,0,0,0,0,0,0],"sum_hessian":[4.66E2,2.25E2,2.41E2,3.1E1,1.94E2,4E0,2.37E2,2.9E1,2E0,2.6E1,1.68E2,1E0,3E0,2.23E2,1.4E1],"tree_param":{"num_deleted":"0","num_feature":"8","num_nodes":"15","size_leaf_vector":"1"}},{"base_weights":[-2.9792398E-5,3.1483544E-3,-2.9976906E-3,5.40757E-3,-3.9740717E-3,-2.5893208E-2,-2.504097E-3,1.8973796E-4,1.3297744E-3,-3.3324218E-4,9.5556857E-4,3.6132123E-4,-1.7989861E-3,-1.4549215E-5,-3.801255E-4],"categories":[],"categories_nodes":[],"categories_segments":[],"categories_sizes":[],"default_left":[0,0,0,0,0,0,0,0,0,0,0,0,0,0,0],"id":5,"left_children":[1,3,5,7,9,11,13,-1,-1,-1,-1,-1,-1,-1,-1],"loss_changes":[4.4143763E-3,3.6580774E-3,2.6700224E-3,5.776678E-3,3.5438451E-3,1.9303125E-3,2.6832286E-3,0E0,0E0,0E0,0E0,0E0,0E0,0E0,0E0],"parents":[2147483647,0,0,1,1,2,2,3,3,4,4,5,5,6,6],"right_children":[2,4,6,8,10,12,14,-1,-1,-1,-1,-1,-1,-1,-1],"split_conditions":[6.0788024E-2,3.3005677E-2,-4.0237814E-2,2.7984643E-2,4.2242464E-2,2.9330708E1,1.3384344E-2,1.8973796E-4,1.3297744E-3,-3.3324218E-4,9.5556857E-4,3.6132123E-4,-1.7989861E-3,-1.4549215E-5,-3.801255E-4],"split_indices":[6,4,1,4,4,2,0,0,0,0,0,0,0,0,0],"split_type":[0,0,0,0,0,0,0,0,0,0,0,0,0,0,0],"sum_hessian":[4.66E2,2.25E2,2.41E2,1.71E2,5.4E1,4E0,2.37E2,1.6E2,1.1E1,4.9E1,5E0,1E0,3E0,1.66E2,7.1E1],"tree_param":{"num_deleted":"0","num_feature":"8","num_nodes":"15","size_leaf_vector":"1"}},{"base_weights":[-2.7640019E-5,3.000414E-3,-2.855378E-3,-6.616864E-3,4.5632473E-3,-2.488608E-2,-2.3805506E-3,-1.7477536E-4,-1.7812405E-3,7.1251683E-4,1.4943023E-4,3.5228822E-4,-1.7315241E-3,-7.942775E-5,-7.982986E-4],"categories":[],"categories_nodes":[],"categories_segments":[],"categories_sizes":[],"default_left":[0,0,0,0,0,0,0,0,0,0,0,0,0,0,0],"id":6,"left_children":[1,3,5,7,9,11,13,-1,-1,-1,-1,-1,-1,-1,-1],"loss_changes":[4.007275E-3,3.4270196E-3,2.4722656E-3,2.7728858E-3,2.931884E-3,1.7997818E-3,2.535421E-3,0E0,0E0,0E0,0E0,0E0,0E0,0E0,0E0],"parents":[2147483647,0,0,1,1,2,2,3,3,4,4,5,5,6,6],"right_children":[2,4,6,8,10,12,14,-1,-1,-1,-1,-1,-1,-1,-1],"split_conditions":[6.0788024E-2,-6.256043E-1,-4.0237814E-2,1.1103193E0,-3.3777767E-1,2.9330708E1,4.2175785E-2,-1.7477536E-4,-1.7812405E-3,7.1251683E-4,1.4943023E-4,3.5228822E-4,-1.7315241E-3,-7.942775E-5,-7.982986E-4],"split_indices":[6,6,1,5,6,2,0,0,0,0,0,0,0,0,0],"split_type":[0,0,0,0,0,0,0,0,0,0,0,0,0,0,0],"sum_hessian":[4.66E2,2.25E2,2.41E2,3.1E1,1.94E2,4E0,2.37E2,2.9E1,2E0,2.6E1,1.68E2,1E0,3E0,2.25E2,1.2E1],"tree_param":{"num_deleted":"0","num_feature":"8","num_nodes":"15","size_leaf_vector":"1"}},{"base_weights":[-3.3433724E-5,2.845552E-3,-2.7219353E-3,2.0066623E-3,2.0764908E-2,-7.838311E-5,-6.3495715E-3,1.9943356E-4,-2.0249664E-4,6.6947273E-4,1.6755573E-3,-1.7640917E-4,2.388027E-4,-2.5012053E-4,-2.4569207E-3],"categories":[],"categories_nodes":[],"categories_segments":[],"categories_sizes":[],"default_left":[0,0,0,0,0,0,0,0,0,0,0,0,0,0,0],"id":7,"left_children":[1,3,5,7,9,11,13,-1,-1,-1,-1,-1,-1,-1,-1],"loss_changes":[3.6223992E-3,3.3556465E-3,2.3202454E-3,2.6210705E-3,4.91397E-4,2.378155E-3,5.6338217E-3,0E0,0E0,0E0,0E0,0E0,0E0,0E0,0E0],"parents":[2147483647,0,0,1,1,2,2,3,3,4,4,5,5,6,6],"right_children":[2,4,6,8,10,12,14,-1,-1,-1,-1,-1,-1,-1,-1],"split_conditions":[6.0788024E-2,3.7139576E-2,6.6737854E-3,3.3005677E-2,3.801982E-2,-3.8327994E-3,3.9424958E0,1.9943356E-4,-2.0249664E-4,6.6947273E-4,1.6755573E-3,-1.7640917E-4,2.388027E-4,-2.5012053E-4,-2.4569207E-3],"split_indices":[6,0,0,4,6,0,5,0,0,0,0,0,0,0,0],"split_type":[0,0,0,0,0,0,0,0,0,0,0,0,0,0,0],"sum_hessian":[4.66E2,2.25E2,2.41E2,2.16E2,9E0,1.4E2,1.01E2,1.63E2,5.3E1,7E0,2E0,8.2E1,5.8E1,9.9E1,2E0],"tree_param":{"num_deleted":"0","num_feature":"8","num_nodes":"15","size_leaf_vector":"1"}},{"base_weights":[-3.2410142E-5,1.7866073E-3,-4.1249744E-3,-5.3299116E-3,3.8775865E-3,-4.5544103E-2,-2.6162558E-3,-2.4592198E-5,-7.121406E-4,3.202444E-4,-2.0584095E-5,-9.966119E-4,-3.6997893E-3,-1.1324946E-5,-6.0835964E-4],"categories":[],"categories_nodes":[],"categories_segments":[],"categories_sizes":[],"default_left":[0,0,0,0,0,0,0,0,0,0,0,0,0,0,0],"id":8,"left_children":[1,3,5,7,9,11,13,-1,-1,-1,-1,-1,-1,-1,-1],"loss_changes":[3.4839257E-3,4.8419465E-3,8.879378E-3,3.1839646E-3,2.723546E-3,2.1686023E-3,3.1926625E-3,0E0,0E0,0E0,0E0,0E0,0E0,0E0,0E0],"parents":[2147483647,0,0,1,1,2,2,3,3,4,4,5,5,6,6],"right_children":[2,4,6,8,10,12,14,-1,-1,-1,-1,-1,-1,-1,-1],"split_conditions":[1.3403999E0,4.1730404E1,1.3477936E0,-1.3863447E0,9.4083697E-1,6.741654E1,2.953057E-2,-2.4592198E-5,-7.121406E-4,3.202444E-4,-2.0584095E-5,-9.966119E-4,-3.6997893E-3,-1.1324946E-5,-6.0835964E-4],"split_indices":[5,2,5,5,5,2,4,0,0,0,0,0,0,0,0],"split_type":[0,0,0,0,0,0,0,0,0,0,0,0,0,0,0],"sum_hessian":[4.66E2,3.23E2,1.43E2,7.3E1,2.5E2,4E0,1.39E2,4.8E1,2.5E1,1.57E2,9.3E1,3E0,1E0,1.12E2,2.7E1],"tree_param":{"num_deleted":"0","num_feature":"8","num_nodes":"15","size_leaf_vector":"1"}},{"base_weights":[-4.3109045E-5,3.1065776E-3,-2.3730143E-3,2.27405E-3,2.8370186E-3,-1.5079994E-2,-1.4016771E-3,2.2313149E-4,-2.4028642E-4,-1.0415249E-3,4.2559303E-5,1.5665453E-4,-2.85733E-4],"categories":[],"categories_nodes":[],"categories_segments":[],"categories_sizes":[],"default_left":[0,0,0,0,0,0,0,0,0,0,0,0,0],"id":9,"left_children":[1,3,5,7,-1,9,11,-1,-1,-1,-1,-1,-1],"loss_changes":[3.4344383E-3,8.756641E-3,3.2990654E-3,3.073894E-3,0E0,1.7583654E-3,4.9270564E-3,0E0,0E0,0E0,0E0,0E0,0E0],"parents":[2147483647,0,0,1,1,2,2,3,3,5,5,6,6],"right_children":[2,4,6,8,-1,10,12,-1,-1,-1,-1,-1,-1],"split_conditions":[1.5661069E-3,1.0372691E-3,4.327129E1,3.127648E-2,2.8370186E-3,2.097076E-2,1.1707386E0,2.2313149E-4,-2.4028642E-4,-1.0415249E-3,4.2559303E-5,1.5665453E-4,-2.85733E-4],"split_indices":[1,1,2,4,0,4,5,0,0,0,0,0,0],"split_type":[0,0,0,0,0,0,0,0,0,0,0,0,0],"sum_hessian":[4.66E2,1.98E2,2.68E2,1.96E2,2E0,1.8E1,2.5E2,1.5E2,4.6E1,1.3E1,5E0,1.22E2,1.28E2],"tree_param":{"num_deleted":"0","num_feature":"8","num_nodes":"13","size_leaf_vector":"1"}},{"base_weights":[-3.7330832E-5,1.7029671E-3,-3.952742E-3,-4.207447E-3,3.1176738E-3,-3.527341E-2,-2.8059126E-3,-1.2926017E-4,-1.7895297E-3,1.0043433E-3,1.1822917E-4,-3.600151E-3,-4.045127E-4,-5.855456E-5,-1.3235764E-3],"categories":[],"categories_nodes":[],"categories_segments":[],"categories_sizes":[],"default_left":[0,0,0,0,0,0,0,0,0,0,0,0,0,0,0],"id":10,"left_children":[1,3,5,7,9,11,13,-1,-1,-1,-1,-1,-1,-1,-1],"loss_changes":[3.188861E-3,2.7222445E-3,5.073428E-3,3.1353144E-3,3.3006887E-3,4.409611E-3,5.385467E-3,0E0,0E0,0E0,0E0,0E0,0E0,0E0,0E0],"parents":[2147483647,0,0,1,1,2,2,3,3,4,4,5,5,6,6],"right_children":[2,4,6,8,10,12,14,-1,-1,-1,-1,-1,-1,-1,-1],"split_conditions":[2.4160537E-1,4.1730404E1,1.3115061E-2,3.9328527E-1,4.4121338E1,-1.58205E-2,3.922152E-2,-1.2926017E-4,-1.7895297E-3,1.0043433E-3,1.1822917E-4,-3.600151E-3,-4.045127E-4,-5.855456E-5,-1.3235764E-3],"split_indices":[6,2,4,7,2,0,0,0,0,0,0,0,0,0,0],"split_type":[0,0,0,0,0,0,0,0,0,0,0,0,0,0,0],"sum_hessian":[4.66E2,3.23E2,1.43E2,6.2E1,2.61E2,4E0,1.39E2,6E1,2E0,1E1,2.51E2,1E0,3E0,1.31E2,8E0],"tree_param":{"num_deleted":"0","num_feature":"8","num_nodes":"15","size_leaf_vector":"1"}},{"base_weights":[-4.8704125E-5,2.8981022E-3,-2.2285024E-3,2.0934604E-3,2.73851E-3,-1.4099956E-2,-1.320988E-3,2.1374166E-4,-2.479661E-4,-9.7631814E-4,4.5582627E-5,1.4742724E-4,-2.690849E-4],"categories":[],"categories_nodes":[],"categories_segments":[],"categories_sizes":[],"default_left":[0,0,0,0,0,0,0,0,0,0,0,0,0],"id":11,"left_children":[1,3,5,7,-1,9,11,-1,-1,-1,-1,-1,-1],"loss_changes":[3.0062064E-3,8.191293E-3,2.8794499E-3,3.0519953E-3,0E0,1.5655241E-3,4.3675387E-3,0E0,0E0,0E0,0E0,0E0,0E0],"parents":[2147483647,0,0,1,1,2,2,3,3,5,5,6,6],"right_children":[2,4,6,8,-1,10,12,-1,-1,-1,-1,-1,-1],"split_conditions":[1.5661069E-3,1.0372691E-3,4.327129E1,8.012182E-3,2.73851E-3,2.097076E-2,1.1707386E0,2.1374166E-4,-2.479661E-4,-9.7631814E-4,4.5582627E-5,1.4742724E-4,-2.690849E-4],"split_indices":[1,1,2,0,0,4,5,0,0,0,0,0,0],"split_type":[0,0,0,0,0,0,0,0,0,0,0,0,0],"sum_hessian":[4.66E2,1.98E2,2.68E2,1.96E2,2E0,1.8E1,2.5E2,1.5E2,4.6E1,1.3E1,5E0,1.22E2,1.28E2],"tree_param":{"num_deleted":"0","num_feature":"8","num_nodes":"13","size_leaf_vector":"1"}},{"base_weights":[-4.2731685E-5,1.5959147E-3,-3.7293893E-3,9.345597E-4,1.4268589E-2,-3.4095407E-2,-2.6182502E-3,7.254148E-6,4.948606E-4,8.808295E-4,-3.0558076E-4,-3.5034202E-3,-3.792528E-4,-5.310547E-5,-1.2575367E-3],"categories":[],"categories_nodes":[],"categories_segments":[],"categories_sizes":[],"default_left":[0,0,0,0,0,0,0,0,0,0,0,0,0,0,0],"id":12,"left_children":[1,3,5,7,9,11,13,-1,-1,-1,-1,-1,-1,-1,-1],"loss_changes":[2.827159E-3,2.7021538E-3,4.7694147E-3,2.1849878E-3,1.1993931E-3,4.236811E-3,4.882207E-3,0E0,0E0,0E0,0E0,0E0,0E0,0E0,0E0],"parents":[2147483647,0,0,1,1,2,2,3,3,4,4,5,5,6,6],"right_children":[2,4,6,8,10,12,14,-1,-1,-1,-1,-1,-1,-1,-1],"split_conditions":[2.4160537E-1,3.7139576E-2,1.3115061E-2,2.71064E0,8.152625E-2,-1.58205E-2,3.922152E-2,7.254148E-6,4.948606E-4,8.808295E-4,-3.0558076E-4,-3.5034202E-3,-3.792528E-4,-5.310547E-5,-1.2575367E-3],"split_indices":[6,0,4,5,1,0,0,0,0,0,0,0,0,0,0],"split_type":[0,0,0,0,0,0,0,0,0,0,0,0,0,0,0],"sum_hessian":[4.66E2,3.23E2,1.43E2,3.08E2,1.5E1,4E0,1.39E2,2.84E2,2.4E1,1.3E1,2E0,1E0,3E0,1.31E2,8E0],"tree_param":{"num_deleted":"0","num_feature":"8","num_nodes":"15","size_leaf_vector":"1"}},{"base_weights":[-4.940863E-5,2.7519655E-3,-2.121617E-3,1.973716E-3,2.6469848E-3,-1.3480909E-2,-1.2532977E-3,2.0205455E-4,-2.3551351E-4,-9.3046355E-4,3.6604302E-5,1.3929744E-4,-2.547478E-4],"categories":[],"categories_nodes":[],"categories_segments":[],"categories_sizes":[],"default_left":[0,0,0,0,0,0,0,0,0,0,0,0,0],"id":13,"left_children":[1,3,5,7,-1,9,11,-1,-1,-1,-1,-1,-1],"loss_changes":[2.7167886E-3,7.668169E-3,2.6363842E-3,2.741241E-3,0E0,1.3985217E-3,3.909063E-3,0E0,0E0,0E0,0E0,0E0,0E0],"parents":[2147483647,0,0,1,1,2,2,3,3,5,5,6,6],"right_children":[2,4,6,8,-1,10,12,-1,-1,-1,-1,-1,-1],"split_conditions":[1.5661069E-3,1.0372691E-3,4.327129E1,8.012182E-3,2.6469848E-3,2.097076E-2,1.1707386E0,2.0205455E-4,-2.3551351E-4,-9.3046355E-4,3.6604302E-5,1.3929744E-4,-2.547478E-4],"split_indices":[1,1,2,0,0,4,5,0,0,0,0,0,0],"split_type":[0,0,0,0,0,0,0,0,0,0,0,0,0],"sum_hessian":[4.66E2,1.98E2,2.68E2,1.96E2,2E0,1.8E1,2.5E2,1.5E2,4.6E1,1.3E1,5E0,1.22E2,1.28E2],"tree_param":{"num_deleted":"0","num_feature":"8","num_nodes":"13","size_leaf_vector":"1"}},{"base_weights":[-4.350312E-5,1.5012246E-3,-3.5188384E-3,7.889041E-4,1.228905E-2,-3.2963373E-2,-2.4421131E-3,-2.3005475E-4,1.063842E-4,7.3163677E-4,-2.9347054E-4,-3.4094662E-3,-3.554778E-4,-4.8041748E-5,-1.1948091E-3],"categories":[],"categories_nodes":[],"categories_segments":[],"categories_sizes":[],"default_left":[0,0,0,0,0,0,0,0,0,0,0,0,0,0,0],"id":14,"left_children":[1,3,5,7,9,11,13,-1,-1,-1,-1,-1,-1,-1,-1],"loss_changes":[2.5123472E-3,2.4800473E-3,4.484828E-3,2.2106762E-3,9.3703973E-4,4.0688305E-3,4.4261627E-3,0E0,0E0,0E0,0E0,0E0,0E0,0E0,0E0],"parents":[2147483647,0,0,1,1,2,2,3,3,4,4,5,5,6,6],"right_children":[2,4,6,8,10,12,14,-1,-1,-1,-1,-1,-1,-1,-1],"split_conditions":[2.4160537E-1,3.468597E-2,1.3115061E-2,4.1730404E1,8.152625E-2,-1.58205E-2,3.922152E-2,-2.3005475E-4,1.063842E-4,7.3163677E-4,-2.9347054E-4,-3.4094662E-3,-3.554778E-4,-4.8041748E-5,-1.1948091E-3],"split_indices":[6,0,4,2,1,0,0,0,0,0,0,0,0,0,0],"split_type":[0,0,0,0,0,0,0,0,0,0,0,0,0,0,0],"sum_hessian":[4.66E2,3.23E2,1.43E2,3.04E2,1.9E1,4E0,1.39E2,6E1,2.44E2,1.7E1,2E0,1E0,3E0,1.31E2,8E0],"tree_param":{"num_deleted":"0","num_feature":"8","num_nodes":"15","size_leaf_vector":"1"}},{"base_weights":[-5.1377778E-5,2.6193152E-3,-2.026904E-3,1.8676718E-3,2.5552057E-3,-1.27344765E-2,-1.2082951E-3,1.9555446E-4,-2.3685435E-4,-8.791826E-4,3.5133864E-5,1.2918486E-4,-2.4072747E-4],"categories":[],"categories_nodes":[],"categories_segments":[],"categories_sizes":[],"default_left":[0,0,0,0,0,0,0,0,0,0,0,0,0],"id":15,"left_children":[1,3,5,7,-1,9,11,-1,-1,-1,-1,-1,-1],"loss_changes":[2.4692118E-3,7.156766E-3,2.3424819E-3,2.677294E-3,0E0,1.2503783E-3,3.4448362E-3,0E0,0E0,0E0,0E0,0E0,0E0],"parents":[2147483647,0,0,1,1,2,2,3,3,5,5,6,6],"right_children":[2,4,6,8,-1,10,12,-1,-1,-1,-1,-1,-1],"split_conditions":[1.5661069E-3,1.0372691E-3,4.327129E1,3.127648E-2,2.5552057E-3,2.097076E-2,1.1707386E0,1.9555446E-4,-2.3685435E-4,-8.791826E-4,3.5133864E-5,1.2918486E-4,-2.4072747E-4],"split_indices":[1,1,2,4,0,4,5,0,0,0,0,0,0],"split_type":[0,0,0,0,0,0,0,0,0,0,0,0,0],"sum_hessian":[4.66E2,1.98E2,2.68E2,1.96E2,2E0,1.8E1,2.5E2,1.5E2,4.6E1,1.3E1,5E0,1.22E2,1.28E2],"tree_param":{"num_deleted":"0","num_feature":"8","num_nodes":"13","size_leaf_vector":"1"}},{"base_weights":[-4.547198E-5,4.5675537E-4,-1.02249235E-2,1.5705854E-4,1.922959E-2,-4.7622775E-3,-1.680813E-3,-4.124101E-4,3.7415488E-5,1.1917681E-3,2.5717219E-4,-7.2408584E-4,-6.0248974E-5],"categories":[],"categories_nodes":[],"categories_segments":[],"categories_sizes":[],"default_left":[0,0,0,0,0,0,0,0,0,0,0,0,0],"id":16,"left_children":[1,3,5,7,9,11,-1,-1,-1,-1,-1,-1,-1],"loss_changes":[2.3921607E-3,2.5062466E-3,2.6510388E-3,2.1928046E-3,3.3154688E-4,6.394737E-4,0E0,0E0,0E0,0E0,0E0,0E0,0E0],"parents":[2147483647,0,0,1,1,2,2,3,3,4,4,5,5],"right_children":[2,4,6,8,10,12,-1,-1,-1,-1,-1,-1,-1],"split_conditions":[5.5946195E-1,4.2242464E-2,3.0738391E-2,-6.256043E-1,1.9180512E-2,8.611943E-1,-1.680813E-3,-4.124101E-4,3.7415488E-5,1.1917681E-3,2.5717219E-4,-7.2408584E-4,-6.0248974E-5],"split_indices":[6,4,0,6,0,7,0,0,0,0,0,0,0],"split_type":[0,0,0,0,0,0,0,0,0,0,0,0,0],"sum_hessian":[4.66E2,4.45E2,2.1E1,4.39E2,6E0,1.8E1,3E0,2.8E1,4.11E2,4E0,2E0,4E0,1.4E1],"tree_param":{"num_deleted":"0","num_feature":"8","num_nodes":"13","size_leaf_vector":"1"}},{"base_weights":[-4.617735E-5,2.5228122E-3,-1.9464849E-3,1.5836474E-3,3.8645677E-2,-1.2177623E-2,-1.1642614E-3,1.8014488E-4,-2.5176455E-4,2.2224665E-3,3.8577674E-4,-8.4010046E-4,3.2110966E-5,1.2177327E-4,-2.293767E-4],"categories":[],"categories_nodes":[],"categories_segments":[],"categories_sizes":[],"default_left":[0,0,0,0,0,0,0,0,0,0,0,0,0,0,0],"id":17,"left_children":[1,3,5,7,9,11,13,-1,-1,-1,-1,-1,-1,-1,-1],"loss_changes":[2.284744E-3,6.6899373E-3,2.1386389E-3,2.6243734E-3,5.545886E-4,1.1371844E-3,3.1042069E-3,0E0,0E0,0E0,0E0,0E0,0E0,0E0,0E0],"parents":[2147483647,0,0,1,1,2,2,3,3,4,4,5,5,6,6],"right_children":[2,4,6,8,10,12,14,-1,-1,-1,-1,-1,-1,-1,-1],"split_conditions":[1.5661069E-3,7.0868834E-4,4.327129E1,8.012182E-3,2.4042785E-2,2.097076E-2,1.1707386E0,1.8014488E-4,-2.5176455E-4,2.2224665E-3,3.8577674E-4,-8.4010046E-4,3.2110966E-5,1.2177327E-4,-2.293767E-4],"split_indices":[1,1,2,0,0,4,5,0,0,0,0,0,0,0,0],"split_type":[0,0,0,0,0,0,0,0,0,0,0,0,0,0,0],"sum_hessian":[4.66E2,1.98E2,2.68E2,1.94E2,4E0,1.8E1,2.5E2,1.49E2,4.5E1,3E0,1E0,1.3E1,5E0,1.22E2,1.28E2],"tree_param":{"num_deleted":"0","num_feature":"8","num_nodes":"15","size_leaf_vector":"1"}},{"base_weights":[-4.039739E-5,4.40369E-4,-9.785007E-3,1.5424515E-4,1.8362386E-2,-4.517547E-3,-1.6179596E-3,5.3436157E-5,-2.4763777E-4,1.1386428E-3,2.4454066E-4,-6.9706555E-4,-5.3756114E-5],"categories":[],"categories_nodes":[],"categories_segments":[],"categories_sizes":[],"default_left":[0,0,0,0,0,0,0,0,0,0,0,0,0],"id":18,"left_children":[1,3,5,7,9,11,-1,-1,-1,-1,-1,-1,-1],"loss_changes":[2.1921485E-3,2.2842186E-3,2.4698053E-3,2.0601987E-3,3.0453387E-4,6.013827E-4,0E0,0E0,0E0,0E0,0E0,0E0,0E0],"parents":[2147483647,0,0,1,1,2,2,3,3,4,4,5,5],"right_children":[2,4,6,8,10,12,-1,-1,-1,-1,-1,-1,-1],"split_conditions":[5.5946195E-1,4.2242464E-2,3.0738391E-2,3.127648E-2,1.9180512E-2,8.611943E-1,-1.6179596E-3,5.3436157E-5,-2.4763777E-4,1.1386428E-3,2.4454066E-4,-6.9706555E-4,-5.3756114E-5],"split_indices":[6,4,0,4,0,7,0,0,0,0,0,0,0],"split_type":[0,0,0,0,0,0,0,0,0,0,0,0,0],"sum_hessian":[4.66E2,4.45E2,2.1E1,4.39E2,6E0,1.8E1,3E0,3.73E2,6.6E1,4E0,2E0,4E0,1.4E1],"tree_param":{"num_deleted":"0","num_feature":"8","num_nodes":"13","size_leaf_vector":"1"}},{"base_weights":[-4.0903822E-5,1.3719165E-3,-3.2194655E-3,7.697898E-4,1.2914743E-2,-3.176479E-2,-2.1769933E-3,-1.1540177E-7,4.770457E-4,1.1756507E-3,2.9799002E-4,-3.3147482E-3,-3.279254E-4,-4.100898E-5,-1.0917521E-3],"categories":[],"categories_nodes":[],"categories_segments":[],"categories_sizes":[],"default_left":[0,0,0,0,0,0,0,0,0,0,0,0,0,0,0],"id":19,"left_children":[1,3,5,7,9,11,13,-1,-1,-1,-1,-1,-1,-1,-1],"loss_changes":[2.1015906E-3,2.2419374E-3,4.2159576E-3,2.0926213E-3,1.0392331E-3,3.91709E-3,3.7162143E-3,0E0,0E0,0E0,0E0,0E0,0E0,0E0,0E0],"parents":[2147483647,0,0,1,1,2,2,3,3,4,4,5,5,6,6],"right_children":[2,4,6,8,10,12,14,-1,-1,-1,-1,-1,-1,-1,-1],"split_conditions":[2.4160537E-1,3.7139576E-2,1.3115061E-2,2.71064E0,4.620017E-2,-1.58205E-2,3.922152E-2,-1.1540177E-7,4.770457E-4,1.1756507E-3,2.9799002E-4,-3.3147482E-3,-3.279254E-4,-4.100898E-5,-1.0917521E-3],"split_indices":[6,0,4,5,0,0,0,0,0,0,0,0,0,0,0],"split_type":[0,0,0,0,0,0,0,0,0,0,0,0,0,0,0],"sum_hessian":[4.66E2,3.23E2,1.43E2,3.08E2,1.5E1,4E0,1.39E2,2.84E2,2.4E1,5E0,1E1,1E0,3E0,1.31E2,8E0],"tree_param":{"num_deleted":"0","num_feature":"8","num_nodes":"15","size_leaf_vector":"1"}},{"base_weights":[-4.490751E-5,2.4135932E-3,-1.8634828E-3,1.7092869E-3,2.3929256E-3,-8.534989E-3,-6.951187E-4,1.788616E-4,-2.1641758E-4,-2.3405757E-4,-1.7287811E-3,1.8310308E-4,-2.0979282E-4],"categories":[],"categories_nodes":[],"categories_segments":[],"categories_sizes":[],"default_left":[0,0,0,0,0,0,0,0,0,0,0,0,0],"id":20,"left_children":[1,3,5,7,-1,9,11,-1,-1,-1,-1,-1,-1],"loss_changes":[2.0924401E-3,6.287617E-3,2.0908546E-3,2.2372452E-3,0E0,3.8524014E-3,3.5236352E-3,0E0,0E0,0E0,0E0,0E0,0E0],"parents":[2147483647,0,0,1,1,2,2,3,3,5,5,6,6],"right_children":[2,4,6,8,-1,10,12,-1,-1,-1,-1,-1,-1],"split_conditions":[1.5661069E-3,1.0372691E-3,5.5610883E-1,8.012182E-3,2.3929256E-3,5.4161446E1,1.1707386E0,1.788616E-4,-2.1641758E-4,-2.3405757E-4,-1.7287811E-3,1.8310308E-4,-2.0979282E-4],"split_indices":[1,1,7,0,0,2,5,0,0,0,0,0,0],"split_type":[0,0,0,0,0,0,0,0,0,0,0,0,0],"sum_hessian":[4.66E2,1.98E2,2.68E2,1.96E2,2E0,3.9E1,2.29E2,1.5E2,4.6E1,3.5E1,4E0,1.02E2,1.27E2],"tree_param":{"num_deleted":"0","num_feature":"8","num_nodes":"13","size_leaf_vector":"1"}},{"base_weights":[-4.1878768E-5,4.1315547E-4,-9.26476E-3,1.383493E-4,1.7627664E-2,-4.27947E-3,-1.5314348E-3,-3.8967104E-4,3.4815886E-5,1.0945721E-3,2.3227397E-4,-6.7089533E-4,-4.7401332E-5],"categories":[],"categories_nodes":[],"categories_segments":[],"categories_sizes":[],"default_left":[0,0,0,0,0,0,0,0,0,0,0,0,0],"id":21,"left_children":[1,3,5,7,9,11,-1,-1,-1,-1,-1,-1,-1],"loss_changes":[1.963699E-3,2.1074323E-3,2.2120448E-3,1.9527246E-3,2.8577563E-4,5.6571886E-4,0E0,0E0,0E0,0E0,0E0,0E0,0E0],"parents":[2147483647,0,0,1,1,2,2,3,3,4,4,5,5],"right_children":[2,4,6,8,10,12,-1,-1,-1,-1,-1,-1,-1],"split_conditions":[5.5946195E-1,4.2242464E-2,3.0738391E-2,-6.256043E-1,1.9180512E-2,8.611943E-1,-1.5314348E-3,-3.8967104E-4,3.4815886E-5,1.0945721E-3,2.3227397E-4,-6.7089533E-4,-4.7401332E-5],"split_indices":[6,4,0,6,0,7,0,0,0,0,0,0,0],"split_type":[0,0,0,0,0,0,0,0,0,0,0,0,0],"sum_hessian":[4.66E2,4.45E2,2.1E1,4.39E2,6E0,1.8E1,3E0,2.8E1,4.11E2,4E0,2E0,4E0,1.4E1],"tree_param":{"num_deleted":"0","num_feature":"8","num_nodes":"13","size_leaf_vector":"1"}},{"base_weights":[-4.252093E-5,2.3259232E-3,-1.7944833E-3,1.445951E-3,3.6179654E-2,-8.238568E-3,-6.659707E-4,1.6376989E-4,-2.2755346E-4,7.0297054E-4,2.3120006E-3,-2.2700067E-4,-1.6610224E-3,1.7414788E-4,-1.9996792E-4],"categories":[],"categories_nodes":[],"categories_segments":[],"categories_sizes":[],"default_left":[0,0,0,0,0,0,0,0,0,0,0,0,0,0,0],"id":22,"left_children":[1,3,5,7,9,11,13,-1,-1,-1,-1,-1,-1,-1,-1],"loss_changes":[1.9419553E-3,5.875964E-3,1.9507436E-3,2.1542963E-3,4.6258047E-4,3.5450528E-3,3.1948262E-3,0E0,0E0,0E0,0E0,0E0,0E0,0E0,0E0],"parents":[2147483647,0,0,1,1,2,2,3,3,4,4,5,5,6,6],"right_children":[2,4,6,8,10,12,14,-1,-1,-1,-1,-1,-1,-1,-1],"split_conditions":[1.5661069E-3,7.0868834E-4,5.5610883E-1,3.127648E-2,1.0372691E-3,5.4161446E1,1.1707386E0,1.6376989E-4,-2.2755346E-4,7.0297054E-4,2.3120006E-3,-2.2700067E-4,-1.6610224E-3,1.7414788E-4,-1.9996792E-4],"split_indices":[1,1,7,4,1,2,5,0,0,0,0,0,0,0,0],"split_type":[0,0,0,0,0,0,0,0,0,0,0,0,0,0,0],"sum_hessian":[4.66E2,1.98E2,2.68E2,1.94E2,4E0,3.9E1,2.29E2,1.49E2,4.5E1,2E0,2E0,3.5E1,4E0,1.02E2,1.27E2],"tree_param":{"num_deleted":"0","num_feature":"8","num_nodes":"15","size_leaf_vector":"1"}},{"base_weights":[-3.817363E-5,2.049791E-3,-1.9879332E-3,1.3576227E-3,1.858789E-2,-2.3996765E-2,-1.5172102E-3,1.3001937E-4,-3.5841472E-4,2.700379E-4,1.2140664E-3,3.202373E-4,-1.6599166E-3,8.3315634E-4,-9.495976E-5],"categories":[],"categories_nodes":[],"categories_segments":[],"categories_sizes":[],"default_left":[0,0,0,0,0,0,0,0,0,0,0,0,0,0,0],"id":23,"left_children":[1,3,5,7,9,11,13,-1,-1,-1,-1,-1,-1,-1,-1],"loss_changes":[1.9052455E-3,2.5618197E-3,2.4707275E-3,2.3285048E-3,5.445839E-4,1.6113345E-3,1.6844649E-3,0E0,0E0,0E0,0E0,0E0,0E0,0E0,0E0],"parents":[2147483647,0,0,1,1,2,2,3,3,4,4,5,5,6,6],"right_children":[2,4,6,8,10,12,14,-1,-1,-1,-1,-1,-1,-1,-1],"split_conditions":[6.0788024E-2,4.3411665E-2,-4.0237814E-2,3.528268E-2,5.858554E1,2.9330708E1,-3.8334098E-2,1.3001937E-4,-3.5841472E-4,2.700379E-4,1.2140664E-3,3.202373E-4,-1.6599166E-3,8.3315634E-4,-9.495976E-5],"split_indices":[6,0,1,1,2,2,0,0,0,0,0,0,0,0,0],"split_type":[0,0,0,0,0,0,0,0,0,0,0,0,0,0,0],"sum_hessian":[4.66E2,2.25E2,2.41E2,2.17E2,8E0,4E0,2.37E2,1.9E2,2.7E1,3E0,5E0,1E0,3E0,4E0,2.33E2],"tree_param":{"num_deleted":"0","num_feature":"8","num_nodes":"15","size_leaf_vector":"1"}},{"base_weights":[-3.4863955E-5,1.902688E-4,-1.7364275E-2,-3.620157E-4,7.6229046E-3,1.2418918E-2,-3.53606E-2,6.040584E-5,-2.5345306E-4,7.685015E-4,1.1030639E-4,1.1033035E-3,-1.718846E-4,-4.3923414E-4,-2.0645508E-3],"categories":[],"categories_nodes":[],"categories_segments":[],"categories_sizes":[],"default_left":[0,0,0,0,0,0,0,0,0,0,0,0,0,0,0],"id":24,"left_children":[1,3,5,7,9,11,13,-1,-1,-1,-1,-1,-1,-1,-1],"loss_changes":[1.8252659E-3,1.899237E-3,3.655069E-3,3.191509E-3,1.3089542E-3,5.3476973E-4,2.676961E-4,0E0,0E0,0E0,0E0,0E0,0E0,0E0,0E0],"parents":[2147483647,0,0,1,1,2,2,3,3,4,4,5,5,6,6],"right_children":[2,4,6,8,10,12,14,-1,-1,-1,-1,-1,-1,-1,-1],"split_conditions":[3.6976337E0,2.9520373E0,1.8993352E-2,1.3403999E0,7.388436E1,-7.597969E-2,1.9040663E-2,6.040584E-5,-2.5345306E-4,7.685015E-4,1.1030639E-4,1.1033035E-3,-1.718846E-4,-4.3923414E-4,-2.0645508E-3],"split_indices":[5,5,0,5,2,0,0,0,0,0,0,0,0,0,0],"split_type":[0,0,0,0,0,0,0,0,0,0,0,0,0,0,0],"sum_hessian":[4.66E2,4.61E2,5E0,4.3E2,3.1E1,2E0,3E0,3.23E2,1.07E2,1.2E1,1.9E1,1E0,1E0,1E0,2E0],"tree_param":{"num_deleted":"0","num_feature":"8","num_nodes":"15","size_leaf_vector":"1"}},{"base_weights":[-3.5019315E-5,2.4746472E-4,-1.2969286E-2,-3.4436287E-4,9.348544E-3,1.0766365E-2,-3.0587448E-2,5.739486E-5,-2.4089775E-4,6.2956545E-4,-2.320071E-4,9.1976393E-4,-2.2566825E-5,-7.9725933E-4,-1.9957325E-3],"categories":[],"categories_nodes":[],"categories_segments":[],"categories_sizes":[],"default_left":[0,0,0,0,0,0,0,0,0,0,0,0,0,0,0],"id":25,"left_children":[1,3,5,7,9,11,13,-1,-1,-1,-1,-1,-1,-1,-1],"loss_changes":[1.7094985E-3,2.470131E-3,4.511101E-3,2.8827842E-3,1.3285617E-3,4.3619674E-4,1.8298114E-4,0E0,0E0,0E0,0E0,0E0,0E0,0E0,0E0],"parents":[2147483647,0,0,1,1,2,2,3,3,4,4,5,5,6,6],"right_children":[2,4,6,8,10,12,14,-1,-1,-1,-1,-1,-1,-1,-1],"split_conditions":[3.6160648E0,2.9520373E0,-8.210581E-3,1.3403999E0,2.3702201E-1,-1.7521014E-2,1.9040663E-2,5.739486E-5,-2.4089775E-4,6.2956545E-4,-2.320071E-4,9.1976393E-4,-2.2566825E-5,-7.9725933E-4,-1.9957325E-3],"split_indices":[5,5,0,5,6,0,0,0,0,0,0,0,0,0,0],"split_type":[0,0,0,0,0,0,0,0,0,0,0,0,0,0,0],"sum_hessian":[4.66E2,4.57E2,9E0,4.3E2,2.7E1,4E0,5E0,3.23E2,1.07E2,2.2E1,5E0,2E0,2E0,3E0,2E0],"tree_param":{"num_deleted":"0","num_feature":"8","num_nodes":"15","size_leaf_vector":"1"}},{"base_weights":[-3.686954E-5,-5.212349E-3,6.6668313E-4,-2.9605144E-4,-1.7484589E-2,3.9306744E-3,-1.7361117E-3,2.962911E-4,-2.9694216E-4,-2.6420163E-4,-1.3193398E-3,3.707076E-4,4.2504034E-5,5.6982048E-5,-3.610477E-4],"categories":[],"categories_nodes":[],"categories_segments":[],"categories_sizes":[],"default_left":[0,0,0,0,0,0,0,0,0,0,0,0,0,0,0],"id":26,"left_children":[1,3,5,7,9,11,13,-1,-1,-1,-1,-1,-1,-1,-1],"loss_changes":[1.7039258E-3,3.3735267E-3,3.2380172E-3,1.4746508E-3,1.5983619E-3,1.8716538E-3,3.7622156E-3,0E0,0E0,0E0,0E0,0E0,0E0,0E0,0E0],"parents":[2147483647,0,0,1,1,2,2,3,3,4,4,5,5,6,6],"right_children":[2,4,6,8,10,12,14,-1,-1,-1,-1,-1,-1,-1,-1],"split_conditions":[3.633387E1,-1.3863447E0,9.4083697E-1,-4.4679273E-2,1.8076519E-2,4.0075644E-3,1.042046E-2,2.962911E-4,-2.9694216E-4,-2.6420163E-4,-1.3193398E-3,3.707076E-4,4.2504034E-5,5.6982048E-5,-3.610477E-4],"split_indices":[2,5,5,1,7,1,0,0,0,0,0,0,0,0,0],"split_type":[0,0,0,0,0,0,0,0,0,0,0,0,0,0,0],"sum_hessian":[4.66E2,5.5E1,4.11E2,4E1,1.5E1,1.74E2,2.37E2,1.9E1,2.1E1,7E0,8E0,8.1E1,9.3E1,1.56E2,8.1E1],"tree_param":{"num_deleted":"0","num_feature":"8","num_nodes":"15","size_leaf_vector":"1"}},{"base_weights":[-3.818456E-5,3.7478478E-4,-8.408464E-3,-4.270538E-3,1.2953723E-3,-3.752789E-3,-1.4210402E-3,-1.0108643E-5,-5.8867957E-4,2.5596912E-4,-6.355659E-5,-6.3421717E-4,-2.6270922E-5],"categories":[],"categories_nodes":[],"categories_segments":[],"categories_sizes":[],"default_left":[0,0,0,0,0,0,0,0,0,0,0,0,0],"id":27,"left_children":[1,3,5,7,9,11,-1,-1,-1,-1,-1,-1,-1],"loss_changes":[1.6174157E-3,1.9128178E-3,1.943103E-3,2.2564814E-3,3.6672552E-3,5.410187E-4,0E0,0E0,0E0,0E0,0E0,0E0,0E0],"parents":[2147483647,0,0,1,1,2,2,3,3,4,4,5,5],"right_children":[2,4,6,8,10,12,-1,-1,-1,-1,-1,-1,-1],"split_conditions":[5.5946195E-1,4.1730404E1,3.0738391E-2,-1.3863447E0,9.4083697E-1,8.611943E-1,-1.4210402E-3,-1.0108643E-5,-5.8867957E-4,2.5596912E-4,-6.355659E-5,-6.3421717E-4,-2.6270922E-5],"split_indices":[6,2,0,5,5,7,0,0,0,0,0,0,0],"split_type":[0,0,0,0,0,0,0,0,0,0,0,0,0],"sum_hessian":[4.66E2,4.45E2,2.1E1,7.3E1,3.72E2,1.8E1,3E0,4.8E1,2.5E1,1.49E2,2.23E2,4E0,1.4E1],"tree_param":{"num_deleted":"0","num_feature":"8","num_nodes":"13","size_leaf_vector":"1"}},{"base_weights":[-4.1602776E-5,1.1547678E-3,-2.7331477E-3,5.418935E-4,1.0443362E-2,-3.0158171E-2,-1.73416E-3,-8.640457E-6,4.2767377E-4,6.2800746E-4,-2.869238E-4,-3.2076088E-3,-2.8108136E-4,-2.854222E-5,-9.301719E-4],"categories":[],"categories_nodes":[],"categories_segments":[],"categories_sizes":[],"default_left":[0,0,0,0,0,0,0,0,0,0,0,0,0,0,0],"id":28,"left_children":[1,3,5,7,9,11,13,-1,-1,-1,-1,-1,-1,-1,-1],"loss_changes":[1.5069359E-3,1.8387889E-3,3.892906E-3,1.747877E-3,7.571459E-4,3.8098376E-3,2.736782E-3,0E0,0E0,0E0,0E0,0E0,0E0,0E0,0E0],"parents":[2147483647,0,0,1,1,2,2,3,3,4,4,5,5,6,6],"right_children":[2,4,6,8,10,12,14,-1,-1,-1,-1,-1,-1,-1,-1],"split_conditions":[2.4160537E-1,3.468597E-2,1.3115061E-2,2.71064E0,8.152625E-2,-1.58205E-2,3.922152E-2,-8.640457E-6,4.2767377E-4,6.2800746E-4,-2.869238E-4,-3.2076088E-3,-2.8108136E-4,-2.854222E-5,-9.301719E-4],"split_indices":[6,0,4,5,1,0,0,0,0,0,0,0,0,0,0],"split_type":[0,0,0,0,0,0,0,0,0,0,0,0,0,0,0],"sum_hessian":[4.66E2,3.23E2,1.43E2,3.04E2,1.9E1,4E0,1.39E2,2.8E2,2.4E1,1.7E1,2E0,1E0,3E0,1.31E2,8E0],"tree_param":{"num_deleted":"0","num_feature":"8","num_nodes":"15","size_leaf_vector":"1"}},{"base_weights":[-4.741843E-5,1.49436E-3,-2.1496043E-3,-1.7548878E-3,9.097604E-3,-1.310851E-3,-2.8771233E-2,-3.823867E-5,-6.6276186E-4,1.4922805E-3,3.3658178E-4,-9.05899E-4,-1.4671165E-5,-7.6177454E-4,-1.8614241E-3],"categories":[],"categories_nodes":[],"categories_segments":[],"categories_sizes":[],"default_left":[0,0,0,0,0,0,0,0,0,0,0,0,0,0,0],"id":29,"left_children":[1,3,5,7,9,11,13,-1,-1,-1,-1,-1,-1,-1,-1],"loss_changes":[1.5168083E-3,6.686268E-3,4.3834234E-3,2.1533284E-3,3.7753098E-3,3.2949909E-3,1.19656324E-4,0E0,0E0,0E0,0E0,0E0,0E0,0E0,0E0],"parents":[2147483647,0,0,1,1,2,2,3,3,4,4,5,5,6,6],"right_children":[2,4,6,8,10,12,14,-1,-1,-1,-1,-1,-1,-1,-1],"split_conditions":[6.1702323E-3,-9.414279E-4,3.6112168E0,-2.657195E-3,-4.260939E-2,-5.4412026E-2,1.9040663E-2,-3.823867E-5,-6.6276186E-4,1.4922805E-3,3.3658178E-4,-9.05899E-4,-1.4671165E-5,-7.6177454E-4,-1.8614241E-3],"split_indices":[0,0,5,0,1,1,0,0,0,0,0,0,0,0,0],"split_type":[0,0,0,0,0,0,0,0,0,0,0,0,0,0,0],"sum_hessian":[4.66E2,2.69E2,1.97E2,1.89E2,8E1,1.92E2,5E0,1.75E2,1.4E1,7E0,7.3E1,1E1,1.82E2,3E0,2E0],"tree_param":{"num_deleted":"0","num_feature":"8","num_nodes":"15","size_leaf_vector":"1"}},{"base_weights":[-5.0220773E-5,-4.8478316E-3,6.020036E-4,-3.6039884E-4,-1.6043888E-2,3.4957111E-3,-1.570828E-3,2.7332746E-4,-2.8206213E-4,-2.2080944E-4,-1.2298485E-3,1.2958187E-4,7.350798E-4,5.630161E-5,-3.4218904E-4],"categories":[],"categories_nodes":[],"categories_segments":[],"categories_sizes":[],"default_left":[0,0,0,0,0,0,0,0,0,0,0,0,0,0,0],"id":30,"left_children":[1,3,5,7,9,11,13,-1,-1,-1,-1,-1,-1,-1,-1],"loss_changes":[1.4642167E-3,2.807745E-3,2.5959574E-3,1.2924573E-3,1.4826171E-3,1.7550774E-3,3.3637246E-3,0E0,0E0,0E0,0E0,0E0,0E0,0E0,0E0],"parents":[2147483647,0,0,1,1,2,2,3,3,4,4,5,5,6,6],"right_children":[2,4,6,8,10,12,14,-1,-1,-1,-1,-1,-1,-1,-1],"split_conditions":[3.633387E1,-1.3863447E0,9.5017487E-1,-4.4679273E-2,1.8076519E-2,1.0351993E0,1.042046E-2,2.7332746E-4,-2.8206213E-4,-2.2080944E-4,-1.2298485E-3,1.2958187E-4,7.350798E-4,5.630161E-5,-3.4218904E-4],"split_indices":[2,5,5,1,7,7,0,0,0,0,0,0,0,0,0],"split_type":[0,0,0,0,0,0,0,0,0,0,0,0,0,0,0],"sum_hessian":[4.66E2,5.5E1,4.11E2,4E1,1.5E1,1.76E2,2.35E2,1.9E1,2.1E1,7E0,8E0,1.64E2,1.2E1,1.56E2,7.9E1],"tree_param":{"num_deleted":"0","num_feature":"8","num_nodes":"15","size_leaf_vector":"1"}},{"base_weights":[-4.9595328E-5,1.9971875E-3,-1.5635736E-3,1.348513E-3,2.1963876E-3,-5.556118E-3,3.1100458E-4,1.5187137E-4,-2.053133E-4,-5.699593E-4,7.241946E-5,1.4362567E-4,-1.6034236E-4],"categories":[],"categories_nodes":[],"categories_segments":[],"categories_sizes":[],"default_left":[0,0,0,0,0,0,0,0,0,0,0,0,0],"id":31,"left_children":[1,3,5,7,-1,9,11,-1,-1,-1,-1,-1,-1],"loss_changes":[1.4502552E-3,5.3534205E-3,2.0150144E-3,1.8273654E-3,0E0,3.5363021E-3,1.6672373E-3,0E0,0E0,0E0,0E0,0E0,0E0],"parents":[2147483647,0,0,1,1,2,2,3,3,5,5,6,6],"right_children":[2,4,6,8,-1,10,12,-1,-1,-1,-1,-1,-1],"split_conditions":[1.5661069E-3,1.0372691E-3,2.7696816E-2,8.012182E-3,2.1963876E-3,2.1945376E-2,2.2313315E-2,1.5187137E-4,-2.053133E-4,-5.699593E-4,7.241946E-5,1.4362567E-4,-1.6034236E-4],"split_indices":[1,1,1,0,0,4,4,0,0,0,0,0,0],"split_type":[0,0,0,0,0,0,0,0,0,0,0,0,0],"sum_hessian":[4.66E2,1.98E2,2.68E2,1.96E2,2E0,8.5E1,1.83E2,1.5E2,4.6E1,4.6E1,3.9E1,1.06E2,7.7E1],"tree_param":{"num_deleted":"0","num_feature":"8","num_nodes":"13","size_leaf_vector":"1"}},{"base_weights":[-4.3628093E-5,3.4172536E-4,-7.853811E-3,8.680485E-5,1.6316483E-2,-3.56355E-3,-1.3134548E-3,3.124179E-5,-3.643556E-4,1.0268451E-3,1.921812E-4,-6.1121356E-4,-2.195365E-5],"categories":[],"categories_nodes":[],"categories_segments":[],"categories_sizes":[],"default_left":[0,0,0,0,0,0,0,0,0,0,0,0,0],"id":32,"left_children":[1,3,5,7,9,11,-1,-1,-1,-1,-1,-1,-1],"loss_changes":[1.4082048E-3,1.8148264E-3,1.6445289E-3,1.7502073E-3,2.8954865E-4,5.087769E-4,0E0,0E0,0E0,0E0,0E0,0E0,0E0],"parents":[2147483647,0,0,1,1,2,2,3,3,4,4,5,5],"right_children":[2,4,6,8,10,12,-1,-1,-1,-1,-1,-1,-1],"split_conditions":[5.5946195E-1,4.2242464E-2,3.0738391E-2,3.607783E-2,1.9180512E-2,8.611943E-1,-1.3134548E-3,3.124179E-5,-3.643556E-4,1.0268451E-3,1.921812E-4,-6.1121356E-4,-2.195365E-5],"split_indices":[6,4,0,4,0,7,0,0,0,0,0,0,0],"split_type":[0,0,0,0,0,0,0,0,0,0,0,0,0],"sum_hessian":[4.66E2,4.45E2,2.1E1,4.39E2,6E0,1.8E1,3E0,4.1E2,2.9E1,4E0,2E0,4E0,1.4E1],"tree_param":{"num_deleted":"0","num_feature":"8","num_nodes":"13","size_leaf_vector":"1"}},{"base_weights":[-4.3717948E-5,1.9269233E-3,-1.5013905E-3,1.1146668E-3,3.3219542E-2,-3.7732134E-3,1.5736874E-3,-3.0875223E-4,1.1869351E-4,6.4616185E-4,2.1221333E-3,-1.4556387E-4,-1.2346372E-3,1.26836E-4,-1.7612552E-3],"categories":[],"categories_nodes":[],"categories_segments":[],"categories_sizes":[],"default_left":[0,0,0,0,0,0,0,0,0,0,0,0,0,0,0],"id":33,"left_children":[1,3,5,7,9,11,13,-1,-1,-1,-1,-1,-1,-1,-1],"loss_changes":[1.3443738E-3,5.02108E-3,1.8851805E-3,1.8046086E-3,3.8748002E-4,2.722964E-3,4.164777E-3,0E0,0E0,0E0,0E0,0E0,0E0,0E0,0E0],"parents":[2147483647,0,0,1,1,2,2,3,3,4,4,5,5,6,6],"right_children":[2,4,6,8,10,12,14,-1,-1,-1,-1,-1,-1,-1,-1],"split_conditions":[1.5661069E-3,7.0868834E-4,8.861669E-1,1.717587E-2,1.0372691E-3,8.812126E-1,3.9424958E0,-3.0875223E-4,1.1869351E-4,6.4616185E-4,2.1221333E-3,-1.4556387E-4,-1.2346372E-3,1.26836E-4,-1.7612552E-3],"split_indices":[1,1,7,4,1,7,5,0,0,0,0,0,0,0,0],"split_type":[0,0,0,0,0,0,0,0,0,0,0,0,0,0,0],"sum_hessian":[4.66E2,1.98E2,2.68E2,1.94E2,4E0,1.54E2,1.14E2,2.8E1,1.66E2,2E0,2E0,1.49E2,5E0,1.12E2,2E0],"tree_param":{"num_deleted":"0","num_feature":"8","num_nodes":"15","size_leaf_vector":"1"}},{"base_weights":[-4.2466465E-5,-4.6758186E-3,5.874126E-4,-3.8079682E-4,-1.5389573E-2,3.6654437E-3,-1.2261496E-3,2.538081E-4,-2.6621798E-4,-2.1901E-4,-1.1732866E-3,1.277784E-4,1.1731249E-3,-7.0750224E-4,-2.4432846E-5],"categories":[],"categories_nodes":[],"categories_segments":[],"categories_sizes":[],"default_left":[0,0,0,0,0,0,0,0,0,0,0,0,0,0,0],"id":34,"left_children":[1,3,5,7,9,11,13,-1,-1,-1,-1,-1,-1,-1,-1],"loss_changes":[1.3656635E-3,2.571025E-3,2.3043612E-3,1.133077E-3,1.3198301E-3,3.3017977E-3,2.4712174E-3,0E0,0E0,0E0,0E0,0E0,0E0,0E0,0E0],"parents":[2147483647,0,0,1,1,2,2,3,3,4,4,5,5,6,6],"right_children":[2,4,6,8,10,12,14,-1,-1,-1,-1,-1,-1,-1,-1],"split_conditions":[3.633387E1,-1.3863447E0,7.77457E-1,-4.4679273E-2,1.8076519E-2,7.4368304E-1,-5.0234888E-2,2.538081E-4,-2.6621798E-4,-2.1901E-4,-1.1732866E-3,1.277784E-4,1.1731249E-3,-7.0750224E-4,-2.4432846E-5],"split_indices":[2,5,5,1,7,5,1,0,0,0,0,0,0,0,0],"split_type":[0,0,0,0,0,0,0,0,0,0,0,0,0,0,0],"sum_hessian":[4.66E2,5.5E1,4.11E2,4E1,1.5E1,1.52E2,2.59E2,1.9E1,2.1E1,7E0,8E0,1.45E2,7E0,1.3E1,2.46E2],"tree_param":{"num_deleted":"0","num_feature":"8","num_nodes":"15","size_leaf_vector":"1"}},{"base_weights":[-4.2132757E-5,1.0700295E-3,-2.544205E-3,5.553529E-4,1.0942843E-2,-2.9019285E-2,-1.5804935E-3,-6.4624883E-6,4.1688047E-4,1.0533596E-3,2.2128336E-4,-3.0829252E-3,-2.7224273E-4,6.631254E-5,-3.5896918E-4],"categories":[],"categories_nodes":[],"categories_segments":[],"categories_sizes":[],"default_left":[0,0,0,0,0,0,0,0,0,0,0,0,0,0,0],"id":35,"left_children":[1,3,5,7,9,11,13,-1,-1,-1,-1,-1,-1,-1,-1],"loss_changes":[1.302248E-3,1.6402657E-3,3.6282E-3,1.6473534E-3,9.624781E-4,3.5115336E-3,2.2879574E-3,0E0,0E0,0E0,0E0,0E0,0E0,0E0,0E0],"parents":[2147483647,0,0,1,1,2,2,3,3,4,4,5,5,6,6],"right_children":[2,4,6,8,10,12,14,-1,-1,-1,-1,-1,-1,-1,-1],"split_conditions":[2.4160537E-1,3.7139576E-2,1.3115061E-2,2.71064E0,4.620017E-2,-1.58205E-2,1.042046E-2,-6.4624883E-6,4.1688047E-4,1.0533596E-3,2.2128336E-4,-3.0829252E-3,-2.7224273E-4,6.631254E-5,-3.5896918E-4],"split_indices":[6,0,4,5,0,0,0,0,0,0,0,0,0,0,0],"split_type":[0,0,0,0,0,0,0,0,0,0,0,0,0,0,0],"sum_hessian":[4.66E2,3.23E2,1.43E2,3.08E2,1.5E1,4E0,1.39E2,2.84E2,2.4E1,5E0,1E1,1E0,3E0,9.2E1,4.7E1],"tree_param":{"num_deleted":"0","num_feature":"8","num_nodes":"15","size_leaf_vector":"1"}},{"base_weights":[-4.4229066E-5,1.8736832E-3,-1.4628919E-3,1.0898053E-3,3.2070186E-2,-7.6122675E-3,-3.8707495E-4,1.3676459E-4,-2.1498014E-4,6.2262703E-4,2.0498885E-3,-2.04665E-4,-1.571319E-3,1.473145E-4,-1.533184E-4],"categories":[],"categories_nodes":[],"categories_segments":[],"categories_sizes":[],"default_left":[0,0,0,0,0,0,0,0,0,0,0,0,0,0,0],"id":36,"left_children":[1,3,5,7,9,11,13,-1,-1,-1,-1,-1,-1,-1,-1],"loss_changes":[1.2733877E-3,4.675454E-3,1.7766505E-3,1.7410595E-3,3.6516413E-4,3.223405E-3,2.0631787E-3,0E0,0E0,0E0,0E0,0E0,0E0,0E0,0E0],"parents":[2147483647,0,0,1,1,2,2,3,3,4,4,5,5,6,6],"right_children":[2,4,6,8,10,12,14,-1,-1,-1,-1,-1,-1,-1,-1],"split_conditions":[1.5661069E-3,7.0868834E-4,5.5610883E-1,8.012182E-3,1.0372691E-3,5.4161446E1,1.1707386E0,1.3676459E-4,-2.1498014E-4,6.2262703E-4,2.0498885E-3,-2.04665E-4,-1.571319E-3,1.473145E-4,-1.533184E-4],"split_indices":[1,1,7,0,1,2,5,0,0,0,0,0,0,0,0],"split_type":[0,0,0,0,0,0,0,0,0,0,0,0,0,0,0],"sum_hessian":[4.66E2,1.98E2,2.68E2,1.94E2,4E0,3.9E1,2.29E2,1.49E2,4.5E1,2E0,2E0,3.5E1,4E0,1.02E2,1.27E2],"tree_param":{"num_deleted":"0","num_feature":"8","num_nodes":"15","size_leaf_vector":"1"}},{"base_weights":[-4.02782E-5,-3.8630292E-3,6.7780266E-4,-2.1399185E-3,-2.004996E-2,4.204834E-3,-1.1768461E-3,-2.2624501E-4,4.149229E-4,-2.4679434E-4,-1.507577E-3,1.5261675E-4,1.1131638E-3,-1.016348E-3,-2.8211796E-5],"categories":[],"categories_nodes":[],"categories_segments":[],"categories_sizes":[],"default_left":[0,0,0,0,0,0,0,0,0,0,0,0,0,0,0],"id":37,"left_children":[1,3,5,7,9,11,13,-1,-1,-1,-1,-1,-1,-1,-1],"loss_changes":[1.284554E-3,2.0210934E-3,2.5822613E-3,1.7304325E-3,9.199078E-4,2.7625225E-3,3.0270035E-3,0E0,0E0,0E0,0E0,0E0,0E0,0E0,0E0],"parents":[2147483647,0,0,1,1,2,2,3,3,4,4,5,5,6,6],"right_children":[2,4,6,8,10,12,14,-1,-1,-1,-1,-1,-1,-1,-1],"split_conditions":[4.1730404E1,3.8519293E-1,7.77457E-1,3.633387E1,3.7985565E1,7.4368304E-1,-5.6938708E-2,-2.2624501E-4,4.149229E-4,-2.4679434E-4,-1.507577E-3,1.5261675E-4,1.1131638E-3,-1.016348E-3,-2.8211796E-5],"split_indices":[2,7,5,2,2,5,1,0,0,0,0,0,0,0,0],"split_type":[0,0,0,0,0,0,0,0,0,0,0,0,0,0,0],"sum_hessian":[4.66E2,7.3E1,3.93E2,6.7E1,6E0,1.35E2,2.58E2,5.5E1,1.2E1,3E0,3E0,1.28E2,7E0,7E0,2.51E2],"tree_param":{"num_deleted":"0","num_feature":"8","num_nodes":"15","size_leaf_vector":"1"}},{"base_weights":[-4.114326E-5,3.2334976E-4,-7.4285404E-3,8.0039674E-5,1.5570932E-2,-3.4122285E-3,-1.2324443E-3,-3.5563516E-4,2.9306537E-5,9.827715E-4,1.786563E-4,-5.869125E-4,-2.0470312E-5],"categories":[],"categories_nodes":[],"categories_segments":[],"categories_sizes":[],"default_left":[0,0,0,0,0,0,0,0,0,0,0,0,0],"id":38,"left_children":[1,3,5,7,9,11,-1,-1,-1,-1,-1,-1,-1],"loss_changes":[1.2598716E-3,1.6533649E-3,1.4374624E-3,1.6058495E-3,2.728036E-4,4.7022404E-4,0E0,0E0,0E0,0E0,0E0,0E0,0E0],"parents":[2147483647,0,0,1,1,2,2,3,3,4,4,5,5],"right_children":[2,4,6,8,10,12,-1,-1,-1,-1,-1,-1,-1],"split_conditions":[5.5946195E-1,4.2242464E-2,3.0738391E-2,-6.256043E-1,1.9180512E-2,8.611943E-1,-1.2324443E-3,-3.5563516E-4,2.9306537E-5,9.827715E-4,1.786563E-4,-5.869125E-4,-2.0470312E-5],"split_indices":[6,4,0,6,0,7,0,0,0,0,0,0,0],"split_type":[0,0,0,0,0,0,0,0,0,0,0,0,0],"sum_hessian":[4.66E2,4.45E2,2.1E1,4.39E2,6E0,1.8E1,3E0,2.8E1,4.11E2,4E0,2E0,4E0,1.4E1],"tree_param":{"num_deleted":"0","num_feature":"8","num_nodes":"13","size_leaf_vector":"1"}},{"base_weights":[-4.1237534E-5,1.8409152E-3,-1.4334575E-3,1.0837098E-3,3.1003745E-2,-5.085289E-3,2.8116745E-4,-3.0942916E-4,1.17003685E-4,6.0513685E-4,1.9785087E-3,-4.2591547E-4,2.644437E-4,-4.998042E-4,5.281509E-5],"categories":[],"categories_nodes":[],"categories_segments":[],"categories_sizes":[],"default_left":[0,0,0,0,0,0,0,0,0,0,0,0,0,0,0],"id":39,"left_children":[1,3,5,7,9,11,13,-1,-1,-1,-1,-1,-1,-1,-1],"loss_changes":[1.2263518E-3,4.3607694E-3,1.6857791E-3,1.7961279E-3,3.306633E-4,3.1079168E-3,1.4763488E-3,0E0,0E0,0E0,0E0,0E0,0E0,0E0,0E0],"parents":[2147483647,0,0,1,1,2,2,3,3,4,4,5,5,6,6],"right_children":[2,4,6,8,10,12,14,-1,-1,-1,-1,-1,-1,-1,-1],"split_conditions":[1.5661069E-3,7.0868834E-4,2.7696816E-2,1.717587E-2,1.0372691E-3,2.4898656E-2,5.247316E-1,-3.0942916E-4,1.17003685E-4,6.0513685E-4,1.9785087E-3,-4.2591547E-4,2.644437E-4,-4.998042E-4,5.281509E-5],"split_indices":[1,1,1,4,1,4,7,0,0,0,0,0,0,0,0],"split_type":[0,0,0,0,0,0,0,0,0,0,0,0,0,0,0],"sum_hessian":[4.66E2,1.98E2,2.68E2,1.94E2,4E0,8.5E1,1.83E2,2.8E1,1.66E2,2E0,2E0,6.4E1,2.1E1,1.2E1,1.71E2],"tree_param":{"num_deleted":"0","num_feature":"8","num_nodes":"15","size_leaf_vector":"1"}},{"base_weights":[-3.5358244E-5,1.030979E-3,-2.4343715E-3,-1.6418917E-3,2.7624331E-3,-2.8064083E-2,-1.5016362E-3,-2.8456532E-5,-8.831083E-4,6.419273E-4,1.7604563E-5,-2.9913988E-3,-2.583058E-4,6.2096224E-5,-3.3930005E-4],"categories":[],"categories_nodes":[],"categories_segments":[],"categories_sizes":[],"default_left":[0,0,0,0,0,0,0,0,0,0,0,0,0,0,0],"id":40,"left_children":[1,3,5,7,9,11,13,-1,-1,-1,-1,-1,-1,-1,-1],"loss_changes":[1.1971691E-3,1.5039922E-3,3.4002839E-3,2.1897464E-3,4.7799945E-3,3.3275648E-3,2.038144E-3,0E0,0E0,0E0,0E0,0E0,0E0,0E0,0E0],"parents":[2147483647,0,0,1,1,2,2,3,3,4,4,5,5,6,6],"right_children":[2,4,6,8,10,12,14,-1,-1,-1,-1,-1,-1,-1,-1],"split_conditions":[2.4160537E-1,-1.0842315E-3,1.3115061E-2,-2.657195E-3,3.7996096E-3,-1.58205E-2,1.042046E-2,-2.8456532E-5,-8.831083E-4,6.419273E-4,1.7604563E-5,-2.9913988E-3,-2.583058E-4,6.2096224E-5,-3.3930005E-4],"split_indices":[6,0,4,0,0,0,0,0,0,0,0,0,0,0,0],"split_type":[0,0,0,0,0,0,0,0,0,0,0,0,0,0,0],"sum_hessian":[4.66E2,3.23E2,1.43E2,1.27E2,1.96E2,4E0,1.39E2,1.2E2,7E0,3.7E1,1.59E2,1E0,3E0,9.2E1,4.7E1],"tree_param":{"num_deleted":"0","num_feature":"8","num_nodes":"15","size_leaf_vector":"1"}},{"base_weights":[-4.1682288E-5,3.063447E-4,-7.0952442E-3,7.244544E-5,1.4964822E-2,-3.2661376E-3,-1.1754845E-3,2.8314736E-5,-3.3478523E-4,9.4744156E-4,1.668266E-4,-5.7079067E-4,-1.6591843E-5],"categories":[],"categories_nodes":[],"categories_segments":[],"categories_sizes":[],"default_left":[0,0,0,0,0,0,0,0,0,0,0,0,0],"id":41,"left_children":[1,3,5,7,9,11,-1,-1,-1,-1,-1,-1,-1],"loss_changes":[1.1485792E-3,1.5280745E-3,1.3059726E-3,1.474468E-3,2.6106718E-4,4.5057022E-4,0E0,0E0,0E0,0E0,0E0,0E0,0E0],"parents":[2147483647,0,0,1,1,2,2,3,3,4,4,5,5],"right_children":[2,4,6,8,10,12,-1,-1,-1,-1,-1,-1,-1],"split_conditions":[5.5946195E-1,4.2242464E-2,3.0738391E-2,3.607783E-2,1.9180512E-2,8.611943E-1,-1.1754845E-3,2.8314736E-5,-3.3478523E-4,9.4744156E-4,1.668266E-4,-5.7079067E-4,-1.6591843E-5],"split_indices":[6,4,0,4,0,7,0,0,0,0,0,0,0],"split_type":[0,0,0,0,0,0,0,0,0,0,0,0,0],"sum_hessian":[4.66E2,4.45E2,2.1E1,4.39E2,6E0,1.8E1,3E0,4.1E2,2.9E1,4E0,2E0,4E0,1.4E1],"tree_param":{"num_deleted":"0","num_feature":"8","num_nodes":"13","size_leaf_vector":"1"}},{"base_weights":[-4.1643278E-5,1.7527555E-3,-1.3689434E-3,1.0225221E-3,2.9881306E-2,-3.494013E-3,1.507185E-3,-2.9610307E-4,1.1111725E-4,5.7908124E-4,1.9110276E-3,-1.3552206E-4,-1.1250491E-3,1.2009998E-4,-1.6349944E-3],"categories":[],"categories_nodes":[],"categories_segments":[],"categories_sizes":[],"default_left":[0,0,0,0,0,0,0,0,0,0,0,0,0,0,0],"id":42,"left_children":[1,3,5,7,9,11,13,-1,-1,-1,-1,-1,-1,-1,-1],"loss_changes":[1.1146559E-3,4.056986E-3,1.6493871E-3,1.6379533E-3,3.203717E-4,2.2474783E-3,3.5985785E-3,0E0,0E0,0E0,0E0,0E0,0E0,0E0,0E0],"parents":[2147483647,0,0,1,1,2,2,3,3,4,4,5,5,6,6],"right_children":[2,4,6,8,10,12,14,-1,-1,-1,-1,-1,-1,-1,-1],"split_conditions":[1.5661069E-3,7.0868834E-4,8.861669E-1,1.717587E-2,1.0372691E-3,8.812126E-1,3.9424958E0,-2.9610307E-4,1.1111725E-4,5.7908124E-4,1.9110276E-3,-1.3552206E-4,-1.1250491E-3,1.2009998E-4,-1.6349944E-3],"split_indices":[1,1,7,4,1,7,5,0,0,0,0,0,0,0,0],"split_type":[0,0,0,0,0,0,0,0,0,0,0,0,0,0,0],"sum_hessian":[4.66E2,1.98E2,2.68E2,1.94E2,4E0,1.54E2,1.14E2,2.8E1,1.66E2,2E0,2E0,1.49E2,5E0,1.12E2,2E0],"tree_param":{"num_deleted":"0","num_feature":"8","num_nodes":"15","size_leaf_vector":"1"}},{"base_weights":[-4.056832E-5,-4.2685294E-3,5.342045E-4,-1.9236487E-4,-1.4446918E-2,2.4843705E-3,-1.7799301E-3,-4.2692627E-4,1.3876909E-4,-1.9693385E-4,-1.1091182E-3,2.4582592E-5,6.2711956E-4,-6.459281E-5,-1.5804947E-3],"categories":[],"categories_nodes":[],"categories_segments":[],"categories_sizes":[],"default_left":[0,0,0,0,0,0,0,0,0,0,0,0,0,0,0],"id":43,"left_children":[1,3,5,7,9,11,13,-1,-1,-1,-1,-1,-1,-1,-1],"loss_changes":[1.1371449E-3,2.3205928E-3,1.8637561E-3,1.0392385E-3,1.2132055E-3,4.4834223E-3,2.7108581E-3,0E0,0E0,0E0,0E0,0E0,0E0,0E0,0E0],"parents":[2147483647,0,0,1,1,2,2,3,3,4,4,5,5,6,6],"right_children":[2,4,6,8,10,12,14,-1,-1,-1,-1,-1,-1,-1,-1],"split_conditions":[3.633387E1,-1.3863447E0,6.1197292E1,-6.505734E-1,1.8076519E-2,5.9357445E1,3.9424958E0,-4.2692627E-4,1.3876909E-4,-1.9693385E-4,-1.1091182E-3,2.4582592E-5,6.2711956E-4,-6.459281E-5,-1.5804947E-3],"split_indices":[2,5,2,6,7,2,5,0,0,0,0,0,0,0,0],"split_type":[0,0,0,0,0,0,0,0,0,0,0,0,0,0,0],"sum_hessian":[4.66E2,5.5E1,4.11E2,4E1,1.5E1,2.23E2,1.88E2,1E1,3E1,7E0,8E0,1.87E2,3.6E1,1.86E2,2E0],"tree_param":{"num_deleted":"0","num_feature":"8","num_nodes":"15","size_leaf_vector":"1"}},{"base_weights":[-4.4080716E-5,1.23802E-3,-1.7921772E-3,-1.6611222E-3,8.023193E-3,-1.0628218E-3,-2.4954414E-2,-3.8166087E-5,-6.0422864E-4,1.3769364E-3,2.9024918E-4,-7.7358785E-4,-5.3471244E-6,-1.5968686E-3,-6.7392964E-4],"categories":[],"categories_nodes":[],"categories_segments":[],"categories_sizes":[],"default_left":[0,0,0,0,0,0,0,0,0,0,0,0,0,0,0],"id":44,"left_children":[1,3,5,7,9,11,13,-1,-1,-1,-1,-1,-1,-1,-1],"loss_changes":[1.0488759E-3,5.3245462E-3,3.3183917E-3,1.7688297E-3,3.3465917E-3,2.6565737E-3,5.0340313E-5,0E0,0E0,0E0,0E0,0E0,0E0,0E0,0E0],"parents":[2147483647,0,0,1,1,2,2,3,3,4,4,5,5,6,6],"right_children":[2,4,6,8,10,12,14,-1,-1,-1,-1,-1,-1,-1,-1],"split_conditions":[6.1702323E-3,-9.414279E-4,3.6112168E0,-2.657195E-3,-4.260939E-2,-5.3763486E-2,7.4904274E1,-3.8166087E-5,-6.0422864E-4,1.3769364E-3,2.9024918E-4,-7.7358785E-4,-5.3471244E-6,-1.5968686E-3,-6.7392964E-4],"split_indices":[0,0,5,0,1,1,2,0,0,0,0,0,0,0,0],"split_type":[0,0,0,0,0,0,0,0,0,0,0,0,0,0,0],"sum_hessian":[4.66E2,2.69E2,1.97E2,1.89E2,8E1,1.92E2,5E0,1.75E2,1.4E1,7E0,7.3E1,1.1E1,1.81E2,2E0,3E0],"tree_param":{"num_deleted":"0","num_feature":"8","num_nodes":"15","size_leaf_vector":"1"}},{"base_weights":[-4.6212754E-5,-4.112449E-3,5.0659175E-4,-2.6611463E-4,-1.3711654E-2,3.2743895E-3,-1.090523E-3,2.4081518E-4,-2.4371993E-4,-1.8311033E-4,-1.0560489E-3,1.2316617E-4,1.623262E-3,-1.5462487E-4,7.4770694E-5],"categories":[],"categories_nodes":[],"categories_segments":[],"categories_sizes":[],"default_left":[0,0,0,0,0,0,0,0,0,0,0,0,0,0,0],"id":45,"left_children":[1,3,5,7,9,11,13,-1,-1,-1,-1,-1,-1,-1,-1],"loss_changes":[1.0518217E-3,2.0639692E-3,1.8248128E-3,9.837468E-4,1.1140045E-3,3.4950594E-3,1.3609931E-3,0E0,0E0,0E0,0E0,0E0,0E0,0E0,0E0],"parents":[2147483647,0,0,1,1,2,2,3,3,4,4,5,5,6,6],"right_children":[2,4,6,8,10,12,14,-1,-1,-1,-1,-1,-1,-1,-1],"split_conditions":[3.633387E1,-1.3863447E0,1.5661069E-3,-4.4679273E-2,1.8076519E-2,7.0868834E-4,8.861669E-1,2.4081518E-4,-2.4371993E-4,-1.8311033E-4,-1.0560489E-3,1.2316617E-4,1.623262E-3,-1.5462487E-4,7.4770694E-5],"split_indices":[2,5,1,1,7,1,7,0,0,0,0,0,0,0,0],"split_type":[0,0,0,0,0,0,0,0,0,0,0,0,0,0,0],"sum_hessian":[4.66E2,5.5E1,4.11E2,4E1,1.5E1,1.5E2,2.61E2,1.9E1,2.1E1,7E0,8E0,1.47E2,3E0,1.47E2,1.14E2],"tree_param":{"num_deleted":"0","num_feature":"8","num_nodes":"15","size_leaf_vector":"1"}},{"base_weights":[-4.2993033E-5,2.8144606E-4,-6.6183037E-3,5.5371118E-5,1.4451664E-2,-3.1126416E-3,-1.0807812E-3,2.655944E-5,-3.2325886E-4,1.1078595E-3,3.4690075E-4,-5.425547E-4,-1.6282394E-5],"categories":[],"categories_nodes":[],"categories_segments":[],"categories_sizes":[],"default_left":[0,0,0,0,0,0,0,0,0,0,0,0,0],"id":46,"left_children":[1,3,5,7,9,11,-1,-1,-1,-1,-1,-1,-1],"loss_changes":[9.981081E-4,1.4279746E-3,1.0893802E-3,1.3685748E-3,2.5154953E-4,4.062397E-4,0E0,0E0,0E0,0E0,0E0,0E0,0E0],"parents":[2147483647,0,0,1,1,2,2,3,3,4,4,5,5],"right_children":[2,4,6,8,10,12,-1,-1,-1,-1,-1,-1,-1],"split_conditions":[5.5946195E-1,4.2242464E-2,3.0738391E-2,3.607783E-2,1.0580365E-2,8.611943E-1,-1.0807812E-3,2.655944E-5,-3.2325886E-4,1.1078595E-3,3.4690075E-4,-5.425547E-4,-1.6282394E-5],"split_indices":[6,4,0,4,0,7,0,0,0,0,0,0,0],"split_type":[0,0,0,0,0,0,0,0,0,0,0,0,0],"sum_hessian":[4.66E2,4.45E2,2.1E1,4.39E2,6E0,1.8E1,3E0,4.1E2,2.9E1,2E0,4E0,4E0,1.4E1],"tree_param":{"num_deleted":"0","num_feature":"8","num_nodes":"13","size_leaf_vector":"1"}},{"base_weights":[-4.187458E-5,2.1018067E-3,-1.0331962E-3,-1.8013454E-3,7.856452E-3,-1.7958904E-2,-5.972894E-4,9.922156E-5,-7.0772733E-4,6.4239174E-4,1.543749E-4,2.693472E-4,-1.1031794E-3,6.566518E-4,-4.5420657E-5],"categories":[],"categories_nodes":[],"categories_segments":[],"categories_sizes":[],"default_left":[0,0,0,0,0,0,0,0,0,0,0,0,0,0,0],"id":47,"left_children":[1,3,5,7,9,11,13,-1,-1,-1,-1,-1,-1,-1,-1],"loss_changes":[9.945829E-4,3.338418E-3,2.3502435E-3,4.190304E-3,1.3885528E-3,8.8547403E-4,1.3490132E-3,0E0,0E0,0E0,0E0,0E0,0E0,0E0,0E0],"parents":[2147483647,0,0,1,1,2,2,3,3,4,4,5,5,6,6],"right_children":[2,4,6,8,10,12,14,-1,-1,-1,-1,-1,-1,-1,-1],"split_conditions":[-6.533432E-2,-2.4731337E-1,-5.0234888E-2,-3.1540918E-1,8.8635814E-1,-1.983665E0,-3.8334098E-2,9.922156E-5,-7.0772733E-4,6.4239174E-4,1.543749E-4,2.693472E-4,-1.1031794E-3,6.566518E-4,-4.5420657E-5],"split_indices":[6,6,1,6,5,5,0,0,0,0,0,0,0,0,0],"split_type":[0,0,0,0,0,0,0,0,0,0,0,0,0,0,0],"sum_hessian":[4.66E2,1.47E2,3.19E2,8.8E1,5.9E1,7E0,3.12E2,6.8E1,2E1,2.8E1,3.1E1,1E0,6E0,6E0,3.06E2],"tree_param":{"num_deleted":"0","num_feature":"8","num_nodes":"15","size_leaf_vector":"1"}},{"base_weights":[-3.9854425E-5,-3.933856E-3,4.895241E-4,-2.8614458E-4,-1.3035251E-2,3.1134298E-3,-1.0564262E-3,-4.0392947E-4,1.2440735E-4,-1.8062947E-4,-9.981295E-4,1.0511227E-4,1.0589182E-3,-7.7386975E-4,-2.6859972E-5],"categories":[],"categories_nodes":[],"categories_segments":[],"categories_sizes":[],"default_left":[0,0,0,0,0,0,0,0,0,0,0,0,0,0,0],"id":48,"left_children":[1,3,5,7,9,11,13,-1,-1,-1,-1,-1,-1,-1,-1],"loss_changes":[9.6459984E-4,1.8554286E-3,1.6745372E-3,9.064598E-4,9.722668E-4,2.7503248E-3,1.9385014E-3,0E0,0E0,0E0,0E0,0E0,0E0,0E0,0E0],"parents":[2147483647,0,0,1,1,2,2,3,3,4,4,5,5,6,6],"right_children":[2,4,6,8,10,12,14,-1,-1,-1,-1,-1,-1,-1,-1],"split_conditions":[3.633387E1,-1.3863447E0,7.77457E-1,-6.505734E-1,1.8076519E-2,7.4368304E-1,-5.6938708E-2,-4.0392947E-4,1.2440735E-4,-1.8062947E-4,-9.981295E-4,1.0511227E-4,1.0589182E-3,-7.7386975E-4,-2.6859972E-5],"split_indices":[2,5,5,6,7,5,1,0,0,0,0,0,0,0,0],"split_type":[0,0,0,0,0,0,0,0,0,0,0,0,0,0,0],"sum_hessian":[4.66E2,5.5E1,4.11E2,4E1,1.5E1,1.52E2,2.59E2,1E1,3E1,7E0,8E0,1.45E2,7E0,8E0,2.51E2],"tree_param":{"num_deleted":"0","num_feature":"8","num_nodes":"15","size_leaf_vector":"1"}},{"base_weights":[-4.0206396E-5,1.1951984E-3,-1.7246462E-3,-1.5365599E-3,7.588271E-3,-1.0267383E-3,-2.3886578E-2,1.4186992E-4,-1.7162236E-4,1.3013445E-3,2.7461813E-4,-7.4231083E-4,-9.522432E-6,-1.5407846E-3,-6.3590484E-4],"categories":[],"categories_nodes":[],"categories_segments":[],"categories_sizes":[],"default_left":[0,0,0,0,0,0,0,0,0,0,0,0,0,0,0],"id":49,"left_children":[1,3,5,7,9,11,13,-1,-1,-1,-1,-1,-1,-1,-1],"loss_changes":[9.7387197E-4,4.727029E-3,3.0379384E-3,1.5853203E-3,2.9873485E-3,2.2276903E-3,7.2409166E-5,0E0,0E0,0E0,0E0,0E0,0E0,0E0,0E0],"parents":[2147483647,0,0,1,1,2,2,3,3,4,4,5,5,6,6],"right_children":[2,4,6,8,10,12,14,-1,-1,-1,-1,-1,-1,-1,-1],"split_conditions":[6.1702323E-3,-9.414279E-4,3.6112168E0,-2.1207975E-2,-4.260939E-2,-5.4412026E-2,7.4904274E1,1.4186992E-4,-1.7162236E-4,1.3013445E-3,2.7461813E-4,-7.4231083E-4,-9.522432E-6,-1.5407846E-3,-6.3590484E-4],"split_indices":[0,0,5,0,1,1,2,0,0,0,0,0,0,0,0],"split_type":[0,0,0,0,0,0,0,0,0,0,0,0,0,0,0],"sum_hessian":[4.66E2,2.69E2,1.97E2,1.89E2,8E1,1.92E2,5E0,5.7E1,1.32E2,7E0,7.3E1,1E1,1.82E2,2E0,3E0],"tree_param":{"num_deleted":"0","num_feature":"8","num_nodes":"15","size_leaf_vector":"1"}},{"base_weights":[-4.1156076E-5,1.6122581E-3,-1.2641608E-3,1.0922657E-3,3.522101E-2,-3.2834578E-3,1.468493E-3,2.671307E-5,7.104167E-4,4.3993528E-4,2.2016407E-3,-2.7588278E-4,1.3320826E-4,1.12853384E-4,-1.4361992E-3],"categories":[],"categories_nodes":[],"categories_segments":[],"categories_sizes":[],"default_left":[0,0,0,0,0,0,0,0,0,0,0,0,0,0,0],"id":50,"left_children":[1,3,5,7,9,11,13,-1,-1,-1,-1,-1,-1,-1,-1],"loss_changes":[9.4637444E-4,3.439313E-3,1.4891743E-3,1.4342167E-3,3.110522E-4,2.0743655E-3,2.8028698E-3,0E0,0E0,0E0,0E0,0E0,0E0,0E0,0E0],"parents":[2147483647,0,0,1,1,2,2,3,3,4,4,5,5,6,6],"right_children":[2,4,6,8,10,12,14,-1,-1,-1,-1,-1,-1,-1,-1],"split_conditions":[1.5661069E-3,1.0372691E-3,8.861669E-1,2.71064E0,3.9488357E-3,2.8289238E-2,3.9424958E0,2.671307E-5,7.104167E-4,4.3993528E-4,2.2016407E-3,-2.7588278E-4,1.3320826E-4,1.12853384E-4,-1.4361992E-3],"split_indices":[1,1,7,5,0,4,5,0,0,0,0,0,0,0,0],"split_type":[0,0,0,0,0,0,0,0,0,0,0,0,0,0,0],"sum_hessian":[4.66E2,1.98E2,2.68E2,1.96E2,2E0,1.54E2,1.14E2,1.89E2,7E0,1E0,1E0,1.12E2,4.2E1,1.12E2,2E0],"tree_param":{"num_deleted":"0","num_feature":"8","num_nodes":"15","size_leaf_vector":"1"}},{"base_weights":[-3.50026E-5,9.037949E-4,-2.1470538E-3,6.232162E-5,6.710493E-3,-2.702888E-2,-1.2430812E-3,-3.4173531E-4,7.12039E-5,-1.0968101E-3,3.9875327E-4,-2.87043E-3,-2.5408991E-4,4.8680836E-4,-1.221802E-4],"categories":[],"categories_nodes":[],"categories_segments":[],"categories_sizes":[],"default_left":[0,0,0,0,0,0,0,0,0,0,0,0,0,0,0],"id":51,"left_children":[1,3,5,7,9,11,13,-1,-1,-1,-1,-1,-1,-1,-1],"loss_changes":[9.279027E-4,1.5827045E-3,3.2053194E-3,2.6770812E-3,1.6602009E-3,3.0419924E-3,1.8691085E-3,0E0,0E0,0E0,0E0,0E0,0E0,0E0,0E0],"parents":[2147483647,0,0,1,1,2,2,3,3,4,4,5,5,6,6],"right_children":[2,4,6,8,10,12,14,-1,-1,-1,-1,-1,-1,-1,-1],"split_conditions":[2.4160537E-1,2.2822707E0,1.3115061E-2,1.7243719E-2,-9.125223E-2,-1.58205E-2,-1.7991645E-2,-3.4173531E-4,7.12039E-5,-1.0968101E-3,3.9875327E-4,-2.87043E-3,-2.5408991E-4,4.8680836E-4,-1.221802E-4],"split_indices":[6,5,4,4,1,0,0,0,0,0,0,0,0,0,0],"split_type":[0,0,0,0,0,0,0,0,0,0,0,0,0,0,0],"sum_hessian":[4.66E2,3.23E2,1.43E2,2.83E2,4E1,4E0,1.39E2,4.6E1,2.37E2,1E0,3.9E1,1E0,3E0,1.3E1,1.26E2],"tree_param":{"num_deleted":"0","num_feature":"8","num_nodes":"15","size_leaf_vector":"1"}},{"base_weights":[-4.123637E-5,-3.8475485E-3,4.7622653E-4,-4.0644116E-4,-1.2424914E-2,2.998779E-3,-1.0100302E-3,2.3194011E-4,-2.2782898E-4,-1.7735628E-4,-9.4678684E-4,1.0144224E-4,1.0162615E-3,-1.7132485E-5,-5.943868E-4],"categories":[],"categories_nodes":[],"categories_segments":[],"categories_sizes":[],"default_left":[0,0,0,0,0,0,0,0,0,0,0,0,0,0,0],"id":52,"left_children":[1,3,5,7,9,11,13,-1,-1,-1,-1,-1,-1,-1,-1],"loss_changes":[9.2164736E-4,1.6478258E-3,1.547683E-3,8.7961374E-4,8.5765985E-4,2.5300072E-3,1.8834143E-3,0E0,0E0,0E0,0E0,0E0,0E0,0E0,0E0],"parents":[2147483647,0,0,1,1,2,2,3,3,4,4,5,5,6,6],"right_children":[2,4,6,8,10,12,14,-1,-1,-1,-1,-1,-1,-1,-1],"split_conditions":[3.633387E1,-1.3863447E0,7.77457E-1,2.9330708E1,1.8076519E-2,7.4368304E-1,3.680231E-2,2.3194011E-4,-2.2782898E-4,-1.7735628E-4,-9.4678684E-4,1.0144224E-4,1.0162615E-3,-1.7132485E-5,-5.943868E-4],"split_indices":[2,5,5,2,7,5,4,0,0,0,0,0,0,0,0],"split_type":[0,0,0,0,0,0,0,0,0,0,0,0,0,0,0],"sum_hessian":[4.66E2,5.5E1,4.11E2,4E1,1.5E1,1.52E2,2.59E2,1.8E1,2.2E1,7E0,8E0,1.45E2,7E0,2.45E2,1.4E1],"tree_param":{"num_deleted":"0","num_feature":"8","num_nodes":"15","size_leaf_vector":"1"}},{"base_weights":[-4.0489052E-5,1.152424E-3,-1.6669843E-3,-1.4606387E-3,7.267603E-3,-1.0067874E-3,-2.2625485E-2,-3.179042E-5,-5.5206363E-4,1.2404643E-3,2.636497E-4,-7.0649525E-4,-1.0623228E-5,-1.464929E-3,-5.9821474E-4],"categories":[],"categories_nodes":[],"categories_segments":[],"categories_sizes":[],"default_left":[0,0,0,0,0,0,0,0,0,0,0,0,0,0,0],"id":53,"left_children":[1,3,5,7,9,11,13,-1,-1,-1,-1,-1,-1,-1,-1],"loss_changes":[9.0802595E-4,4.325039E-3,2.716895E-3,1.4944354E-3,2.7032732E-3,2.0088283E-3,7.6321885E-5,0E0,0E0,0E0,0E0,0E0,0E0,0E0,0E0],"parents":[2147483647,0,0,1,1,2,2,3,3,4,4,5,5,6,6],"right_children":[2,4,6,8,10,12,14,-1,-1,-1,-1,-1,-1,-1,-1],"split_conditions":[6.1702323E-3,-9.414279E-4,3.6112168E0,-2.657195E-3,-4.260939E-2,-5.4412026E-2,7.4904274E1,-3.179042E-5,-5.5206363E-4,1.2404643E-3,2.636497E-4,-7.0649525E-4,-1.0623228E-5,-1.464929E-3,-5.9821474E-4],"split_indices":[0,0,5,0,1,1,2,0,0,0,0,0,0,0,0],"split_type":[0,0,0,0,0,0,0,0,0,0,0,0,0,0,0],"sum_hessian":[4.66E2,2.69E2,1.97E2,1.89E2,8E1,1.92E2,5E0,1.75E2,1.4E1,7E0,7.3E1,1E1,1.82E2,2E0,3E0],"tree_param":{"num_deleted":"0","num_feature":"8","num_nodes":"15","size_leaf_vector":"1"}},{"base_weights":[-4.244748E-5,1.5478093E-3,-1.2187251E-3,1.0430069E-3,3.418057E-2,-3.0772109E-3,1.580288E-3,2.609042E-5,6.6455477E-4,4.1802946E-4,2.1455134E-3,-9.061224E-5,-6.880013E-4,4.2929748E-4,-8.083412E-5],"categories":[],"categories_nodes":[],"categories_segments":[],"categories_sizes":[],"default_left":[0,0,0,0,0,0,0,0,0,0,0,0,0,0,0],"id":54,"left_children":[1,3,5,7,9,11,13,-1,-1,-1,-1,-1,-1,-1,-1],"loss_changes":[8.754488E-4,3.2424962E-3,1.404181E-3,1.2506505E-3,3.174469E-4,2.164234E-3,2.432745E-3,0E0,0E0,0E0,0E0,0E0,0E0,0E0,0E0],"parents":[2147483647,0,0,1,1,2,2,3,3,4,4,5,5,6,6],"right_children":[2,4,6,8,10,12,14,-1,-1,-1,-1,-1,-1,-1,-1],"split_conditions":[1.5661069E-3,1.0372691E-3,4.7656775E-2,2.71064E0,3.9488357E-3,4.3196265E-2,5.9858315E-2,2.609042E-5,6.6455477E-4,4.1802946E-4,2.1455134E-3,-9.061224E-5,-6.880013E-4,4.2929748E-4,-8.083412E-5],"split_indices":[1,1,1,5,0,1,1,0,0,0,0,0,0,0,0],"split_type":[0,0,0,0,0,0,0,0,0,0,0,0,0,0,0],"sum_hessian":[4.66E2,1.98E2,2.68E2,1.96E2,2E0,1.61E2,1.07E2,1.89E2,7E0,1E0,1E0,1.45E2,1.6E1,3.3E1,7.4E1],"tree_param":{"num_deleted":"0","num_feature":"8","num_nodes":"15","size_leaf_vector":"1"}},{"base_weights":[-3.427783E-5,-3.4179473E-3,5.1156036E-4,-3.464179E-4,-1.1418806E-2,2.3729238E-3,-1.6085703E-3,-3.9318023E-4,9.19363E-5,-1.6609587E-4,-8.13469E-4,2.3422615E-5,5.761158E-4,-8.7147066E-4,-4.521552E-5],"categories":[],"categories_nodes":[],"categories_segments":[],"categories_sizes":[],"default_left":[0,0,0,0,0,0,0,0,0,0,0,0,0,0,0],"id":55,"left_children":[1,3,5,7,9,11,13,-1,-1,-1,-1,-1,-1,-1,-1],"loss_changes":[8.6426764E-4,1.5934112E-3,1.5941893E-3,8.0291345E-4,6.528965E-4,3.7409249E-3,2.090074E-3,0E0,0E0,0E0,0E0,0E0,0E0,0E0,0E0],"parents":[2147483647,0,0,1,1,2,2,3,3,4,4,5,5,6,6],"right_children":[2,4,6,8,10,12,14,-1,-1,-1,-1,-1,-1,-1,-1],"split_conditions":[3.935269E1,-1.3863447E0,6.1197292E1,-6.505734E-1,1.8076519E-2,5.9357445E1,7.223805E-1,-3.9318023E-4,9.19363E-5,-1.6609587E-4,-8.13469E-4,2.3422615E-5,5.761158E-4,-8.7147066E-4,-4.521552E-5],"split_indices":[2,5,2,6,7,2,7,0,0,0,0,0,0,0,0],"split_type":[0,0,0,0,0,0,0,0,0,0,0,0,0,0,0],"sum_hessian":[4.66E2,6.4E1,4.02E2,4.7E1,1.7E1,2.14E2,1.88E2,1E1,3.7E1,7E0,1E1,1.78E2,3.6E1,7E0,1.81E2],"tree_param":{"num_deleted":"0","num_feature":"8","num_nodes":"15","size_leaf_vector":"1"}},{"base_weights":[-3.598575E-5,2.628692E-4,-6.092955E-3,5.101924E-5,1.35416E-2,-2.8483637E-3,-9.990762E-4,-3.075393E-5,2.3147654E-4,1.0544953E-3,3.152148E-4,-5.2524055E-4,-5.3161834E-6],"categories":[],"categories_nodes":[],"categories_segments":[],"categories_sizes":[],"default_left":[0,0,0,0,0,0,0,0,0,0,0,0,0],"id":56,"left_children":[1,3,5,7,9,11,-1,-1,-1,-1,-1,-1,-1],"loss_changes":[8.469441E-4,1.253951E-3,9.344653E-4,1.3447317E-3,2.494487E-4,3.977745E-4,0E0,0E0,0E0,0E0,0E0,0E0,0E0],"parents":[2147483647,0,0,1,1,2,2,3,3,4,4,5,5],"right_children":[2,4,6,8,10,12,-1,-1,-1,-1,-1,-1,-1],"split_conditions":[5.5946195E-1,4.2242464E-2,3.0738391E-2,2.2822707E0,1.0580365E-2,8.611943E-1,-9.990762E-4,-3.075393E-5,2.3147654E-4,1.0544953E-3,3.152148E-4,-5.2524055E-4,-5.3161834E-6],"split_indices":[6,4,0,5,0,7,0,0,0,0,0,0,0],"split_type":[0,0,0,0,0,0,0,0,0,0,0,0,0],"sum_hessian":[4.66E2,4.45E2,2.1E1,4.39E2,6E0,1.8E1,3E0,3.84E2,5.5E1,2E0,4E0,4E0,1.4E1],"tree_param":{"num_deleted":"0","num_feature":"8","num_nodes":"13","size_leaf_vector":"1"}},{"base_weights":[-3.4099E-5,1.5205387E-3,-1.1840573E-3,1.0312033E-3,3.3146713E-2,-3.128807E-3,1.4474231E-3,1.18639706E-4,-1.6504772E-4,4.0776198E-4,2.0782414E-3,-1.19980854E-4,-1.0418544E-3,1.09022905E-4,-1.3323015E-3],"categories":[],"categories_nodes":[],"categories_segments":[],"categories_sizes":[],"default_left":[0,0,0,0,0,0,0,0,0,0,0,0,0,0,0],"id":57,"left_children":[1,3,5,7,9,11,13,-1,-1,-1,-1,-1,-1,-1,-1],"loss_changes":[8.366883E-4,3.0455042E-3,1.3811552E-3,1.152793E-3,2.921722E-4,1.9514677E-3,2.4263507E-3,0E0,0E0,0E0,0E0,0E0,0E0,0E0,0E0],"parents":[2147483647,0,0,1,1,2,2,3,3,4,4,5,5,6,6],"right_children":[2,4,6,8,10,12,14,-1,-1,-1,-1,-1,-1,-1,-1],"split_conditions":[1.5661069E-3,1.0372691E-3,8.861669E-1,8.012182E-3,3.9488357E-3,8.812126E-1,3.9424958E0,1.18639706E-4,-1.6504772E-4,4.0776198E-4,2.0782414E-3,-1.19980854E-4,-1.0418544E-3,1.09022905E-4,-1.3323015E-3],"split_indices":[1,1,7,0,0,7,5,0,0,0,0,0,0,0,0],"split_type":[0,0,0,0,0,0,0,0,0,0,0,0,0,0,0],"sum_hessian":[4.66E2,1.98E2,2.68E2,1.96E2,2E0,1.54E2,1.14E2,1.5E2,4.6E1,1E0,1E0,1.49E2,5E0,1.12E2,2E0],"tree_param":{"num_deleted":"0","num_feature":"8","num_nodes":"15","size_leaf_vector":"1"}},{"base_weights":[-3.2277465E-5,-3.5757213E-3,4.49434E-4,4.459199E-3,-6.624087E-3,2.8401709E-3,-9.591513E-4,-6.318984E-4,3.902182E-4,-4.003568E-4,2.4676454E-4,9.606244E-5,9.62774E-4,-1.5907977E-5,-5.703736E-4],"categories":[],"categories_nodes":[],"categories_segments":[],"categories_sizes":[],"default_left":[0,0,0,0,0,0,0,0,0,0,0,0,0,0,0],"id":58,"left_children":[1,3,5,7,9,11,13,-1,-1,-1,-1,-1,-1,-1,-1],"loss_changes":[7.9873746E-4,1.4011671E-3,1.3901576E-3,1.0137167E-3,6.9499225E-4,2.2709172E-3,1.7376654E-3,0E0,0E0,0E0,0E0,0E0,0E0,0E0,0E0],"parents":[2147483647,0,0,1,1,2,2,3,3,4,4,5,5,6,6],"right_children":[2,4,6,8,10,12,14,-1,-1,-1,-1,-1,-1,-1,-1],"split_conditions":[3.633387E1,2.8403051E1,7.77457E-1,-5.0352927E-2,3.6429737E-2,7.4368304E-1,3.680231E-2,-6.318984E-4,3.902182E-4,-4.003568E-4,2.4676454E-4,9.606244E-5,9.62774E-4,-1.5907977E-5,-5.703736E-4],"split_indices":[2,2,5,0,4,5,4,0,0,0,0,0,0,0,0],"split_type":[0,0,0,0,0,0,0,0,0,0,0,0,0,0,0],"sum_hessian":[4.66E2,5.5E1,4.11E2,1.5E1,4E1,1.52E2,2.59E2,2E0,1.3E1,3.6E1,4E0,1.45E2,7E0,2.45E2,1.4E1],"tree_param":{"num_deleted":"0","num_feature":"8","num_nodes":"15","size_leaf_vector":"1"}},{"base_weights":[-3.0498062E-5,-2.467062E-3,6.743772E-4,-3.593752E-4,-2.245415E-2,2.593859E-3,-1.0111192E-3,9.346168E-5,-6.773086E-4,-1.5137251E-4,-1.5173693E-3,1.0240538E-4,1.6145663E-3,-1.21747165E-4,2.0998716E-4],"categories":[],"categories_nodes":[],"categories_segments":[],"categories_sizes":[],"default_left":[0,0,0,0,0,0,0,0,0,0,0,0,0,0,0],"id":59,"left_children":[1,3,5,7,9,11,13,-1,-1,-1,-1,-1,-1,-1,-1],"loss_changes":[8.03724E-4,4.415215E-3,1.1770292E-3,2.8465888E-3,1.4415197E-3,2.6891283E-3,1.4495804E-3,0E0,0E0,0E0,0E0,0E0,0E0,0E0,0E0],"parents":[2147483647,0,0,1,1,2,2,3,3,4,4,5,5,6,6],"right_children":[2,4,6,8,10,12,14,-1,-1,-1,-1,-1,-1,-1,-1],"split_conditions":[1.7243719E-2,1.7122727E-2,1.5661069E-3,3.3851448E-1,-8.586654E-3,1.0372691E-3,9.8441464E-1,9.346168E-5,-6.773086E-4,-1.5137251E-4,-1.5173693E-3,1.0240538E-4,1.6145663E-3,-1.21747165E-4,2.0998716E-4],"split_indices":[4,4,1,6,0,1,7,0,0,0,0,0,0,0,0],"split_type":[0,0,0,0,0,0,0,0,0,0,0,0,0,0,0],"sum_hessian":[4.66E2,1.04E2,3.62E2,9.5E1,9E0,1.69E2,1.93E2,8.2E1,1.3E1,3E0,6E0,1.67E2,2E0,1.52E2,4.1E1],"tree_param":{"num_deleted":"0","num_feature":"8","num_nodes":"15","size_leaf_vector":"1"}},{"base_weights":[-2.9931187E-5,1.0854068E-3,-1.5506954E-3,-1.3806383E-3,6.8565565E-3,-9.3375257E-4,-2.113724E-2,-3.0778345E-5,-5.132717E-4,1.1738061E-3,2.4835955E-4,-1.67424E-4,1.540766E-4,-1.3942429E-3,-5.3961074E-4],"categories":[],"categories_nodes":[],"categories_segments":[],"categories_sizes":[],"default_left":[0,0,0,0,0,0,0,0,0,0,0,0,0,0,0],"id":60,"left_children":[1,3,5,7,9,11,13,-1,-1,-1,-1,-1,-1,-1,-1],"loss_changes":[7.937926E-4,3.8520838E-3,2.372851E-3,1.2852068E-3,2.4268255E-3,1.8816111E-3,1.17886346E-4,0E0,0E0,0E0,0E0,0E0,0E0,0E0,0E0],"parents":[2147483647,0,0,1,1,2,2,3,3,4,4,5,5,6,6],"right_children":[2,4,6,8,10,12,14,-1,-1,-1,-1,-1,-1,-1,-1],"split_conditions":[6.1702323E-3,-9.414279E-4,3.6112168E0,-2.657195E-3,-4.260939E-2,2.2049995E-2,7.4904274E1,-3.0778345E-5,-5.132717E-4,1.1738061E-3,2.4835955E-4,-1.67424E-4,1.540766E-4,-1.3942429E-3,-5.3961074E-4],"split_indices":[0,0,5,0,1,0,2,0,0,0,0,0,0,0,0],"split_type":[0,0,0,0,0,0,0,0,0,0,0,0,0,0,0],"sum_hessian":[4.66E2,2.69E2,1.97E2,1.89E2,8E1,1.92E2,5E0,1.75E2,1.4E1,7E0,7.3E1,1.2E2,7.2E1,2E0,3E0],"tree_param":{"num_deleted":"0","num_feature":"8","num_nodes":"15","size_leaf_vector":"1"}},{"base_weights":[-3.0723895E-5,-5.4225867E-4,3.3194995E-3,6.5657485E-4,-5.2155093E-3,4.9951435E-3,-1.678187E-2,-9.3588555E-5,1.1270689E-4,-2.326491E-3,-1.8104805E-4,-1.0238815E-3,2.9006455E-4,-1.4188816E-4,-1.2566011E-3],"categories":[],"categories_nodes":[],"categories_segments":[],"categories_sizes":[],"default_left":[0,0,0,0,0,0,0,0,0,0,0,0,0,0,0],"id":61,"left_children":[1,3,5,7,9,11,13,-1,-1,-1,-1,-1,-1,-1,-1],"loss_changes":[8.0212404E-4,2.278019E-3,2.1721576E-3,1.3129172E-3,5.2993633E-3,1.3098157E-3,5.108584E-4,0E0,0E0,0E0,0E0,0E0,0E0,0E0,0E0],"parents":[2147483647,0,0,1,1,2,2,3,3,4,4,5,5,6,6],"right_children":[2,4,6,8,10,12,14,-1,-1,-1,-1,-1,-1,-1,-1],"split_conditions":[2.2822707E0,1.3403999E0,4.5214858E-2,-9.414279E-4,1.3475202E-2,-9.125223E-2,1.0970742E-2,-9.3588555E-5,1.1270689E-4,-2.326491E-3,-1.8104805E-4,-1.0238815E-3,2.9006455E-4,-1.4188816E-4,-1.2566011E-3],"split_indices":[5,5,0,0,4,1,1,0,0,0,0,0,0,0,0],"split_type":[0,0,0,0,0,0,0,0,0,0,0,0,0,0,0],"sum_hessian":[4.66E2,4.05E2,6.1E1,3.23E2,8.2E1,5.7E1,4E0,1.25E2,1.98E2,2E0,8E1,1E0,5.6E1,2E0,2E0],"tree_param":{"num_deleted":"0","num_feature":"8","num_nodes":"15","size_leaf_vector":"1"}},{"base_weights":[-3.9082148E-5,1.0565296E-3,-1.5329008E-3,-1.2401309E-3,6.4307144E-3,-9.4684586E-4,-2.0128852E-2,1.2824428E-4,-1.4450686E-4,1.3506411E-3,2.5053494E-4,-6.4224773E-4,-7.857639E-6,-1.3316594E-3,-5.1091943E-4],"categories":[],"categories_nodes":[],"categories_segments":[],"categories_sizes":[],"default_left":[0,0,0,0,0,0,0,0,0,0,0,0,0,0,0],"id":62,"left_children":[1,3,5,7,9,11,13,-1,-1,-1,-1,-1,-1,-1,-1],"loss_changes":[7.6593296E-4,3.3404983E-3,2.1387946E-3,1.20029E-3,2.2320282E-3,1.8113812E-3,1.146174E-4,0E0,0E0,0E0,0E0,0E0,0E0,0E0,0E0],"parents":[2147483647,0,0,1,1,2,2,3,3,4,4,5,5,6,6],"right_children":[2,4,6,8,10,12,14,-1,-1,-1,-1,-1,-1,-1,-1],"split_conditions":[6.1702323E-3,-9.414279E-4,3.6112168E0,-2.1207975E-2,1.6773687E-1,-5.3763486E-2,7.4904274E1,1.2824428E-4,-1.4450686E-4,1.3506411E-3,2.5053494E-4,-6.4224773E-4,-7.857639E-6,-1.3316594E-3,-5.1091943E-4],"split_indices":[0,0,5,0,7,1,2,0,0,0,0,0,0,0,0],"split_type":[0,0,0,0,0,0,0,0,0,0,0,0,0,0,0],"sum_hessian":[4.66E2,2.69E2,1.97E2,1.89E2,8E1,1.92E2,5E0,5.7E1,1.32E2,4E0,7.6E1,1.1E1,1.81E2,2E0,3E0],"tree_param":{"num_deleted":"0","num_feature":"8","num_nodes":"15","size_leaf_vector":"1"}},{"base_weights":[-3.9071845E-5,-2.9835936E-3,5.140593E-4,-1.6240454E-3,-2.142055E-2,1.3116808E-2,1.1785297E-4,-1.4413905E-4,6.141466E-4,4.3284625E-5,-1.3604267E-3,2.4249E-4,1.186033E-3,-9.6385524E-4,2.3882947E-5],"categories":[],"categories_nodes":[],"categories_segments":[],"categories_sizes":[],"default_left":[0,0,0,0,0,0,0,0,0,0,0,0,0,0,0],"id":63,"left_children":[1,3,5,7,9,11,13,-1,-1,-1,-1,-1,-1,-1,-1],"loss_changes":[7.6213985E-4,1.820091E-3,1.9658103E-3,1.2607735E-3,6.685159E-4,9.369049E-4,2.6819431E-3,0E0,0E0,0E0,0E0,0E0,0E0,0E0,0E0],"parents":[2147483647,0,0,1,1,2,2,3,3,4,4,5,5,6,6],"right_children":[2,4,6,8,10,12,14,-1,-1,-1,-1,-1,-1,-1,-1],"split_conditions":[4.1730404E1,3.9328527E-1,4.4121338E1,3.9597767E1,2.0902514E-2,4.366792E1,-7.5583465E-2,-1.4413905E-4,6.141466E-4,4.3284625E-5,-1.3604267E-3,2.4249E-4,1.186033E-3,-9.6385524E-4,2.3882947E-5],"split_indices":[2,7,2,2,1,2,1,0,0,0,0,0,0,0,0],"split_type":[0,0,0,0,0,0,0,0,0,0,0,0,0,0,0],"sum_hessian":[4.66E2,7.3E1,3.93E2,6.9E1,4E0,1.1E1,3.82E2,6.4E1,5E0,1E0,3E0,7E0,4E0,6E0,3.76E2],"tree_param":{"num_deleted":"0","num_feature":"8","num_nodes":"15","size_leaf_vector":"1"}},{"base_weights":[-3.7886046E-5,7.955163E-5,-6.825593E-4,-1.1839455E-4,1.3019523E-2,1.45833565E-5,-2.888036E-4,1.0130269E-3,3.0355048E-4],"categories":[],"categories_nodes":[],"categories_segments":[],"categories_sizes":[],"default_left":[0,0,0,0,0,0,0,0,0],"id":64,"left_children":[1,3,-1,5,7,-1,-1,-1,-1],"loss_changes":[7.4768544E-4,1.1900393E-3,0E0,1.064243E-3,2.2919814E-4,0E0,0E0,0E0,0E0],"parents":[2147483647,0,0,1,1,3,3,4,4],"right_children":[2,4,-1,6,8,-1,-1,-1,-1],"split_conditions":[8.510629E-1,4.2242464E-2,-6.825593E-4,3.607783E-2,1.0580365E-2,1.45833565E-5,-2.888036E-4,1.0130269E-3,3.0355048E-4],"split_indices":[6,4,0,4,0,0,0,0,0],"split_type":[0,0,0,0,0,0,0,0,0],"sum_hessian":[4.66E2,4.63E2,3E0,4.57E2,6E0,4.27E2,3E1,2E0,4E0],"tree_param":{"num_deleted":"0","num_feature":"8","num_nodes":"9","size_leaf_vector":"1"}},{"base_weights":[-3.5221452E-5,-2.4012218E-3,6.492558E-4,-4.0693636E-4,-2.1306239E-2,2.4986546E-3,-9.74698E-4,8.4191044E-5,-6.386537E-4,-1.5586226E-3,-2.6027684E-4,9.883152E-5,1.5449562E-3,-1.1683381E-4,2.0050006E-4],"categories":[],"categories_nodes":[],"categories_segments":[],"categories_sizes":[],"default_left":[0,0,0,0,0,0,0,0,0,0,0,0,0,0,0],"id":65,"left_children":[1,3,5,7,9,11,13,-1,-1,-1,-1,-1,-1,-1,-1],"loss_changes":[7.5785303E-4,3.9500394E-3,1.0926471E-3,2.5035478E-3,1.42626E-3,2.4592981E-3,1.3264463E-3,0E0,0E0,0E0,0E0,0E0,0E0,0E0,0E0],"parents":[2147483647,0,0,1,1,2,2,3,3,4,4,5,5,6,6],"right_children":[2,4,6,8,10,12,14,-1,-1,-1,-1,-1,-1,-1,-1],"split_conditions":[1.7243719E-2,1.7122727E-2,1.5661069E-3,3.3851448E-1,3.7890285E-2,1.0372691E-3,9.8441464E-1,8.4191044E-5,-6.386537E-4,-1.5586226E-3,-2.6027684E-4,9.883152E-5,1.5449562E-3,-1.1683381E-4,2.0050006E-4],"split_indices":[4,4,1,6,1,1,7,0,0,0,0,0,0,0,0],"split_type":[0,0,0,0,0,0,0,0,0,0,0,0,0,0,0],"sum_hessian":[4.66E2,1.04E2,3.62E2,9.5E1,9E0,1.69E2,1.93E2,8.2E1,1.3E1,5E0,4E0,1.67E2,2E0,1.52E2,4.1E1],"tree_param":{"num_deleted":"0","num_feature":"8","num_nodes":"15","size_leaf_vector":"1"}},{"base_weights":[-3.48435E-5,-5.225373E-4,3.159326E-3,6.0685386E-4,-4.9249493E-3,4.7422145E-3,-1.5834045E-2,-1.4143802E-4,8.0866324E-5,-2.238443E-3,-1.6942236E-4,-9.5338264E-4,2.7472258E-4,-1.3282236E-4,-1.1866813E-3],"categories":[],"categories_nodes":[],"categories_segments":[],"categories_sizes":[],"default_left":[0,0,0,0,0,0,0,0,0,0,0,0,0,0,0],"id":66,"left_children":[1,3,5,7,9,11,13,-1,-1,-1,-1,-1,-1,-1,-1],"loss_changes":[7.291326E-4,2.0216391E-3,1.9390804E-3,1.1293716E-3,4.9295835E-3,1.1435852E-3,4.574404E-4,0E0,0E0,0E0,0E0,0E0,0E0,0E0,0E0],"parents":[2147483647,0,0,1,1,2,2,3,3,4,4,5,5,6,6],"right_children":[2,4,6,8,10,12,14,-1,-1,-1,-1,-1,-1,-1,-1],"split_conditions":[2.2822707E0,1.3403999E0,4.5214858E-2,4.1730404E1,1.3475202E-2,-9.125223E-2,1.0970742E-2,-1.4143802E-4,8.0866324E-5,-2.238443E-3,-1.6942236E-4,-9.5338264E-4,2.7472258E-4,-1.3282236E-4,-1.1866813E-3],"split_indices":[5,5,0,2,4,1,1,0,0,0,0,0,0,0,0],"split_type":[0,0,0,0,0,0,0,0,0,0,0,0,0,0,0],"sum_hessian":[4.66E2,4.05E2,6.1E1,3.23E2,8.2E1,5.7E1,4E0,7.3E1,2.5E2,2E0,8E1,1E0,5.6E1,2E0,2E0],"tree_param":{"num_deleted":"0","num_feature":"8","num_nodes":"15","size_leaf_vector":"1"}},{"base_weights":[-4.2665823E-5,-2.3574552E-3,6.270189E-4,-4.5625324E-4,-2.037325E-2,2.394743E-3,-9.2524965E-4,7.543968E-5,-6.036792E-4,-1.4910253E-3,-2.4809464E-4,9.4541836E-5,1.4907622E-3,-3.0838285E-4,1.5412934E-5],"categories":[],"categories_nodes":[],"categories_segments":[],"categories_sizes":[],"default_left":[0,0,0,0,0,0,0,0,0,0,0,0,0,0,0],"id":67,"left_children":[1,3,5,7,9,11,13,-1,-1,-1,-1,-1,-1,-1,-1],"loss_changes":[7.2541187E-4,3.5871295E-3,9.982813E-4,2.209762E-3,1.3079839E-3,2.2925753E-3,1.2564125E-3,0E0,0E0,0E0,0E0,0E0,0E0,0E0,0E0],"parents":[2147483647,0,0,1,1,2,2,3,3,4,4,5,5,6,6],"right_children":[2,4,6,8,10,12,14,-1,-1,-1,-1,-1,-1,-1,-1],"split_conditions":[1.7243719E-2,1.7122727E-2,1.5661069E-3,3.3851448E-1,3.7890285E-2,1.0372691E-3,5.5610883E-1,7.543968E-5,-6.036792E-4,-1.4910253E-3,-2.4809464E-4,9.4541836E-5,1.4907622E-3,-3.0838285E-4,1.5412934E-5],"split_indices":[4,4,1,6,1,1,7,0,0,0,0,0,0,0,0],"split_type":[0,0,0,0,0,0,0,0,0,0,0,0,0,0,0],"sum_hessian":[4.66E2,1.04E2,3.62E2,9.5E1,9E0,1.69E2,1.93E2,8.2E1,1.3E1,5E0,4E0,1.67E2,2E0,3.6E1,1.57E2],"tree_param":{"num_deleted":"0","num_feature":"8","num_nodes":"15","size_leaf_vector":"1"}},{"base_weights":[-4.2620362E-5,1.0078837E-3,-1.4749106E-3,-1.1436068E-3,6.042147E-3,-9.1305055E-4,-1.930226E-2,-5.707097E-4,-2.8492641E-5,1.067858E-3,2.1524097E-4,-6.09507E-4,-8.2244715E-6,-1.2743238E-3,-4.919267E-4],"categories":[],"categories_nodes":[],"categories_segments":[],"categories_sizes":[],"default_left":[0,0,0,0,0,0,0,0,0,0,0,0,0,0,0],"id":68,"left_children":[1,3,5,7,9,11,13,-1,-1,-1,-1,-1,-1,-1,-1],"loss_changes":[7.041472E-4,2.9313255E-3,1.9656385E-3,1.1131257E-3,2.0632439E-3,1.6272219E-3,1.0040472E-4,0E0,0E0,0E0,0E0,0E0,0E0,0E0,0E0],"parents":[2147483647,0,0,1,1,2,2,3,3,4,4,5,5,6,6],"right_children":[2,4,6,8,10,12,14,-1,-1,-1,-1,-1,-1,-1,-1],"split_conditions":[6.1702323E-3,-9.414279E-4,3.6112168E0,1.4123107E-2,-4.260939E-2,-5.3763486E-2,7.4904274E1,-5.707097E-4,-2.8492641E-5,1.067858E-3,2.1524097E-4,-6.09507E-4,-8.2244715E-6,-1.2743238E-3,-4.919267E-4],"split_indices":[0,0,5,4,1,1,2,0,0,0,0,0,0,0,0],"split_type":[0,0,0,0,0,0,0,0,0,0,0,0,0,0,0],"sum_hessian":[4.66E2,2.69E2,1.97E2,1.89E2,8E1,1.92E2,5E0,9E0,1.8E2,7E0,7.3E1,1.1E1,1.81E2,2E0,3E0],"tree_param":{"num_deleted":"0","num_feature":"8","num_nodes":"15","size_leaf_vector":"1"}},{"base_weights":[-4.4129774E-5,6.876918E-5,-6.564688E-4,-1.24142E-4,1.2680848E-2,1.3391465E-5,-2.765935E-4,8.1083283E-4,1.280443E-4],"categories":[],"categories_nodes":[],"categories_segments":[],"categories_sizes":[],"default_left":[0,0,0,0,0,0,0,0,0],"id":69,"left_children":[1,3,-1,5,7,-1,-1,-1,-1],"loss_changes":[6.90807E-4,1.1304914E-3,0E0,9.722923E-4,2.0894676E-4,0E0,0E0,0E0,0E0],"parents":[2147483647,0,0,1,1,3,3,4,4],"right_children":[2,4,-1,6,8,-1,-1,-1,-1],"split_conditions":[8.510629E-1,4.2242464E-2,-6.564688E-4,3.607783E-2,1.9180512E-2,1.3391465E-5,-2.765935E-4,8.1083283E-4,1.280443E-4],"split_indices":[6,4,0,4,0,0,0,0,0],"split_type":[0,0,0,0,0,0,0,0,0],"sum_hessian":[4.66E2,4.63E2,3E0,4.57E2,6E0,4.27E2,3E1,4E0,2E0],"tree_param":{"num_deleted":"0","num_feature":"8","num_nodes":"9","size_leaf_vector":"1"}},{"base_weights":[-4.1882155E-5,-5.130088E-4,3.0439128E-3,5.5545673E-4,-4.6777055E-3,5.317763E-3,-9.311885E-3,-3.5067987E-5,1.4867522E-4,-2.145822E-3,-1.6018534E-4,3.2760217E-4,-5.720091E-4,-1.6249983E-4,-1.118648E-3],"categories":[],"categories_nodes":[],"categories_segments":[],"categories_sizes":[],"default_left":[0,0,0,0,0,0,0,0,0,0,0,0,0,0,0],"id":70,"left_children":[1,3,5,7,9,11,13,-1,-1,-1,-1,-1,-1,-1,-1],"loss_changes":[6.8048626E-4,1.8092312E-3,1.7914227E-3,9.86735E-4,4.5407065E-3,1.1712087E-3,7.190356E-4,0E0,0E0,0E0,0E0,0E0,0E0,0E0,0E0],"parents":[2147483647,0,0,1,1,2,2,3,3,4,4,5,5,6,6],"right_children":[2,4,6,8,10,12,14,-1,-1,-1,-1,-1,-1,-1,-1],"split_conditions":[2.2822707E0,1.3403999E0,3.5363722E-1,5.789087E1,1.3475202E-2,3.680231E-2,1.7227577E-2,-3.5067987E-5,1.4867522E-4,-2.145822E-3,-1.6018534E-4,3.2760217E-4,-5.720091E-4,-1.6249983E-4,-1.118648E-3],"split_indices":[5,5,6,2,4,4,0,0,0,0,0,0,0,0,0],"split_type":[0,0,0,0,0,0,0,0,0,0,0,0,0,0,0],"sum_hessian":[4.66E2,4.05E2,6.1E1,3.23E2,8.2E1,5.2E1,9E0,2.13E2,1.1E2,2E0,8E1,4.9E1,3E0,7E0,2E0],"tree_param":{"num_deleted":"0","num_feature":"8","num_nodes":"15","size_leaf_vector":"1"}},{"base_weights":[-4.7749432E-5,9.749085E-4,-1.5306211E-3,-7.354248E-4,9.579743E-3,-1.6240237E-2,-8.82754E-4,3.614397E-5,-3.9853482E-4,1.5193801E-3,3.710672E-4,3.5168632E-5,-1.6679846E-3,7.2634395E-4,-6.971732E-5],"categories":[],"categories_nodes":[],"categories_segments":[],"categories_sizes":[],"default_left":[0,0,0,0,0,0,0,0,0,0,0,0,0,0,0],"id":71,"left_children":[1,3,5,7,9,11,13,-1,-1,-1,-1,-1,-1,-1,-1],"loss_changes":[7.0968387E-4,4.0836916E-3,1.8058702E-3,2.4536464E-3,1.8404201E-3,2.3439869E-3,1.4708106E-3,0E0,0E0,0E0,0E0,0E0,0E0,0E0,0E0],"parents":[2147483647,0,0,1,1,2,2,3,3,4,4,5,5,6,6],"right_children":[2,4,6,8,10,12,14,-1,-1,-1,-1,-1,-1,-1,-1],"split_conditions":[6.1050995E1,5.789087E1,7.223805E-1,5.4737038E1,6.1281484E-1,-1.2502652E-2,7.315926E-1,3.614397E-5,-3.9853482E-4,1.5193801E-3,3.710672E-4,3.5168632E-5,-1.6679846E-3,7.2634395E-4,-6.971732E-5],"split_indices":[2,2,7,2,7,1,7,0,0,0,0,0,0,0,0],"split_type":[0,0,0,0,0,0,0,0,0,0,0,0,0,0,0],"sum_hessian":[4.66E2,2.76E2,1.9E2,2.31E2,4.5E1,7E0,1.83E2,1.93E2,3.8E1,3E0,4.2E1,4E0,3E0,5E0,1.78E2],"tree_param":{"num_deleted":"0","num_feature":"8","num_nodes":"15","size_leaf_vector":"1"}},{"base_weights":[-4.418023E-5,-2.2510826E-3,5.943017E-4,-4.4982086E-4,-1.9318087E-2,2.2809298E-3,-8.8673487E-4,7.0105125E-5,-5.698475E-4,-8.6636996E-5,-1.3303566E-3,9.023715E-5,1.4093545E-3,-1.0918337E-4,1.9294587E-4],"categories":[],"categories_nodes":[],"categories_segments":[],"categories_sizes":[],"default_left":[0,0,0,0,0,0,0,0,0,0,0,0,0,0,0],"id":72,"left_children":[1,3,5,7,9,11,13,-1,-1,-1,-1,-1,-1,-1,-1],"loss_changes":[6.5937225E-4,3.2192357E-3,9.087813E-4,1.962211E-3,1.2357E-3,2.0462798E-3,1.202456E-3,0E0,0E0,0E0,0E0,0E0,0E0,0E0,0E0],"parents":[2147483647,0,0,1,1,2,2,3,3,4,4,5,5,6,6],"right_children":[2,4,6,8,10,12,14,-1,-1,-1,-1,-1,-1,-1,-1],"split_conditions":[1.7243719E-2,1.7122727E-2,1.5661069E-3,3.3851448E-1,-8.586654E-3,1.0372691E-3,9.8441464E-1,7.0105125E-5,-5.698475E-4,-8.6636996E-5,-1.3303566E-3,9.023715E-5,1.4093545E-3,-1.0918337E-4,1.9294587E-4],"split_indices":[4,4,1,6,0,1,7,0,0,0,0,0,0,0,0],"split_type":[0,0,0,0,0,0,0,0,0,0,0,0,0,0,0],"sum_hessian":[4.66E2,1.04E2,3.62E2,9.5E1,9E0,1.69E2,1.93E2,8.2E1,1.3E1,3E0,6E0,1.67E2,2E0,1.52E2,4.1E1],"tree_param":{"num_deleted":"0","num_feature":"8","num_nodes":"15","size_leaf_vector":"1"}},{"base_weights":[-4.2685104E-5,-3.2778238E-3,3.971461E-4,-2.8487097E-4,-1.0742402E-2,1.96384E-3,-1.4259075E-3,-3.6416145E-4,1.10380344E-4,-1.4083192E-4,-8.296962E-4,1.7606837E-5,5.28244E-4,-7.7630806E-4,-4.0255174E-5],"categories":[],"categories_nodes":[],"categories_segments":[],"categories_sizes":[],"default_left":[0,0,0,0,0,0,0,0,0,0,0,0,0,0,0],"id":73,"left_children":[1,3,5,7,9,11,13,-1,-1,-1,-1,-1,-1,-1,-1],"loss_changes":[6.6580303E-4,1.248043E-3,1.1795411E-3,7.3125184E-4,6.953054E-4,3.073716E-3,1.6594171E-3,0E0,0E0,0E0,0E0,0E0,0E0,0E0,0E0],"parents":[2147483647,0,0,1,1,2,2,3,3,4,4,5,5,6,6],"right_children":[2,4,6,8,10,12,14,-1,-1,-1,-1,-1,-1,-1,-1],"split_conditions":[3.633387E1,-1.3863447E0,6.1050995E1,-6.505734E-1,1.8076519E-2,5.9357445E1,7.223805E-1,-3.6416145E-4,1.10380344E-4,-1.4083192E-4,-8.296962E-4,1.7606837E-5,5.28244E-4,-7.7630806E-4,-4.0255174E-5],"split_indices":[2,5,2,6,7,2,7,0,0,0,0,0,0,0,0],"split_type":[0,0,0,0,0,0,0,0,0,0,0,0,0,0,0],"sum_hessian":[4.66E2,5.5E1,4.11E2,4E1,1.5E1,2.21E2,1.9E2,1E1,3E1,7E0,8E0,1.87E2,3.4E1,7E0,1.83E2],"tree_param":{"num_deleted":"0","num_feature":"8","num_nodes":"15","size_leaf_vector":"1"}},{"base_weights":[-4.3752123E-5,9.621155E-4,-1.4151688E-3,-1.0371527E-3,5.6398786E-3,-8.800912E-4,-1.8390967E-2,-3.0251156E-5,-7.094144E-4,1.2345776E-3,2.164756E-4,-1.5249527E-4,1.364253E-4,-1.2147914E-3,-4.68229E-4],"categories":[],"categories_nodes":[],"categories_segments":[],"categories_sizes":[],"default_left":[0,0,0,0,0,0,0,0,0,0,0,0,0,0,0],"id":74,"left_children":[1,3,5,7,9,11,13,-1,-1,-1,-1,-1,-1,-1,-1],"loss_changes":[6.4557104E-4,2.5309173E-3,1.7823211E-3,1.0711848E-3,1.9152367E-3,1.5195088E-3,9.227707E-5,0E0,0E0,0E0,0E0,0E0,0E0,0E0,0E0],"parents":[2147483647,0,0,1,1,2,2,3,3,4,4,5,5,6,6],"right_children":[2,4,6,8,10,12,14,-1,-1,-1,-1,-1,-1,-1,-1],"split_conditions":[6.1702323E-3,-9.414279E-4,3.6112168E0,-1.1921611E-3,1.6773687E-1,2.2049995E-2,7.4904274E1,-3.0251156E-5,-7.094144E-4,1.2345776E-3,2.164756E-4,-1.5249527E-4,1.364253E-4,-1.2147914E-3,-4.68229E-4],"split_indices":[0,0,5,0,7,0,2,0,0,0,0,0,0,0,0],"split_type":[0,0,0,0,0,0,0,0,0,0,0,0,0,0,0],"sum_hessian":[4.66E2,2.69E2,1.97E2,1.89E2,8E1,1.92E2,5E0,1.84E2,5E0,4E0,7.6E1,1.2E2,7.2E1,2E0,3E0],"tree_param":{"num_deleted":"0","num_feature":"8","num_nodes":"15","size_leaf_vector":"1"}},{"base_weights":[-4.3679534E-5,6.405061E-5,-6.264729E-4,-1.3476973E-4,1.1413656E-2,1.2600342E-5,-2.824145E-4,2.4075413E-4,8.40423E-4],"categories":[],"categories_nodes":[],"categories_segments":[],"categories_sizes":[],"default_left":[0,0,0,0,0,0,0,0,0],"id":75,"left_children":[1,3,-1,5,7,-1,-1,-1,-1],"loss_changes":[6.289617E-4,1.0485693E-3,0E0,9.759761E-4,2.0384986E-4,0E0,0E0,0E0,0E0],"parents":[2147483647,0,0,1,1,3,3,4,4],"right_children":[2,4,-1,6,8,-1,-1,-1,-1],"split_conditions":[8.510629E-1,4.2038362E-2,-6.264729E-4,3.607783E-2,2.5133885E-2,1.2600342E-5,-2.824145E-4,2.4075413E-4,8.40423E-4],"split_indices":[6,4,0,4,1,0,0,0,0],"split_type":[0,0,0,0,0,0,0,0,0],"sum_hessian":[4.66E2,4.63E2,3E0,4.56E2,7E0,4.27E2,2.9E1,4E0,3E0],"tree_param":{"num_deleted":"0","num_feature":"8","num_nodes":"9","size_leaf_vector":"1"}},{"base_weights":[-4.109971E-5,-3.1279495E-3,3.7857186E-4,4.3886537E-3,-5.9849666E-3,2.5269885E-3,-8.6108263E-4,-5.334786E-4,3.6509705E-4,-3.7103062E-4,2.917901E-4,9.697998E-5,1.1814313E-3,-1.2983957E-4,6.900933E-5],"categories":[],"categories_nodes":[],"categories_segments":[],"categories_sizes":[],"default_left":[0,0,0,0,0,0,0,0,0,0,0,0,0,0,0],"id":76,"left_children":[1,3,5,7,9,11,13,-1,-1,-1,-1,-1,-1,-1,-1],"loss_changes":[6.061655E-4,1.2288694E-3,1.0994532E-3,7.7981164E-4,7.3909294E-4,1.8257948E-3,1.0228138E-3,0E0,0E0,0E0,0E0,0E0,0E0,0E0,0E0],"parents":[2147483647,0,0,1,1,2,2,3,3,4,4,5,5,6,6],"right_children":[2,4,6,8,10,12,14,-1,-1,-1,-1,-1,-1,-1,-1],"split_conditions":[3.633387E1,2.8403051E1,1.5661069E-3,-5.0352927E-2,3.6429737E-2,7.0868834E-4,8.861669E-1,-5.334786E-4,3.6509705E-4,-3.7103062E-4,2.917901E-4,9.697998E-5,1.1814313E-3,-1.2983957E-4,6.900933E-5],"split_indices":[2,2,1,0,4,1,7,0,0,0,0,0,0,0,0],"split_type":[0,0,0,0,0,0,0,0,0,0,0,0,0,0,0],"sum_hessian":[4.66E2,5.5E1,4.11E2,1.5E1,4E1,1.5E2,2.61E2,2E0,1.3E1,3.6E1,4E0,1.47E2,3E0,1.47E2,1.14E2],"tree_param":{"num_deleted":"0","num_feature":"8","num_nodes":"15","size_leaf_vector":"1"}},{"base_weights":[-3.6967747E-5,9.3961245E-4,-1.3684813E-3,-9.6324657E-4,5.391509E-3,-8.50977E-4,-1.778679E-2,-5.3803436E-4,-2.0831487E-5,9.812171E-4,1.889983E-4,-5.746632E-4,-7.2306043E-6,-1.1737046E-3,-4.537308E-4],"categories":[],"categories_nodes":[],"categories_segments":[],"categories_sizes":[],"default_left":[0,0,0,0,0,0,0,0,0,0,0,0,0,0,0],"id":77,"left_children":[1,3,5,7,9,11,13,-1,-1,-1,-1,-1,-1,-1,-1],"loss_changes":[6.085399E-4,2.2924528E-3,1.6671799E-3,1.0130515E-3,1.7837028E-3,1.4491843E-3,8.4274216E-5,0E0,0E0,0E0,0E0,0E0,0E0,0E0,0E0],"parents":[2147483647,0,0,1,1,2,2,3,3,4,4,5,5,6,6],"right_children":[2,4,6,8,10,12,14,-1,-1,-1,-1,-1,-1,-1,-1],"split_conditions":[6.1702323E-3,-9.414279E-4,3.6112168E0,1.4123107E-2,-4.260939E-2,-5.3763486E-2,7.4904274E1,-5.3803436E-4,-2.0831487E-5,9.812171E-4,1.889983E-4,-5.746632E-4,-7.2306043E-6,-1.1737046E-3,-4.537308E-4],"split_indices":[0,0,5,4,1,1,2,0,0,0,0,0,0,0,0],"split_type":[0,0,0,0,0,0,0,0,0,0,0,0,0,0,0],"sum_hessian":[4.66E2,2.69E2,1.97E2,1.89E2,8E1,1.92E2,5E0,9E0,1.8E2,7E0,7.3E1,1.1E1,1.81E2,2E0,3E0],"tree_param":{"num_deleted":"0","num_feature":"8","num_nodes":"15","size_leaf_vector":"1"}},{"base_weights":[-3.8541086E-5,-4.952948E-4,2.9530807E-3,4.7620485E-4,-4.2816876E-3,5.0748806E-3,-8.587767E-3,-1.2400739E-4,6.7295085E-5,-2.4995904E-3,-1.5572955E-4,3.1292182E-4,-5.494144E-4,-1.5174698E-4,-1.026636E-3],"categories":[],"categories_nodes":[],"categories_segments":[],"categories_sizes":[],"default_left":[0,0,0,0,0,0,0,0,0,0,0,0,0,0,0],"id":78,"left_children":[1,3,5,7,9,11,13,-1,-1,-1,-1,-1,-1,-1,-1],"loss_changes":[6.395875E-4,1.4955015E-3,1.5617991E-3,8.363842E-4,4.272191E-3,1.0763872E-3,6.009671E-4,0E0,0E0,0E0,0E0,0E0,0E0,0E0,0E0],"parents":[2147483647,0,0,1,1,2,2,3,3,4,4,5,5,6,6],"right_children":[2,4,6,8,10,12,14,-1,-1,-1,-1,-1,-1,-1,-1],"split_conditions":[2.2822707E0,1.3403999E0,3.5363722E-1,4.1730404E1,1.3115061E-2,3.680231E-2,1.7227577E-2,-1.2400739E-4,6.7295085E-5,-2.4995904E-3,-1.5572955E-4,3.1292182E-4,-5.494144E-4,-1.5174698E-4,-1.026636E-3],"split_indices":[5,5,6,2,4,4,0,0,0,0,0,0,0,0,0],"split_type":[0,0,0,0,0,0,0,0,0,0,0,0,0,0,0],"sum_hessian":[4.66E2,4.05E2,6.1E1,3.23E2,8.2E1,5.2E1,9E0,7.3E1,2.5E2,1E0,8.1E1,4.9E1,3E0,7E0,2E0],"tree_param":{"num_deleted":"0","num_feature":"8","num_nodes":"15","size_leaf_vector":"1"}},{"base_weights":[-4.545108E-5,-2.165267E-3,5.67844E-4,-4.5338913E-4,-1.8382767E-2,2.1479148E-3,-8.196811E-4,6.416444E-5,-5.358511E-4,-7.934024E-5,-1.2677176E-3,7.098606E-5,8.358184E-4,-1.0213622E-4,1.8276033E-4],"categories":[],"categories_nodes":[],"categories_segments":[],"categories_sizes":[],"default_left":[0,0,0,0,0,0,0,0,0,0,0,0,0,0,0],"id":79,"left_children":[1,3,5,7,9,11,13,-1,-1,-1,-1,-1,-1,-1,-1],"loss_changes":[6.083635E-4,2.9067155E-3,7.975974E-4,1.7249169E-3,1.1307118E-3,1.7797386E-3,1.0692248E-3,0E0,0E0,0E0,0E0,0E0,0E0,0E0,0E0],"parents":[2147483647,0,0,1,1,2,2,3,3,4,4,5,5,6,6],"right_children":[2,4,6,8,10,12,14,-1,-1,-1,-1,-1,-1,-1,-1],"split_conditions":[1.7243719E-2,1.7122727E-2,1.5661069E-3,3.3851448E-1,-8.586654E-3,0E0,9.8441464E-1,6.416444E-5,-5.358511E-4,-7.934024E-5,-1.2677176E-3,7.098606E-5,8.358184E-4,-1.0213622E-4,1.8276033E-4],"split_indices":[4,4,1,6,0,1,7,0,0,0,0,0,0,0,0],"split_type":[0,0,0,0,0,0,0,0,0,0,0,0,0,0,0],"sum_hessian":[4.66E2,1.04E2,3.62E2,9.5E1,9E0,1.69E2,1.93E2,8.2E1,1.3E1,3E0,6E0,1.62E2,7E0,1.52E2,4.1E1],"tree_param":{"num_deleted":"0","num_feature":"8","num_nodes":"15","size_leaf_vector":"1"}},{"base_weights":[-4.4958593E-5,5.8133897E-5,-5.9962244E-4,-1.21523626E-4,1.1804564E-2,1.1869899E-5,-2.5365187E-4,9.3802245E-4,2.6350605E-4],"categories":[],"categories_nodes":[],"categories_segments":[],"categories_sizes":[],"default_left":[0,0,0,0,0,0,0,0,0],"id":80,"left_children":[1,3,-1,5,7,-1,-1,-1,-1],"loss_changes":[5.758994E-4,9.806298E-4,0E0,8.151643E-4,2.1929998E-4,0E0,0E0,0E0,0E0],"parents":[2147483647,0,0,1,1,3,3,4,4],"right_children":[2,4,-1,6,8,-1,-1,-1,-1],"split_conditions":[8.510629E-1,4.2242464E-2,-5.9962244E-4,3.607783E-2,1.0580365E-2,1.1869899E-5,-2.5365187E-4,9.3802245E-4,2.6350605E-4],"split_indices":[6,4,0,4,0,0,0,0,0],"split_type":[0,0,0,0,0,0,0,0,0],"sum_hessian":[4.66E2,4.63E2,3E0,4.57E2,6E0,4.27E2,3E1,2E0,4E0],"tree_param":{"num_deleted":"0","num_feature":"8","num_nodes":"9","size_leaf_vector":"1"}},{"base_weights":[-4.193952E-5,9.0458937E-4,-1.3324489E-3,-8.9303014E-4,5.11006E-3,-8.372787E-4,-1.7038347E-2,-2.3752369E-5,-6.815997E-4,1.146987E-3,1.9429623E-4,-1.4318807E-4,1.2665776E-4,-1.1224485E-3,-4.360397E-4],"categories":[],"categories_nodes":[],"categories_segments":[],"categories_sizes":[],"default_left":[0,0,0,0,0,0,0,0,0,0,0,0,0,0,0],"id":81,"left_children":[1,3,5,7,9,11,13,-1,-1,-1,-1,-1,-1,-1,-1],"loss_changes":[5.716479E-4,2.0457194E-3,1.5255985E-3,1.0052109E-3,1.6787592E-3,1.3254684E-3,7.424608E-5,0E0,0E0,0E0,0E0,0E0,0E0,0E0,0E0],"parents":[2147483647,0,0,1,1,2,2,3,3,4,4,5,5,6,6],"right_children":[2,4,6,8,10,12,14,-1,-1,-1,-1,-1,-1,-1,-1],"split_conditions":[6.1702323E-3,-9.414279E-4,3.6112168E0,-1.1921611E-3,1.6773687E-1,2.2049995E-2,7.4904274E1,-2.3752369E-5,-6.815997E-4,1.146987E-3,1.9429623E-4,-1.4318807E-4,1.2665776E-4,-1.1224485E-3,-4.360397E-4],"split_indices":[0,0,5,0,7,0,2,0,0,0,0,0,0,0,0],"split_type":[0,0,0,0,0,0,0,0,0,0,0,0,0,0,0],"sum_hessian":[4.66E2,2.69E2,1.97E2,1.89E2,8E1,1.92E2,5E0,1.84E2,5E0,4E0,7.6E1,1.2E2,7.2E1,2E0,3E0],"tree_param":{"num_deleted":"0","num_feature":"8","num_nodes":"15","size_leaf_vector":"1"}},{"base_weights":[-4.1853375E-5,-4.8009728E-4,2.8286125E-3,4.2642668E-4,-4.013033E-3,4.8426143E-3,-8.12846E-3,-1.4721249E-4,5.6327182E-5,-2.4234073E-3,-1.4399113E-4,2.983752E-4,-5.214579E-4,-9.7029563E-4,-1.4416785E-4],"categories":[],"categories_nodes":[],"categories_segments":[],"categories_sizes":[],"default_left":[0,0,0,0,0,0,0,0,0,0,0,0,0,0,0],"id":82,"left_children":[1,3,5,7,9,11,13,-1,-1,-1,-1,-1,-1,-1,-1],"loss_changes":[5.8882724E-4,1.3020037E-3,1.4075518E-3,7.6791394E-4,4.0417113E-3,9.7272615E-4,5.355598E-4,0E0,0E0,0E0,0E0,0E0,0E0,0E0,0E0],"parents":[2147483647,0,0,1,1,2,2,3,3,4,4,5,5,6,6],"right_children":[2,4,6,8,10,12,14,-1,-1,-1,-1,-1,-1,-1,-1],"split_conditions":[2.2822707E0,1.3403999E0,3.5363722E-1,3.633387E1,1.3115061E-2,3.680231E-2,6.696823E1,-1.4721249E-4,5.6327182E-5,-2.4234073E-3,-1.4399113E-4,2.983752E-4,-5.214579E-4,-9.7029563E-4,-1.4416785E-4],"split_indices":[5,5,6,2,4,4,2,0,0,0,0,0,0,0,0],"split_type":[0,0,0,0,0,0,0,0,0,0,0,0,0,0,0],"sum_hessian":[4.66E2,4.05E2,6.1E1,3.23E2,8.2E1,5.2E1,9E0,5.5E1,2.68E2,1E0,8.1E1,4.9E1,3E0,2E0,7E0],"tree_param":{"num_deleted":"0","num_feature":"8","num_nodes":"15","size_leaf_vector":"1"}},{"base_weights":[-4.83171E-5,-2.1388296E-3,5.565097E-4,-5.139462E-4,-1.7523827E-2,2.0778675E-3,-7.7950757E-4,5.5476292E-5,-5.051053E-4,-1.3112951E-3,-1.7882862E-4,7.907376E-5,1.1141392E-3,-2.7113548E-4,1.7464488E-5],"categories":[],"categories_nodes":[],"categories_segments":[],"categories_sizes":[],"default_left":[0,0,0,0,0,0,0,0,0,0,0,0,0,0,0],"id":83,"left_children":[1,3,5,7,9,11,13,-1,-1,-1,-1,-1,-1,-1,-1],"loss_changes":[5.916641E-4,2.6158707E-3,7.3943916E-4,1.5055549E-3,1.1199019E-3,1.6697869E-3,1.0186936E-3,0E0,0E0,0E0,0E0,0E0,0E0,0E0,0E0],"parents":[2147483647,0,0,1,1,2,2,3,3,4,4,5,5,6,6],"right_children":[2,4,6,8,10,12,14,-1,-1,-1,-1,-1,-1,-1,-1],"split_conditions":[1.7243719E-2,1.7122727E-2,1.5661069E-3,3.3851448E-1,3.7890285E-2,7.0868834E-4,5.705008E-1,5.5476292E-5,-5.051053E-4,-1.3112951E-3,-1.7882862E-4,7.907376E-5,1.1141392E-3,-2.7113548E-4,1.7464488E-5],"split_indices":[4,4,1,6,1,1,7,0,0,0,0,0,0,0,0],"split_type":[0,0,0,0,0,0,0,0,0,0,0,0,0,0,0],"sum_hessian":[4.66E2,1.04E2,3.62E2,9.5E1,9E0,1.69E2,1.93E2,8.2E1,1.3E1,5E0,4E0,1.66E2,3E0,3.7E1,1.56E2],"tree_param":{"num_deleted":"0","num_feature":"8","num_nodes":"15","size_leaf_vector":"1"}},{"base_weights":[-4.8043003E-5,-2.0503618E-3,5.312725E-4,-4.929325E-4,-1.6796649E-2,-4.0189154E-3,9.682446E-4,5.2735897E-5,-4.8165396E-4,-1.2566579E-3,-1.7167546E-4,1.7859669E-4,-5.463419E-4,3.9747768E-4,1.3691519E-5],"categories":[],"categories_nodes":[],"categories_segments":[],"categories_sizes":[],"default_left":[0,0,0,0,0,0,0,0,0,0,0,0,0,0,0],"id":84,"left_children":[1,3,5,7,9,11,13,-1,-1,-1,-1,-1,-1,-1,-1],"loss_changes":[5.427974E-4,2.403182E-3,7.2564604E-4,1.3681522E-3,1.0277245E-3,1.7170135E-3,1.6073326E-3,0E0,0E0,0E0,0E0,0E0,0E0,0E0,0E0],"parents":[2147483647,0,0,1,1,2,2,3,3,4,4,5,5,6,6],"right_children":[2,4,6,8,10,12,14,-1,-1,-1,-1,-1,-1,-1,-1],"split_conditions":[1.7243719E-2,1.7122727E-2,-6.256043E-1,3.3851448E-1,3.7890285E-2,1.4963555E-1,-3.1540918E-1,5.2735897E-5,-4.8165396E-4,-1.2566579E-3,-1.7167546E-4,1.7859669E-4,-5.463419E-4,3.9747768E-4,1.3691519E-5],"split_indices":[4,4,6,6,1,7,6,0,0,0,0,0,0,0,0],"split_type":[0,0,0,0,0,0,0,0,0,0,0,0,0,0,0],"sum_hessian":[4.66E2,1.04E2,3.62E2,9.5E1,9E0,3.1E1,3.31E2,8.2E1,1.3E1,5E0,4E0,1.5E1,1.6E1,2.9E1,3.02E2],"tree_param":{"num_deleted":"0","num_feature":"8","num_nodes":"15","size_leaf_vector":"1"}},{"base_weights":[-4.9524828E-5,-5.047153E-3,1.8537386E-4,-2.2334405E-3,-1.0592475E-3,-5.5652033E-3,5.537354E-4,7.2834E-5,-8.217781E-4,-7.456178E-5,-8.4960385E-4,6.1858917E-4,-4.882076E-6],"categories":[],"categories_nodes":[],"categories_segments":[],"categories_sizes":[],"default_left":[0,0,0,0,0,0,0,0,0,0,0,0,0],"id":85,"left_children":[1,3,5,7,-1,9,11,-1,-1,-1,-1,-1,-1],"loss_changes":[5.491639E-4,9.062342E-4,9.4995793E-4,1.0196846E-3,0E0,1.2315845E-3,3.2420673E-3,0E0,0E0,0E0,0E0,0E0,0E0],"parents":[2147483647,0,0,1,1,2,2,3,3,5,5,6,6],"right_children":[2,4,6,8,-1,10,12,-1,-1,-1,-1,-1,-1],"split_conditions":[3.415521E-2,4.4121338E1,-6.256043E-1,1.8076519E-2,-1.0592475E-3,2.1876015E-1,-3.488797E-1,7.2834E-5,-8.217781E-4,-7.456178E-5,-8.4960385E-4,6.1858917E-4,-4.882076E-6],"split_indices":[7,2,6,7,0,7,6,0,0,0,0,0,0],"split_type":[0,0,0,0,0,0,0,0,0,0,0,0,0],"sum_hessian":[4.66E2,2E1,4.46E2,1.8E1,2E0,2.6E1,4.2E2,1.5E1,3E0,2E1,6E0,2.1E1,3.99E2],"tree_param":{"num_deleted":"0","num_feature":"8","num_nodes":"13","size_leaf_vector":"1"}},{"base_weights":[-5.158538E-5,4.8184487E-5,-5.805997E-4,-1.4588938E-4,1.1128631E-2,-1.5718817E-4,2.5414516E-5,2.6072524E-4,7.869566E-4],"categories":[],"categories_nodes":[],"categories_segments":[],"categories_sizes":[],"default_left":[0,0,0,0,0,0,0,0,0],"id":86,"left_children":[1,3,-1,5,7,-1,-1,-1,-1],"loss_changes":[5.3918816E-4,9.994208E-4,0E0,8.978427E-4,1.3606495E-4,0E0,0E0,0E0,0E0],"parents":[2147483647,0,0,1,1,3,3,4,4],"right_children":[2,4,-1,6,8,-1,-1,-1,-1],"split_conditions":[8.510629E-1,4.2038362E-2,-5.805997E-4,-2.562074E-1,2.5133885E-2,-1.5718817E-4,2.5414516E-5,2.6072524E-4,7.869566E-4],"split_indices":[6,4,0,6,1,0,0,0,0],"split_type":[0,0,0,0,0,0,0,0,0],"sum_hessian":[4.66E2,4.63E2,3E0,4.56E2,7E0,8.1E1,3.75E2,4E0,3E0],"tree_param":{"num_deleted":"0","num_feature":"8","num_nodes":"9","size_leaf_vector":"1"}},{"base_weights":[-4.828808E-5,8.6796866E-4,-1.2974852E-3,-7.969705E-4,4.762666E-3,-8.1841834E-4,-1.6491221E-2,-1.972264E-5,-6.5375527E-4,9.590026E-4,1.6767705E-4,-5.374509E-4,-7.957837E-6,-1.0768421E-3,-4.292101E-4],"categories":[],"categories_nodes":[],"categories_segments":[],"categories_sizes":[],"default_left":[0,0,0,0,0,0,0,0,0,0,0,0,0,0,0],"id":87,"left_children":[1,3,5,7,9,11,13,-1,-1,-1,-1,-1,-1,-1,-1],"loss_changes":[5.356475E-4,1.7545928E-3,1.4277088E-3,9.3385414E-4,1.5812665E-3,1.2618337E-3,5.4498436E-5,0E0,0E0,0E0,0E0,0E0,0E0,0E0,0E0],"parents":[2147483647,0,0,1,1,2,2,3,3,4,4,5,5,6,6],"right_children":[2,4,6,8,10,12,14,-1,-1,-1,-1,-1,-1,-1,-1],"split_conditions":[6.1702323E-3,-9.414279E-4,3.6112168E0,-1.1921611E-3,1.7275383E-1,-5.3763486E-2,7.4904274E1,-1.972264E-5,-6.5375527E-4,9.590026E-4,1.6767705E-4,-5.374509E-4,-7.957837E-6,-1.0768421E-3,-4.292101E-4],"split_indices":[0,0,5,0,7,1,2,0,0,0,0,0,0,0,0],"split_type":[0,0,